svm_type c_svc
kernel_type linear
nr_class 11
total_sv 351
rho 2687.73 -2.5082 -2.49712 -2.44209 -3.33371 -2.26385 -2.61992 -0.613703 -0.999317 -1.40051 -1390.09 -79.8561 -672.517 -417.546 -491.928 -351.979 -2483.87 -6463.48 -59.6121 3514.92 -44.2903 -233.484 -506.037 66.4229 4.48838 -0.962553 0.275079 -6.10737 -629.125 -1766.39 68.2292 2.91914 -0.962481 0.245324 13.8503 3.90666 2.74394 4.87502 -0.962813 0.26372 303.667 20.0805 2.89032 -0.970136 0.135224 38.3416 3.83739 -0.962536 0.277681 2.58721 -0.963548 0.248827 -1.60165 -208.265 1.01587 
label 4 0 3 13 9 14 8 6 20 11 5 
nr_sv 12 107 59 23 58 22 40 3 9 16 2 
SV 
0 0 0 0 0 0 0 0 6.819569340158984e-10 2.033949608793024e-08 1:89.448006 2:-674.51996 3:-61.31889 4:283.06866 5:-6.0624886 6:0.92614269 7:-2.0757596 
1 0 0 0 0 0 0 0 0 0 1:89.464249 2:-673.60974 3:-27.375696 4:-344.3732 5:20.038364 6:-46.644211 7:-68.089188 
1 0 0 0 0 0 0 2.7701625511805e-05 0 9.925801303001251e-06 1:89.467216 2:-673.46216 3:-21.068295 4:-455.30426 5:56.129845 6:-40.847286 7:-99.946655 
1 0 0 0 0 0 0 0 0 0 1:89.463356 2:-673.57703 3:-29.655176 4:-326.89578 5:-117.78535 6:-107.19865 7:21.670671 
0 0 8.644957239786348e-07 0 0 0 3.096240804459806e-07 0 0 0 1:-422.54788 2:-674.20673 3:-55.519516 4:182.60497 5:-12.199779 6:20.601233 7:-12.679725 
1 6.766984082597762e-06 6.167256645190673e-06 6.248523324728394e-06 1.630799035211946e-05 5.942177250529136e-06 7.65543827833193e-06 0 0 0 1:-422.53577 2:-673.37744 3:-27.887724 4:-351.50128 5:-122.30978 6:-111.54267 7:22.623613 
1 0 0 0 0 0 0 4.960308164703584e-06 0 1.876819894078213e-08 1:89.465492 2:-673.44592 3:-25.253494 4:-411.68903 5:-133.31633 6:-122.22945 7:24.971746 
1 0 0 0 0 0 0 0 0 0 1:89.462807 2:-673.61084 3:-30.791094 4:-305.01364 5:-113.77735 6:-103.31974 7:20.818783 
1 0 0 0 0 0 0 0 0 0 1:89.463051 2:-673.59607 3:-30.29413 4:-314.58707 5:-115.53085 6:-105.01676 7:21.191484 
0 0 0 0 0 0 0 3.312306929831073e-07 0 0 1:89.451775 2:-674.50378 3:-57.613132 4:236.64578 5:123.03591 6:108.74244 7:-99.721611 
0.5510715803239986 0 0 0 0 0 0 0 0 0 1:89.462433 2:-673.63409 3:-31.572037 4:-289.96967 5:-111.02185 6:-100.65298 7:20.233109 
1 0 0 0 0 0 0 0 0 0 1:89.462669 2:-673.61932 3:-31.075073 4:-299.54312 5:-112.77535 6:-102.35001 7:20.60581 
-0 0 0 1 0 0 0 0 0 0 1:-942.52142 2:-673.03455 3:-19.662477 4:-485.90085 5:-48.443779 6:167.93834 7:-89.015793 
-0 0 0 1 0 0 0 0 0 0 1:-942.52252 2:-673.02783 3:-24.169432 4:-435.94012 5:-235.08597 6:108.25362 7:29.661367 
-1 0 0 0 0 0 0.01576892937790537 0 0 0.0215639991117031 1:-426.54834 2:-670.22614 3:-56.423981 4:198.2926 5:-21.57053 6:-14.084814 7:1.2072873 
-0 0 0 0 1 0 0 0 0 0 1:-942.52094 2:-673.03107 3:-19.471727 4:-488.9505 5:-44.767395 6:180.31711 7:-93.900703 
-0 0 0 1 0 0 0 1 0 0 1:-942.52045 2:-673.02795 3:-19.280931 4:-491.91107 5:-40.693108 6:191.78381 7:-98.8078 
-0 0 0 1 0 0 0 0 0 0 1:-942.5213 2:-673.03351 3:-19.56702 4:-487.24997 5:-45.808495 6:172.30241 7:-91.498085 
-0 0 0 1 0 0 0 0 0 0 1:-942.52094 2:-673.02795 3:-20.42754 4:-478.79861 5:-86.259033 6:171.35612 7:-68.324951 
-0 0 0 0.8243684585613629 0 0 0 0 0 0 1:-908.49335 2:-586.05273 3:-19.753107 4:-482.08932 5:-41.535065 6:185.88406 7:-106.10621 
-0 0 0 1 0 0 0 0 0 0 1:-942.52246 2:-673.02747 3:-24.169462 4:-436.02728 5:-235.48485 6:109.16647 7:29.679802 
-0 0 0 0 1 0 0 0 0 0 1:-911.53223 2:-673.13684 3:-20.333567 4:-454.31082 5:30.839323 6:-51.816391 7:-91.976639 
-0.7126893920210924 0 0 0 0 0 0 0 0 0 1:-837.53381 2:-673.15161 3:-23.89431 4:-417.59177 5:-117.39868 6:-115.60809 7:14.295948 
-0 0 0 1 0 0 0 0 0 0 1:-942.52264 2:-673.02887 3:-24.169327 4:-435.67691 5:-233.89047 6:105.51556 7:29.602545 
-1 0 0 0 0 0 0 0 0 0 1:-837.53387 2:-673.15155 3:-24.066309 4:-415.63794 5:-124.29347 6:-118.53532 7:18.871187 
-0 0 0 1 0 0 0 0 0 0 1:-942.52252 2:-673.02783 3:-24.169432 4:-435.94012 5:-235.08597 6:108.25362 7:29.661367 
-0 0 0 0 0 0 0 0 0.5829259853812697 0 1:-732.22369 2:310.81451 3:-24.486433 4:-411.62173 5:-133.45894 6:-122.47649 7:25.200939 
-0 0 0 1 0 0 0 0 0 0 1:-942.52252 2:-673.02783 3:-24.169432 4:-435.94012 5:-235.08597 6:108.25363 7:29.661367 
-0 0 0 0.7726582434331916 0 0 0 0 0 0 1:-909.52185 2:-673.05023 3:-19.422026 4:-487.54736 5:-31.630646 6:162.15289 7:-98.099503 
-0 0 0 1 0 0 0 0 0 0 1:-838.52106 2:-673.06555 3:-19.62446 4:-487.78522 5:-44.962944 6:178.12608 7:-94.144005 
-0 0 0 1 0 0 0 0 0 0 1:-942.52258 2:-673.02856 3:-24.169365 4:-435.76465 5:-234.28905 6:106.42799 7:29.622219 
-0 0 0 1 0 0 0 0 0 0 1:-942.52264 2:-673.02887 3:-24.169327 4:-435.67688 5:-233.89046 6:105.51551 7:29.602554 
-0 0 0.001589291664050678 0 0 0 0.7602733360945985 0 0 0 1:-912.53198 2:-673.12811 3:-19.412758 4:-468.0578 5:58.028919 6:-41.113976 7:-101.38713 
-0 0 0 0.129645492644521 0 0 0 0 0 0 1:-942.52246 2:-673.0285 3:-24.203892 4:-435.28381 5:-235.69215 6:109.16154 7:29.045265 
-0 0 0 0 0 0 0 1 0 0 1:-942.52051 2:-673.02826 3:-19.300013 4:-491.60681 5:-41.060421 6:190.54558 7:-98.317955 
-0.2366190427129178 0 0 0 0 0 0 0 0 0 1:-795.53204 2:-673.16852 3:-19.557146 4:-467.0498 5:62.614105 6:-39.076412 7:-101.74067 
-0 0 0 0 0.7924047820565516 0 0 0 0 0 1:-942.53363 2:-673.11615 3:-23.38065 4:-422.91626 5:-104.19624 6:-109.95182 7:5.4418626 
-0 0 0 0 0 0 0 0 0 0.166714088334442 1:-868.52081 2:-673.05573 3:-19.611601 4:-487.79718 5:-45.341522 6:183.255 7:-94.151039 
-0 0 0 1 0 0 0 0 0 0 1:-942.52252 2:-673.02783 3:-24.169432 4:-435.94012 5:-235.08597 6:108.25363 7:29.661367 
-0 0 0 0 0 0 0 0 1 0 1:87439.43 2:-700.95551 3:-106.76438 4:-448.05994 5:-95.09623 6:115.00668 7:-46.9356 
-0.02851803703869976 0 0 0 0 0 0 0.5765115657960304 1 0.01494698807986603 1:174394.38 2:-728.43066 3:-188.95634 4:-450.32458 5:-14.478048 6:-75.527245 7:-49.843452 
-0 0 0 1 0 0 0 0 0 0 1:-942.52075 2:-673.0285 3:-19.777744 4:-486.09195 5:-59.813835 6:181.50171 7:-85.628471 
-0 1 0.002000408605088464 0 0 0.183651350816157 0 0 0 0 1:-941.52472 2:-673.10547 3:-21.022167 4:-456.03162 5:6.0482874 6:142.85947 7:-75.308662 
-0.05456236219268264 0 0 0 0 0 0 0 0 0 1:-796.53192 2:-673.1637 3:-19.409946 4:-469.54572 5:60.779694 6:-40.066933 7:-104.06731 
-0 0 0 1 0 0 0 0 0 0 1:-733.52112 2:-673.09528 3:-20.472403 4:-480.22583 5:-78.560387 6:171.17238 7:-72.706215 
-0 0 0 1 0 0 0 0 0 0 1:-942.52252 2:-673.02783 3:-24.169432 4:-435.94012 5:-235.08597 6:108.25364 7:29.661366 
-0 0 0 1 0 0 0 0 0 0 1:-942.52081 2:-673.02881 3:-19.892374 4:-484.70166 5:-64.011826 6:178.63759 7:-82.598007 
-0 0 0 1 0 0 0 0 0 0 1:-942.52264 2:-673.02887 3:-24.169327 4:-435.67688 5:-233.89047 6:105.51553 7:29.602549 
-0 0 0 1 0 0 0 0 0 0 1:-942.52246 2:-673.02747 3:-24.16946 4:-436.02731 5:-235.48474 6:109.16662 7:29.679873 
-0 0 0 0 1 0 0.134241034722603 0 0 0 1:-912.5321 2:-673.13068 3:-19.915812 4:-461.15997 5:40.510757 6:-48.208107 7:-93.760864 
-0.6725198485342735 0 0 0 0 0 0 0 0 0 1:-837.53381 2:-673.14948 3:-23.823317 4:-418.95941 5:-117.64917 6:-115.85053 7:14.349219 
-0 0 0 1 0 0 0 1 0 0 1:-942.52045 2:-673.02795 3:-19.280931 4:-491.91107 5:-40.693108 6:191.78381 7:-98.8078 
-0 0 0 0 0 0 0 0.04328737625733351 1 0 1:160823.53 2:53599.852 3:-179.47307 4:-401.7735 5:-5.9001365 6:100.82436 7:-80.272369 
-0 0 0 0.9636009633849889 0 0 0 0 0 0 1:-942.52051 2:-673.02863 3:-19.31909 4:-491.30206 5:-41.427952 6:189.30757 7:-97.82901 
-0 0 0 0 1 0 0 0 0 0 1:-912.53192 2:-673.12695 3:-19.433533 4:-468.0303 5:55.270939 6:-42.337627 7:-100.44429 
-1 0 0 0 0 0 0 0 0 0 1:-829.53326 2:-673.21973 3:-22.208244 4:-419.79547 5:45.253941 6:-42.386005 7:-89.375473 
-0 0 0 1 0 0 0 0 0 0 1:-942.52075 2:-673.02966 3:-20.095108 4:-481.95773 5:-70.985435 6:179.08949 7:-80.251335 
-1 0 0 0 0 0 0 0 0 0 1:-837.53387 2:-673.15155 3:-23.951643 4:-416.94049 5:-119.69695 6:-116.58383 7:15.821028 
-0 0 0 1 0 0 0 0 0 0 1:-942.52252 2:-673.02783 3:-24.169432 4:-435.94012 5:-235.08598 6:108.25366 7:29.66136 
-0 0 0.003433911041679238 0 0 0 0 0 0 0 1:-933.52063 2:-637.12024 3:-19.455267 4:-467.55551 5:53.648476 6:-42.984852 7:-99.366394 
-0 0 0 0 0 0 0 0.1954346786398897 0 0 1:-761.52057 2:-673.08679 3:-19.488913 4:-491.15186 5:-39.5308 6:191.07207 7:-98.475952 
-0 0 0 1 0 0 0 0 0 0 1:-942.52252 2:-673.02783 3:-24.169432 4:-435.94009 5:-235.08603 6:108.2535 7:29.661325 
-0 0.8726607515062115 0 0 0 0 0 0 0 0 1:-942.53021 2:-673.12518 3:-24.030891 4:-412.75662 5:-107.478 6:-19.108135 7:-10.642619 
-0 0 0 0.2102515901549207 0 0 0 0 0 0 1:-698.46393 2:-485.16238 3:-26.313095 4:-393.96368 5:-242.9071 6:99.712227 7:-5.4496026 
-0 0 0 0 0.008752889813728997 0 0 0 0 0 1:-899.52063 2:-630.21051 3:-26.977106 4:-353.72549 5:-149.65131 6:-122.51094 7:-26.136971 
-0 0 0 0 0.3061996494868583 0 0 0 0 0 1:-930.52728 2:-673.08289 3:-20.01145 4:-470.87006 5:-11.659989 6:47.052929 7:-82.626923 
-0 0.9036178140604918 0 0 0 0 0 0 0 0 1:-942.52057 2:-673.03137 3:-19.558323 4:-487.75903 5:-47.146282 6:188.1813 7:-94.939102 
-0 0 0 1 0 0 0 0 0 0 1:-942.52081 2:-673.02881 3:-19.854153 4:-485.13583 5:-62.479679 6:179.2881 7:-83.614723 
-0 0 0 0 0 0 0 0 1 0 1:-609.61505 2:24434.75 3:-26.697151 4:-377.62265 5:-122.65106 6:-123.81276 7:25.75256 
-0 1 0 0 0.9219206677813512 0.9673812169731565 0 0 0 0 1:-942.52734 2:-673.08191 3:-19.293818 4:-478.2265 5:19.633606 6:51.804523 7:-101.44435 
-0 0 0 1 0 0 0 0 0 0 1:-942.52252 2:-673.02783 3:-24.169432 4:-435.94012 5:-235.08597 6:108.25362 7:29.661367 
-0 0 0 1 0 0 0 0 0 0 1:-942.52264 2:-673.02887 3:-24.169331 4:-435.67682 5:-233.89066 6:105.51523 7:29.602425 
-0 0 0 0 0 1.650104722977617e-05 0 0 0 0 1:-764.88385 2:-567.68097 3:32997.699 4:1272.7916 5:-107.18127 6:48.987659 7:198.56943 
-0 0 0 1 0 0 0 1 0 0 1:-942.52045 2:-673.02795 3:-19.280931 4:-491.91107 5:-40.693108 6:191.78381 7:-98.8078 
-0 0 0 0 0.4878720999903068 0 0 0 0 0 1:-908.52985 2:-673.11212 3:-19.626951 4:-469.78 5:29.668955 6:-1.1343861 7:-95.986359 
-0 0.31285680897887 0 0 0 0 0 0 0 0 1:-942.52399 2:-673.08392 3:-23.126429 4:-433.38629 5:-116.63873 6:117.90754 7:-36.123962 
-0 0 0 1 0 0 0 0 0 0 1:-942.52246 2:-673.02747 3:-24.169462 4:-436.02728 5:-235.48483 6:109.16642 7:29.679804 
-0 0 0 0.1263645557842123 0 0 0 0 0 0 1:-899.48993 2:-546.27466 3:-29.283812 4:-303.70013 5:-155.63782 6:-10.261226 7:-98.821968 
-0 0 0 1 0 0 0 0 0 0 1:-942.52246 2:-673.02747 3:-24.16946 4:-436.02731 5:-235.48474 6:109.16667 7:29.679865 
-0 0 0 1 0 0 0 0 0 0 1:-942.52081 2:-673.03137 3:-19.448898 4:-489.03409 5:-43.473869 6:183.11336 7:-96.020851 
-0 0 0 1 0 0 0 0 0 0 1:-942.52264 2:-673.02887 3:-24.169327 4:-435.67688 5:-233.89046 6:105.51553 7:29.602551 
-0 0 0 1 0 0 0 0 0 0 1:-911.52063 2:-673.039 3:-19.746033 4:-486.49265 5:-56.608078 6:184.00275 7:-88.861977 
-0 0 0 0 0 0 0 0.06223632721031081 0 0 1:-796.38715 2:-250.09518 3:-20.181736 4:-475.6579 5:-44.943913 6:191.62254 7:-112.16071 
-0 0 0 0 1 0 0 0 0 0 1:-942.53131 2:-673.10089 3:-22.656015 4:-435.03247 5:-92.616409 6:-57.436932 7:-13.000978 
-0 0 0 0 0 0 0 0 0 1 1:-878.52234 2:-673.06311 3:-19.339361 4:-488.1756 5:-23.727314 6:153.41206 7:-99.83844 
-0 0 0 0 1 0 0 0 0 0 1:-912.53192 2:-673.12695 3:-19.3762 4:-468.68149 5:57.569157 6:-41.361832 7:-101.96956 
-0 0 0 0 0 0 0 0 1 0 1:87439.422 2:-701.00464 3:-106.01932 4:-444.28336 5:-10.759558 6:-6.1829486 7:-67.556763 
-0 0 0 1 0 0 0 0 0 0.002393527764678462 1:-942.521 2:-673.02832 3:-20.446617 4:-478.49384 5:-86.626694 6:170.11794 7:-67.836098 
-0 0 0 0 1 0 0 0 0 0 1:-913.52686 2:-673.10376 3:-20.722765 4:-457.31433 5:-19.645906 6:58.415527 7:-92.467957 
-0 0 0 0 0 0 0 0 1 0 1:-709.42963 2:-342.18982 3:-24.378643 4:-413.9473 5:-134.00798 6:-122.69032 7:25.240969 
-0 0 0 0 0 0 0 0 1 0 1:-632.41046 2:-281.21631 3:-24.528751 4:-412.49203 5:-133.7272 6:-122.45361 7:25.1898 
-0 0 0 0 0.06425157607203272 0 0 0 0 0 1:-908.53046 2:-673.12299 3:-20.022593 4:-461.99121 5:27.136684 6:-13.558466 7:-95.364395 
-1 0 0 0 0 0 0 0 0 0 1:-837.53387 2:-673.15155 3:-23.951643 4:-416.94049 5:-119.69695 6:-116.58383 7:15.821028 
-0 0 0 1 0 0 0 0 0 0 1:-942.52209 2:-673.02832 3:-22.835373 4:-451.18228 5:-181.58934 6:127.63698 7:-4.3308797 
-0 0 0 0 0 0 0.3414060626020828 0 0 0 1:-942.53339 2:-673.11633 3:-22.864655 4:-428.77771 5:-83.511848 6:-101.17018 7:-8.2839079 
-0 0 0 1 0 0 0 0 0 0 1:-942.52191 2:-673.02692 3:-22.739954 4:-452.61816 5:-179.3532 6:132.91428 7:-6.7953267 
-0 0 0 0.0001045749417857387 0 0 0 0.01808434313290887 0 0 1:-788.18512 2:-567.93945 3:9696.5098 4:22.511274 5:-80.498932 6:196.9767 7:-10.551098 
-0 0 0 0 0 0 0 0 1 0 1:-773.43341 2:-354.16962 3:-24.31637 4:-413.96341 5:-134.01541 6:-122.6873 7:25.240042 
-0 0 0 1 0 0 0 0 0 0 1:-942.52057 2:-673.02783 3:-19.663143 4:-487.56934 5:-56.014702 6:185.27901 7:-88.640701 
-0 0 0 1 0 0 0 0 0 0 1:-942.52209 2:-673.0285 3:-23.04187 4:-448.66068 5:-189.48885 6:126.53044 7:-0.35107362 
-1 0 0 0 0 0 0 0 0 0 1:-840.53387 2:-673.15021 3:-24.062864 4:-415.54004 5:-125.31387 6:-118.77953 7:17.823458 
-0.0001785386684011422 0 0 0 0 0 0 0 0 0 1:-906.52545 2:-673.08295 3:-23.31287 4:-434.83069 5:-144.86798 6:69.814407 7:-12.558906 
-0 0 0 0 1 0 0 0 0 0 1:-942.52313 2:-673.04657 3:-20.288197 4:-475.61548 5:-59.650078 6:128.64691 7:-74.527611 
-0 0 0 0 1 0 0 0 0 0 1:-912.53192 2:-673.12695 3:-19.3762 4:-468.68143 5:57.56913 6:-41.361801 7:-101.96967 
-0 0 0 0 0 0 0 0 0 0.7856984700290873 1:-797.53192 2:-673.16333 3:-19.408987 4:-469.54572 5:60.779694 6:-40.066895 7:-104.06733 
-0 0 0 1 0 0 0 0 0 0 1:-942.52051 2:-673.02863 3:-19.31909 4:-491.30206 5:-41.427952 6:189.30757 7:-97.82901 
-0 0 0 1 0 0 0 0 0 0 1:-942.52246 2:-673.02747 3:-24.169462 4:-436.02731 5:-235.48479 6:109.16657 7:29.679836 
-0.1261434921982465 0 0 0 0 0 0 0 0.2035457886424932 0.008682926680108644 1:14933.458 2:-678.16119 3:-38.370216 4:-415.83176 5:-43.166611 6:-82.739929 7:-32.661957 
-0.5016700658545911 0 0 0 0 0 0 0 0 0 1:-837.53381 2:-673.14948 3:-23.823317 4:-418.95941 5:-117.64917 6:-115.85053 7:14.349219 
-0 0 0 0 0 0 0 0.1367571676822372 1 0 1:59984.602 2:-200.25864 3:-82.088966 4:-438.62463 5:-207.12918 6:84.328491 7:21.154459 
-0 0 0 0 0 0 0 1 1 0 1:58333.445 2:-691.75586 3:-77.668556 4:-466.53656 5:-75.079933 6:89.643967 7:-55.883305 
-0.2181708011033707 0 0 0 0 0 0 0 0 0 1:-837.53381 2:-673.15161 3:-23.89431 4:-417.59177 5:-117.39868 6:-115.60809 7:14.295948 
-0 0 0 0 0 0 0 0 0.7940100972093707 0 1:-622.78406 2:23898.754 3:-26.6709 4:-377.66479 5:-123.10492 6:-123.79276 7:25.106577 
-0 0 0 1 0 0 0 1 0 0 1:-942.51923 2:-669.02899 3:-19.295784 4:-491.5134 5:-40.085785 6:190.49182 7:-98.861343 
-0 0 0 1 0 0 0 0 0 0 1:-942.5213 2:-673.0285 3:-21.019899 4:-471.89346 5:-109.2104 6:159.44801 7:-52.604973 
-0 0.00750686081079513 0.0003485930905462411 0 0 0 0.009310353414398207 0 0 0 1:-899.5304 2:-630.74384 3:-44.77676 4:-17.336824 5:-60.204819 6:-51.794296 7:9.8260775 
-0 0 0 0 1 0 0 0 0 0 1:-912.53192 2:-673.12695 3:-19.395309 4:-468.46445 5:56.803101 6:-41.687099 7:-101.46112 
-0 0 0 0.004583431046699906 0 0 0 0 0.6019533069913537 0 1:41815.578 2:-296.53693 3:-61.463657 4:-449.85144 5:-146.6532 6:84.011192 7:-14.214175 
-0 0 0 1 0 0 0 0 0 0 1:-942.52057 2:-673.02783 3:-19.644033 4:-487.78641 5:-55.248615 6:185.60422 7:-89.149048 
-0 -0 0 0 0 0 0 0 6.570764207842544e-10 6.885953745958876e-08 1:-942.53577 2:-673.25769 3:-23.803984 4:-392.18143 5:117.75062 6:-9.3369331 7:-31.956581 
-5.439719302778415e-06 -1 0.002115038217382625 0 0 0 9.297547483646781e-06 0 0 0 1:-942.52887 2:-673.10876 3:-22.814251 4:-430.74258 5:-81.633438 6:9.5824795 7:-34.137917 
-0 -0 1 0 0 0 0 0 0 0 1:-942.53204 2:-673.1261 3:-19.630404 4:-463.23212 5:58.902313 6:-40.359932 7:-102.22733 
-0 -0 0.08887506023438337 0 0 0 0 0 0 0 1:-942.53613 2:-673.26776 3:-24.400618 4:-383.52509 5:111.14668 6:-11.662825 7:-19.607218 
-0 -0 1 0 0 0 0 0 0 0 1:-942.53235 2:-673.13641 3:-19.99984 4:-457.30084 5:62.159157 6:-38.529858 7:-94.761101 
-0 -0 0.009277870286359667 0 0 0 0 0 0 0 1:-942.54083 2:-673.43597 3:-29.848728 4:-290.53192 5:179.37775 6:25.216175 7:67.016663 
-0 -1 0 0 0 0 0 0 0 0 1:-942.52496 2:-673.06964 3:-20.0627 4:-473.05478 5:-19.59082 6:103.81763 7:-84.434433 
-0 -0 0 0 1 1 0 0 0 0 1:-942.53192 2:-673.11981 3:-19.360037 4:-467.98041 5:60.423004 6:-40.115574 7:-103.60276 
-0 -0 0.1506685920746797 0 0 0 0 0 0 0 1:-942.53918 2:-673.38074 3:-27.789516 4:-324.15286 5:167.66463 6:17.641661 7:31.412573 
-0 -0 0.3210165837072813 0 0 0 0 0 0 0 1:-942.5351 2:-673.23761 3:-23.284246 4:-400.77237 5:101.37701 6:-17.011652 7:-46.085648 
-0 -0 1 0 0 0 0 0 0 0 1:-942.53906 2:-673.37817 3:-27.75034 4:-324.72809 5:163.88586 6:15.990968 7:28.834576 
-0 -0 0.2013614223510892 0 0 0 0 0 0 0 1:-942.53241 2:-673.13635 3:-20.114506 4:-455.99829 5:57.562607 6:-40.481354 7:-91.710953 
-0 -0 0 0 0 0 0 0 0 1.131686947088336e-08 1:-942.54047 2:-673.44147 3:-30.281136 4:-280.50238 5:159.4115 6:17.881617 7:47.56757 
-0 -0 1 0 0 0 0 0 0 0 1:-942.53204 2:-673.12628 3:-19.613424 4:-463.56888 5:60.3349 6:-39.781883 7:-101.51906 
-0 -0 1 0 0 0 0 0 0 0 1:-942.53839 2:-673.35345 3:-26.928944 4:-338.79514 5:155.2429 6:11.123581 7:16.752098 
-0 -0 0 0 0 1 0 0 0 0 1:-942.53204 2:-673.12469 3:-19.506763 4:-465.58621 5:63.338871 6:-38.877052 7:-100.23519 
-0 -0 0 0 0 0.002152236654074623 0 0 0 0 1:-942.53882 2:-673.36945 3:-27.42387 4:-330.39401 5:163.08536 6:15.166561 7:25.598883 
-0 -0 0 0 0 0.01557269311701807 0 0 0 0 1:-942.53986 2:-673.40668 3:-28.630447 4:-309.79233 5:178.17088 6:23.330313 7:44.773941 
-0 -0 0 0 0 1 0 0 0 0 1:-942.53198 2:-673.12109 3:-19.379356 4:-467.69498 5:62.411968 6:-39.287235 7:-102.33599 
-0 -0 0.3222278321686798 0 0 0 0 0 0 0 1:-942.54144 2:-673.47284 3:-31.166515 4:-265.67026 5:180.36429 6:28.031425 7:67.510254 
-0 -0 0 0 0 1 0 0 0 0 1:-942.53522 2:-673.23737 3:-23.145821 4:-403.4155 5:109.50794 6:-13.792111 7:-42.421219 
-0 -0 0 0 0.06835766722803638 1 0 0 0 0 1:-942.53192 2:-673.11884 3:-19.30654 4:-468.94733 5:61.424438 6:-39.780804 7:-103.46539 
-0 -0 0 0 0 1 0 0 0 0 1:-942.53223 2:-673.13013 3:-19.67219 4:-462.70639 5:66.004776 6:-37.305576 7:-97.651268 
-0 -0 1 0 0 0 0 0 0 0 1:-942.54065 2:-673.43573 3:-29.653351 4:-292.46405 5:185.70792 6:27.96348 7:59.501076 
-0 -0 0 0 0 1 0 0 0 0 1:-942.53992 2:-673.40784 3:-28.667011 4:-309.16821 5:178.6288 6:23.577822 7:45.355312 
-0 -0 0 0 0 1 0 0 0 0 1:-942.53961 2:-673.39764 3:-28.33798 4:-314.79114 5:174.53354 6:21.354317 7:40.133083 
-0 -0.756381323567199 0 0 0 0 0 0 0 0 1:-942.52856 2:-673.09747 3:-20.531796 4:-460.43164 5:-7.4046683 6:25.806953 7:-76.123901 
-0 -0 0 0 0 1 0 0 0 0 1:-942.53284 2:-673.15155 3:-20.366917 4:-450.84824 5:74.705505 6:-32.602875 7:-86.605209 
-0 -0 0 0 0 0.1300434483945073 0 0 0 0 1:-942.53198 2:-673.12091 3:-19.415758 4:-467.14536 5:60.142136 6:-40.188988 7:-102.50227 
-0 -0 0 0 0 0 0.001549793796454679 0 0 0 1:-942.53271 2:-673.13324 3:-21.051859 4:-445.52747 5:14.287005 6:-58.7104 7:-68.16066 
-0 -0 0 0 0 1 0 0 0 0 1:-942.54047 2:-673.427 3:-29.28866 4:-298.56415 5:186.43961 6:27.789576 7:55.248661 
-1.327264779819349e-06 -0 0 0 0 0 0 0 0 0 1:-942.53491 2:-673.22528 3:-24.035702 4:-392.24362 5:44.20776 6:-41.388168 7:-37.657913 
-0 -0 0.790671824348664 0 0 0 0 0 0 0 1:-942.54047 2:-673.42896 3:-29.414854 4:-296.42581 5:183.72643 6:26.803665 7:55.504513 
-0 -0 0 0 0 1 0 0 0 0 1:-942.53961 2:-673.39819 3:-28.334349 4:-314.73581 5:175.32285 6:21.332115 7:39.735329 
-0 -0 0 0 0 1 0 0 0 0 1:-942.53192 2:-673.11993 3:-19.343105 4:-468.3233 5:61.882797 6:-39.533245 7:-102.88386 
-0 -0 0 0 1 1 0 0 0 6.357884527559603e-07 1:-942.53186 2:-673.11823 3:-19.266554 4:-469.52377 5:61.744617 6:-40.045994 7:-104.41862 
-0 -1 0 0.0181871612184154 0.04688288353646271 0 0 1.788390133623727e-05 0 1.75746349259767e-08 1:-942.52148 2:-673.05585 3:-20.30913 4:-472.89877 5:-42.513744 6:178.3576 7:-93.115204 
-0 -0 0 0 0 0.9111530719016397 0 0 0 0 1:-942.53687 2:-673.29828 3:-25.120306 4:-369.71326 5:134.23598 6:-0.4265717 7:-11.027329 
-0 -0 0 0 0 0.05168495979549823 0 0 0 0 1:-942.53308 2:-673.16058 3:-20.659435 4:-445.85532 5:78.368904 6:-30.622797 7:-81.954269 
-0 -0 0 0 0 0.00100706618447912 0 0 0 0 1:-942.52942 2:-673.17651 3:-22.491766 4:-424.75613 5:55.44519 6:86.704674 7:-50.599689 
-0 -0 1 0 0 0 0 0 0 0 1:-942.54047 2:-673.42896 3:-29.395742 4:-296.64291 5:184.49254 6:27.128916 7:54.996147 
-0 -0 0 0 0 1 0 0 0 0 1:-942.53198 2:-673.12219 3:-19.416235 4:-467.07516 5:62.799026 6:-39.038166 7:-101.72094 
-0 -0 1 0 0 0 0 0 0 0 1:-942.54047 2:-673.42896 3:-29.395742 4:-296.64291 5:184.49254 6:27.128916 7:54.996147 
-0 -0 0 0 0 0.0388493933249048 0 0 0 0 1:-942.53442 2:-673.20911 3:-22.231657 4:-419.01248 5:98.033722 6:-19.983946 7:-56.965504 
-0 -0 0 0 0 0.1066114870668251 0 0 0 0 1:-942.53387 2:-673.18994 3:-21.610062 4:-429.62244 5:90.24894 6:-24.191624 7:-66.848778 
-0 -0 0 0 0 0.03859856191969327 0 0 0 0 1:-942.53979 2:-673.40442 3:-28.557371 4:-311.04645 5:177.28107 6:22.839371 7:43.621304 
-0 -0 0 0 0 0.5538696065101809 0 0 0 0 1:-942.5351 2:-673.23486 3:-23.030313 4:-405.20245 5:109.41981 6:-14.567866 7:-44.799049 
-0 -0 0 0 0 1 0 0 0 0 1:-942.53198 2:-673.12091 3:-19.396646 4:-467.36246 5:60.908211 6:-39.863743 7:-103.01062 
-0 -0 0 0 0 1 0 0 0 0 1:-942.53192 2:-673.11993 3:-19.343103 4:-468.32333 5:61.882893 6:-39.533207 7:-102.88377 
-0 -0 1 0 0 0 0 0 0 0 1:-942.53979 2:-673.40332 3:-28.520803 4:-311.67056 5:176.82317 6:22.591866 7:43.039928 
-0 -0 0 0.002299209462637673 0 0 0 0 0 1.795115182147754e-07 1:-942.53229 2:-673.11743 3:-20.301817 4:-457.84595 5:19.631245 6:-57.592876 7:-76.613167 
-0 -0 0 0 1 0 0 0 0 0 1:-942.53198 2:-673.11761 3:-19.46109 4:-467.40012 5:53.303783 6:-43.281151 7:-98.964195 
-0 -0 0.6270695550538954 0 0 0 0 0 0 0 1:-942.53833 2:-673.3476 3:-27.087984 4:-337.88864 5:138.49829 6:3.7789702 7:21.779766 
-0 -0 0.827868186255332 0 0 0 0 0 0 0 1:-942.53992 2:-673.41687 3:-29.287359 4:-297.8855 5:161.7623 6:17.389433 7:40.564705 
-0 -0 1 0 0 0 0 0 0 0 1:-942.54126 2:-673.4646 3:-30.789116 4:-272.34564 5:183.85811 6:28.940529 7:66.39743 
-0 -0.3402609117891763 0 0 0 0.002566118081933629 0 0 0 0 1:-942.52362 2:-673.14246 3:-22.989027 4:-428.42664 5:4.953239 6:215.28253 7:-41.016468 
-0 -0 0 0 0 1 0 0 0 0 1:-942.53204 2:-673.12317 3:-19.469778 4:-466.11438 5:61.824818 6:-39.368618 7:-101.84754 
-0 -0 0 0 0 0 0.0009636188555160639 0 0 0 1:-942.53253 2:-673.12354 3:-20.710066 4:-451.71979 5:12.927753 6:-59.854973 7:-70.253418 
-0 -0 1 0 0 0 0 0 0 0 1:-942.53979 2:-673.40332 3:-28.520805 4:-311.67056 5:176.82317 6:22.591866 7:43.039932 
-0 -0 -0 0 0 0 0 0 6.570240347591575e-10 0 1:-942.54779 2:-673.69336 3:-37.918083 4:-151.27151 5:294.414 6:86.199615 7:192.47513 
-0 -0 -1 0 0 0.923705310780081 0 0 0 0 1:-942.53986 2:-673.40668 3:-28.630388 4:-309.79251 5:178.17174 6:23.330391 7:44.773911 
-0 -0 -1 0 0 0 0 0 0 0 1:-941.53235 2:-673.14032 3:-20.19162 4:-453.40475 5:57.581646 6:-40.065533 7:-98.259529 
-0 -0 -1 0 0 1 0 0 0 0 1:-942.53644 2:-673.28247 3:-24.608307 4:-378.44504 5:127.79939 6:-3.8959522 7:-19.176683 
-0 -0 -0 0 0 0.007652685348126224 0 0 0 0 1:-941.53253 2:-673.14514 3:-20.303959 4:-451.57996 5:62.276016 6:-37.919651 7:-94.520844 
-0 -0 -1 0 0 0 0 0 0 0 1:-942.54028 2:-673.42133 3:-29.105728 4:-301.67902 5:184.12479 6:26.548019 7:52.331696 
-0 -0 -1 0 0 0 0 0 0 0 1:-941.53278 2:-673.1604 3:-21.134703 4:-437.43219 5:49.568302 6:-42.189671 7:-91.04113 
-0 -0 -0.5771977847360305 0 0 0 0 0 0 0 1:-942.54773 2:-673.6911 3:-37.844959 4:-152.51984 5:293.49869 6:85.704506 7:191.31256 
-0 -0 -1 0 0 1 0 0 0 0 1:-942.53937 2:-673.38861 3:-28.045361 4:-319.77832 5:170.84489 6:19.370186 7:35.472027 
-0 -0 -0.1118267443903136 0 0 0 0 0 0 0 1:-941.53284 2:-673.15179 3:-20.368265 4:-450.82016 5:74.516518 6:-32.635574 7:-86.624893 
-0 -0 -1 0 0 0 0 0 0 0 1:-942.54175 2:-673.47437 3:-30.824572 4:-272.34991 5:205.57652 6:38.182617 7:79.689766 
-0 -0 -0 0 0 1 0 0 0 0 1:-941.53229 2:-673.13263 3:-19.746344 4:-461.42508 5:66.8022 6:-36.844704 7:-96.54332 
-0 -0 -1 0 0 0 0 0 0 0 1:-941.53278 2:-673.15503 3:-20.666992 4:-445.2905 5:63.53516 6:-36.84779 7:-90.702805 
-0 -0.004016186325829693 -0 0.000115670454874063 0.001201567958823314 0 2.060281739117122e-05 1.456193011736142e-05 0 9.194406397970794e-07 1:-936.5213 2:-647.14441 3:-21.072104 4:-446.59726 5:48.921093 6:51.505543 7:-73.883308 
-0 -0 -1 0 0 1 0 0 0 0 1:-942.53857 2:-673.35925 3:-27.094685 4:-336.00525 5:158.93845 6:12.934935 7:20.356365 
-0 -0 -0.02187733901177068 0 0 0 0 0 0 0 1:-942.54779 2:-673.69342 3:-37.917774 4:-151.26729 5:294.48526 6:86.197952 7:192.44153 
-0 -0 -1 0 0 0 0 0 0 0 1:-942.54572 2:-673.61774 3:-35.468262 4:-193.08727 5:263.73312 6:69.616379 7:153.5235 
-0 -0.00335601807553493 -0.4867973606364874 0 0 0 0.002670364131327723 0 0 0 1:-941.53284 2:-673.15924 3:-21.251028 4:-436.31949 5:42.981468 6:-45.039192 7:-87.55574 
-0 -0 -1 0 0 1 0 0 0 0 1:-942.53943 2:-673.39087 3:-28.118488 4:-318.53009 5:171.76076 6:19.865208 7:36.634758 
-0 -0 -0 0 0.8351364945040068 1 0 0 0 0 1:-941.53192 2:-673.12006 3:-19.361101 4:-467.9538 5:60.330997 6:-40.145676 7:-103.64654 
-0 -0 -1 0 0 1 0 0 0 0 1:-942.53845 2:-673.35474 3:-26.948429 4:-338.50171 5:157.10672 6:11.944879 7:18.030893 
-7.031752369169309e-06 -0 -0.1434527359231441 0 0 0 4.04021840766964e-05 0 0 0 1:-941.53656 2:-673.31122 3:-28.239069 4:-319.53729 5:-4.5314698 6:-56.057266 7:-19.829756 
-0 -0 -1 0 0 1 0 0 0 0 1:-942.53485 2:-673.22491 3:-22.743525 4:-410.27487 5:104.44507 6:-16.519102 7:-48.826458 
-0 -0 -0 -0 0 0 0 0 6.572680214057787e-10 0 1:-934.52258 2:-673.05023 3:-24.864952 4:-421.02768 5:-239.11511 6:108.11578 7:16.820438 
-0 -1 -0 -0 0 0 0 1.695154659430618e-05 0 9.356897355970381e-07 1:-924.52045 2:-673.03375 3:-19.373856 4:-491.00159 5:-43.637466 6:190.446 7:-96.921646 
-2.618280177131592e-07 -1 -0.01685922554945398 -0.000115670454874063 1 0.0003555871633034054 4.444046757541702e-05 0 0 0 1:-942.52258 2:-673.04517 3:-19.277229 4:-487.66913 5:-21.13883 6:147.9682 7:-99.963081 
-0 -1 -0 -0 0 0 0 0 0 0 1:-924.52246 2:-673.03235 3:-24.132401 4:-436.94666 5:-234.39084 6:109.45969 7:29.659058 
-0 -1 -0 -0 0 0 0 0 0 0 1:-934.52258 2:-673.04626 3:-24.72723 4:-424.00177 5:-238.2854 6:108.13609 7:19.358883 
-0 -1 -0 -0 0 0 0 0 0 0 1:-934.52252 2:-673.04132 3:-24.555079 4:-427.71936 5:-237.24826 6:108.16148 7:22.53194 
-0 -1 -0 -0 0 0 0 0 0 0 1:-942.4776 2:-540.02863 3:-18.312222 4:-491.35355 5:-40.719082 6:190.54836 7:-98.410461 
-0 -1 -0 -0 0 0 0 0 0 0 1:-934.52252 2:-673.03149 3:-24.210775 4:-435.15454 5:-235.174 6:108.21227 7:28.878054 
-0 -0 -0 -0 1 0 0 0 0 0 1:-934.52264 2:-673.06891 3:-25.519129 4:-406.90085 5:-243.05621 6:108.01931 7:4.7628222 
-0 -1 -0 -0 0 0 0 0 0 0 1:-924.521 2:-673.03333 3:-20.673378 4:-476.23959 5:-95.730759 6:168.32925 7:-62.353424 
-0 -1 -0 -0 0 0 0 0 0 0 1:-924.52246 2:-673.03235 3:-24.132401 4:-436.94666 5:-234.39084 6:109.45969 7:29.659058 
-0 -1 -0 -0 0 0 0 0 0 0 1:-942.5224 2:-673.0437 3:-19.277372 4:-488.02066 5:-22.732576 6:151.6187 7:-99.88356 
-0 -0.03157730995166828 -0 -0 0 0 0 0 0 0 1:-934.52252 2:-673.039 3:-24.486254 4:-429.29425 5:-237.23184 6:109.08427 7:23.821043 
-0 -1 -0 -0 0 0 0 0 0 0 1:-934.52063 2:-673.03088 3:-19.612696 4:-488.09131 5:-53.198288 6:185.3054 7:-90.33297 
-0 -1 -0 -0 0 0 0 0 0 0 1:-924.52063 2:-673.03363 3:-19.756067 4:-486.65982 5:-58.959023 6:183.94107 7:-86.754524 
-0 -1 -0 -0 0 0 0 0 0 0 1:-934.52258 2:-673.04431 3:-24.658369 4:-425.4888 5:-237.87054 6:108.14625 7:20.628105 
-0 -1 -0 -0 0 0 0 0 0 0 1:-924.52246 2:-673.03235 3:-24.132401 4:-436.94666 5:-234.39084 6:109.45969 7:29.659058 
-0 -1 -0 -0 0 0 0 0 0 0 1:-924.52246 2:-673.03235 3:-24.132401 4:-436.94666 5:-234.39084 6:109.45969 7:29.659058 
-0 -1 -0 -0 0 0 0 0 0 0 1:-924.52246 2:-673.03235 3:-24.132401 4:-436.94666 5:-234.39084 6:109.45969 7:29.659058 
-0 -1 -0 -0 0 0 0 6.522214443937912e-08 0 0 1:-924.52197 2:-673.03345 3:-22.699032 4:-453.05249 5:-176.13805 6:132.02766 7:-8.5073671 
-0 -1 -0 -0 0 0 0 0 0 0 1:-924.52081 2:-673.03345 3:-20.252945 4:-481.01553 5:-78.877045 6:175.48468 7:-73.537262 
-0 -0 -0 -0 0.8067828344385954 0 0 0 0 0 1:-934.52264 2:-673.06403 3:-25.346977 4:-410.61844 5:-242.01909 6:108.04469 7:7.9358788 
-0 -0 -0 -0 1 0 0 0 0 0 1:-934.52081 2:-673.07611 3:-21.3876 4:-451.71872 5:-70.401115 6:181.81973 7:-114.44171 
-0 -1 -0 -0 0 0 0 0 0 0 1:-924.52075 2:-673.03351 3:-20.061838 4:-483.18643 5:-71.21627 6:178.73714 7:-78.620827 
-0 -1 -0 -0 0 0 0 0 0 0 1:-924.52075 2:-673.03351 3:-20.061838 4:-483.18643 5:-71.21627 6:178.73714 7:-78.620827 
-0 -1 -0 -0 0 0 0 0 0 0 1:-924.52112 2:-673.03326 3:-20.902704 4:-473.63455 5:-104.92369 6:164.4263 7:-56.253151 
-0 -1 -0 -0 0 0 0 3.011794696818266e-06 0 0 1:-924.52246 2:-673.03235 3:-24.15151 4:-436.72958 5:-235.15692 6:109.13445 7:30.167414 
-0 -1 -0 -0 0 0 0 0 0 0 1:-924.52124 2:-673.03357 3:-21.074665 4:-471.59286 5:-111.41988 6:160.58623 7:-51.697769 
-0 -1 -0 -0 0 0 0 0 0 0 1:-924.52057 2:-673.03369 3:-19.584072 4:-488.61362 5:-52.064323 6:186.86829 7:-91.329727 
-0 -1 -0 -0 0 0 0 0 0 0 1:-924.52094 2:-673.03339 3:-20.463161 4:-478.62756 5:-87.303902 6:171.90697 7:-67.945343 
-0 -1 -0 -0 0 0 0 0 0 0 1:-924.521 2:-673.03333 3:-20.673378 4:-476.23959 5:-95.730759 6:168.32925 7:-62.353424 
-0 -1 -0 -0 0 0 0 0 0 0 1:-934.52252 2:-673.04132 3:-24.555079 4:-427.71936 5:-237.24826 6:108.16148 7:22.53194 
-0 -1 -0 -0 0 0 0 0 0 0 1:-924.52246 2:-673.03235 3:-24.132401 4:-436.94666 5:-234.39084 6:109.45969 7:29.659058 
-0 -1 -0 -0 0 0 0 0 0 0 1:-924.52069 2:-673.03357 3:-19.966284 4:-484.27185 5:-67.38588 6:180.36337 7:-81.162605 
-0 -1 -0 -0 0 0 0 0 0 0 1:-924.52246 2:-673.03235 3:-24.15151 4:-436.72958 5:-235.15692 6:109.13445 7:30.167414 
-0 -0 -0 -0 1 0 0 0 0 0 1:-934.5213 2:-673.0639 3:-22.235737 4:-446.31311 5:-118.47313 6:160.41441 7:-73.274864 
-0 -1 -0 -0 0 0 0 0 0 0 1:-934.52252 2:-673.03644 3:-24.382927 4:-431.43695 5:-236.21114 6:108.18687 7:25.704996 
-0 -0 -0 -0 0.9829163893825105 0 0 0 0 0 1:-934.52106 2:-673.06116 3:-21.540016 4:-455.27341 5:-94.10244 6:170.51228 7:-87.130074 
-0 -1 -0 -0 0 0 0 0 0 0 1:-924.52246 2:-673.03235 3:-24.132401 4:-436.94666 5:-234.39084 6:109.45969 7:29.659058 
-0 -0 -0 -0 0.1129046716451206 0 0 0 0 0 1:-934.52258 2:-673.06659 3:-25.450304 4:-408.47577 5:-243.03979 6:108.94209 7:6.0519247 
-0 -1 -0 -0 0 0 0 0 0 0 1:-924.52075 2:-673.03351 3:-20.080948 4:-482.96933 5:-71.982346 6:178.4119 7:-78.112465 
-0 -0 -0 -0 1 0 0 0 0 0 1:-934.52264 2:-673.06891 3:-25.519129 4:-406.90085 5:-243.05621 6:108.01931 7:4.7628222 
-0 -0 -0.003318781091289055 -0 1 0 0 0 0 0 1:-934.5213 2:-673.08038 3:-22.687315 4:-435.28082 5:-117.03528 6:163.51744 7:-87.601875 
-0 -1 -0 -0 0 0 0 0 0 0 1:-942.52081 2:-673.03107 3:-19.297773 4:-490.96719 5:-37.842781 6:184.1483 7:-98.659767 
-0 -1 -0 -0 0 0 0 0 0 0 1:-924.52148 2:-673.03339 3:-21.686205 4:-464.64603 5:-135.93436 6:150.17834 7:-35.43037 
-0 -0 -0.0003083640403100065 -0 0 0 0 0 0 0 1:-934.52264 2:-673.07941 3:-25.897898 4:-398.81003 5:-245.73634 6:108.87608 7:-2.1980231 
-0 -1 -0 -0 0 0 0 0 0 0 1:-924.52246 2:-673.03235 3:-24.15151 4:-436.72958 5:-235.15692 6:109.13445 7:30.167414 
-0 -1 -0 -0 0 0 0 0 0 0 1:-924.521 2:-673.03339 3:-20.596935 4:-477.10794 5:-92.666367 6:169.63 7:-64.386795 
-0 -0 -0 -0 1 0 0 0 0 0 1:-934.52264 2:-673.07483 3:-25.725712 4:-402.43973 5:-244.30078 6:107.98884 7:0.95515406 
-0 -1 -0 -0 0.6844925837419507 0 0 0 0 0 1:-942.52252 2:-673.0448 3:-19.296375 4:-487.53995 5:-22.303429 6:148.55595 7:-99.434898 
-0 -0 -0 -0 1 0 0 0 0 0 1:-934.52258 2:-673.0755 3:-25.721956 4:-402.21826 5:-243.37448 6:109.54688 7:-0.67629004 
-0 -1 -0 -0 0.9300951993374436 0 0 0 0 0 1:-924.52081 2:-673.03387 3:-20.100023 4:-482.66434 5:-72.349907 6:177.17378 7:-77.62394 
-0 -1 -0 -0 0 0 0 0 0 0 1:-924.52094 2:-673.03339 3:-20.463161 4:-478.62756 5:-87.303902 6:171.90697 7:-67.945343 
-0 -1 -0 -0 0 0 0 0 0 0 1:-924.52246 2:-673.03235 3:-24.132401 4:-436.94666 5:-234.39084 6:109.45969 7:29.659058 
-0 -1 -0 -0 0 0 0 0 0 0 1:-924.52057 2:-673.03363 3:-19.641405 4:-487.96237 5:-54.362556 6:185.89255 7:-89.804665 
-0 -1 -0 -0 0 0 0 0 0 0 1:-924.52246 2:-673.03235 3:-24.132401 4:-436.94666 5:-234.39084 6:109.45969 7:29.659058 
-5.986695307015235e-06 -1 -0 -0 0 0 0 0 0 0 1:-924.52252 2:-673.03265 3:-24.151474 4:-436.64166 5:-234.75839 6:108.22158 7:30.147587 
-0 -1 -0 -0 0 0 0 0 0 0 1:-924.52081 2:-673.03345 3:-20.272055 4:-480.79846 5:-79.643127 6:175.15942 7:-73.028908 
-0 -1 -0 -0 -0 1 0.001328157631713889 0 0 0 1:-942.53186 2:-673.11768 3:-19.269867 4:-469.58755 5:61.035397 6:-40.006042 7:-104.02171 
-0 -0 -0 -0 -1 0 0 3.56043575561224e-06 0 0 1:-934.52094 2:-673.07642 3:-21.521339 4:-450.11121 5:-75.365196 6:178.63031 7:-110.90308 
-0 -0 -0 -0 -1 0 0 0 0 0 1:-934.5213 2:-673.07935 3:-22.767548 4:-434.7218 5:-121.42429 6:161.57097 7:-83.917107 
-0 -0 -0 -0 -1 0 0 0 0 0 1:-934.52087 2:-673.04883 3:-20.691063 4:-469.4101 5:-74.919792 6:176.49576 7:-89.57547 
-0 -1 -0.9999428716863576 -0 -0 1 4.342881549135601e-05 0 0 0 1:-942.53186 2:-673.11768 3:-19.269867 4:-469.58755 5:61.035397 6:-40.006042 7:-104.02171 
-0 -1 -0.9999998449453624 -0.8318723467474537 -0 1 0 0 0 0 1:-942.53186 2:-673.11768 3:-19.269867 4:-469.58755 5:61.035397 6:-40.006042 7:-104.02171 
-0 -1 -0 -0 -1 0 0 0 0 0 1:-934.52264 2:-673.03906 3:-24.451715 4:-429.77414 5:-235.82909 6:106.35139 7:24.396032 
-0 -0 -0 -0 -1 0 0 0 0 0 1:-934.52087 2:-673.06287 3:-21.188478 4:-458.65018 5:-78.061989 6:178.5701 7:-99.56324 
-0 -0 -0 -0 -1 0 0 0 0 0 1:-934.52191 2:-673.06311 3:-23.745512 4:-429.25104 5:-179.39168 6:135.63251 7:-33.094826 
-1.630799035211946e-05 -1 -0 -0.003727870223127406 -0 0 0.0002167922424100158 4.360295815010673e-05 6.621826899851494e-10 1.237957480508569e-06 1:-727.5285 2:-673.14954 3:-21.963652 4:-450.10925 5:-78.583702 6:8.9088268 7:-36.024742 
-0 -0.2179082086377832 -0.01763149261218687 -0 -1 0 0 0 0 0 1:-934.52264 2:-673.05847 3:-25.14036 4:-414.99164 5:-240.37605 6:107.16245 7:11.723685 
-0 -1 -0 -0 -0 1 0 0 0 0 1:-942.53186 2:-673.11768 3:-19.269867 4:-469.58755 5:61.035397 6:-40.006042 7:-104.02171 
-0 -1 -0 -0 -0.5171916785456214 0 0 0 0 0 1:-942.52704 2:-673.08002 3:-19.273691 4:-478.99109 5:18.402685 6:57.644844 7:-101.89445 
-0 -0 -0.02625322557746484 -0.0007378454922488277 -1 0.001541402812716294 3.26647660548106e-05 0 0 0 1:-934.52264 2:-673.07526 3:-25.57279 4:-404.08853 5:-237.7737 6:109.6781 7:-3.1315577 
-0 -0 -0 -0 -1 0 0 0 0 0 1:-934.5213 2:-673.07837 3:-22.656675 4:-436.33368 5:-118.15255 6:162.87703 7:-85.315918 
-0 -1 -0 -0 -0 1 0 0 0 0 1:-942.53186 2:-673.11768 3:-19.269867 4:-469.58755 5:61.035397 6:-40.006042 7:-104.02171 
-0 -0 -0 -0 -1 0 0 0 0 0 1:-934.52234 2:-673.06226 3:-24.571024 4:-420.13773 5:-213.25932 6:120.08888 7:-9.6040621 
-0 -0.3634934565630581 -1 -0 -0 1 0 0 0 0 1:-942.53186 2:-673.11768 3:-19.269869 4:-469.58759 5:61.035328 6:-40.006081 7:-104.02164 
-0 -1 -0 -0 -0 1 0 0 0 0 1:-942.53186 2:-673.11768 3:-19.269867 4:-469.58755 5:61.035397 6:-40.006042 7:-104.02171 
-0 -1 -0.0714131159431264 -0 -0 1 0 0 0 0 1:-942.53186 2:-673.11768 3:-19.269867 4:-469.58755 5:61.035397 6:-40.006042 7:-104.02171 
-0 -1 -0 -0 -0 1 0 0 0 0 1:-942.53186 2:-673.11768 3:-19.269867 4:-469.58755 5:61.035397 6:-40.006042 7:-104.02171 
-0 -1 -0 -0 -1 0 0 0 0 0 1:-934.52142 2:-673.04962 3:-22.193293 4:-451.81723 5:-133.58736 6:153.91739 7:-52.678215 
-0 -0 -0 -0 -0 -0 0 0 6.570796261076049e-10 8.837714502000214e-07 1:-942.53186 2:-673.11761 3:-19.270157 4:-469.58148 5:60.920567 6:-40.01403 7:-104.00526 
-0 -1 -0 -0 -0.0003555871633034054 -0 0 1.588994215611026e-05 0 0 1:-942.526 2:-673.07153 3:-19.274563 4:-481.09076 5:8.7964115 6:79.537163 7:-101.43263 
-0 -0 -1 -0 -0 -0 0 0 0 0 1:-942.53192 2:-673.11884 3:-19.306421 4:-468.94012 5:61.398022 6:-39.784042 7:-103.47858 
-0 -0 -1 -1 -0 -0 0 0 0 0 1:-942.53668 2:-673.32526 3:-25.01619 4:-354.35706 5:143.83868 6:4.9558911 7:2.2455666 
-0 -0 -1 -0 -0 -0 0 0 0 0 1:-942.53192 2:-673.11884 3:-19.306421 4:-468.94012 5:61.398022 6:-39.784042 7:-103.47858 
-0 -0 -1 -1 -0 -0 0 0 0 0 1:-942.53577 2:-673.25769 3:-23.803911 4:-392.17487 5:117.72439 6:-9.3406506 7:-31.968008 
-0 -0 -1 -0 -0 -0 0 0 0 0 1:-942.53186 2:-673.11768 3:-19.269894 4:-469.57816 5:60.99144 6:-40.016949 7:-104.03661 
-0 -0 -0 -0.8981099768750341 -0 -0 0.0005998986213776613 0 0 0 1:-942.53186 2:-673.11768 3:-19.269863 4:-469.56384 5:60.938267 6:-40.031906 7:-104.06099 
-0 -0 -1 -1 -0 -0 0 0 0 0 1:-942.54071 2:-673.43933 3:-29.647671 4:-292.22556 5:192.4814 6:30.228355 7:60.341545 
-0 -0.01410502253478327 -0 -0 -0 -0 0 0 0 0 1:-942.52753 2:-673.08356 3:-19.273336 4:-478.10254 5:22.343233 6:48.508156 7:-102.10902 
-0 -0 -0 -0.03324801925319326 -0 -0 0 0 0 0 1:-942.53076 2:-673.10889 3:-19.270773 4:-471.77509 5:51.030586 6:-17.201057 7:-103.54006 
-0 -0 -1 -0 -0 -0 0 0 0 0 1:-942.53192 2:-673.11884 3:-19.306421 4:-468.94012 5:61.398022 6:-39.784042 7:-103.47858 
-0 -0 -1 -1 -0 -0 0 0 0 0 1:-942.54089 2:-673.44281 3:-29.80047 4:-289.81931 5:192.82414 6:31.251471 7:63.374935 
-0 -0 -1 -0 -0 -0 0 0 0 0 1:-942.53247 2:-673.13916 3:-19.964695 4:-457.7128 5:69.665466 6:-35.325638 7:-93.001503 
-9.418106629028921e-07 -0 -0 -0 -0 -0 0 0 0 0 1:-942.53186 2:-673.11761 3:-19.270163 4:-469.58148 5:60.92054 6:-40.014038 7:-104.00523 
-0 -0 -1 -0 -0 -0 0 0 0 0 1:-942.53192 2:-673.11884 3:-19.306421 4:-468.94012 5:61.398022 6:-39.784042 7:-103.47858 
-0 -0 -1 -1 -0 -0 0 0 0 0 1:-942.53186 2:-673.11768 3:-19.269836 4:-469.57733 5:60.991547 6:-40.015751 7:-104.03879 
-0 -0 -1 -1 -0 -0 0 0 0 0 1:-942.53436 2:-673.20825 3:-22.193523 4:-419.61469 5:97.930199 6:-20.239136 7:-57.716274 
-0 -0 -1 -0 -0 -0 0 0 0 0 1:-942.53192 2:-673.11884 3:-19.306421 4:-468.94012 5:61.398022 6:-39.784042 7:-103.47858 
-0 -0 -0.01159601742898151 -0 -0 -0 0 0 0 0 1:-942.53082 2:-673.10925 3:-19.270739 4:-471.68719 5:51.429028 6:-18.113676 7:-103.55994 
-0 -0 -0 -0 -0 -0.002190158657053963 0 0 0 0 1:-942.51947 2:-673.11749 3:-6.2886171 4:-468.89285 5:60.925716 6:-39.980526 7:-103.92029 
-0 -0 -0 -0 -0 -0.997809841342946 0 0 0 0 1:-942.53186 2:-673.11768 3:-19.269842 4:-469.57718 5:60.991486 6:-40.015598 7:-104.03899 
-0 -0 -0 -0 -0 -0.01420529498941505 0 0 0 0 1:-942.53192 2:-673.11884 3:-19.306421 4:-468.94012 5:61.398022 6:-39.784042 7:-103.47858 
-0 -0 -1 -1 -0 -0 0 0 0 0 1:-942.53589 2:-673.26318 3:-24.003757 4:-388.72324 5:118.60646 6:-8.6768341 7:-29.75951 
-0 -0 -0 -0 -0 -1 0 0 0 0 1:-942.53186 2:-673.11761 3:-19.27014 4:-469.58151 5:60.920666 6:-40.013996 7:-104.00538 
-0 -0 -0 -0 -0 -1 0 0 0 0 1:-942.53186 2:-673.11761 3:-19.27014 4:-469.58151 5:60.920666 6:-40.013996 7:-104.00538 
-0 -0 -0 -0 -0 -1 0 0 0 0 1:-942.53186 2:-673.11768 3:-19.26984 4:-469.57718 5:60.991493 6:-40.015594 7:-104.03901 
-0 -0 -0 -0 -0 -1 0 0 0 0 1:-942.53186 2:-673.11768 3:-19.269827 4:-469.57721 5:60.991566 6:-40.015572 7:-104.03909 
-0 -0 -1 -1 -0 -0 0 0 0 2.917770652025443e-08 1:-942.54156 2:-673.46765 3:-30.604891 4:-276.08878 5:202.89851 6:36.69669 7:76.165031 
-0 -0 -1 -0 -0 -0 0 0 0 0 1:-942.53192 2:-673.11884 3:-19.306421 4:-468.94012 5:61.398022 6:-39.784042 7:-103.47858 
-0 -0 -0 -0 -0 -1 1.818096029035762e-06 0 0 0 1:-942.53186 2:-673.11768 3:-19.269863 4:-469.56384 5:60.938267 6:-40.031906 7:-104.06099 
-0 -0 -0.01847982843286265 -0 -0 -0 0 0 0 0 1:-942.53046 2:-673.20557 3:-18.144676 4:-420.35068 5:95.261345 6:-21.27702 7:-59.359619 
-0 -0 -0.7614078732414593 -0 -0 -0 0 0 0 0 1:-942.53192 2:-673.11884 3:-19.306421 4:-468.94012 5:61.398022 6:-39.784042 7:-103.47858 
-0 -0 -0 -0 -0 -1 0 0 0 0 1:-942.53186 2:-673.11761 3:-19.27014 4:-469.58151 5:60.920666 6:-40.013996 7:-104.00538 
-0 -0 -0 -0 -0 -0.9873361078233013 0 0 0 0 1:-942.53192 2:-673.11884 3:-19.306421 4:-468.94012 5:61.398022 6:-39.784042 7:-103.47858 
-0 -0 -1 -0 -0 -0 0 0 0 0 1:-942.53192 2:-673.11884 3:-19.306421 4:-468.94012 5:61.398022 6:-39.784042 7:-103.47858 
-0 -0 -0 -0 -0 -0 0 0 0 8.944745593717964e-11 1:-937.90717 2:-673.06445 3:3766.1594 4:-268.43198 5:41.201347 6:-29.876488 7:-68.904327 
-0 -0 -0 -0 -0 -1 0 0 0 0 1:-942.53186 2:-673.11768 3:-19.269857 4:-469.57715 5:60.991405 6:-40.015625 7:-104.0389 
-5.000366587626244e-06 -0.136944046301758 -0.06062492384744912 -0 -0 -0 0.0004476164951873791 0 0 0 1:-942.52997 2:-673.18634 3:-17.523081 4:-430.96072 5:87.476639 6:-25.484745 7:-69.242676 
-0 -0 -1 -0 -0 -0 0 0 0 0 1:-942.53186 2:-673.11768 3:-19.269833 4:-469.57727 5:60.991554 6:-40.015671 7:-104.03893 
-7.965062358777912e-06 -0 -0 -0 -0 -0 -0 0 6.577449648517929e-10 0 1:-914.53516 2:-673.24823 3:-26.434048 4:-355.91605 5:-45.665665 6:-77.392151 7:-26.868534 
-0 -1 -0.002238147125523864 -0.00048906231400515 -0 -0.0004802193919948124 -0 8.354420699564964e-06 0 0 1:-914.53259 2:-673.13452 3:-20.9377 4:-448.65549 5:7.4569068 6:-62.187408 7:-68.219879 
-0 -0.2609997162115876 -0.0002845630739305295 -0.002242306818790441 -4.444046757541703e-05 -0.001140824063675259 -0.001049333212594077 4.555818939785585e-06 0 9.483531749096344e-07 1:-914.53296 2:-673.17822 3:-21.495947 4:-430.88242 5:48.931656 6:-41.804176 7:-92.595505 
-2.740071018728949e-07 -1 -0 -0 -0 -0 -0 -0 5.702838154162749e-08 0 1:280.24313 2:1777.5093 3:-20.407782 4:-461.2493 5:14.811847 6:-13.64637 7:-83.283264 
-0 -1 -0 -0 -9.171678157687586e-06 -0 -0 -0 0 0 1:-608.52087 2:-673.13336 3:-20.324551 4:-483.61902 5:-69.426147 6:179.3714 7:-79.742149 
-0 -1 -0 -0 -0 -0 -0 -0 0 0 1:-608.52069 2:-673.13354 3:-19.789454 4:-489.69748 5:-47.975983 6:188.47833 7:-93.976135 
-0 -1 -0 -0 -0 -0 -0 -0 0 0 1:6102.4873 2:-675.25281 3:-14.791295 4:-482.12192 5:-67.103287 6:179.12498 7:-80.651039 
-0 -1 -1.330537618259725e-05 -1.048463621369364e-05 -0 -0 -1.289732388396479e-05 -0 0 0.1921992998627315 1:-608.52075 2:-673.13678 3:-19.726566 4:-489.58582 5:-41.167603 6:188.25954 7:-97.647491 
-3.271471651677304e-05 -1 -4.57852515364002e-06 -4.077293903667777e-06 -1.085688527787624e-05 -4.716339390571897e-05 -2.992618272145471e-06 -1.291023963935055e-05 0 0 1:-608.5213 2:-673.13794 3:-20.54818 4:-479.89951 5:-72.515221 6:170.62347 7:-75.867699 
-4.440750845848631e-09 -0.03231145871886194 -0 -0 -0 -0 -0 -0 1.480980090851053e-13 4.29361760365986e-05 1:5130483.5 2:-2291.7571 3:110.34029 4:-336.41867 5:63.81987 6:-14.244741 7:20.626005 
-0 -0 -0 -0 -0 -0 -0 -0 5.982366333857686e-10 0 1:5134737.5 2:-2293.0964 3:118.45004 4:-338.62622 5:68.888344 6:-1.3527415 7:14.246511 
-0 -1 -0 -0 -0 -0 -0 -0 0 0 1:-608.52063 2:-673.13361 3:-19.674789 4:-491.00003 5:-43.379555 6:190.42992 7:-97.026291 
-0 -1 -0 -0 -0 -0 -0 -0 -0 6.933499991746362e-10 1:53600.062 2:7623.666 3:-77.093422 4:-402.13715 5:-128.46077 6:-124.90423 7:25.926765 
-0 -1 -0 -0 -0 -0 -0 -0 -0 0 1:53600.07 2:7623.7275 3:-73.717155 4:-456.11707 5:-63.387989 6:94.199112 7:-60.533592 
-0 -1 -0 -0 -0 -0 -0 -0 -1.451135486707136e-09 0 1:53600.062 2:7623.6641 3:-77.162277 4:-400.6503 5:-128.87569 6:-124.91374 7:24.657579 
-0 -1 -0 -6.570240347591575e-10 -0 -0 -0 -0 -2.970524129310532e-09 0 1:53600.07 2:7623.7236 3:-73.819405 4:-453.97781 5:-60.957569 6:99.883453 7:-62.012051 
-0 -0.1824351782244879 -0 -0 -0 -0 -0 -0 -0 0 1:53600.062 2:7623.665 3:-77.127846 4:-401.3938 5:-128.66824 6:-124.90879 7:25.292177 
-0 -1 -0 -0 -0 -0 -0 -0 -0 0 1:53600.07 2:7623.7393 3:-73.068611 4:-466.48608 5:-50.888088 6:136.28679 7:-77.141792 
-0 -1 -0 -0 -0 -0 -0 -0 -0 0 1:53600.059 2:7623.6616 3:-77.235405 4:-399.40189 5:-127.95974 6:-124.41932 7:25.820297 
-0 -1 -0 -0 -0 -7.653969308572321e-12 -0 -0 -0 0 1:53600.059 2:7623.6621 3:-77.233269 4:-399.28262 5:-128.62517 6:-124.67143 7:24.604332 
-0 -1 -0 -0 -0 -0 -0 -0 -0 0 1:53600.059 2:7623.6616 3:-77.235413 4:-399.40189 5:-127.9597 6:-124.41933 7:25.820312 
-0 -1 -6.570764207842544e-10 -0 -6.572680214057787e-10 -6.545287206765771e-10 -6.570796261076049e-10 -0 -9.6278722757274e-09 0 1:53600.07 2:7623.7246 3:-73.826302 4:-454.1395 5:-63.872776 6:91.965797 7:-59.609882 
-0 -1 -0 -0 -0 -0 -0 -0 -1.604522270566197e-08 0 1:53600.062 2:7623.666 3:-77.093422 4:-402.13715 5:-128.46077 6:-124.90423 7:25.926765 
-0 -1 -0 -0 -0 -0 -0 -0 -2.428514750344269e-08 0 1:53600.07 2:7623.7378 3:-73.099327 4:-465.60919 5:-50.567226 6:138.75264 7:-79.387802 
-0 -0 -0 -0 -0 -0 -0 -6.577449648517929e-10 -3.225200547577188e-09 0 1:53600.062 2:7623.6699 3:-76.734154 4:-407.18341 5:-116.67995 6:-87.040718 7:11.112766 
-0 -0 -0 -0 -0 -0 -0 -0 -1.429338689393337e-11 0 1:53600.074 2:7623.7446 3:-72.763412 4:-471.36557 5:-45.005939 6:156.09271 7:-84.957527 
-6.819569340158984e-10 -0 -0 -0 -0 -0 -0 -0 -0 0 1:53600.059 2:7623.6553 3:-77.448395 4:-395.29898 5:-127.20825 6:-123.69204 7:25.660563 
-0 -1 -0 -0 -0 -0 -0 -0 -7.370237701491829e-12 0 1:53600.059 2:7623.6616 3:-77.235405 4:-399.40201 5:-127.9595 6:-124.41898 7:25.820467 
-9.964908998029964e-06 -1 -9.075974986612937e-07 -6.082408235851482e-07 -0 -7.711610913130931e-07 -9.102632338965676e-07 -9.483531749096344e-07 -0.00245257700708874 -6.933499991746362e-10 1:537.46692 2:-673.60559 3:-21.58675 4:-453.72995 5:55.627785 6:-40.947407 7:-99.486832 
-0 -1 -5.453514165890881e-09 -3.111998162119313e-07 -9.356897355970381e-07 -4.667963891954755e-07 -2.77537027964545e-09 -0 -0.1897896590316818 -0 1:537.47882 2:-673.49506 3:-20.694824 4:-491.89743 5:-40.422577 6:191.68785 7:-98.990089 
