svm_type c_svc
kernel_type linear
nr_class 11
total_sv 775
rho 2758.93 -2.6247 -2.62153 -2.86457 -4.17598 -2.62468 -2.7164 -37.5668 -0.999317 -1.40037 -9594.21 -198.711 -35.0292 -625.805 -9317.71 -1049.47 -20849.4 -768.877 -66.2651 13582 1363.13 2385.01 -275.845 66.4113 4.58095 -0.962552 0.273343 139.096 452.945 -2221.67 62.5652 4.03791 -0.962573 0.251592 -0.945473 -1200.39 177.188 4.84985 -0.962827 0.264391 -1244.81 27.6426 8.72766 -0.970135 0.147827 66.3577 4.64248 -0.96255 0.273282 4.61927 -0.963544 0.257198 -1.6026 -27.2662 1.01588 
label 4 0 3 13 9 14 8 6 20 11 5 
nr_sv 13 264 193 55 95 22 98 6 9 18 2 
SV 
0 0 0 0 0 0 0 0 6.819640774931166e-10 2.235776411150047e-08 1:89.448006 2:-674.51996 3:-61.31889 4:283.06866 
0 1.267350101267615e-06 0 0 0 0 0 0 0 0 1:-422.54922 2:-674.2041 3:-55.646717 4:183.24333 
0 0 7.739689004189227e-07 0 0 0 0 0 0 0 1:-422.55084 2:-674.30347 3:-58.983479 4:247.52209 
0 0 1.981082387329825e-06 0 0 1.053727698117056e-06 1.142416793961927e-08 0 0 0 1:-422.54907 2:-674.19568 3:-55.36274 4:177.7728 
1 0 0 0 0 0 0 0 0 0 1:89.464249 2:-673.60974 3:-27.375696 4:-344.3732 
1 0 0 0 0 0 0 0.003308614280796481 0 9.939973100118545e-06 1:89.467216 2:-673.46216 3:-21.068295 4:-455.30426 
1 0 0 0 0 0 0 0 0 0 1:89.463356 2:-673.57703 3:-29.655176 4:-326.89578 
0.7361567350670744 0 0 0 0 0 0 0 0 0 1:-422.53714 2:-673.46204 3:-30.727518 4:-296.79596 
1 6.129160756842522e-06 4.812158419622282e-06 7.714453385744003e-06 1.945918071984375e-05 6.342656433900653e-06 8.250756698049373e-06 0 0 0 1:-422.53577 2:-673.37744 3:-27.887724 4:-351.50128 
1 0 0 0 0 0 0 0 0 0 1:89.465492 2:-673.44592 3:-25.253494 4:-411.68903 
0.8521753475883203 0 0 0 0 0 0 0 0 0 1:89.462807 2:-673.61084 3:-30.791094 4:-305.01364 
1 0 0 0 0 0 0 0 0 0 1:89.463051 2:-673.59607 3:-30.29413 4:-314.58707 
1 0 0 0 0 0 0 0 0 0 1:89.462669 2:-673.61932 3:-31.075073 4:-299.54312 
-0 0 0 0 0 0.2711496950676766 0 0 0 0 1:-942.52167 2:-673.03589 3:-19.719666 4:-484.89807 
-0 0 0 1 0 1 0 0 0 0 1:-942.52142 2:-673.03455 3:-19.662477 4:-485.90085 
-0 0 0 1 0 0 0 0 0 0 1:-942.52264 2:-673.02795 3:-24.058455 4:-437.28864 
-0 1 0 1 0 0 0 0 0 0 1:-942.53363 2:-673.11615 3:-23.399759 4:-422.69919 
-0 1 0 1 0 0 0 0 0 0 1:-942.52588 2:-673.05292 3:-24.132374 4:-430.18045 
-1 0 0 0 0 0 0.2532711907060226 0 0.6753617093125348 0 1:-426.54834 2:-670.22614 3:-56.423981 4:198.2926 
-0 0 0 1 0 0 0 0 0 0 1:-898.52032 2:-629.14868 3:-24.806526 4:-401.80859 
-0 1 0 0 0 0 0 0 0 0 1:-942.52533 2:-673.04901 3:-24.132755 4:-431.14755 
-0 1 0 0 1 0 0 0 0 0 1:-942.52905 2:-673.08142 3:-24.271893 4:-421.39041 
-0 0 0 0 0 1 0 0 0 0 1:-942.5257 2:-673.05249 3:-24.166945 4:-429.78876 
-0 1 0 0 1 1 0 0 0 0 1:-942.52094 2:-673.03107 3:-19.471727 4:-488.9505 
-0 1 0 0 1 1 0 0 0 0 1:-942.52405 2:-673.03918 3:-24.057314 4:-434.47662 
-0 0 0 0 0 1 0 0 0 0 1:-942.52252 2:-673.02686 3:-24.115889 4:-436.90063 
-0 1 0 1 0 0 0 0 0 0 1:-942.52246 2:-673.02655 3:-24.05859 4:-437.63898 
-0 1 0 0 0 0 0 0 0 0 1:-942.52838 2:-673.07513 3:-23.706003 4:-429.37436 
-0 0 1 0 0 0 0 0 0 0 1:-942.52246 2:-673.02649 3:-24.135029 4:-436.77072 
-0 0 1 0 0 0 0 0 0 0 1:-942.5224 2:-673.02734 3:-23.714533 4:-441.37183 
-0 0 0 0 0 0 0 1 0 0 1:-942.52045 2:-673.02795 3:-19.280931 4:-491.91107 
-0 1 0 0 0 0 0 0 0 0 1:-942.53296 2:-673.11206 3:-23.075306 4:-427.44431 
-0 1 0 1 0 1 0 0 0 0 1:-942.5213 2:-673.03351 3:-19.56702 4:-487.24997 
-0 0 1 0 0 0 0 0 0 0 1:-942.52246 2:-673.02649 3:-24.135031 4:-436.77072 
-0.5468734923486175 0 0 0 0 0 0 0 0 0 1:11343.465 2:-676.96466 3:-33.403469 4:-449.74762 
-0 1 0 0 0 0 1 0 0 0 1:-942.52979 2:-673.09003 3:-24.374622 4:-417.74478 
-0 0 1 0 0 0 0 0 0 0 1:-942.52692 2:-673.06134 3:-24.131508 4:-428.07166 
-0 1 0 1 0 1 0 0 0 0 1:-942.52094 2:-673.02795 3:-20.42754 4:-478.79861 
-0 1 0 1 0 0 0 0 0 0 1:-942.52362 2:-673.03564 3:-24.134117 4:-434.48697 
-0 1 0 0 0 0 0 0 0 0 1:-942.52618 2:-673.05536 3:-24.132114 4:-429.56567 
-0 0 0 0 0 0 0 0 1 0 1:15844.465 2:-678.38654 3:-36.513165 4:-462.77853 
-0 1 0 1 0 0 0 0 0 0 1:-942.52246 2:-673.02747 3:-24.169462 4:-436.02728 
-0 1 0 1 0 1 0 0 0 0 1:-942.52344 2:-673.03424 3:-24.134256 4:-434.83859 
-0 1 0 0 1 1 0 0 0 0 1:-942.52344 2:-673.03387 3:-24.134291 4:-434.92648 
-0 0 0 0 0 0 0 0 1 0 1:15844.464 2:-678.38818 3:-38.008823 4:-445.28986 
-0 1 0 1 0 0 0 0 0 0 1:-942.52362 2:-673.03564 3:-24.134111 4:-434.48709 
-0 0 0 0 0 1 0 0 0 0 1:-942.52246 2:-673.02917 3:-23.370365 4:-444.84027 
-1 0 0 0 0 0 0 0 0 0 1:-837.53394 2:-673.14935 3:-24.10998 4:-415.70306 
-0 0 0 0 1 0 0 0 0 0 1:-911.53223 2:-673.13684 3:-20.333567 4:-454.31082 
-0 0 0 0 1 0 0 0 0 0 1:-912.52411 2:-673.06146 3:-20.625057 4:-470.82718 
-0 0 0.1856844489397642 0 0 0 0 0 0 0 1:-942.52246 2:-673.02649 3:-24.135029 4:-436.77072 
-0 0 0 0.5135420464292284 0.8504456096574478 1 0 0 0 0 1:-942.52325 2:-673.03247 3:-24.115322 4:-435.49509 
-0 0 0 0 0 0 0 0.4003328394536876 0 0 1:-894.50543 2:-625.04401 3:-19.368196 4:-491.18878 
-0 1 0 1 0 0 0 0 0 0 1:-942.52362 2:-673.03564 3:-24.134111 4:-434.48709 
-0 1 0 1 0 0 0 0 0 0 1:-942.52264 2:-673.02887 3:-24.169327 4:-435.67691 
-0 1 0 0 0 0 0 0 0 0 1:-942.52618 2:-673.05829 3:-23.707718 4:-433.59271 
-0 0 0 0 1 0 0 0 0 0 1:-910.52161 2:-673.04517 3:-20.185963 4:-480.00595 
-0 0 0 0 0.9308922785381837 0 0 0 0 0 1:-795.52991 2:-673.14813 3:-19.412504 4:-473.50052 
-0 0.01551637660594083 0 0 0 1 0 0 0 0 1:-942.52063 2:-673.0296 3:-19.355682 4:-490.67081 
-1 0 0 0 0 0 0 0 0 0 1:-837.53387 2:-673.14941 3:-24.052647 4:-416.35434 
-0 0 0 1 0 0 0 0 0 0 1:-942.52258 2:-673.02838 3:-23.82909 4:-439.80588 
-0 0 0 1 0 0 0 0 0 0 1:-909.52185 2:-673.05023 3:-19.422026 4:-487.54736 
-0 0 0 1 0 1 0 0 0 0 1:-942.52142 2:-673.03296 3:-20.102163 4:-481.25934 
-0 0 1 0 0 0 0 0 0 0 1:-942.52246 2:-673.02649 3:-24.135029 4:-436.77072 
-0 0.05633689398771045 0 1 0 1 0 0 0 0 1:-942.52094 2:-673.03125 3:-19.83111 4:-484.69232 
-0 1 0 1 0 0 0 0 0 0 1:-942.52246 2:-673.02692 3:-23.982117 4:-438.42017 
-0 0 0 0 0 1 0 0 0 0 1:-942.52692 2:-673.06598 3:-22.86978 4:-441.34476 
-0 0 0 1 0 0 0 0 0 0 1:-837.53387 2:-673.14941 3:-23.957092 4:-417.43979 
-0 0 0 1 0 0 0 0 0 0 1:-838.52106 2:-673.06555 3:-19.62446 4:-487.78522 
-0 1 0 1 0 0 0 0 0 0 1:-942.52258 2:-673.02856 3:-24.169365 4:-435.76465 
-0 0 0 0 0 0 0.06883283797243485 0 0 0 1:-837.534 2:-673.15149 3:-24.238306 4:-413.68414 
-0 0 0 0 0 0 0 0 1 0 1:87439.43 2:-700.96881 3:-107.10176 4:-440.84164 
-0 1 0 0 0 0 0 0 0 0 1:-942.52356 2:-673.03595 3:-24.168615 4:-433.91943 
-0 1 0 1 0 0 0 0 0 0 1:-942.52264 2:-673.02887 3:-24.169327 4:-435.67688 
-0 0 0 0 0 1 0 0 0 0 1:-942.52081 2:-673.0304 3:-19.414467 4:-489.7775 
-0 0 0 0 0 1 0 0 0 0 1:-942.52264 2:-673.02789 3:-24.115786 4:-436.63739 
-0 0 0 1 0 0 0 0 0 0 1:-795.53204 2:-673.16852 3:-19.55715 4:-467.0498 
-0 0 0 1 0 0 0 0 0 0 1:-912.53223 2:-673.13019 3:-19.94455 4:-461.59891 
-0.04138870164254806 0 0 0 0 0 0 0 0 0 1:-837.53369 2:-673.14954 3:-23.574873 4:-421.78162 
-0 0 0 0 0 1 0 0 0 0 1:-942.52283 2:-673.0293 3:-24.134754 4:-436.06888 
-0 0 0 0 0 0.499695107891648 0 0 0 0 1:-942.52264 2:-673.02789 3:-24.134901 4:-436.42017 
-0 0 0 0 0 1 0 0 0 0 1:-942.5213 2:-673.02771 3:-21.287518 4:-469.02966 
-0 0 0 0 0 1 0 0 0 0 1:-942.52283 2:-673.0293 3:-24.134754 4:-436.06888 
-0 1 0 0 0 0 0 0 0 0 1:-942.52405 2:-673.03918 3:-24.095533 4:-434.04245 
-0 0 1 0 0 0 0 0 0 0 1:-942.52686 2:-673.06067 3:-24.131578 4:-428.24741 
-0 0 0 1 1 1 0 0 0 0 1:-942.52429 2:-673.04364 3:-23.27335 4:-442.32263 
-0 0 0 0 0 1 0 1 0 0 1:-942.52051 2:-673.02826 3:-19.300013 4:-491.60681 
-0 0 1 0 0 0 0 0 0 0 1:-942.52435 2:-673.04321 3:-23.540934 4:-439.37131 
-0 0 0 0 0 1 0 0 0 0 1:-942.52209 2:-673.02789 3:-22.950073 4:-449.96756 
-0 0 0 1 0 0 0 0 0 0 1:-896.51965 2:-627.14929 3:-24.789507 4:-402.02277 
-0 1 0 1 0 0 0 0 0 0 1:-942.52246 2:-673.02747 3:-24.169466 4:-436.02719 
-1 0 0 0 0 0 0 0 0 0 1:-837.53387 2:-673.14941 3:-24.052647 4:-416.35434 
-0 1 0 1 0 1 0 0 0 0 1:-942.52087 2:-673.02765 3:-20.351128 4:-479.75418 
-0 0 0 1 0 0 0 0 0 0 1:-795.53204 2:-673.16852 3:-19.557146 4:-467.0498 
-0 0 0 0 1 0 0 0 0 0 1:-905.52258 2:-673.05127 3:-21.371834 4:-465.457 
-0 1 0 0 0 0 0 0 0 0 1:-942.53363 2:-673.11615 3:-23.38065 4:-422.91626 
-0 1 0 1 0 0 0 0 0 0 1:-942.52362 2:-673.03564 3:-24.134111 4:-434.48709 
-0 0 0 1 0 0 0 0 0 0 1:-942.52429 2:-673.04346 3:-23.67099 4:-437.7182 
-0 0 0 0 0 0 0 0 1 0 1:87439.43 2:-700.95551 3:-106.76438 4:-448.05994 
-0 0 0 0 0 1 0 0 0 0 1:-942.52356 2:-673.03497 3:-24.095963 4:-435.09702 
-0 0 0 0 0 1 0 0 0 0 1:-942.52386 2:-673.05298 3:-20.38154 4:-473.02188 
-0 0 0 0 0 0 0 1 1 0.01314522853205342 1:174394.38 2:-728.43066 3:-188.95634 4:-450.32458 
-0 1 0 1 0 0 0 0 0 0 1:-942.53241 2:-673.10883 3:-23.091057 4:-427.97256 
-0 0 0 0 0 1 0 0 0 0 1:-942.52264 2:-673.02789 3:-24.134897 4:-436.42023 
-0 1 0 0 0 0 0 0 0 0 1:-942.52808 2:-673.0705 3:-24.130583 4:-425.78653 
-0 0 0 0 0 1 0 0 0 0 1:-942.52356 2:-673.03534 3:-24.11504 4:-434.79193 
-0 0 0 0 0 1 0 0 0 0 1:-942.5224 2:-673.02759 3:-23.940138 4:-438.63223 
-0 0 0 0 0 1 0 0 0 0 1:-942.52112 2:-673.02936 3:-20.389179 4:-478.88171 
-0 1 0 1 0 1 0 0 0 0 1:-942.52106 2:-673.02869 3:-20.38925 4:-479.05737 
-0 1 0 0 0 1 0 0 0 0 1:-942.52094 2:-673.03143 3:-19.471691 4:-488.86264 
-0 1 0 0 0 0 0 0 0 0 1:-942.5249 2:-673.04779 3:-23.502256 4:-438.66275 
-0 0 0 1 0 0 0 0 0 0 1:-942.52075 2:-673.0285 3:-19.777744 4:-486.09195 
-0 0 0 0 0 1 0 0 0 0 1:-942.521 2:-673.03021 3:-19.911343 4:-484.13321 
-0 1 0 0 0 0 0 0 0 0 1:-942.52557 2:-673.05768 3:-24.373596 4:-425.50336 
-0 1 0 1 0 1 0 0 0 0 1:-942.52545 2:-673.0686 3:-20.017262 4:-461.82257 
-0 0 0 1 0 0 0 0 0 0 1:-912.52344 2:-673.05701 3:-20.376616 4:-474.78534 
-0 0 0 0 0 1 0 0 0 0 1:-942.52136 2:-673.02905 3:-21.264584 4:-468.84985 
-0 0 1 0 0 0 0 0 0 0 1:-942.52246 2:-673.02649 3:-24.135029 4:-436.77072 
-0 0 0 1 1 1 0 0 0 0 1:-942.52441 2:-673.05084 3:-21.552715 4:-460.1908 
-0 1 0 1 0 0 0 0 0 0 1:-942.52362 2:-673.03528 3:-24.134148 4:-434.57495 
-0 0 0 0 0 0 0 0 1 0 1:15844.459 2:-678.41614 3:-37.067993 4:-449.22266 
-0 1 0 1 0 0 0 0 0 0 1:-942.52246 2:-673.03046 3:-24.272757 4:-433.7966 
-0 1 0 1 0 0 0 0 0 0 1:-942.52258 2:-673.0282 3:-24.169397 4:-435.85245 
-0 0 0 0 0 1 0 0 0 0 1:-942.52173 2:-673.03473 3:-20.159317 4:-480.1687 
-0 1 0 1 0 0 0 0 0 0 1:-942.52258 2:-673.0282 3:-24.169399 4:-435.85245 
-0 0 0 0 0 1 0 0 0 0 1:-942.52307 2:-673.03143 3:-24.115429 4:-435.75873 
-0 1 0 1 0 0 0 0 0 0 1:-942.52264 2:-673.02887 3:-24.169327 4:-435.67688 
-0 1 0 1 0 0 0 0 0 0 1:-942.52246 2:-673.02747 3:-24.16946 4:-436.02731 
-0 0 0.5058113977655246 0 0 0 0 0 0 0 1:-942.52246 2:-673.02649 3:-24.135029 4:-436.77072 
-0 1 0 1 0 0 0 0 0 0 1:-942.52295 2:-673.03101 3:-24.169115 4:-435.14975 
-0 0 1 0 0 0 0 0 0 0 1:-942.52289 2:-673.03003 3:-24.115572 4:-436.11023 
-0 0 0 0 0 0 0 1 0 0 1:-942.52045 2:-673.02795 3:-19.280931 4:-491.91107 
-0 0 0 0 0 0 0 0.03942234430779331 1 0 1:160823.53 2:53599.852 3:-179.47307 4:-401.7735 
-0 0 1 0 0 0 0 0 0 0 1:-942.52692 2:-673.06134 3:-24.131508 4:-428.07166 
-0 0 0 0 0 0 0 0 1 0 1:44244.789 2:47926.66 3:-66.842377 4:-421.5921 
-0 1 0 0 0 0 0 0 0 0 1:-942.52979 2:-673.08453 3:-24.163698 4:-421.79129 
-0 1 0 0 0 1 0 0 0 0 1:-942.52051 2:-673.02863 3:-19.31909 4:-491.30206 
-0 0 0 0 0 0.2207586471187873 0 0 0 0 1:-942.52277 2:-673.04321 3:-20.120247 4:-478.49347 
-0 0 0 0 0 1 0 0 0 0 1:-942.521 2:-673.02905 3:-20.25544 4:-480.48917 
-0 0 0 0 0 1 0 0 0 0 1:-942.52075 2:-673.02966 3:-20.095108 4:-481.95773 
-0 0 0 0 0 0 0 0 1 0 1:14434.462 2:-677.95752 3:-36.292747 4:-445.99957 
-0 1 0 1 1 0 0 0 0 0 1:-942.52277 2:-673.0296 3:-24.169256 4:-435.50122 
-0 1 0 1 0 0 0 0 0 0 1:-942.52246 2:-673.02747 3:-24.169464 4:-436.02722 
-0 0 0 0 0 0 0 0 0 0.0405732980193378 1:14933.466 2:-678.09637 3:-38.368141 4:-432.16318 
-0 0 1 0 0 0 0 0 0 0 1:-942.52246 2:-673.02649 3:-24.135029 4:-436.77072 
-0 0 0 0 1 0 0 0 0 0 1:-906.52319 2:-673.05737 3:-20.307083 4:-476.02322 
-0 0 1 0 0 0 0 0 0 0 1:-942.52417 2:-673.04089 3:-24.168118 4:-432.68906 
-0 1 0 0 0 0 0 0 0 0 1:-942.53021 2:-673.12518 3:-24.030891 4:-412.75662 
-0 0 0 0 0 1 0 0 0 0 1:-942.52081 2:-673.02771 3:-20.121799 4:-482.35922 
-0 0 0 0 0 1 0 0 0 0 1:-942.52148 2:-673.0351 3:-19.660883 4:-485.79147 
-0 1 0 1 0 0 0 0 0 0 1:-942.52344 2:-673.03424 3:-24.134254 4:-434.83862 
-0 0 0 0 0 1 0 0 0 0 1:-942.52325 2:-673.03284 3:-24.134405 4:-435.18991 
-0 1 0 1 0 0 0 0 0 0 1:-942.52588 2:-673.05292 3:-24.132364 4:-430.18085 
-0 1 0 1 0 1 0 0 0 0 1:-942.52209 2:-673.03406 3:-21.191326 4:-468.53381 
-0 0 1 0 0 0 0 0 0 0 1:-942.52246 2:-673.02649 3:-24.135029 4:-436.77072 
-0 0 0 0 0.2633528242467161 1 0 0 0 0 1:-942.52325 2:-673.03247 3:-24.134434 4:-435.27798 
-0 0.5625912455953774 0 0 0 1 0 0 0 0 1:-942.52277 2:-673.03015 3:-23.790691 4:-439.80075 
-0 1 0 0 0 1 0 0 0 0 1:-942.52057 2:-673.03137 3:-19.558323 4:-487.75903 
-0 0 0 0 0 1 0 0 0 0 1:-942.52252 2:-673.04144 3:-20.024864 4:-480.01855 
-0 0 0 0 0 1 0 0 0 0 1:-942.52319 2:-673.03217 3:-24.115358 4:-435.58298 
-0 0 0 0 0 1 0 0 0 0 1:-942.52283 2:-673.0293 3:-24.134766 4:-436.06851 
-0 0 1.506286254384276e-05 0 0 0 0 0 0 0 1:-942.52246 2:-673.02649 3:-24.135029 4:-436.77072 
-0 1 0 1 0 1 0 0 0 0 1:-942.52191 2:-673.02765 3:-22.606115 4:-453.96292 
-0 0 0 0 0 0 0 0 0.008750258190195672 0 1:-289.05807 2:409727.22 3:-23.126453 4:147.90137 
-0 0 0 0 0 1 0 0 0 0 1:-942.52081 2:-673.02881 3:-19.854153 4:-485.13583 
-0 1 0 0 0 0 0.7173632372966234 0 0 0 1:-942.53052 2:-673.08954 3:-24.12866 4:-421.04071 
-0 0 0 0 0 1 0 0 0 0 1:-942.52734 2:-673.08191 3:-19.293818 4:-478.2265 
-0 1 0 1 0 0 0 0 0 0 1:-942.52264 2:-673.02887 3:-24.169331 4:-435.67682 
-0 0 0 0 0 1 0 0 0 0 1:-942.52295 2:-673.0304 3:-24.134647 4:-435.80527 
-0 0 0 0 0 1 0 0 0 0 1:-942.52307 2:-673.03107 3:-24.134577 4:-435.62952 
-0 0 0 0 1 1 0 0 0 0 1:-942.52094 2:-673.02954 3:-19.911413 4:-484.30893 
-0 0 1 0 0 0 0 0 0 0 1:-942.5257 2:-673.05249 3:-24.166943 4:-429.78882 
-6.988866428736494e-05 0.006672926269817769 0.001680526807202282 0.0002126441940415997 0.000653276164335693 0.008396549921890194 0.0003439445462950205 0 0 5.871000368144669e-05 1:-764.88385 2:-567.68097 3:32997.699 4:1272.7916 
-0 0 0 0 0 0 0 1 0 0 1:-942.52045 2:-673.02795 3:-19.280931 4:-491.91107 
-0 0 0 0 0 1 0 0 0 0 1:-942.5257 2:-673.05249 3:-24.166939 4:-429.78897 
-0 0 0 0 0 1 0 0 0 0 1:-942.52203 2:-673.03217 3:-21.573717 4:-464.63144 
-0 1 0 1 0 0 0 0 0 0 1:-942.52246 2:-673.02747 3:-24.169462 4:-436.02728 
-0 1 0 0 0 0 0 0 0 0 1:-942.52686 2:-673.06165 3:-24.166014 4:-427.50388 
-0 0 0 0 0 1 0 0 0 0 1:-942.52466 2:-673.05743 3:-20.858858 4:-466.45209 
-0 0 0 0.1058411178080191 0 0 0 0 0 0 1:-903.5166 2:-618.13049 3:-24.143484 4:-414.05817 
-0 0 0 0 0 1 0 0 0 0 1:-942.5213 2:-673.03217 3:-20.251438 4:-479.6528 
-0 0.9948113718760823 0 0 1 1 0 0 0 0 1:-942.52356 2:-673.03497 3:-24.134188 4:-434.66275 
-0 0 0 1 0 0 0 0 0 0 1:-913.52222 2:-673.04956 3:-19.991451 4:-480.85876 
-0 0 0.023929765631548 0 0 0 0 0 0 0 1:-897.5025 2:-538.81323 3:-47.09322 4:27.305798 
-0 0 0 0 0 1 0 0 0 0 1:-942.52173 2:-673.03662 3:-19.719582 4:-484.72235 
-0 0 0 0 0 1 0 0 0 0 1:-942.52307 2:-673.03107 3:-24.134577 4:-435.62952 
-0 0 1 0 0 0 0 0 0 0 1:-942.52246 2:-673.02649 3:-24.135031 4:-436.77072 
-0 0 0 0 0 0 1 0 0 0 1:-912.5332 2:-673.12286 3:-23.957397 4:-417.30298 
-1 0 0 0 0 0 0 0 0 0 1:-837.53394 2:-673.14935 3:-24.10998 4:-415.70306 
-0 1 0 1 0 0 0 0 0 0 1:-942.52246 2:-673.02747 3:-24.16946 4:-436.02731 
-0 1 0 1 0 0 0 0 0 0 1:-942.52264 2:-673.02887 3:-24.169327 4:-435.67688 
-0 0 0 0 0 1 0 0 0 0 1:-942.52307 2:-673.03107 3:-24.134577 4:-435.62952 
-0 0 1 0 0 0 1 0 0 0 1:-942.52606 2:-673.05566 3:-24.166616 4:-428.99802 
-0 0 0 0 0 1 0 0 0 0 1:-942.52271 2:-673.02826 3:-24.134863 4:-436.33237 
-0 0 0 1 0 0 0 0 0 0 1:-911.52063 2:-673.039 3:-19.746033 4:-486.49265 
-0 1 0 1 0 0 0 0 0 0 1:-942.52338 2:-673.03583 3:-23.541685 4:-441.21677 
-0 0 0 0 0 1 0 0 0 0 1:-942.52325 2:-673.03247 3:-24.134434 4:-435.27802 
-0 1 0 1 0.9546560113933065 1 0 0 0 0 1:-942.52106 2:-673.02942 3:-20.255404 4:-480.40134 
-0 0 0 0 0 1 0 0 0 0 1:-942.52411 2:-673.04071 3:-23.674963 4:-438.46664 
-0 0 0 0 0 1 0 0 0 0 1:-942.52374 2:-673.03638 3:-24.095819 4:-434.74551 
-0 0 0 0 0 1 0 0 0 0 1:-942.52338 2:-673.03357 3:-24.134327 4:-435.01437 
-0 1 0 0 1 1 0 0 0 0 1:-942.52344 2:-673.03387 3:-24.134291 4:-434.92648 
-0 0 0 0 0 1 0 0 0 0 1:-942.52081 2:-673.02771 3:-20.121799 4:-482.35922 
-0 0 0.2962071980063009 0 0 0 0 0 0 0 1:-942.52246 2:-673.02649 3:-24.135029 4:-436.77072 
-0 0 0 0 0 1 0 0 0 0 1:-942.52325 2:-673.03284 3:-24.134398 4:-435.19016 
-0 0 0 0 0 1 0 0 0 0 1:-942.52423 2:-673.04791 3:-21.935213 4:-456.55209 
-0 1 0 1 0 1 0 0 0 0 1:-942.52399 2:-673.05115 3:-20.558964 4:-471.47937 
-0 0 0 0 0 0 0 0 0 0.6408123091490876 1:-942.52167 2:-673.03625 3:-19.681395 4:-485.24445 
-0 1 1 0 0 0 0.9601887894786276 0 0 0 1:-942.52826 2:-673.0719 3:-24.130444 4:-425.43491 
-0 0 0 0 0 0 0 0 0 1 1:-942.521 2:-673.02832 3:-20.446617 4:-478.49384 
-0 0 0 1 1 0 0 0 0 0 1:-942.52783 2:-673.07568 3:-22.123508 4:-447.43811 
-0 0 0 1 0 0 0 0 0 0 1:-942.52264 2:-673.02795 3:-24.058453 4:-437.28864 
-0 0 0 0 0 0 0 0 0.01324310751098059 0 1:5843.1294 2:1586720 3:-168.77783 4:1864.3771 
-1 0 0 0 0 0 0 0 0 0 1:-837.53375 2:-673.14954 3:-23.689539 4:-420.47906 
-0 1 0 1 0 0 0 0 0 0 1:-942.52258 2:-673.0282 3:-24.169397 4:-435.85248 
-0 1 0 1 0 0 0 0 0 0 1:-942.52258 2:-673.0282 3:-24.169397 4:-435.85248 
-0 0 0 0.8510301936571479 0 0 0 0 0 0 1:-898.52307 2:-629.38428 3:-32.646843 4:-243.31487 
-0 1 0 1 0 1 0 0 0 0 1:-942.52075 2:-673.03027 3:-19.393833 4:-490.06097 
-0 0 0 1 0 0 0 0 0 0 1:-942.52209 2:-673.02832 3:-22.835373 4:-451.18228 
-0 0 0 0 0 1 0 0 0 0 1:-942.52252 2:-673.03876 3:-20.77043 4:-472.1673 
-1 0 0 0 0 0 0 0 0 0 1:-837.53387 2:-673.14941 3:-24.052647 4:-416.35434 
-0 1 0 0 0 0 0 0 0 0 1:-942.53339 2:-673.11633 3:-22.864655 4:-428.77771 
-0 1 0 1 0 0 0 0 0 0 1:-942.52264 2:-673.02832 3:-24.039307 4:-437.41791 
-0 1 0 1 1 0 0 0 0 0 1:-942.52277 2:-673.02997 3:-24.169222 4:-435.41336 
-0 0 0 0 0 1 0 0 0 0 1:-942.52325 2:-673.03284 3:-24.134398 4:-435.19012 
-0 0 0 0.9487849835407511 0 0 0 0 0 0 1:-837.53387 2:-673.14941 3:-23.957092 4:-417.43979 
-0 1 0 1 0 0 0 0 0 0 1:-942.52649 2:-673.06287 3:-22.698107 4:-444.08951 
-0 0 0 1 0 0 0 0 0 0 1:-908.52631 2:-673.08246 3:-21.054308 4:-460.77444 
-0 0 0 1 0 0 0 0 0 0 1:-906.52448 2:-673.05646 3:-23.269228 4:-442.37457 
-0 0.9327722156158509 0 1 0 1 0 0 0 0 1:-942.52191 2:-673.02692 3:-22.739954 4:-452.61816 
-0 0.7574722967027628 0 0 0 0 0 0 0 0 1:-942.52692 2:-673.06104 3:-24.131542 4:-428.15955 
-0 0 0 0 0 0 0 0.0283347161238301 0 0 1:-788.18512 2:-567.93945 3:9696.5098 4:22.511274 
-0 1 0 1 0 0 0 0 0 0 1:-942.52258 2:-673.0282 3:-24.169403 4:-435.85229 
-0 1 0 1 0 0 0 0 0 0 1:-942.52283 2:-673.03046 3:-23.790655 4:-439.71286 
-0 1 0 1 0 0 0 0 0 0 1:-942.52295 2:-673.03137 3:-24.169079 4:-435.06189 
-0 1 0 0.5805890143707755 0 1 0 0 0 0 1:-942.52057 2:-673.02783 3:-19.663143 4:-487.56934 
-0 1 0 1 0 0 0 0 0 0 1:-942.52209 2:-673.0285 3:-23.04187 4:-448.66068 
-0 1 0 1 0 0 0 0 0 0 1:-942.52399 2:-673.03815 3:-24.133863 4:-433.87192 
-0 1 0 1 0 0 0 0 0 0 1:-942.52258 2:-673.0282 3:-24.169397 4:-435.85248 
-0 0 0 0 0 1 0 0 0 0 1:-942.52429 2:-673.04193 3:-24.168013 4:-432.42532 
-0 1 1 1 0 0 0 0 0 0 1:-942.52802 2:-673.06982 3:-24.13065 4:-425.96243 
-0 0 0 0 0 0 0 0 0 0.3054104542958412 1:-906.52545 2:-673.08295 3:-23.31287 4:-434.83069 
-0 1 1 0 0 0 1 0 0 0 1:-942.52429 2:-673.08929 3:-25.484798 4:-404.85065 
-0 1 0 1 0 0 0 0 0 0 1:-942.52258 2:-673.0282 3:-24.169397 4:-435.85248 
-0 0.2689488738613019 0 0 0 0 0 0 0 0 1:-942.52759 2:-673.06665 3:-24.130976 4:-426.75323 
-0 0 0 0 0 1 0 0 0 0 1:-942.52313 2:-673.04657 3:-20.288197 4:-475.61548 
-0 1 0 1 0 0 0 0 0 0 1:-942.52405 2:-673.03882 3:-24.133793 4:-433.69611 
-0 0 1 0 0 0 0 0 0 0 1:-942.52246 2:-673.02649 3:-24.135029 4:-436.77072 
-0 0 0 1 0 0 0 0 0 0 1:-942.52368 2:-673.03601 3:-24.134081 4:-434.39902 
-0 1 0 0 0 1 0 0 0 0 1:-942.52051 2:-673.02863 3:-19.31909 4:-491.30206 
-0 1 0 1 1 0 0 0 0 0 1:-942.52277 2:-673.0296 3:-24.169256 4:-435.50122 
-0 1 0 1 0 0 0 0 0 0 1:-942.52246 2:-673.02747 3:-24.169462 4:-436.02731 
-0 1 0 1 0 1 0 0 0 0 1:-942.521 2:-673.03174 3:-19.490767 4:-488.55768 
-0 0 0 0 0 0 0 0 1 0 1:14933.458 2:-678.16119 3:-38.370216 4:-415.83176 
-1 0 0 0 0 0 0 0 0 0 1:-837.53387 2:-673.14941 3:-24.052647 4:-416.35434 
-0 0 0 0 0 0 0 0.5838741468435558 1 0 1:59984.602 2:-200.25864 3:-82.088966 4:-438.62463 
-0 0 0 0 0 0 0 1 1 0 1:58333.445 2:-691.75586 3:-77.668556 4:-466.53656 
-0 1 0 0 0 0 0 0 0 0 1:-942.52594 2:-673.05359 3:-24.132292 4:-430.0051 
-0 0 0 0 0 1 0 0 0 0 1:-942.52258 2:-673.04218 3:-20.063015 4:-479.4086 
-0 0 0 1 0 0 0 0 0 0 1:-913.52185 2:-673.04633 3:-20.182875 4:-479.47885 
-0 0 0 0 0 1 0 0 0 0 1:-942.52283 2:-673.0293 3:-24.134754 4:-436.06888 
-0 0 0 1 0 0 0 0 0 0 1:-942.52246 2:-673.02692 3:-23.943895 4:-438.85437 
-0 0 0 1 0 0 0 0 0 0 1:-908.52551 2:-673.07373 3:-20.873011 4:-465.16019 
-0 0 0 0 0 0 0 0 0.7507521688839518 0 1:15172.465 2:-678.18042 3:-36.285255 4:-456.52084 
-0 0 0 0 0 1 0 0 0 0 1:-942.52295 2:-673.0304 3:-24.134647 4:-435.8053 
-0 1 0 1 0 1 0 0 0 0 1:-942.5213 2:-673.0285 3:-21.019899 4:-471.89346 
-0 0 0 1 0 0 0 0 0 0 1:-912.52454 2:-673.06879 3:-19.515871 4:-481.66251 
-0 0 0 1 0 0 0 0 0 0 1:-942.52246 2:-673.02655 3:-24.058586 4:-437.6391 
-0 0 0.4566135653156032 0 0 0 0 0 0 0 1:-899.5304 2:-630.74384 3:-44.77676 4:-17.336824 
-0 1 0 1 0 0 0 0 0 0 1:-942.52924 2:-673.08032 3:-24.164118 4:-422.84619 
-0 0 0 0 0 1 0 0 0 0 1:-942.52161 2:-673.03479 3:-19.968212 4:-482.33957 
-0 1 0 0 1 1 0 0 0 0 1:-942.52405 2:-673.03918 3:-24.057314 4:-434.47662 
-0 0 0 0 0 0 0 0 1 0 1:41815.578 2:-296.53693 3:-61.463657 4:-449.85144 
-0 0 0 0 0 1 0 0 0 0 1:-942.52283 2:-673.0293 3:-24.134756 4:-436.06882 
-0 0 0 0 0 0 0 0 1 0 1:25465.455 2:-681.45416 3:-46.407352 4:-446.95749 
-0 0 0 0 0 1 0 0 0 0 1:-942.52216 2:-673.02789 3:-23.007404 4:-449.31631 
-0 1 0 0 0 1 0 0 0 0 1:-942.52057 2:-673.02783 3:-19.644033 4:-487.78641 
-0 -0 0 0 0 0 0.002430416394247147 0 6.570870868951309e-10 2.159382282183881e-07 1:-942.53577 2:-673.25769 3:-23.803984 4:-392.18143 
-0 -1 0 0 0 0 0 0 0 0 1:-942.53345 2:-673.17523 3:-21.134773 4:-437.74182 
-0 -1 0 0 0 0 0 0 0 0 1:-942.52887 2:-673.10876 3:-22.814251 4:-430.74258 
-0 -0 0 0 0 0.8323678395457125 0 0 0 0 1:-942.53552 2:-673.25043 3:-23.635475 4:-394.91071 
-0 -1 0 0 0 0 0 0 0 0 1:-942.53339 2:-673.17535 3:-21.290174 4:-434.76215 
-0 -1 0 0 0 0 0 0 0 0 1:-942.53302 2:-673.1629 3:-20.907074 4:-441.41028 
-0 -0 1 0 0 0 0 0 0 0 1:-942.54065 2:-673.44366 3:-30.198862 4:-282.23373 
-0 -0 0.8849744844754005 0 0 0 0 0 0 0 1:-942.54059 2:-673.43909 3:-29.763426 4:-289.22943 
-0 -1 0 0 0 1 0 0 0 0 1:-942.5332 2:-673.1687 3:-21.05381 4:-438.84332 
-0 -0 0 0 0 1 0 0 0 0 1:-942.5351 2:-673.23053 3:-23.079323 4:-405.42343 
-0 -0 1 0 0 0 0 0 0 0 1:-942.54053 2:-673.43469 3:-29.733915 4:-290.53683 
-0 -1 0 0 0 1 0 0 0 0 1:-942.53204 2:-673.1261 3:-19.630404 4:-463.23212 
-0 -1 0 0 0 0 0 0 0 0 1:-942.53363 2:-673.18817 3:-21.813831 4:-425.59024 
-0 -0 0 1 1 1 0.0001203084639607222 0 0 6.955551910839663e-07 1:-942.52496 2:-673.06964 3:-20.0627 4:-473.05478 
-0 -1 0 0 0 0 0 0 0 0 1:-942.53387 2:-673.19189 3:-21.717196 4:-427.70709 
-0 -0 0 0 0 1 0 0 0 0 1:-942.53314 2:-673.16498 3:-20.82267 4:-443.02234 
-0 -1 0 0 0 0 0 0 0 0 1:-942.53351 2:-673.17377 3:-21.399715 4:-434.65366 
-0 -1 0 0 1 1 0 0 0 0 1:-942.53192 2:-673.11981 3:-19.360037 4:-467.98041 
-0 -0 1 0 0 0 0 0 0 0 1:-942.5415 2:-673.47876 3:-31.487764 4:-259.90659 
-0 -0 1 0 0 0 0 0 0 0 1:-942.54132 2:-673.4696 3:-31.072035 4:-267.17657 
-0 -0 1 0 0 0 0 0 0 0 1:-942.54108 2:-673.4621 3:-30.905344 4:-269.94128 
-0 -1 0 0 0 0 0 0 0 0 1:-942.53253 2:-673.1427 3:-20.384823 4:-451.24402 
-0 -0 1 0 0 0 0 0 0 0 1:-942.54126 2:-673.46875 3:-31.141706 4:-265.86011 
-0 -1 0 0 0 1 0 0 0 0 1:-942.5332 2:-673.17316 3:-21.372446 4:-433.03064 
-0 -1 0 0 0 0 0 0 0 0 1:-942.53326 2:-673.17474 3:-21.358082 4:-433.41608 
-0 -0 0 0 0 1 0 0 0 0 1:-942.53204 2:-673.12628 3:-19.613424 4:-463.56888 
-0 -0 1 0 0 0 0 0 0 0 1:-942.54126 2:-673.46802 3:-31.054213 4:-267.49371 
-0 -0 1 0 0 0 0 0 0 0 1:-942.54132 2:-673.47314 3:-31.244858 4:-263.89752 
-0 -0 0 0 1 1 0 0 0 0 1:-942.53204 2:-673.12469 3:-19.506763 4:-465.58621 
-0 -0 0 0 0 1 0 0 0 0 1:-942.53522 2:-673.24457 3:-23.642059 4:-394.38455 
-0 -0 0 0 0 0 1.416972770382348e-07 0 0 0 1:-942.54138 2:-673.47241 3:-31.217447 4:-264.66077 
-0 -0.6075931255503079 0 0 0 0 0 0 0 0 1:-942.53296 2:-673.16052 3:-20.831812 4:-442.53906 
-0 -1 0 0 0 0 0 0 0 0 1:-942.53387 2:-673.19159 3:-21.751097 4:-427.02817 
-0 -0 0 0 0 0 0 0 0 1.581608284590973e-09 1:-942.53406 2:-673.3728 3:-29.263412 4:-310.43256 
-0 -1 0 0 0 0 0 0 0 0 1:-942.5329 2:-673.16119 3:-20.938417 4:-440.68829 
-0 -1 0 0 0 0 0 0 0 0 1:-942.52551 2:-673.08423 3:-20.460238 4:-465.33344 
-0 -1 0 0 0 0 0 0 0 0 1:-942.5329 2:-673.16205 3:-20.989824 4:-439.60825 
-0 -1 0 0 0 0 0 0 0 0 1:-942.53406 2:-673.19922 3:-22.041002 4:-421.98636 
-0 -0 0 0 0 0.9733692127376984 0 0 0 0 1:-942.53284 2:-673.13605 3:-21.07328 4:-445.2782 
-0 -0 1 0 0 0 0 0 0 0 1:-942.54132 2:-673.47131 3:-31.180883 4:-265.28488 
-0 -1 0 0 0 0 0 0 0 0 1:-942.5329 2:-673.1601 3:-20.882742 4:-441.52951 
-0 -0.3048060460781386 0 0 0 0 0 0 0 0 1:-942.53412 2:-673.20508 3:-22.362249 4:-416.22266 
-0 -0.01551817375080418 0 0 0 0 0 0 0 0 1:-942.53217 2:-673.13257 3:-19.883743 4:-458.81461 
-0 -0 0 0 1 1 0 0 0 0 1:-942.53198 2:-673.12109 3:-19.379356 4:-467.69498 
-0 -1 0 0 0 0 0 0 0 0 1:-942.53302 2:-673.15485 3:-21.535965 4:-434.6842 
-0 -0 1 0 0 0 0 0 0 0 1:-942.54071 2:-673.44623 3:-30.238037 4:-281.65851 
-0 -1 0 0 0 0 0 0 0 0 1:-942.53308 2:-673.16534 3:-20.944118 4:-440.71567 
-0 -0 0 0 0.2033421209563577 1 0 0 0 0 1:-942.5321 2:-673.1264 3:-19.596447 4:-463.90555 
-0 -0 1 0 0 0 0 0 0 0 1:-942.54132 2:-673.47101 3:-31.214836 4:-264.61188 
-0 -1 0 0 0 0 0 0 0 0 1:-942.53308 2:-673.14862 3:-21.55736 4:-436.4317 
-0 -0 1 0 0 0 0 0 0 0 1:-942.5415 2:-673.47876 3:-31.487764 4:-259.90659 
-0 -0 0 0 0 1 0 0 0 0 1:-942.53241 2:-673.1405 3:-20.139696 4:-454.44604 
-0 -1 0 0 1 1 0 0 0 0 1:-942.53192 2:-673.11884 3:-19.30654 4:-468.94733 
-0 -1 0 0 0 0 0 0 0 0 1:-942.53387 2:-673.19269 3:-21.787663 4:-426.40405 
-0 -0 0 0 0 1 9.994232368138686e-07 0 0 0 1:-942.53217 2:-673.13062 3:-19.814882 4:-460.30179 
-0 -1 0 0 0 0 0 0 0 0 1:-942.53223 2:-673.13013 3:-19.67219 4:-462.70639 
-0 -0.3005967292234085 0 0 0 0 0 0 0 0 1:-942.53381 2:-673.18945 3:-21.660992 4:-428.61292 
-0 -1 0 0 0 0 0 0 0 0 1:-942.53265 2:-673.14661 3:-20.271591 4:-452.33511 
-0 -1 0 0 0 0 0 0 0 0 1:-942.53363 2:-673.18158 3:-21.40509 4:-432.98761 
-0 -1 0 0 0 0 0 0 0 0 1:-942.53333 2:-673.17224 3:-21.146526 4:-437.3075 
-0 -0 1 0 0 0 0 0 0 0 1:-942.54108 2:-673.4621 3:-30.905344 4:-269.94128 
-0 -1 0 0 0 0 0 0 0 0 1:-942.53333 2:-673.17615 3:-21.360693 4:-433.465 
-0 -1 0 0 0 0 0 0 0 0 1:-942.53326 2:-673.16901 3:-21.019857 4:-439.51636 
-0 -1 0 0 0 0 0 0 0 0 1:-942.53302 2:-673.16571 3:-21.065565 4:-438.40897 
-0 -0 1 0 0 0 0 0 0 0 1:-942.54065 2:-673.44366 3:-30.198862 4:-282.23373 
-0 -0 1 0 0 0 0 0 0 0 1:-942.54126 2:-673.46735 3:-30.966715 4:-269.12732 
-0 -0 1 0 0 0 0 0 0 0 1:-942.54132 2:-673.47101 3:-31.214836 4:-264.61188 
-0 -1 0 0 0 0 0 0 0 0 1:-942.53424 2:-673.20526 3:-22.192057 4:-419.66412 
-0 -1 0 0 0 0 0 0 0 0 1:-942.53265 2:-673.13617 3:-20.633728 4:-450.2713 
-0 -0 0 0 0 1 0 0 0 0 1:-942.5321 2:-673.12738 3:-19.64999 4:-462.94482 
-0 -1 0 0 0 0 0 0 0 0 1:-942.53381 2:-673.18866 3:-21.590473 4:-429.91003 
-0 -0 0 0 0 1 0 0 0 0 1:-942.53198 2:-673.12091 3:-19.415758 4:-467.14536 
-0 -0 0 0 0 1 0 0 0 0 1:-942.53235 2:-673.13708 3:-20.030003 4:-456.31833 
-0 -1 0 0 0 0 0 0 0 0 1:-942.53333 2:-673.1759 3:-21.394644 4:-432.79199 
-0 -1 0 0 0 0 0 0 0 0 1:-942.53363 2:-673.18549 3:-21.619257 4:-429.14511 
-0 -0 0 0 1 1 0 0 0 0 1:-942.53198 2:-673.11993 3:-19.457769 4:-467.02078 
-0 -0.02642117056406475 0 0 0 0 0 0 0 0 1:-942.53259 2:-673.14709 3:-20.37606 4:-450.3649 
-0 -0.2927811870476202 0 0 0 0 0 0 0 0 1:-942.53394 2:-673.19666 3:-22.001827 4:-422.56158 
-0 -1 0 0 0 0 0 0 0 0 1:-942.53387 2:-673.19635 3:-22.03578 4:-421.88858 
-0 -0 1 0 0 0 0 0 0 0 1:-942.5412 2:-673.46234 3:-30.715986 4:-273.59387 
-0 -1 0 0 0 0 0 0 0 0 1:-942.53296 2:-673.15887 3:-20.690775 4:-445.13336 
-0 -0 0 0 0 1 0 0 0 0 1:-942.53253 2:-673.14648 3:-20.352579 4:-450.59872 
-0 -1 0 0 0 0 0 0 0 0 1:-942.53387 2:-673.19159 3:-21.751097 4:-427.02817 
-0 -0 1 0 0 0 0 0 0 0 1:-942.54126 2:-673.47003 3:-31.161295 4:-265.57248 
-0 -0 0 0 0 1 0 0 0 0 1:-942.53235 2:-673.13708 3:-20.030003 4:-456.31833 
-0 -0 1 0 0 0 0 0 0 0 1:-942.54065 2:-673.44366 3:-30.198862 4:-282.23373 
-0 -0 1 0 0 0 0 0 0 0 1:-942.54126 2:-673.46887 3:-31.124731 4:-266.19659 
-0 -1 0 0 0 1 0 0 0 0 1:-942.53259 2:-673.14911 3:-20.483143 4:-448.4436 
-0 -0 1 0 0 0 0 0 0 0 1:-942.54138 2:-673.47223 3:-31.142672 4:-265.89395 
-0 -1 0 0 0 1 0 0 0 0 1:-942.53192 2:-673.11993 3:-19.343105 4:-468.3233 
-0 -1 0 0 1 1 0 0 0 0 1:-942.53186 2:-673.11823 3:-19.266554 4:-469.52377 
-0 -0 1 0 0 0 0 0 0 0 1:-942.54126 2:-673.46887 3:-31.124731 4:-266.19659 
-0 -0 1 0 0 0 0 0 0 0 1:-942.5415 2:-673.47876 3:-31.487764 4:-259.90659 
-0 -1 0 0 0 0 0 0 0 0 1:-942.53284 2:-673.14001 3:-21.115602 4:-443.39157 
-0 -1 0 0 0 0 0 0 0 0 1:-942.53278 2:-673.1496 3:-20.587234 4:-447.83591 
-0 -0 1 0 0 0 0 0 0 0 1:-942.54126 2:-673.46735 3:-30.966717 4:-269.12732 
-0 -1 0 0 0 0 0 0 0 0 1:-942.53326 2:-673.16821 3:-20.949339 4:-440.81348 
-0 -1 0 0 0 0 0 0 0 0 1:-942.53296 2:-673.1618 3:-20.851398 4:-442.2515 
-0 -0 0 0 0 0.02052557792928882 0 0 0 0 1:-942.53589 2:-673.27484 3:-24.453033 4:-379.24847 
-0 -1 0 0.1628135961621449 1 1 0 1.792030392835464e-05 0 0 1:-942.52148 2:-673.05585 3:-20.30913 4:-472.89877 
-0 -0 1 0 0 0 0 0 0 0 1:-942.54126 2:-673.46887 3:-31.124731 4:-266.19659 
-0 -1 0 0 0 1 0 0 0 0 1:-942.53308 2:-673.16058 3:-20.659435 4:-445.85532 
-0 -0 0 0 0 0.01720130482464641 0 0 0 0 1:-942.53345 2:-673.17694 3:-21.29492 4:-434.93048 
-7.396510858110136e-06 -0 1 0 0 0 0 0 0 0 1:-942.5415 2:-673.47876 3:-31.487764 4:-259.90659 
-0 -0 1 0 0 0 0 0 0 0 1:-942.54071 2:-673.44623 3:-30.238037 4:-281.65851 
-0 -1 0 0 0 0 0 0 0 0 1:-942.53369 2:-673.18298 3:-21.407652 4:-433.03061 
-0 -1 0 0 0 0 0 0 0 0 1:-942.53333 2:-673.17487 3:-21.341105 4:-433.75259 
-0 -1 0 0 0 0 0 0 0 0 1:-942.53345 2:-673.17554 3:-21.133059 4:-437.7182 
-0 -0.1594317499805745 0 0 0 1 0 0 0 0 1:-942.53204 2:-673.12531 3:-19.559885 4:-464.5296 
-0 -0 0 0 0 1 0 0 0 0 1:-942.53198 2:-673.12219 3:-19.416235 4:-467.07516 
-0 -0 0 0 0.6976890218868795 1 0 0 0 0 1:-942.5321 2:-673.1264 3:-19.596447 4:-463.90555 
-0 -0 1 0 0 0 0 0 0 0 1:-942.54059 2:-673.43976 3:-29.984697 4:-286.07617 
-0 -1 0 0 0 0 0 0 0 0 1:-942.53314 2:-673.1676 3:-21.017244 4:-439.46744 
-0 -0 0.4133212777069453 0 0 0 0 0 0 0 1:-942.5412 2:-673.46234 3:-30.715988 4:-273.59387 
-0 -0 0 0 0 0.185092576418682 0 0 0 0 1:-942.53223 2:-673.13177 3:-19.851448 4:-459.67773 
-0 -1 0 0 0 1 0 0 0 0 1:-942.53247 2:-673.14258 3:-20.229801 4:-452.8613 
-0 -0 0 0 1 1 0 0 0 0 1:-942.53198 2:-673.12091 3:-19.396646 4:-467.36246 
-0 -1 0 0 0 0 0 0 0 0 1:-942.53339 2:-673.17285 3:-21.425131 4:-433.50296 
-0 -0 0 0 0 1 0 0 0 0 1:-942.53345 2:-673.17938 3:-21.487362 4:-431.25616 
-0 -1 0 0 0 1 0 0 0 0 1:-942.53192 2:-673.11993 3:-19.343103 4:-468.32333 
-0 -1 0 0 0 0 0 0 0 0 1:-942.53418 2:-673.20276 3:-22.133718 4:-420.45053 
-0 -0 1 0 0 0 0 0 0 0 1:-942.54108 2:-673.4621 3:-30.905344 4:-269.94128 
-0 -1 0 0 0 0 0 0 0 0 1:-942.5329 2:-673.16107 3:-20.936281 4:-440.56888 
-0 -1 0 0 0 0 0 0 0 0 1:-942.53271 2:-673.1554 3:-20.75346 4:-443.68939 
-0 -0 1 0 0 0 0 0 0 0 1:-942.54126 2:-673.4682 3:-31.037182 4:-267.82431 
-0 -1 0 0 0 0.1520854405393383 0 0 0 0 1:-942.5321 2:-673.12836 3:-19.703531 4:-461.9841 
-0 -0 1 0 0 0 0 0 0 0 1:-942.54059 2:-673.43976 3:-29.984697 4:-286.07617 
-0 -0 0 0 0 1 0 0 0 0 1:-942.53223 2:-673.12775 3:-19.828344 4:-461.34363 
-0 -0 0 0 0 1 0 0 0 0 1:-942.53259 2:-673.14233 3:-20.206045 4:-454.20209 
-0 -0 1 0 0 0 0 0 0 0 1:-942.54144 2:-673.47662 3:-31.397657 4:-261.4913 
-0 -1 0 0 0 1 0 0 0 0 1:-942.53198 2:-673.11761 3:-19.46109 4:-467.40012 
-0 -0 1 0 0 0 0 0 0 0 1:-942.54089 2:-673.45105 3:-30.35029 4:-279.82913 
-0 -0.4508571050261383 0 0 0 0 0 0 0 0 1:-942.5329 2:-673.16138 3:-20.90233 4:-441.24191 
-0 -0 1 0 0 0 0 0 0 0 1:-942.54047 2:-673.43774 3:-30.049994 4:-284.6813 
-0 -1 0 0 0 0 0 0 0 0 1:-942.5329 2:-673.15662 3:-20.617647 4:-446.38159 
-0 -1 0 0 0 0 0 0 0 0 1:-942.53308 2:-673.16602 3:-21.03161 4:-439.082 
-0 -1 0 0 0 0 0 0 0 0 1:-942.53302 2:-673.16821 3:-21.277119 4:-434.51752 
-0 -1 0 0 0 0 0 0 0 0 1:-942.53302 2:-673.16888 3:-20.998837 4:-438.24942 
-0 -0 1 0 0 0 0 0 0 0 1:-942.54138 2:-673.47076 3:-31.07641 4:-267.25497 
-0 -1 0 0 0 1 0 0 0 0 1:-942.53204 2:-673.12531 3:-19.559883 4:-464.5296 
-0 -0 1 0 0 0 0 0 0 0 1:-942.54126 2:-673.47003 3:-31.161295 4:-265.57248 
-0 -0 0 0 0 1 0 0 0 0 1:-942.53229 2:-673.13403 3:-19.886356 4:-458.86374 
-0 -1 0 0 0 0 0 0 0 0 1:-942.53381 2:-673.19049 3:-21.714584 4:-427.65817 
-0 -0 1 0 0 0 0 0 0 0 1:-942.54059 2:-673.43976 3:-29.984695 4:-286.07617 
-0 -0 0 0 0 1 0 0 0 0 1:-942.53229 2:-673.13495 3:-20.01634 4:-457.0347 
-0 -1 0 0 0 0 0 0 0 0 1:-942.53101 2:-673.14935 3:-21.926558 4:-433.0488 
-0 -0 1 0 0 0 0 0 0 0 1:-942.54144 2:-673.4776 3:-31.4512 4:-260.5307 
-0 -1 0 0 0 0 0 0 0 0 1:-942.53278 2:-673.16125 3:-21.074707 4:-437.92557 
-0 -0 0 0 0 1 0 0 0 0 1:-942.53418 2:-673.20844 3:-22.438076 4:-415.1171 
-0 -1 0 0 0 0 0 0 0 0 1:-942.5332 2:-673.16479 3:-20.896978 4:-442.03458 
-0 -1 0 0 0 0 0 0 0 0 1:-942.53265 2:-673.15106 3:-20.590225 4:-446.52231 
-0 -1 0 0 0 0 0 0 0 0 1:-942.5329 2:-673.13635 3:-21.039328 4:-445.95126 
-0 -1 0 0 0 0 0 0 0 0 1:-942.53326 2:-673.16901 3:-21.019855 4:-439.51636 
-0 -0 1 0 0 0 0 0 0 0 1:-942.54126 2:-673.46344 3:-30.75255 4:-272.96976 
-0 -0 0 0 0 1 0 0 0 0 1:-942.53369 2:-673.18842 3:-21.779881 4:-426.26324 
-0 -0 1 0 0 0 0 0 0 0 1:-942.54059 2:-673.43976 3:-29.984695 4:-286.07617 
-0 -0 0 0 0 1 0 0 0 0 1:-942.5329 2:-673.15515 3:-20.7297 4:-445.03012 
-0 -0.3984145399685315 0 0 0 1 0 0 0 0 1:-942.53259 2:-673.14117 3:-20.188591 4:-454.6091 
-0 -0 1 0 0 0 0 0 0 0 1:-942.54126 2:-673.46887 3:-31.124731 4:-266.19659 
-0 -1 0 0 0 0 0 0 0 0 1:-942.53198 2:-673.11987 3:-19.495991 4:-466.58658 
-0 -1 0 0 0 0 0 0 0 0 1:-942.53314 2:-673.16827 3:-21.10474 4:-437.8338 
-0 -1 0 0 0 0 0 0 0 0 1:-942.53424 2:-673.20526 3:-22.172894 4:-419.87531 
-0 -1 0 0 0 0 0 0 0 0 1:-942.53259 2:-673.14001 3:-20.304914 4:-453.49649 
-0 -0 0 0 0 1 0 0 0 0 1:-942.5351 2:-673.2348 3:-23.106596 4:-403.98483 
-0 -0.03869549589674878 0 0 0 1 0 0 0 0 1:-942.53253 2:-673.14667 3:-20.426991 4:-449.35526 
-0 -0 1 0 0 0 0 0 0 0 1:-942.54126 2:-673.46344 3:-30.75255 4:-272.96976 
-0 -0 1 0 0 0 0 0 0 0 1:-942.54071 2:-673.44623 3:-30.238035 4:-281.65851 
-0 -1 0 0 0.4077309656347456 1 0 0 0 0 1:-942.53204 2:-673.12317 3:-19.469778 4:-466.11438 
-0 -0 0 0 0 1 0 0 0 0 1:-942.5351 2:-673.2348 3:-23.106596 4:-403.98483 
-0 -1 0 0 0 0 0 0 0 0 1:-942.53314 2:-673.15607 3:-21.746664 4:-432.22574 
-0 -0 1 0 0 0 0 0 0 0 1:-942.54144 2:-673.47424 3:-31.217564 4:-264.67523 
-0 -0 1 0 0 0 0 0 0 0 1:-942.54071 2:-673.44623 3:-30.238037 4:-281.65851 
-0 -0 0 0 0 1 0 0 0 0 1:-942.53223 2:-673.1308 3:-19.778793 4:-460.8555 
-0 -1 0 0 0 0 0 0 0 0 1:-942.53265 2:-673.15118 3:-20.573248 4:-446.85886 
-0 -0 1 0 0 0 0 0 0 0 1:-942.54071 2:-673.44623 3:-30.238037 4:-281.65851 
-0 -1 0 0 0 0 0 0 0 0 1:-942.53247 2:-673.14539 3:-20.407402 4:-449.64279 
-0 -1 0 0 0 0 0 0 0 0 1:-942.53253 2:-673.12354 3:-20.710066 4:-451.71979 
-0 -0 1 0 0 0 0 0 0 0 1:-942.54144 2:-673.4776 3:-31.4512 4:-260.5307 
-0 -6.877428506381796e-06 0 0 0 0 0 0 0 0 1:-942.5365 2:-673.28644 3:-24.822567 4:-374.60843 
-0 -1 0 0 0 0 0 0 0 0 1:-942.53265 2:-673.15118 3:-20.573248 4:-446.85886 
-0 -1 0 0 0 0 0 0 0 0 1:-942.53345 2:-673.18054 3:-21.523926 4:-430.63205 
-0 -1 0 0 0 0 0 0 0 0 1:-942.53363 2:-673.18884 3:-21.901327 4:-423.9566 
-0 -1 0 0 0 0 0 0 0 0 1:-942.53296 2:-673.15704 3:-20.566717 4:-447.39114 
-0 -1 0 0 0 0 0 0 0 0 1:-942.53271 2:-673.15149 3:-20.539295 4:-447.53192 
-0 -0 1 0 0 0 0 0 0 0 1:-942.54126 2:-673.46887 3:-31.124731 4:-266.19659 
-0 -1 0 0 0 0 0 0 0 0 1:-942.53271 2:-673.15356 3:-20.6294 4:-445.9472 
-0 -1 0 0 0 0 0 0 0 0 1:-942.53314 2:-673.16992 3:-21.245775 4:-435.2395 
-0 -0 1 0 0 0 0 0 0 0 1:-942.54132 2:-673.47101 3:-31.214836 4:-264.61188 
-0 -1 0 0 0 0 0 0 0 0 1:-942.53247 2:-673.13995 3:-20.092556 4:-455.76505 
-0 -1 0 0 0 0 0 0 0 0 1:-942.53259 2:-673.15009 3:-20.536682 4:-447.48297 
-0 -1 0 0 0 0 0 0 0 0 1:-942.53333 2:-673.1759 3:-21.394644 4:-432.79199 
-0 -1 0 0 0 0 0 0 0 0 1:-942.53375 2:-673.18542 3:-21.463854 4:-432.12479 
-0 -1 0 0 0 0 0 0 0 0 1:-942.5329 2:-673.16479 3:-21.167425 4:-436.3898 
-0 -0 -0 0 0 0 0 0 6.570727181220697e-10 0 1:-942.54779 2:-673.69336 3:-37.918083 4:-151.27151 
-0 -0 -1 0 0 0 0 0 0 0 1:-942.54779 2:-673.69336 3:-37.918087 4:-151.27162 
-0 -0 -1 0 0 0 0 0 0 0 1:-942.53986 2:-673.40668 3:-28.630388 4:-309.79251 
-0 -0 -1 0 0 0 0 0 0 0 1:-942.54779 2:-673.69336 3:-37.918087 4:-151.27159 
-0 -1 -1 0 0.2539570621465395 0 0 0 0 0 1:-941.53235 2:-673.14032 3:-20.19162 4:-453.40475 
-0 -1 -1 0 0 1 0 0 0 0 1:-942.53644 2:-673.28247 3:-24.608307 4:-378.44504 
-0 -0 -0.8103288155721829 0 0 0 0 0 0 0 1:-942.54779 2:-673.69336 3:-37.918087 4:-151.27161 
-0 -1 -1 0 1 0 0 0 0 0 1:-941.53253 2:-673.14514 3:-20.303959 4:-451.57996 
-0 -0 -1 0 0 0 0 0 0 0 1:-942.54779 2:-673.69336 3:-37.918087 4:-151.27159 
-7.56720970737103e-06 -0 -0 0 0 0 0.001161998941789503 0 0 0 1:-936.54266 2:-669.69458 3:-33.890362 4:-151.61429 
-0 -0 -1 0 0 0.3667021250369296 0 0 0 0 1:-942.54028 2:-673.42133 3:-29.105728 4:-301.67902 
-0 -1 -1 0 0 0 0 0 0 0 1:-941.53278 2:-673.1604 3:-21.134703 4:-437.43219 
-0 -0 -1 0 0 0 0 0 0 0 1:-942.54779 2:-673.69336 3:-37.918087 4:-151.27162 
-0 -0.4699419653284825 -1 0 0 1 0 0 0 0 1:-942.53937 2:-673.38861 3:-28.045361 4:-319.77832 
-0 -1 -1 0 0 0 0 0 0 0 1:-941.53284 2:-673.15179 3:-20.368265 4:-450.82016 
-0 -0 -1 0 0 0 0 0 0 0 1:-942.54779 2:-673.69336 3:-37.91811 4:-151.27678 
-0 -0 -1 0 0 0 0 0 0 0 1:-942.54779 2:-673.69336 3:-37.918087 4:-151.27159 
-0 -0 -1 0 0 0 0 0 0 0 1:-942.54175 2:-673.47437 3:-30.824572 4:-272.34991 
-0 -1 -1 0 1 0.9623607959041861 0 0 0 0 1:-941.53229 2:-673.13263 3:-19.746344 4:-461.42508 
-0 -1 -1 0 0 0 0 0 0 0 1:-941.53278 2:-673.15503 3:-20.666992 4:-445.2905 
-0 -0 -1 0 0 0 0 0 0 0 1:-942.54779 2:-673.69336 3:-37.91811 4:-151.27681 
-0 -0 -1 0 0 0 0 0 0 0 1:-942.54779 2:-673.69336 3:-37.918087 4:-151.27158 
-0 -0 -1 0 0 0 0 0 0 0 1:-942.54779 2:-673.69336 3:-37.918087 4:-151.27161 
-0 -0 -1 0 0 0 0 0 0 0 1:-942.54779 2:-673.69336 3:-37.918087 4:-151.27158 
-0 -1 -1 0 1 1 0 0 0 0 1:-941.53223 2:-673.13037 3:-19.673529 4:-462.67758 
-0 -0 -1 0 0 0 0 0 0 0 1:-942.54779 2:-673.69336 3:-37.918087 4:-151.27158 
-0 -0 -1 0 0 0 0 0 0 0 1:-942.54779 2:-673.69336 3:-37.918091 4:-151.27165 
-0 -1 -0 1 0.009054779570882099 0 0.0003802509435527271 1.828671744278544e-05 0 9.20220304701675e-07 1:-936.5213 2:-647.14441 3:-21.072104 4:-446.59726 
-0 -1 -1 0 0 0 0 0 0 0 1:-942.53857 2:-673.35925 3:-27.094685 4:-336.00525 
-0 -0 -1 0 0 0 0 0 0 0 1:-942.54779 2:-673.69336 3:-37.918087 4:-151.27158 
-0 -1 -1 0 0 0 0 0 0 0 1:-941.53387 2:-673.1958 3:-21.966345 4:-423.15869 
-0 -0 -1 0 0 0 0 0 0 0 1:-942.54779 2:-673.69336 3:-37.918087 4:-151.27159 
-0 -1 -1 0 0 0 0 0 0 0 1:-941.53351 2:-673.18042 3:-21.403509 4:-432.90588 
-0 -0 -1 0 0 0 0 0 0 0 1:-942.54779 2:-673.69336 3:-37.91811 4:-151.27678 
-0 -0 -1 0 0 0 0 0 0 0 1:-942.54779 2:-673.69336 3:-37.918087 4:-151.27159 
-0 -1 -1 0 0 0 0 0 0 0 1:-941.5332 2:-673.16833 3:-20.967348 4:-440.44385 
-0 -0 -1 0 0 0 0 0 0 0 1:-942.54779 2:-673.69336 3:-37.918087 4:-151.27158 
-0 -0 -1 0 0 0 0 0 0 0 1:-942.54779 2:-673.69336 3:-37.918091 4:-151.27165 
-0 -0 -1 0 0 0 0 0 0 0 1:-942.54779 2:-673.69336 3:-37.918091 4:-151.27165 
-0 -0 -1 0 0 0 0 0 0 0 1:-942.54779 2:-673.69336 3:-37.918087 4:-151.27158 
-0 -0 -1 0 0 0 0 0 0 0 1:-942.54779 2:-673.69336 3:-37.918087 4:-151.27158 
-0 -1 -1 0 0 0 0 0 0 0 1:-941.53284 2:-673.15924 3:-21.251028 4:-436.31949 
-0 -1 -1 0 0 0 0 0 0 0 1:-942.53943 2:-673.39087 3:-28.118488 4:-318.53009 
-0 -0 -0.9926530753051402 0 0 0 0 0 0 0 1:-942.54779 2:-673.69336 3:-37.918091 4:-151.27164 
-0 -1 -1 0 1 0 0 0 0 0 1:-941.53241 2:-673.13715 3:-19.89258 4:-458.92975 
-0 -1 -1 0.409490858416044 1 0.3043685058331242 0.001650821386012649 0 0 0 1:-941.53192 2:-673.12006 3:-19.361101 4:-467.9538 
-0 -0 -1 0 0 0 0 0 0 0 1:-942.54779 2:-673.69336 3:-37.918091 4:-151.27165 
-0 -0 -1 0 0 0 0 0 0 0 1:-942.54779 2:-673.69336 3:-37.918087 4:-151.27159 
-0 -1 -1 0 0 0 0 0 0 0 1:-942.53845 2:-673.35474 3:-26.948429 4:-338.50171 
-0 -0 -0.4953138713047786 0 0 0 0 0 0 0 1:-942.54779 2:-673.69336 3:-37.918087 4:-151.27161 
-0 -1 -1 0 0 0 0 0 0 0 1:-941.53339 2:-673.16229 3:-21.661495 4:-433.45877 
-0 -0 -1 0 0 0 0 0 0 0 1:-942.54779 2:-673.69336 3:-37.918106 4:-151.27676 
-0 -1 -1 0 0 1 0 0 0 0 1:-942.53485 2:-673.22491 3:-22.743525 4:-410.27487 
-0 -0 -0 0 0 0.1550443294695405 0 0 0 0 1:-942.54779 2:-673.69226 3:-37.881527 4:-151.89583 
-0 -1 -1 0 0 0 0 0 0 0 1:-941.53308 2:-673.16193 3:-20.697351 4:-445.2034 
-0 -1 -0 -0 0 0 0 0 6.572765371247876e-10 0 1:-934.52258 2:-673.05023 3:-24.864952 4:-421.02768 
-0 -1 -0 -0 0 0 0 1.816586277928078e-05 0 2.925372823310717e-07 1:-924.52045 2:-673.03375 3:-19.373856 4:-491.00159 
-0 -1 -0.9730852222910218 -0.3857428861858818 1 1 0 0 0 0 1:-942.52258 2:-673.04517 3:-19.277229 4:-487.66913 
-0 -1 -0 -0 0 0 0 0 0 0 1:-924.52246 2:-673.03235 3:-24.132401 4:-436.94666 
-0 -1 -0 -0 0 0 0 0 0 0 1:-934.52094 2:-673.03949 3:-20.686996 4:-472.71625 
-0 -1 -0 -0 0 0 0 0 0 0 1:-934.52148 2:-673.05792 3:-22.411367 4:-446.43246 
-0 -1 -0 -0 0 0 0 0 0 0 1:-934.52258 2:-673.04626 3:-24.72723 4:-424.00177 
-0 -1 -0 -0 0 0 0 0 0 0 1:-934.52252 2:-673.04132 3:-24.555079 4:-427.71936 
-0 -1 -0 -0.1947453029768251 0 0 0 0 0 0 1:-942.4776 2:-540.02863 3:-18.312222 4:-491.35355 
-0 -1 -0 -0 0 0 0 0 0 0 1:-934.52252 2:-673.03149 3:-24.210775 4:-435.15454 
-0 -1 -0 -0 0.9937794955247176 0 0 0 0 0 1:-934.52264 2:-673.06891 3:-25.519129 4:-406.90085 
-0 -1 -0 -0 0 0 0 0 0 0 1:-934.52118 2:-673.04822 3:-21.531965 4:-459.94611 
-0 -1 -0 -0 0 0 0 0 0 0 1:-924.521 2:-673.03333 3:-20.673378 4:-476.23959 
-0 -1 -0 -0 0 0 0 0 0 0 1:-924.52246 2:-673.03235 3:-24.132401 4:-436.94666 
-0 -1 -0 -0 0.2639193222835205 0 0 0 0 0 1:-942.5224 2:-673.0437 3:-19.277372 4:-488.02066 
-0 -1 -0 -0 0 0 0 0 0 0 1:-934.52252 2:-673.039 3:-24.486254 4:-429.29425 
-0 -1 -0 -0 0 0 0 0 0 0 1:-934.52063 2:-673.03088 3:-19.612696 4:-488.09131 
-0 -1 -0 -0 0 0 0 0 0 0 1:-924.52063 2:-673.03363 3:-19.756067 4:-486.65982 
-0 -1 -0 -0 0 0 0 0 0 0 1:-934.52118 2:-673.03442 3:-21.011721 4:-470.78955 
-0 -1 -0 -0 0 0 0 0 0 0 1:-934.52264 2:-673.06598 3:-25.415838 4:-409.13141 
-0 -1 -0 -0 0 0 0 0 0 0 1:-934.52258 2:-673.05316 3:-24.968243 4:-418.79712 
-0 -1 -0 -0 0 0 0 0 0 0 1:-934.52258 2:-673.04431 3:-24.658369 4:-425.4888 
-0 -1 -0 -0 0 0 0 0 0 0 1:-924.52246 2:-673.03235 3:-24.132401 4:-436.94666 
-0 -1 -0 -0 1 0 0 0 0 0 1:-934.52081 2:-673.07477 3:-21.353205 4:-452.55011 
-0 -1 -0 -0 0 0 0 0 0 0 1:-924.52246 2:-673.03235 3:-24.132401 4:-436.94666 
-0 -1 -0 -0 0 0 0 0 0 0 1:-924.52246 2:-673.03235 3:-24.132401 4:-436.94666 
-0 -1 -0 -0 0 0 0 0 0 0 1:-924.52197 2:-673.03345 3:-22.699032 4:-453.05249 
-0 -1 -0 -0 0 0 0 0 0 0 1:-934.52258 2:-673.06464 3:-25.381443 4:-409.9628 
-0 -1 -0 -0 0 0 0 0 0 0 1:-924.52081 2:-673.03345 3:-20.252945 4:-481.01553 
-0 -1 -0 -0 0 0 0 0 0 0 1:-934.52252 2:-673.0459 3:-24.727266 4:-424.08963 
-0 -1 -0 -0 0 0 0 0 0 0 1:-934.52264 2:-673.06403 3:-25.346977 4:-410.61844 
-0 -1 -0 -0 1 0 0 0 0 0 1:-934.52081 2:-673.07611 3:-21.3876 4:-451.71872 
-0 -1 -0 -0 0 0 0 0 0 0 1:-924.52075 2:-673.03351 3:-20.061838 4:-483.18643 
-0 -1 -0 -0 0 0 0 0 0 0 1:-924.52075 2:-673.03351 3:-20.061838 4:-483.18643 
-0 -1 -0 -0 0 0 0 0 0 0 1:-934.52057 2:-673.04138 3:-19.876804 4:-481.30313 
-0 -1 -0 -0 0 0 0 0 0 0 1:-924.52112 2:-673.03326 3:-20.902704 4:-473.63455 
-0 -1 -0 -0 0 0 0.01309348223902597 0 0 6.431721781702818e-07 1:-924.52246 2:-673.03235 3:-24.15151 4:-436.72958 
-0 -1 -0 -0 0 0 0.004230602758934905 0 0 0 1:-924.52124 2:-673.03357 3:-21.074665 4:-471.59286 
-0 -1 -0 -0 0 0 0 0 0 0 1:-934.52258 2:-673.07153 3:-25.622456 4:-404.75818 
-0 -1 -0 -0 0 0 0 0 0 0 1:-924.52057 2:-673.03369 3:-19.584072 4:-488.61362 
-0 -1 -0 -0 0 0 0 0 0 0 1:-924.52094 2:-673.03339 3:-20.463161 4:-478.62756 
-0 -1 -0 -0 0 0 0 0 0 0 1:-924.521 2:-673.03333 3:-20.673378 4:-476.23959 
-0 -1 -0 -0 0 0 0 0 0 0 1:-934.52069 2:-673.04816 3:-20.423586 4:-472.62509 
-0 -1 -0 -0 0 0 0 0 0 0 1:-934.52252 2:-673.04132 3:-24.555079 4:-427.71936 
-0 -1 -0 -0 0 0 0 0 0 0 1:-934.52258 2:-673.07446 3:-25.725746 4:-402.52762 
-0 -1 -0 -0 0 0 0 0 0 0 1:-934.52258 2:-673.06366 3:-25.347013 4:-410.7063 
-0 -1 -0 -0 1 0 0 0 0 0 1:-934.52075 2:-673.07416 3:-21.204077 4:-454.50827 
-0 -1 -0 -0 0 0 0 0 0 0 1:-924.52246 2:-673.03235 3:-24.132401 4:-436.94666 
-0 -1 -0 -0 0 0 0 0 0 0 1:-934.52258 2:-673.05872 3:-25.174862 4:-414.42389 
-0 -1 -0 -0 0 0 0 0 0 0 1:-924.52069 2:-673.03357 3:-19.966284 4:-484.27185 
-0 -1 -0 -0 0 0 0 0 0 0 1:-934.52258 2:-673.06067 3:-25.243721 4:-412.93686 
-0 -1 -0 -0 0 0 0 0 0 0 1:-934.52252 2:-673.04102 3:-24.555115 4:-427.80722 
-0 -1 -0 -0 1 0 0 0 0 0 1:-934.52112 2:-673.07495 3:-22.002932 4:-445.08124 
-0 -1 -0 -0 0 0 0 0 0 0 1:-934.52258 2:-673.05023 3:-24.864952 4:-421.02768 
-0 -1 -0 -0 1 0 0 0 0 0 1:-934.52057 2:-673.07098 3:-20.77594 4:-460.51721 
-0 -1 -0 -0 1 0 0 0 0 0 1:-934.52106 2:-673.05389 3:-21.413704 4:-459.2634 
-0 -1 -0 -0 0 0 0 0 0 0 1:-924.52246 2:-673.03235 3:-24.15151 4:-436.72958 
-0 -1 -0 -0 1 0 0 0 0 0 1:-934.5213 2:-673.0639 3:-22.235737 4:-446.31311 
-0 -1 -0 -0 0 0 0 0 0 0 1:-934.52252 2:-673.05579 3:-25.071569 4:-416.65445 
-0 -1 -0 -0 0 0 0 0 0 0 1:-934.52258 2:-673.07153 3:-25.622456 4:-404.75818 
-0 -1 -0 -0 0 0 0 0 0 0 1:-934.52252 2:-673.03644 3:-24.382927 4:-431.43695 
-0 -1 -0 -0 0 0 0 0 0 0 1:-934.52258 2:-673.07056 3:-25.588026 4:-405.50168 
-0 -1 -0 -0 1 0 0 0 0 0 1:-934.52106 2:-673.06116 3:-21.540016 4:-455.27341 
-0 -1 -0 -0 0 0 0 0 0 0 1:-934.52264 2:-673.06696 3:-25.450268 4:-408.38788 
-0 -1 -0 -0 0 0 0 0 0 0 1:-934.52264 2:-673.06201 3:-25.278116 4:-412.10547 
-0 -1 -0 -0 0 0 0 0 0 0 1:-924.52246 2:-673.03235 3:-24.132401 4:-436.94666 
-0 -1 -0 -0 0 0 0 0 0 0 1:-934.52258 2:-673.06659 3:-25.450304 4:-408.47577 
-0 -1 -0 -0 0 0 0.0017931024697953 0 0 0 1:-924.52075 2:-673.03351 3:-20.080948 4:-482.96933 
-0 -1 -0 -0 0.2659407654520646 0 0 0 0 0 1:-934.52264 2:-673.06891 3:-25.519129 4:-406.90085 
-0 -1 -0 -0.6560234413838486 1 0 0 0 0 0 1:-934.5213 2:-673.08038 3:-22.687315 4:-435.28082 
-0 -1 -0 -0 0 0 0 0 0 0 1:-942.52081 2:-673.03107 3:-19.297773 4:-490.96719 
-0 -1 -0 -0 0 0 0 0 0 0 1:-924.52148 2:-673.03339 3:-21.686205 4:-464.64603 
-0 -1 -0 -0 0 0 0 0 0 0 1:-934.52087 2:-673.0451 3:-20.75984 4:-469.86264 
-0 -1 -0.1897283738711203 -0.172979227869489 0 0.1694937626553986 0 0 0 0 1:-934.52264 2:-673.07941 3:-25.897898 4:-398.81003 
-0 -1 -0 -0 0 0 0 0 0 0 1:-924.52246 2:-673.03235 3:-24.15151 4:-436.72958 
-0 -1 -0 -0 0 0 0 0 0 0 1:-924.521 2:-673.03339 3:-20.596935 4:-477.10794 
-0 -1 -0 -0 1 0 0 0 0 0 1:-934.52264 2:-673.07483 3:-25.725712 4:-402.43973 
-0 -1 -0 -0 1 0.7491744991494741 0 0 0 0 1:-942.52252 2:-673.0448 3:-19.296375 4:-487.53995 
-0 -1 -0 -0 1 0 0 0 0 0 1:-934.52258 2:-673.0755 3:-25.721956 4:-402.21826 
-0 -1 -0 -0 0 0 0 0 0 0 1:-934.52258 2:-673.04529 3:-24.692801 4:-424.74527 
-0 -1 -0 -0 0 0 0 0 0 0 1:-934.52258 2:-673.06171 3:-25.278152 4:-412.19336 
-0 -1 -0 -0 0 0 0 0 0 0 1:-924.52081 2:-673.03387 3:-20.100023 4:-482.66434 
-0 -1 -0 -0 0 0 0 0 0 0 1:-934.52069 2:-673.04425 3:-20.228533 4:-476.25046 
-0 -1 -0 -0 0 0 0 0 0 0 1:-934.52069 2:-673.03571 3:-19.975956 4:-482.20297 
-0 -1 -0 -0 0 0 0 0 0 0 1:-924.52094 2:-673.03339 3:-20.463161 4:-478.62756 
-0 -1 -0 -0 0 0 0 0 0 0 1:-934.52252 2:-673.04889 3:-24.830557 4:-421.85907 
-0 -1 -0 -0 0 0 0 0 0 0 1:-924.52246 2:-673.03235 3:-24.132401 4:-436.94666 
-0 -1 -0 -0 0 0 0 0 0 0 1:-934.52069 2:-673.05017 3:-20.511557 4:-470.92099 
-0 -1 -0 -0 0 0 0 0 0 0 1:-924.52057 2:-673.03363 3:-19.641405 4:-487.96237 
-0 -1 -0 -0 0 0 0 0 0 0 1:-924.52246 2:-673.03235 3:-24.132401 4:-436.94666 
-0 -1 -0 -0 1 0 0 0 0 0 1:-934.52106 2:-673.07007 3:-21.754337 4:-449.66718 
-7.714453385744003e-06 -1 -0 -0 0 0 0 1.863002480583198e-06 0 0 1:-924.52252 2:-673.03265 3:-24.151474 4:-436.64166 
-0 -1 -0 -0 0 0 3.857662874034727e-05 0 0 0 1:-924.52081 2:-673.03345 3:-20.272055 4:-480.79846 
-0 -1 -0 -0 0 0 0 0 0 0 1:-934.52258 2:-673.06171 3:-25.278152 4:-412.19336 
-0 -1 -0 -0 0 0 0 0 0 0 1:-934.52252 2:-673.0423 3:-24.58951 4:-426.97583 
-0 -1 -1 -0 -0 1 0.2976815293846816 0 0 0 1:-942.53186 2:-673.11768 3:-19.269867 4:-469.58755 
-0 -1 -0 -0 -1 0 0 0 0 0 1:-934.52094 2:-673.07642 3:-21.521339 4:-450.11121 
-0 -1 -0 -0 -1 0 0.9336116607716274 0 0 0 1:-934.5213 2:-673.07935 3:-22.767548 4:-434.7218 
-0 -1 -0 -0 -1 0 0 0 0 0 1:-934.52087 2:-673.04883 3:-20.691063 4:-469.4101 
-0 -1 -1 -0.5084618294254545 -0.4942940040625182 1 0 0 0 0 1:-942.53186 2:-673.11768 3:-19.269867 4:-469.58755 
-0 -1 -1 -1 -0.89098752367183 1 0 0 0 0 1:-942.53186 2:-673.11768 3:-19.269867 4:-469.58755 
-0 -1 -0 -0 -1 0 0 0 0 0 1:-934.52264 2:-673.03906 3:-24.451715 4:-429.77414 
-0 -1 -0 -0 -1 0 0 0 0 0 1:-934.52087 2:-673.06287 3:-21.188478 4:-458.65018 
-0 -1 -0 -0 -1 0 0 0 0 0 1:-934.52191 2:-673.06311 3:-23.745512 4:-429.25104 
-1.945918071984375e-05 -1 -0 -0 -0.08432286722854275 0 0.1443456850893567 0.0001328713574474539 6.621799909568852e-10 1.249822832091922e-06 1:-727.5285 2:-673.14954 3:-21.963652 4:-450.10925 
-0 -1 -0 -0 -1 0 0 0 0 0 1:-934.52264 2:-673.05847 3:-25.14036 4:-414.99164 
-0 -1 -1 -0 -0 1 0 0 0 0 1:-942.53186 2:-673.11768 3:-19.269867 4:-469.58755 
-0 -1 -0.9771596715581097 -0 -1 1 0 0 0 0 1:-942.52704 2:-673.08002 3:-19.273691 4:-478.99109 
-0 -1 -0.3316024369198737 -0.7545509420859368 -1 0.1546107394799686 0 0 0 0 1:-934.52264 2:-673.07526 3:-25.57279 4:-404.08853 
-0 -1 -0 -0 -1 0 0 0 0 0 1:-934.5213 2:-673.07837 3:-22.656675 4:-436.33368 
-0 -1 -1 -1 -0.0801727406899916 1 0 0 0 0 1:-942.53186 2:-673.11768 3:-19.269867 4:-469.58755 
-0 -1 -0 -0 -1 0 0 0 0 0 1:-934.52234 2:-673.06226 3:-24.571024 4:-420.13773 
-0 -1 -1 -0.9999990702060292 -1 1 6.285302100698837e-07 0 0 0 1:-942.53186 2:-673.11768 3:-19.269869 4:-469.58759 
-0 -1 -1 -0 -0 1 0 0 0 0 1:-942.53186 2:-673.11768 3:-19.269867 4:-469.58755 
-0 -1 -1 -1 -0.9738624476074236 1 0 0 0 0 1:-942.53186 2:-673.11768 3:-19.269867 4:-469.58755 
-0 -1 -1 -0 -0 1 0 0 0 0 1:-942.53186 2:-673.11768 3:-19.269867 4:-469.58755 
-0 -1 -0 -0 -1 0 0 0 0 0 1:-934.52142 2:-673.04962 3:-22.193293 4:-451.81723 
-0 -1 -0 -0 -0 -0 0.001625203589459608 1.57132032893562e-06 6.5708719742659e-10 5.190827962698796e-07 1:-942.53186 2:-673.11761 3:-19.270157 4:-469.58148 
-0 -1 -0.1806419519953651 -0 -0 -0 0 0 0 0 1:-942.53186 2:-673.11768 3:-19.269827 4:-469.57721 
-0 -1 -0 -0 -0 -0 0 0 0 0 1:-942.53186 2:-673.11761 3:-19.270155 4:-469.58148 
-0 -1 -0 -0 -0 -0 0 0 0 0 1:-942.53186 2:-673.11761 3:-19.270163 4:-469.58148 
-0 -1 -1 -0 -0 -0 0 0 0 0 1:-942.53192 2:-673.11884 3:-19.306421 4:-468.94012 
-0 -1 -0 -0 -1 -0 0.0002394591842545553 1.633835223747568e-05 0 0 1:-942.526 2:-673.07153 3:-19.274563 4:-481.09076 
-0 -1 -1 -0 -0 -0 0 0 0 0 1:-942.53192 2:-673.11884 3:-19.306421 4:-468.94012 
-0 -1 -0 -0 -0 -0 0 0 0 0 1:-942.53186 2:-673.11761 3:-19.270161 4:-469.58148 
-0 -1 -1 -0 -0 -0 0 0 0 0 1:-942.53192 2:-673.11884 3:-19.306421 4:-468.94012 
-0 -1 -1 -0 -0 -0 0 0 0 0 1:-942.53668 2:-673.32526 3:-25.01619 4:-354.35706 
-0 -1 -1 -0 -0 -0 0 0 0 0 1:-942.53186 2:-673.11761 3:-19.27014 4:-469.58151 
-0 -1 -1 -0 -0 -0 0 0 0 0 1:-942.53192 2:-673.11884 3:-19.306421 4:-468.94012 
-0 -1 -1 -0 -0 -0 0 0 0 0 1:-942.53186 2:-673.11768 3:-19.269827 4:-469.57721 
-0 -1 -1 -1 -0 -0 0 0 0 0 1:-942.53577 2:-673.25769 3:-23.803911 4:-392.17487 
-0 -1 -0 -0 -0 -0 0 0 0 0 1:-942.53186 2:-673.11768 3:-19.269894 4:-469.57816 
-0 -1 -1 -0 -0 -0 0 0 0 0 1:-942.53192 2:-673.11884 3:-19.306421 4:-468.94012 
-0 -1 -0 -0 -0 -0 0 0 0 0 1:-942.53186 2:-673.11761 3:-19.27014 4:-469.58151 
-0 -1 -0 -0 -0 -0 0 0 0 0 1:-942.53186 2:-673.11761 3:-19.27014 4:-469.58151 
-0 -1 -0 -0 -0 -0 0 0 0 0 1:-942.53186 2:-673.11761 3:-19.270155 4:-469.58148 
-0 -1 -1 -0 -0 -0 0 0 0 0 1:-942.53192 2:-673.11884 3:-19.306421 4:-468.94012 
-0 -1 -1 -0 -0 -0 0 0 0 0 1:-942.53186 2:-673.11768 3:-19.269827 4:-469.57721 
-0 -1 -0 -0 -0 -0 0 0 0 0 1:-942.53186 2:-673.11768 3:-19.269863 4:-469.56384 
-0 -1 -0 -0 -0 -0 0 0 0 0 1:-942.53186 2:-673.11768 3:-19.269838 4:-469.57718 
-0 -1 -1 -0 -0 -0 0 0 0 0 1:-942.53192 2:-673.11884 3:-19.306421 4:-468.94012 
-0 -1 -1 -0.129254261181514 -0 -0 0 0 0 0 1:-942.54071 2:-673.43933 3:-29.647671 4:-292.22556 
-0 -0 -0 -0 -0.9186682618048716 -0 0 0 0 0 1:-942.52753 2:-673.08356 3:-19.273336 4:-478.10254 
-0 -1 -0 -0 -0 -0 0 0 0 0 1:-942.53076 2:-673.10889 3:-19.270773 4:-471.77509 
-0 -1 -1 -0 -0 -0 0 0 0 0 1:-942.53192 2:-673.11884 3:-19.306421 4:-468.94012 
-0 -1 -1 -0 -0 -0 0.0006868219987744165 1.842904162822913e-08 0 0 1:-942.54089 2:-673.44281 3:-29.80047 4:-289.81931 
-0 -1 -0 -0 -0 -0 0 0 0 0 1:-942.53186 2:-673.11761 3:-19.270159 4:-469.58148 
-0 -1 -0 -0 -0 -0 0 0 0 0 1:-942.53186 2:-673.11761 3:-19.27014 4:-469.58151 
-0 -1 -1 -0 -0 -0 0 0 0 0 1:-942.53186 2:-673.11768 3:-19.269827 4:-469.57721 
-0 -1 -1 -0 -0 -0 0 0 0 0 1:-942.53186 2:-673.11761 3:-19.27014 4:-469.58151 
-0 -1 -0 -0 -0 -0 0 0 0 0 1:-942.53186 2:-673.11768 3:-19.269854 4:-469.57718 
-0 -0 -1 -0 -0 -0 0 0 0 0 1:-942.53247 2:-673.13916 3:-19.964695 4:-457.7128 
-0 -1 -0 -0 -0 -0 0 0 0 0 1:-942.53186 2:-673.11761 3:-19.270155 4:-469.58148 
-0 -1 -0 -0 -0 -0 0 0 0 0 1:-942.53186 2:-673.11761 3:-19.27014 4:-469.58151 
-0 -1 -0 -0 -0 -0 0 0 0 0 1:-942.53186 2:-673.11761 3:-19.270163 4:-469.58148 
-0 -1 -1 -0 -0 -0 0 0 0 0 1:-942.53192 2:-673.11884 3:-19.306421 4:-468.94012 
-0 -1 -0 -0 -0 -0 0 0 0 0 1:-942.53186 2:-673.11768 3:-19.269842 4:-469.57718 
-0 -1 -0 -0 -0 -0 0 0 0 0 1:-942.52423 2:-673.11755 3:-11.281702 4:-469.16037 
-0 -1 -0 -0 -0 -0 0 0 0 0 1:-942.53186 2:-673.11761 3:-19.27014 4:-469.58151 
-0 -1 -0 -0 -0 -0 0 0 0 0 1:-942.53186 2:-673.11768 3:-19.269857 4:-469.57715 
-0 -1 -1 -0 -0 -0 0 0 0 0 1:-942.53192 2:-673.11884 3:-19.306442 4:-468.94043 
-0 -1 -0 -0 -0 -0 0 0 0 0 1:-942.53186 2:-673.11768 3:-19.269836 4:-469.57733 
-0 -1 -1 -1 -0 -0 0 0 0 0 1:-942.53436 2:-673.20825 3:-22.193523 4:-419.61469 
-0 -1 -0 -0 -0 -0 0 0 0 0 1:-942.53186 2:-673.11761 3:-19.270155 4:-469.58148 
-0 -1 -1 -0.05329145746682176 -0 -0 0 0 0 0 1:-942.53192 2:-673.11884 3:-19.306421 4:-468.94012 
-0 -1 -1 -0 -0 -0 0 0 0 0 1:-942.53192 2:-673.11884 3:-19.306421 4:-468.94012 
-0 -1 -1 -0 -0 -0 0 0 0 0 1:-942.53186 2:-673.11768 3:-19.269827 4:-469.57721 
-0 -1 -1 -0 -0 -0 0 0 0 0 1:-942.53186 2:-673.11768 3:-19.269827 4:-469.57721 
-0 -1 -1 -0 -0 -0 0 0 0 0 1:-942.53186 2:-673.11768 3:-19.269827 4:-469.57721 
-0 -1 -1 -0 -0 -0 0 0 0 0 1:-942.53192 2:-673.11884 3:-19.30645 4:-468.94052 
-0 -1 -1 -0 -0 -0 0 0 0 0 1:-942.53186 2:-673.11768 3:-19.269827 4:-469.57721 
-0 -1 -0 -0 -0 -0 0 0 0 0 1:-942.53186 2:-673.11761 3:-19.27014 4:-469.58151 
-0 -1 -1 -0 -0 -0 0 0 0 0 1:-942.53186 2:-673.11768 3:-19.269827 4:-469.57721 
-0 -1 -1 -0 -0 -0 0 0 0 3.156125491941984e-07 1:-942.53082 2:-673.10925 3:-19.270739 4:-471.68719 
-0 -1 -1 -0 -0 -0 0 0 0 0 1:-942.53186 2:-673.11768 3:-19.269827 4:-469.57721 
-0 -1 -0 -0 -0 -0 0 0 0 0 1:-942.51947 2:-673.11749 3:-6.2886171 4:-468.89285 
-0 -1 -0 -0 -0 -1 0 0 0 0 1:-942.53186 2:-673.11768 3:-19.269842 4:-469.57718 
-0 -1 -1 -0 -0 -0.3419202908238136 0 0 0 0 1:-942.53192 2:-673.11884 3:-19.306421 4:-468.94012 
-0 -1 -0 -0 -0 -0 0 0 0 0 1:-942.508 2:-673.11731 3:5.6940389 4:-468.26117 
-0 -1 -1 -0 -0 -0 0 0 0 0 1:-942.53192 2:-673.11884 3:-19.306444 4:-468.94049 
-0 -1 -0 -0 -0 -1 0 0 0 0 1:-942.53186 2:-673.11768 3:-19.26985 4:-469.57718 
-0 -1 -1 -1 -0 -0 0 0 0 0 1:-942.53589 2:-673.26318 3:-24.003757 4:-388.72324 
-0 -1 -1 -0 -0 -0 0 0 0 0 1:-942.53186 2:-673.11768 3:-19.269827 4:-469.57721 
-0 -1 -0 -0 -0 -0 0 0 0 0 1:-942.53186 2:-673.11761 3:-19.27014 4:-469.58151 
-0 -1 -0 -0 -0 -0 0 0 0 0 1:-942.53186 2:-673.11761 3:-19.27014 4:-469.58151 
-0 -1 -0 -0 -0 -1 0 0 0 0 1:-942.53186 2:-673.11768 3:-19.26984 4:-469.57718 
-0 -1 -1 -0 -0 -0 0 0 0 0 1:-942.53186 2:-673.11768 3:-19.269827 4:-469.57721 
-0 -1 -1 -0 -0 -1 0 0 0 0 1:-942.53186 2:-673.11768 3:-19.269827 4:-469.57721 
-0 -1 -0 -0 -0 -1 0 0 0 0 1:-942.53186 2:-673.11768 3:-19.26985 4:-469.57718 
-0 -1 -0 -0.1362333832365559 -0 -0.4304228223591946 0 0 0 0 1:-942.53186 2:-673.11761 3:-19.270155 4:-469.58148 
-7.396384132017709e-06 -1 -1 -1 -0 -0 0 0 0 7.827433606813148e-08 1:-942.54156 2:-673.46765 3:-30.604891 4:-276.08878 
-0 -1 -1 -0 -0 -0.3822676262969605 0 0 0 0 1:-942.53192 2:-673.11884 3:-19.306421 4:-468.94012 
-0 -1 -0 -0 -0 -1 0 0 0 0 1:-942.53186 2:-673.11768 3:-19.269863 4:-469.56384 
-0 -1 -0 -0 -0 -0 0 0 0 0 1:-942.53186 2:-673.11761 3:-19.270163 4:-469.58148 
-0 -1 -1 -0 -0 -0 0 0 0 0 1:-942.53186 2:-673.11768 3:-19.269827 4:-469.57721 
-0 -1 -1 -0 -0 -1 0 0 0 0 1:-942.53186 2:-673.11768 3:-19.269827 4:-469.57721 
-0 -1 -1 -0 -0 -0 0 0 0 0 1:-942.53192 2:-673.11884 3:-19.306421 4:-468.94012 
-0 -1 -0 -0 -0 -0 0 0 0 0 1:-942.53046 2:-673.20557 3:-18.144676 4:-420.35068 
-0 -1 -1 -0.1304959185007546 -0 -0 0 0 0 0 1:-942.53192 2:-673.11884 3:-19.306421 4:-468.94012 
-0 -1 -0 -0 -0 -0 0 0 0 0 1:-942.53192 2:-673.11884 3:-19.306456 4:-468.94064 
-0 -1 -1 -0 -0 -0 0 0 0 0 1:-942.53192 2:-673.11884 3:-19.306452 4:-468.94058 
-0 -1 -0 -0 -0 -0 0 0 0 0 1:-942.53186 2:-673.11761 3:-19.27014 4:-469.58151 
-0 -1 -1 -0 -0 -0 0 0 0 0 1:-942.53192 2:-673.11884 3:-19.306421 4:-468.94012 
-0 -1 -0 -0 -0 -1 0 0 0 0 1:-942.53186 2:-673.11768 3:-19.269838 4:-469.57718 
-0 -1 -1 -0 -0 -0 0 0 0 0 1:-942.53186 2:-673.11768 3:-19.269827 4:-469.57721 
-0 -1 -0 -0.30493693862073 -0 -0 0 0 0 0 1:-942.53186 2:-673.11761 3:-19.270157 4:-469.58148 
-0 -1 -1 -0 -0 -0 0 0 0 0 1:-942.53192 2:-673.11884 3:-19.306421 4:-468.94012 
-0 -0 -0 -0 -0 -0 0 0 0 8.814860913969475e-11 1:-937.90717 2:-673.06445 3:3766.1594 4:-268.43198 
-0 -1 -0 -0 -0 -0 0 0 0 0 1:-942.53186 2:-673.11768 3:-19.269857 4:-469.57715 
-0 -1 -0 -0.03426379723740572 -0 -0 0 0 0 0 1:-942.52997 2:-673.18634 3:-17.523081 4:-430.96072 
-0 -1 -1 -0 -0 -1 0 0 0 0 1:-942.53186 2:-673.11768 3:-19.269827 4:-469.57721 
-0 -1 -0 -0 -0 -0 0 0 0 0 1:-942.53186 2:-673.11761 3:-19.270155 4:-469.58148 
-0 -1 -1 -1 -0 -0 0 0 0 0 1:-942.53186 2:-673.11768 3:-19.269833 4:-469.57727 
-0 -1 -1 -0 -0 -0 0 0 0 0 1:-942.53192 2:-673.11884 3:-19.306421 4:-468.94012 
-0 -1 -0 -0 -0 -0 0 0 0 0 1:-942.508 2:-673.11731 3:5.6940389 4:-468.26117 
-0 -1 -0 -0 -0 -0 -0 0 6.577467922793955e-10 0 1:-914.53516 2:-673.24823 3:-26.434048 4:-355.91605 
-0 -1 -0 -0 -0 -0 -0 0 0 0 1:-914.53448 2:-673.25513 3:-24.793301 4:-372.87137 
-0 -1 -0.002430416394247147 -0 -0 -0 -0 0 0 0 1:-914.53381 2:-673.22137 3:-23.351608 4:-398.22702 
-0 -1 -9.994232368138686e-07 -0 -0.01915576409649653 -1 -0.001864662773714163 2.113734784412263e-05 0 9.486185365233099e-07 1:-914.53259 2:-673.13452 3:-20.9377 4:-448.65549 
-0 -1 -0 -0 -0 -0.3756395037758758 -0 0 0 0 1:-914.53296 2:-673.17822 3:-21.495947 4:-430.88242 
-8.262180865988993e-06 -1 -0.0001204501612377604 -0.003193071271354879 -0 -0 -0.0006868219987744165 0 0 0 1:-914.5351 2:-673.28461 3:-26.054781 4:-350.68512 
-1.116606165603117e-07 -1 -0 -0 -0 -0 -0 -0 5.705082419008322e-08 0 1:280.24313 2:1777.5093 3:-20.407782 4:-461.2493 
-0 -1 -0 -0 -0 -0 -0 -0 0 0.403679369869388 1:-608.52087 2:-673.13336 3:-20.324551 4:-483.61902 
-0 -1 -0 -0 -0 -0 -0 -0 0 0 1:-608.52069 2:-673.13354 3:-19.789454 4:-489.69748 
-0 -1 -0 -0 -0 -0 -0 -0 0 0 1:6102.4873 2:-675.25281 3:-14.791295 4:-482.12192 
-0 -1 -0 -0 -1.044422839390911e-05 -0 -0 -0 0 0 1:-608.52075 2:-673.13678 3:-19.726566 4:-489.58582 
-0.003308052564329156 -1 -1.792030392835464e-05 -1.828671744278544e-05 -7.777096934188629e-06 -0.0001328713574474539 -1.79096725664113e-05 -2.113734784412263e-05 0 1 1:-608.5213 2:-673.13794 3:-20.54818 4:-479.89951 
-4.50055850697116e-07 -0.05196404672798219 -0 -0 -0 -0 -0 -0 6.272912678714669e-14 0.0002207129924838601 1:5130483.5 2:-2291.7571 3:110.34029 4:-336.41867 
-0 -0 -0 -0 -0 -0 -0 -0 5.985574405596356e-10 9.278289920180338e-05 1:5134737.5 2:-2293.0964 3:118.45004 4:-338.62622 
-0 -1 -0 -0 -1.807539931766232e-06 -0 -1.842904162822913e-08 -0 0 0 1:-608.52063 2:-673.13361 3:-19.674789 4:-491.00003 
-0 -1 -0 -0 -0 -0 -0 -0 -0 6.933635984510191e-10 1:53600.062 2:7623.666 3:-77.093422 4:-402.13715 
-0 -1 -0 -0 -0 -0 -0 -0 -0 0 1:53600.07 2:7623.7275 3:-73.717155 4:-456.11707 
-0 -1 -0 -0 -0 -0 -0 -0 -0 0 1:53600.062 2:7623.6641 3:-77.162277 4:-400.6503 
-0 -1 -0 -0 -0 -0 -0 -0 -0 0 1:53600.062 2:7623.6738 3:-76.611244 4:-409.61371 
-0 -1 -0 -0 -0 -0 -0 -0 -5.66790979305209e-09 0 1:53600.07 2:7623.7236 3:-73.819405 4:-453.97781 
-0 -1 -0 -0 -0 -0 -0 -0 -0 0 1:53600.062 2:7623.665 3:-77.127846 4:-401.3938 
-0 -0 -0 -0 -0 -6.545455909267781e-10 -0 -0 -0 0 1:53600.07 2:7623.7393 3:-73.068611 4:-466.48608 
-0 -1 -0 -0 -0 -0 -0 -0 -0 0 1:53600.059 2:7623.6616 3:-77.235405 4:-399.40189 
-0 -1 -0 -0 -6.572765371247876e-10 -0 -0 -0 -0 0 1:53600.059 2:7623.6621 3:-77.233269 4:-399.28262 
-0 -1 -0 -0 -0 -0 -0 -0 -0 0 1:53600.062 2:7623.667 3:-77.056854 4:-402.76151 
-0 -1 -0 -0 -0 -2.551414555203772e-12 -0 -0 -0 0 1:53600.059 2:7623.6616 3:-77.235413 4:-399.40189 
-0 -1 -0 -0 -0 -0 -0 -0 -5.125746926819456e-08 0 1:53600.07 2:7623.7246 3:-73.826302 4:-454.1395 
-0 -1 -0 -0 -0 -0 -0 -0 -2.157107912174751e-11 0 1:53600.062 2:7623.666 3:-77.093422 4:-402.13715 
-0 -1 -0 -0 -0 -0 -0 -0 -0 0 1:53600.059 2:7623.6641 3:-77.164413 4:-400.76953 
-0 -0 -0 -0 -0 -0 -6.5708719742659e-10 -0 -6.951239358153032e-10 0 1:53600.07 2:7623.7378 3:-73.099327 4:-465.60919 
-0 -1 -0 -0 -0 -0 -0 -0 -0 0 1:53600.062 2:7623.6699 3:-76.734154 4:-407.18341 
-6.819640774931166e-10 -0.4481072438984725 -0 -6.570727181220697e-10 -0 -5.082985474903318e-12 -0 -6.577467922793955e-10 -0 0 1:53600.059 2:7623.6553 3:-77.448395 4:-395.29898 
-0 -1 -6.570870868951309e-10 -0 -0 -0 -0 -0 -7.370283585925782e-12 0 1:53600.059 2:7623.6616 3:-77.235405 4:-399.40201 
-9.962330864230047e-06 -1 -9.130750275869454e-07 -9.20220304701675e-07 -9.357094605013535e-07 -1.249822832091922e-06 -9.130578301413494e-07 -9.486185365233099e-07 -0.4039928657610606 -6.933635984510191e-10 1:537.46692 2:-673.60559 3:-21.58675 4:-453.72995 
-0 -1 -0 -0 -0 -0 -0 -0 -1 -0 1:537.47882 2:-673.49506 3:-20.694824 4:-491.89743 
