svm_type c_svc
kernel_type linear
nr_class 11
total_sv 326
rho 2689.6 -2.50808 -2.49687 -2.44173 -3.33376 -2.2634 -2.61992 -0.613801 -0.999317 -1.40036 -1513.97 -85.4374 -874.486 -535.138 -437.358 -329.862 -3088.27 -4800.85 -60.1238 3805.75 -41.7832 -255.545 -413.354 66.0351 4.4846 -0.962553 0.275551 -6.10515 -603.494 -1953.86 68.2266 2.91912 -0.962481 0.245396 19.6887 3.90707 2.74377 4.87187 -0.962813 0.263719 76.0572 20.0852 2.88948 -0.970136 0.135231 38.3508 3.83572 -0.962536 0.277679 2.58682 -0.963548 0.248823 -1.60166 -81.265 1.01587 
label 4 0 3 13 9 14 8 6 20 11 5 
nr_sv 12 95 57 25 47 22 38 3 9 16 2 
SV 
0 0 0 0 0 0 0 0 6.819569340158984e-10 2.100044201561274e-08 1:89.448006 2:-674.51996 3:-61.31889 4:283.06866 5:-6.0624886 6:0.92614269 7:-2.0757596 8:-0.031613342 
1 0 0 0 0 0 0 0 0 0 1:89.464249 2:-673.60974 3:-27.375696 4:-344.3732 5:20.038364 6:-46.644211 7:-68.089188 8:-0.83912092 
1 0 0 0 0 0 0 2.763642724879751e-05 0 9.911559359480681e-06 1:89.467216 2:-673.46216 3:-21.068295 4:-455.30426 5:56.129845 6:-40.847286 7:-99.946655 8:-2.4482043 
1 0 0 0 0 0 0 0 0 0 1:89.463356 2:-673.57703 3:-29.655176 4:-326.89578 5:-117.78535 6:-107.19865 7:21.670671 8:5.5699387 
0 0 8.656066130713945e-07 0 0 0 3.096752786088221e-07 0 0 0 1:-422.54788 2:-674.20673 3:-55.519516 4:182.60497 5:-12.199779 6:20.601233 7:-12.679725 8:0.22814967 
1 6.76786818064793e-06 6.165043410900626e-06 6.247455774208163e-06 1.63079084424448e-05 5.94159006533824e-06 7.655381715921064e-06 0 0 0 1:-422.53577 2:-673.37744 3:-27.887724 4:-351.50128 5:-122.30978 6:-111.54267 7:22.623613 8:5.7966776 
1 0 0 0 0 0 0 4.994449659171861e-06 0 2.804706136724031e-08 1:89.465492 2:-673.44592 3:-25.253494 4:-411.68903 5:-133.31633 6:-122.22945 7:24.971746 8:6.3486295 
1 0 0 0 0 0 0 0 0 0 1:89.462807 2:-673.61084 3:-30.791094 4:-305.01364 5:-113.77735 6:-103.31974 7:20.818783 8:5.3689861 
1 0 0 0 0 0 0 0 0 0 1:89.463051 2:-673.59607 3:-30.29413 4:-314.58707 5:-115.53085 6:-105.01676 7:21.191484 8:5.456903 
0 0 0 0 0 0 0 3.289417177874156e-07 0 0 1:89.451775 2:-674.50378 3:-57.613132 4:236.64578 5:123.03591 6:108.74244 7:-99.721611 8:-6.1698747 
0.5121357657398524 0 0 0 0 0 0 0 0 0 1:89.462433 2:-673.63409 3:-31.572037 4:-289.96967 5:-111.02185 6:-100.65298 7:20.233109 8:5.2308311 
1 0 0 0 0 0 0 0 0 0 1:89.462669 2:-673.61932 3:-31.075073 4:-299.54312 5:-112.77535 6:-102.35001 7:20.60581 8:5.318748 
-1 0 0 0 0 0 0.01144865132939797 0 0 0.02144269193102944 1:-426.54834 2:-670.22614 3:-56.423981 4:198.2926 5:-21.57053 6:-14.084814 7:1.2072873 8:1.7330166 
-0 0 0 0 0.4447786290882182 0 0 0 0 0 1:-942.52094 2:-673.03107 3:-19.471727 4:-488.9505 5:-44.767395 6:180.31711 7:-93.900703 8:-7.3487058 
-0 0 0 1 0 0 0 0 0 0 1:-942.52246 2:-673.02655 3:-24.05859 4:-437.63898 5:-232.21281 6:110.47195 7:28.281092 8:1.3241302 
-0 0 0 0 0 0 0 0.2521445022702601 0 0 1:-942.52045 2:-673.02795 3:-19.280931 4:-491.91107 5:-40.693108 6:191.78381 7:-98.8078 8:-7.562777 
-0 0 0 1 0 0 0 0 0 0 1:-942.52246 2:-673.02747 3:-24.169462 4:-436.02728 5:-235.48485 6:109.16647 7:29.679802 8:1.4577206 
-0.04202709404158454 0 0 0 1 0 0.03240169115387045 0 0 0 1:-911.53223 2:-673.13684 3:-20.333567 4:-454.31082 5:30.839323 6:-51.816391 7:-91.976639 8:-8.4223804 
-0 0 0 1 0 0 0 0.9436445933179136 0 0 1:-894.50543 2:-625.04401 3:-19.368196 4:-491.18878 5:-41.213303 6:189.26691 7:-98.006226 8:0.30318153 
-0 0 0 0 0.9052650276708288 0 0 0 0 0 1:-912.53253 2:-673.12653 3:-20.752182 4:-453.05066 5:2.4105706 6:-64.779579 7:-65.368095 8:-2.9470906 
-0 0 0 1 0 0 0 0 0 0 1:-942.52264 2:-673.02887 3:-24.169327 4:-435.67691 5:-233.89047 6:105.51556 7:29.602545 8:1.3938552 
-0 0 0 1 1 0 0 0 0 0 1:-942.52063 2:-673.0296 3:-19.355682 4:-490.67081 5:-41.808636 6:186.82387 7:-97.020256 8:2.4983821 
-1 0 0 0 0 0 0 0 0 0 1:-837.53387 2:-673.14941 3:-24.052647 4:-416.35434 5:-126.84223 6:-119.75351 7:20.449537 8:9.0343857 
-0 0 0 0 0 0 0 0 0.5750484578422899 0 1:-732.22369 2:310.81451 3:-24.486433 4:-411.62173 5:-133.45894 6:-122.47649 7:25.200939 8:-2.661783 
-0.3274077698198679 0 0 0 0 0 0 0 0 0.01168752051052987 1:-795.53204 2:-673.16852 3:-19.557167 4:-467.04999 5:62.61409 6:-39.076561 7:-101.74012 8:-1.6963848 
-0 0 0 1 0 0 0 0 0 0 1:-942.52246 2:-673.02692 3:-23.982117 4:-438.42017 5:-228.74963 6:110.8601 7:26.229225 8:1.1652138 
-0 0 0 0 0 0 0 1 0 0 1:-388.52078 2:-673.20544 3:-19.898767 4:-490.20099 5:-40.425758 6:190.72751 7:-98.624443 8:5.2445745 
-0 0 0 1 0 0 0 0 0 0 1:-942.51953 2:-669.03107 3:-19.410238 4:-489.68408 5:-42.291393 6:183.0643 7:-95.929443 8:22.350428 
-0 0 0 1 0 0 0 0 0 0 1:-942.52258 2:-673.02856 3:-24.169365 4:-435.76465 5:-234.28905 6:106.42799 7:29.622219 8:1.4093722 
-0 0 0.001741889126496066 0 0 0 0.4722582237171862 0 0 0 1:-912.53198 2:-673.12811 3:-19.412758 4:-468.0578 5:58.028919 6:-41.113976 7:-101.38713 8:-5.5131669 
-0 0 0 1 0 0 0 0 0 0 1:-942.52246 2:-673.0285 3:-24.203892 4:-435.28381 5:-235.69215 6:109.16154 7:29.045265 8:1.4531505 
-0 0 0 0 0 0 0 0 0.2188184852164924 0 1:10389.907 2:715.30536 3:-25.982899 4:-435.58258 5:-46.536922 6:-81.78418 7:-35.366539 8:-5.7407136 
-1 0 0 0 0 0 0 0 0 0 1:-837.53387 2:-673.14941 3:-24.052647 4:-416.35434 5:-126.84223 6:-119.75351 7:20.449537 8:9.0343857 
-0 0 0 1 0 0 0 0 0 0.1364564614045695 1:-912.521 2:-673.04108 3:-19.499168 4:-488.81403 5:-44.142754 6:179.36511 7:-94.120674 8:1.4749187 
-0.03919499960448792 0 0 0 0 0 0 0 0 0 1:-837.53369 2:-673.14954 3:-23.593985 4:-421.56451 5:-108.45609 6:-111.94755 7:8.2488899 8:8.1815004 
-0.8795915138271283 0 0 0 0 0 0 0 0 0 1:-942.53363 2:-673.11615 3:-23.38065 4:-422.91626 5:-104.19624 6:-109.95182 7:5.4418626 8:-3.8503189 
-0 0 0 1 0 0 0 0 0 0 1:-868.52081 2:-673.05573 3:-19.611601 4:-487.79718 5:-45.341522 6:183.255 7:-94.151039 8:5.4742298 
-0 0 0 1 0 0 0 0 0 0 1:-913.52112 2:-673.04266 3:-19.38258 4:-489.67618 5:-37.409531 6:176.752 7:-97.326591 8:5.1347818 
-0 0 0 0.006818797203660827 0 0 0 0 0 0 1:-942.52252 2:-673.02783 3:-24.169432 4:-435.94012 5:-235.08597 6:108.25363 7:29.661367 8:1.4409853 
-0 0 0 0 0 0 0 0 1 0 1:87439.43 2:-700.95551 3:-106.76438 4:-448.05994 5:-95.09623 6:115.00668 7:-46.9356 8:7.9058471 
-0.02848931447944912 0 0 0 0 0 0 0.5640108892346547 1 0.01557228837474585 1:174394.38 2:-728.43066 3:-188.95634 4:-450.32458 5:-14.478048 6:-75.527245 7:-49.843452 8:4.7942562 
-0 0.1448410767319326 0.001403723455184972 0 0 0.1428422447888466 0.000117310227969151 0 0 0 1:-941.52472 2:-673.10547 3:-21.022167 4:-456.03162 5:6.0482874 6:142.85947 7:-75.308662 8:54.868332 
-0 0 0 0.6420736455745099 0 0 0 0 0 0 1:-733.52112 2:-673.09528 3:-20.472403 4:-480.22583 5:-78.560387 6:171.17238 7:-72.706215 8:7.0124011 
-0 0 0 0.2020843384764473 0 0 0 0 0 0 1:-942.52252 2:-673.02783 3:-24.169432 4:-435.94012 5:-235.08597 6:108.25364 7:29.661366 8:1.4409984 
-0 0 0 1 0 0 0 0 0 0 1:-942.52246 2:-673.03046 3:-24.272757 4:-433.7966 5:-236.10715 6:109.15082 7:27.775908 8:1.4456444 
-0 0 0 1 0 0 0 0 0 0 1:-942.52246 2:-673.02747 3:-24.16946 4:-436.02731 5:-235.48474 6:109.16662 7:29.679873 8:1.4577224 
-0 0 0 0 0 0.04291235315204175 0 0.6937301166313032 0 0 1:-942.52045 2:-673.02795 3:-19.280931 4:-491.91107 5:-40.693108 6:191.78381 7:-98.8078 8:-7.562777 
-0 0 0 0 0 0 0 0.04293056178017594 1 0 1:160823.53 2:53599.852 3:-179.47307 4:-401.7735 5:-5.9001365 6:100.82436 7:-80.272369 8:-6.5706224 
-0 0 0 1 0 0 0 0 0 0 1:-942.52252 2:-673.02802 3:-23.829126 4:-439.89371 5:-221.42537 6:110.72416 7:22.103653 8:0.83366549 
-0 0 0 0 1 0 0 0 0 0 1:-912.53192 2:-673.12695 3:-19.433533 4:-468.0303 5:55.270939 6:-42.337627 7:-100.44429 8:-5.3997426 
-1 0 0 0 0 0 0 0 0 0 1:-829.53326 2:-673.21973 3:-22.208244 4:-419.79547 5:45.253941 6:-42.386005 7:-89.375473 8:-0.96510386 
-0 0 0 1 0 0 0 0 0 0 1:-942.52075 2:-673.02966 3:-20.095108 4:-481.95773 5:-70.985435 6:179.08949 7:-80.251335 8:-6.1895275 
-0 0 0.003012229733587423 0 0 0 0 0 0 0 1:-933.52063 2:-637.12024 3:-19.455267 4:-467.55551 5:53.648476 6:-42.984852 7:-99.366394 8:-8.3660727 
-0 0 0 0 0 0 0 1 0 0 1:-761.52057 2:-673.08679 3:-19.488913 4:-491.15186 5:-39.5308 6:191.07207 7:-98.475952 8:3.2472565 
-0 0 0 0 0 0 0 0 0 0.2633657449177959 1:-795.53192 2:-673.164 3:-19.410892 4:-469.54568 5:60.779758 6:-40.066921 7:-104.06749 8:-1.6676917 
-0 0.9513103009627328 0 0 0 0 0 0 0 0 1:-942.53021 2:-673.12518 3:-24.030891 4:-412.75662 5:-107.478 6:-19.108135 7:-10.642619 8:-3.9660387 
-0 0 0 1 0 0 0 0 0 0 1:-942.52148 2:-673.0351 3:-19.660883 4:-485.79147 5:-47.690819 6:167.01779 7:-89.204216 8:2.8193197 
-0 0 0 0 1 0 0 0 0 0 1:-930.52728 2:-673.08289 3:-20.01145 4:-470.87006 5:-11.659989 6:47.052929 7:-82.626923 8:4.3331594 
-0 1 0 0 0 0 0 0 0 0 1:-942.52057 2:-673.03137 3:-19.558323 4:-487.75903 5:-47.146282 6:188.1813 7:-94.939102 8:-7.2793097 
-0 0 0 0 0.8313202808282989 0 0 0 0 0 1:-942.53052 2:-673.08954 3:-24.12866 4:-421.04071 5:-163.95697 6:-54.19038 7:26.758488 8:-1.3043588 
-0 0 0 0 0 0 0 0 1 0 1:-609.61505 2:24434.75 3:-26.697151 4:-377.62265 5:-122.65106 6:-123.81276 7:25.75256 8:-2.509809 
-0 0 0 0 0 0 0 0 0 0.01336322972490597 1:5658.4741 2:-675.15479 3:-27.489735 4:-458.81238 5:-54.807163 6:154.97903 7:-80.106773 8:5.9730334 
-0 1 0.000364618525097261 0 0 0.9587332438750409 0 0 0 0 1:-942.52734 2:-673.08191 3:-19.293818 4:-478.2265 5:19.633606 6:51.804523 7:-101.44435 8:-4.9926724 
-0 0 0 0.3463732001463181 0 0 0 0 0 0 1:-942.52264 2:-673.02887 3:-24.169331 4:-435.67682 5:-233.89066 6:105.51523 7:29.602425 8:1.3937904 
-0 0 0 0.05955397368674405 0 0 0 0 0 0.01814168668757421 1:-851.52661 2:-673.11707 3:-19.893604 4:-470.72162 5:10.696862 6:71.644852 7:-99.854362 8:57.28688 
-0 0 0 0 0 1.277372379706197e-05 0 0 0 0 1:-764.88385 2:-567.68097 3:32997.699 4:1272.7916 5:-107.18127 6:48.987659 7:198.56943 8:0.85086906 
-0 0 0 0 0 0 0 0.3800032270452794 0 0 1:-942.52045 2:-673.02795 3:-19.280931 4:-491.91107 5:-40.693108 6:191.78381 7:-98.8078 8:-7.562777 
-0 0 0 1 0 0 0 0 0 0 1:-942.52246 2:-673.02747 3:-24.169462 4:-436.02728 5:-235.48483 6:109.16642 7:29.679804 8:1.4576772 
-0 0 0 0 0 0 0 0 0 0.03819974135586016 1:-795.53192 2:-673.164 3:-19.410892 4:-469.54568 5:60.779755 6:-40.066921 7:-104.06749 8:-1.6676697 
-0.06529841246210327 0 0 0 0 0 0 0 0 0 1:-837.53369 2:-673.14954 3:-23.593985 4:-421.56451 5:-108.45609 6:-111.94755 7:8.2488899 8:8.1815004 
-0 0 0 1 0 0 0 0 0 0 1:-942.52246 2:-673.02747 3:-24.16946 4:-436.02731 5:-235.48474 6:109.16667 7:29.679865 8:1.4577878 
-0 0 0 0 0 0 0 0 0 0.4682681867167919 1:-912.53192 2:-673.12695 3:-19.337978 4:-469.11581 5:59.10141 6:-40.711407 7:-102.98601 8:-5.5775003 
-0 0.1691574910070849 0 0 0 0 0 0 0 0 1:-942.52081 2:-673.03137 3:-19.448898 4:-489.03409 5:-43.473869 6:183.11336 7:-96.020851 8:-7.4330764 
-0 0 0 1 0 0 0 0 0 0 1:-912.52112 2:-673.04211 3:-19.556393 4:-487.89911 5:-45.245682 6:175.6515 7:-92.655243 8:1.5351664 
-0 0 0 0 0 0 0 0 0 1 1:-878.52234 2:-673.06311 3:-19.339361 4:-488.1756 5:-23.727314 6:153.41206 7:-99.83844 8:0.62458843 
-0 0 0 0 0.4115116119263247 0 0.07704961184045724 0 0 0 1:-912.53192 2:-673.12695 3:-19.3762 4:-468.68149 5:57.569157 6:-41.361832 7:-101.96956 8:-5.5061784 
-0 0 0 0 0 0 0 0 1 0 1:87439.422 2:-701.00464 3:-106.01932 4:-444.28336 5:-10.759558 6:-6.1829486 7:-67.556763 8:4.4319735 
-0 0 0 0 1 0 0.1611216366449656 0 0 0 1:-906.53235 2:-673.12988 3:-20.4818 4:-455.97198 5:15.085865 6:-60.269688 7:-73.411987 8:51.460999 
-0 0 0 0 0.7062692906953737 0 0 0 0 0 1:-913.52686 2:-673.10376 3:-20.722765 4:-457.31433 5:-19.645906 6:58.415527 7:-92.467957 8:-6.5313911 
-0 0 0 0 0 0 0 0 1 0 1:-709.42963 2:-342.18982 3:-24.378643 4:-413.9473 5:-134.00798 6:-122.69032 7:25.240969 8:-2.6530311 
-0 0 0 0 0 0 0 0 1 0 1:-632.41046 2:-281.21631 3:-24.528751 4:-412.49203 5:-133.7272 6:-122.45361 7:25.1898 8:-2.665338 
-0 0 0 1 0 0 0 0 0 0 1:-942.51971 2:-669.03247 3:-19.486538 4:-488.46426 5:-43.761936 6:178.11279 7:-93.975426 8:22.430656 
-0 0 0 1 0 0 0 0 0 0 1:-942.52075 2:-673.03027 3:-19.393833 4:-490.06097 5:-42.54388 6:184.34807 7:-96.043137 8:2.538394 
-0 0 0 0.4936292393950643 0 0 0 0 0 0 1:-942.52209 2:-673.02832 3:-22.835373 4:-451.18228 5:-181.58934 6:127.63698 7:-4.3308797 8:-1.0147729 
-1 0 0 0 0 0 0 0 0 0 1:-837.53387 2:-673.14941 3:-24.052647 4:-416.35434 5:-126.84223 6:-119.75351 7:20.449537 8:9.0343857 
-0 0 0 0 0 0 0.2986704312773488 0 0 0 1:-942.53339 2:-673.11633 3:-22.864655 4:-428.77771 5:-83.511848 6:-101.17018 7:-8.2839079 8:-4.8097763 
-0 0 0 0.0001049801868946526 0 0 0 0.0179367517320092 0 0 1:-788.18512 2:-567.93945 3:9696.5098 4:22.511274 5:-80.498932 6:196.9767 7:-10.551098 8:2.63924 
-0 0 0 0 0 0 0 0 1 0 1:-773.43341 2:-354.16962 3:-24.31637 4:-413.96341 5:-134.01541 6:-122.6873 7:25.240042 8:-2.653017 
-0 0 0 1 0 0 0 0 0 0 1:-942.52057 2:-673.02783 3:-19.663143 4:-487.56934 5:-56.014702 6:185.27901 7:-88.640701 8:-6.8516831 
-0 0 0 1 0 0 0 0 0 0 1:-942.52209 2:-673.0285 3:-23.04187 4:-448.66068 5:-189.48885 6:126.53044 7:-0.35107362 8:-0.672167 
-1 0 0 0 0 0 0 0 0 0 1:-840.53387 2:-673.15021 3:-24.062864 4:-415.54004 5:-125.31387 6:-118.77953 7:17.823458 8:-1.0681922 
-0 0 0 0 1 0 0.1095632474067453 0 0 0 1:-912.53192 2:-673.12695 3:-19.3762 4:-468.68143 5:57.56913 6:-41.361801 7:-101.96967 8:-5.5060759 
-0 0 0 1 0 0 0 0 0 0 1:-942.52246 2:-673.02747 3:-24.169462 4:-436.02731 5:-235.48479 6:109.16657 7:29.679836 8:1.4577498 
-0.1301266615052671 0 0 0 0 0 0 0 0 0 1:14933.458 2:-678.16119 3:-38.370216 4:-415.83176 5:-43.166611 6:-82.739929 7:-32.661957 8:6.1101894 
-1 0 0 0 0 0 0 0 0 0 1:-837.53387 2:-673.14941 3:-24.052647 4:-416.35434 5:-126.84223 6:-119.75351 7:20.449537 8:9.0343857 
-0 0 0 0 0 0 0 0.1376261416852258 1 0 1:59984.602 2:-200.25864 3:-82.088966 4:-438.62463 5:-207.12918 6:84.328491 7:21.154459 8:1.0759692 
-0 0 0 0 0 0 0 1 1 0 1:58333.445 2:-691.75586 3:-77.668556 4:-466.53656 5:-75.079933 6:89.643967 7:-55.883305 8:7.0607228 
-0 0 0 0.5000792495919322 0 0 0 0 0 0 1:-837.47461 2:-527.06293 3:-19.469055 4:-490.42902 5:-41.759624 6:186.78079 7:-97.091881 8:4.3349457 
-0 0 0 0 0 0 0 0 0.7747913565795579 0 1:-622.78406 2:23898.754 3:-26.6709 4:-377.66479 5:-123.10492 6:-123.79276 7:25.106577 8:-2.521524 
-0 0 0 1 0 0 0 0 0 0 1:-942.52246 2:-673.02692 3:-23.943895 4:-438.85437 5:-227.21744 6:111.51067 7:25.212538 8:1.0941483 
-0 0 0 1 0.1187280252740294 0 0 1 0 0 1:-942.51923 2:-669.02899 3:-19.295784 4:-491.5134 5:-40.085785 6:190.49182 7:-98.861343 8:22.230904 
-0 0 0 1 0 0 0 0 0 0 1:-942.52246 2:-673.02655 3:-24.058586 4:-437.6391 5:-232.21259 6:110.47234 7:28.281244 8:1.3241984 
-0 0.02115193090109381 0.0003126174422162689 0 0 0 0.009085590349650544 0 0 0 1:-899.5304 2:-630.74384 3:-44.77676 4:-17.336824 5:-60.204819 6:-51.794296 7:9.8260775 8:-4.3141594 
-0 0 0 1 0 0 0 0 0 0 1:-871.52209 2:-673.05713 3:-21.123388 4:-469.91751 5:-103.5959 6:143.24031 7:-52.181362 8:8.2214298 
-0 0 0 0 0 0 0 0 0 0.013502448376239 1:-906.52063 2:-673.04425 3:-19.495325 4:-488.53653 5:-40.947369 6:189.75914 7:-98.012703 8:-5.7119222 
-0 0 0 0 1 0 0 0 0 0 1:-912.53192 2:-673.12695 3:-19.395309 4:-468.46445 5:56.803101 6:-41.687099 7:-101.46112 8:-5.4707074 
-0 0 0 0 0 0 0 0 0.5922239131767838 0 1:41815.578 2:-296.53693 3:-61.463657 4:-449.85144 5:-146.6532 6:84.011192 7:-14.214175 8:-1.677148 
-0 -0 0 0 0 0 0 0 6.570764207842544e-10 6.903209202127179e-08 1:-942.53577 2:-673.25769 3:-23.803984 4:-392.18143 5:117.75062 6:-9.3369331 7:-31.956581 8:-0.44147739 
-0 -0 0 0 0 0.06588261002895113 0 0 0 0 1:-942.53345 2:-673.17523 3:-21.134773 4:-437.74182 5:84.321976 6:-27.405163 7:-74.396477 8:0.1417904 
-5.419320466695549e-06 -1 0 0 0 0 2.221353891419316e-05 0 0 0 1:-942.52887 2:-673.10876 3:-22.814251 4:-430.74258 5:-81.633438 6:9.5824795 7:-34.137917 8:-4.1848183 
-0 -0 0.9227208160905721 0 0 0 0 0 0 0 1:-942.53546 2:-673.2464 3:-23.438337 4:-398.42258 5:113.17136 6:-11.812032 7:-37.770264 8:-0.36159137 
-0 -0 0 0 0 1 0 0 0 0 1:-942.54071 2:-673.43719 3:-29.617741 4:-292.94711 5:190.56096 6:30.017166 7:60.480972 8:-1.712209 
-0 -0 1 0 0 0 0 0 0 0 1:-942.53204 2:-673.1261 3:-19.630404 4:-463.23212 5:58.902313 6:-40.359932 7:-102.22733 8:0.63682556 
-0 -0 0.9691208872703362 0 0 0 0 0 0 0 1:-942.53613 2:-673.26776 3:-24.400618 4:-383.52509 5:111.14668 6:-11.662825 7:-19.607218 8:-0.015897896 
-0 -0 0.9981113729910787 0 0 0 0 0 0 0 1:-942.54114 2:-673.45282 3:-30.184841 4:-283.43881 5:194.00824 6:32.253963 7:68.929222 8:-1.7141352 
-0 -0 1 0 0 0 0 0 0 0 1:-942.54065 2:-673.44031 3:-29.91679 4:-287.42215 5:179.50952 6:25.806658 7:56.43782 8:-1.3937072 
-0 -0 1 0 0 0 0 0 0 0 1:-942.53235 2:-673.13641 3:-19.99984 4:-457.30084 5:62.159157 6:-38.529858 7:-94.761101 8:0.63551837 
-0 -0 0.9593465852723936 0 0 0 0 0 0 0 1:-942.53961 2:-673.39764 3:-28.337931 4:-314.78525 5:174.50746 6:21.350231 7:40.122993 8:-1.4887505 
-0 -0 0 0 0 0.4643815988004676 0 0 0 0 1:-942.54077 2:-673.43939 3:-29.69087 4:-291.69888 5:191.47681 6:30.512184 7:61.643711 8:-1.7281712 
-0 -0 1 0 0 0 0 0 0 0 1:-942.53815 2:-673.34344 3:-26.582834 4:-344.74277 5:152.52699 6:9.4697485 7:12.217322 8:-1.1051065 
-0 -0 1 0 0 0 0 0 0 0 1:-942.53992 2:-673.41077 3:-28.827688 4:-306.29224 5:175.73422 6:22.590912 7:44.986629 8:-1.4116155 
-0 -0.9823327030958003 0.0003882297371506459 0 0 0 0 0 0 0 1:-942.52496 2:-673.06964 3:-20.0627 4:-473.05478 5:-19.59082 6:103.81763 7:-84.434433 8:-4.1184988 
-0 -0 0 0 1 1 0 0 0 0 1:-942.53192 2:-673.11981 3:-19.360037 4:-467.98041 5:60.423004 6:-40.115574 7:-103.60276 8:0.51169002 
-0 -0 1 0 0 0 0 0 0 0 1:-942.53815 2:-673.34344 3:-26.582834 4:-344.74277 5:152.52699 6:9.4697485 7:12.217322 8:-1.1051065 
-0 -0 0.9824098893941986 0 0 0 0 0 0 0 1:-942.53906 2:-673.37817 3:-27.75034 4:-324.72809 5:163.88586 6:15.990968 7:28.834576 8:-1.2187626 
-0 -0 0 0 0 0 0 0 0 5.487794371932677e-09 1:-942.53607 2:-673.28461 3:-25.084002 4:-368.55685 5:100.35594 6:-14.570836 7:-36.292957 8:0.063738734 
-0 -0 0 0 0 0.9643380541494634 0 0 0 0 1:-942.53857 2:-673.35925 3:-27.09479 4:-336.01105 5:158.96402 6:12.938973 7:20.366568 8:-1.1607304 
-0 -0 0.06159606653014887 0 0 0 0 0 0 0 1:-942.54108 2:-673.45862 3:-30.640245 4:-274.79324 5:178.70557 6:26.547302 7:62.075333 8:-1.2958908 
-0 -0 0.3388580179448189 0 0 0 0 0 0 0 1:-942.53839 2:-673.35345 3:-26.928944 4:-338.79514 5:155.2429 6:11.123581 7:16.752098 8:-1.0819081 
-0 -0 0 0 0 0.1051496405343146 0 0 0 0 1:-942.53204 2:-673.12469 3:-19.506763 4:-465.58621 5:63.338871 6:-38.877052 7:-100.23519 8:11.517115 
-0 -0 1 0 0 0 0 0 0 0 1:-942.53979 2:-673.40314 3:-28.537783 4:-311.33405 5:175.39166 6:22.014021 7:42.332302 8:-1.4335396 
-0 -0 0 0 0 0.359924208274763 0 0 0 0 1:-942.53546 2:-673.2475 3:-23.474903 4:-397.79846 5:113.62927 6:-11.564525 7:-37.1889 8:-0.36953497 
-0 -0 0.0003622604606483681 0 0 0 0 0 0 0 1:-942.53906 2:-673.37555 3:-27.921383 4:-322.91534 5:151.6801 6:10.762536 7:31.848551 8:-0.73396474 
-0 -0 0 0 0 1 0 0 0 0 1:-942.53198 2:-673.12109 3:-19.379356 4:-467.69498 5:62.411968 6:-39.287235 7:-102.33599 8:2.5197132 
-0 -0 0.2410749864925405 0 0 0 0 0 0 0 1:-942.54144 2:-673.47284 3:-31.166515 4:-265.67026 5:180.36429 6:28.031425 7:67.510254 8:-1.2829088 
-0 -0 0 0 0 0.7712861348071068 0 0 0 0 1:-942.53546 2:-673.2475 3:-23.474903 4:-397.79846 5:113.62928 6:-11.564523 7:-37.1889 8:-0.36957023 
-0 -0 0 0 0.3122602463744226 1 0 0 0 5.557141807020335e-07 1:-942.53192 2:-673.11884 3:-19.30654 4:-468.94733 5:61.424438 6:-39.780804 7:-103.46539 8:0.53798908 
-0 -0 0 0 0 1 0 0 0 0 1:-942.53223 2:-673.13013 3:-19.67219 4:-462.70639 5:66.004776 6:-37.305576 7:-97.651268 8:0.46099824 
-0 -0 0 0 0 0.002481605326380722 0 0 0 0 1:-942.53503 2:-673.23248 3:-22.95817 4:-406.46945 5:108.31731 6:-15.054076 7:-45.850563 8:30.689207 
-0 -0 0 0 0 0.0003044320190278761 0 0 0 0 1:-942.53284 2:-673.15155 3:-20.366917 4:-450.84824 5:74.705505 6:-32.602875 7:-86.605209 8:0.30952483 
-0 -0 0.5728408077170887 0 0 0 0 0 0 0 1:-942.54114 2:-673.4588 3:-30.552963 4:-276.2627 5:184.10672 6:28.940769 7:63.383762 8:-13.463197 
-0 -0 0 0 0 0.7443757548943118 0 0 0 0 1:-942.53564 2:-673.25427 3:-23.694239 4:-394.04785 5:116.35078 6:-10.083547 7:-33.710781 8:-0.47378886 
-1.34854771395238e-06 -0 0 0 0 0 0 0 0 0 1:-942.53491 2:-673.22528 3:-24.035702 4:-392.24362 5:44.20776 6:-41.388168 7:-37.657913 8:3.1029913 
-0 -0 0.07236479538881217 0 0 0 0 0 0 0 1:-942.53979 2:-673.39954 3:-28.731728 4:-309.61353 5:161.09511 6:15.81493 7:47.505978 8:-0.83755696 
-0 -0 0 0 0 1 0 0 0 0 1:-942.53192 2:-673.11993 3:-19.343105 4:-468.3233 5:61.882797 6:-39.533245 7:-102.88386 8:0.531192 
-0 -0 0 0.002127790666760091 0.02301281019104144 1 0 0 0 0 1:-942.53186 2:-673.11823 3:-19.266554 4:-469.52377 5:61.744617 6:-40.045994 7:-104.41862 8:22.507269 
-0 -1 0 0.01681334329773638 0.04812898494515205 0 0 1.787358481607765e-05 0 0 1:-942.52148 2:-673.05585 3:-20.30913 4:-472.89877 5:-42.513744 6:178.3576 7:-93.115204 8:-2.3960319 
-0 -0 0 0 0 0.01219319920062978 0 0 0 0 1:-942.53345 2:-673.17554 3:-21.133059 4:-437.7182 5:84.711945 6:-27.413824 7:-74.581886 8:11.122927 
-0 -0 0 0 0 0.002476041491013101 0 0 0 0 1:-942.53204 2:-673.12531 3:-19.559885 4:-464.5296 5:61.308907 6:-39.451488 7:-101.39259 8:0.56884164 
-0 -0 0 0 0 1 0 0 0 0 1:-942.53198 2:-673.12219 3:-19.416235 4:-467.07516 5:62.799026 6:-39.038166 7:-101.72094 8:0.51591319 
-0 -0 0 0 0 0.8364962148585516 0 0 0 0 1:-942.53387 2:-673.18994 3:-21.610062 4:-429.62244 5:90.24894 6:-24.191624 7:-66.848778 8:-0.018276088 
-0 -0 0 0 0 1 0 0 0 0 1:-942.53198 2:-673.12091 3:-19.396646 4:-467.36246 5:60.908211 6:-39.863743 7:-103.01062 8:0.56058568 
-0 -0 0 0 0 1 0 0 0 0 1:-942.53192 2:-673.11993 3:-19.343103 4:-468.32333 5:61.882893 6:-39.533207 7:-102.88377 8:0.53075403 
-0 -0 1 0 0 0 0 0 0 0 1:-942.53979 2:-673.41315 3:-29.211569 4:-299.07895 5:157.49953 6:15.48714 7:37.39526 8:-0.9546026 
-0 -0.3041280965070401 0 0 0 0 0.001231627397017152 0 0 1.729171644213942e-07 1:-942.53229 2:-673.11743 3:-20.301817 4:-457.84595 5:19.631245 6:-57.592876 7:-76.613167 8:3.4622481 
-0 -0 0 0 0 0 8.456657775249454e-05 0 0 0 1:-942.53247 2:-673.14362 3:-20.207216 4:-453.12051 5:64.186539 6:-37.830971 7:-95.527802 8:36.53561 
-0 -0 0 0 1 0 0 0 0 1.099324140531455e-07 1:-942.53198 2:-673.11761 3:-19.46109 4:-467.40012 5:53.303783 6:-43.281151 7:-98.964195 8:0.90031409 
-0 -0 0.07077072829987363 0 0 0 0 0 0 0 1:-942.5329 2:-673.13635 3:-21.039328 4:-445.95126 5:22.538786 6:-55.329903 7:-63.543411 8:-4.4424796 
-0 -0 0 0 0 0.004228591855289386 0 0 0 0 1:-942.53253 2:-673.14215 3:-20.092625 4:-455.52179 5:69.326797 6:-35.154514 7:-91.829086 8:-7.574008 
-0 -0 0.68906176507362 0 0 0 0 0 0 0 1:-942.53815 2:-673.34344 3:-26.582834 4:-344.74277 5:152.52699 6:9.4697485 7:12.217322 8:-1.1051065 
-0 -0 0 0 0 0.0002343411861685717 0 0 0 0 1:-942.52362 2:-673.14246 3:-22.989027 4:-428.42664 5:4.953239 6:215.28253 7:-41.016468 8:3.6362195 
-0 -0 0 0 0 1 0 0 0 0 1:-942.53204 2:-673.12317 3:-19.469778 4:-466.11438 5:61.824818 6:-39.368618 7:-101.84754 8:0.54620999 
-0 -0 0 0 0 0 0.001141671181784768 0 0 0 1:-942.53314 2:-673.15607 3:-21.746664 4:-432.22574 5:21.721512 6:-54.309006 7:-66.073196 8:-4.4841485 
-0 -0 0.02117797771918338 0 0 0 0 0 0 0 1:-942.53992 2:-673.41077 3:-28.827688 4:-306.29224 5:175.73422 6:22.590912 7:44.986629 8:-1.4116023 
-0 -0 -0 0 0 0 0 0 6.570240900142766e-10 0 1:-942.54779 2:-673.69336 3:-37.918083 4:-151.27151 5:294.414 6:86.199615 7:192.47513 8:-5.5821609 
-0 -0 -1 0 0 0.1183725370602951 0 0 0 0 1:-942.53986 2:-673.40668 3:-28.630388 4:-309.79251 5:178.17174 6:23.330391 7:44.773911 8:-1.555095 
-0 -0 -1 0 0 0 0 0 0 0 1:-941.53235 2:-673.14032 3:-20.19162 4:-453.40475 5:57.581646 6:-40.065533 7:-98.259529 8:0.50990331 
-0 -0 -1 0 0 1 0 0 0 0 1:-942.53644 2:-673.28247 3:-24.608307 4:-378.44504 5:127.79939 6:-3.8959522 7:-19.176683 8:-0.67585701 
-0 -0 -0 0 0 0.1085683766364809 0 0 0 0 1:-941.53253 2:-673.14514 3:-20.303959 4:-451.57996 5:62.276016 6:-37.919651 7:-94.520844 8:0.40534905 
-0 -0 -1 0 0 0 0 0 0 0 1:-942.54028 2:-673.42133 3:-29.105728 4:-301.67902 5:184.12479 6:26.548019 7:52.331696 8:-1.6589926 
-0 -0 -1 0 0 0 0 0 0 0 1:-941.53278 2:-673.1604 3:-21.134703 4:-437.43219 5:49.568302 6:-42.189671 7:-91.04113 8:0.88761467 
-0 -0 -1 0 0 1 0 0 0 0 1:-942.53937 2:-673.38861 3:-28.045361 4:-319.77832 5:170.84489 6:19.370186 7:35.472027 8:-1.4270511 
-0 -0 -0.8248143042271089 0 0 0 0 0 0 0 1:-941.53284 2:-673.15179 3:-20.368265 4:-450.82016 5:74.516518 6:-32.635574 7:-86.624893 8:-1.9030834 
-0 -0 -1 0 0 0 0 0 0 0 1:-942.54175 2:-673.47437 3:-30.824572 4:-272.34991 5:205.57652 6:38.182617 7:79.689766 8:-4.0310369 
-0 -0 -0 0 0 1 0 0 0 0 1:-941.53229 2:-673.13263 3:-19.746344 4:-461.42508 5:66.8022 6:-36.844704 7:-96.54332 8:0.22962198 
-0 -0 -0.1396803883426146 0 0 0 0 0 0 0 1:-941.53278 2:-673.15503 3:-20.666992 4:-445.2905 5:63.53516 6:-36.84779 7:-90.702805 8:0.41149443 
-0 -0 -0.2375188184122596 0 0 0 0 0 0 0 1:-942.54486 2:-673.58728 3:-34.481022 4:-209.9384 5:251.36917 6:62.93362 7:137.82658 8:-4.8302484 
-0 -0 -0.6045615400655863 0 0 0 0 0 0 0 1:-942.54773 2:-673.69116 3:-37.844646 4:-152.5155 5:293.5694 6:85.70295 7:191.27878 8:-3.5687318 
-0 -0.003227608937380963 -0 0.0001156470452179956 0.00129373300540742 0 2.051416833662516e-05 1.456193796217651e-05 0 9.194454873262823e-07 1:-936.5213 2:-647.14441 3:-21.072104 4:-446.59726 5:48.921093 6:51.505543 7:-73.883308 8:5.5263324 
-0 -0 -1 0 0 0 0 0 0 0 1:-942.53857 2:-673.35925 3:-27.094685 4:-336.00525 5:158.93845 6:12.934935 7:20.356365 8:-1.2198733 
-0 -0 -0 0 0 0.1066482278036149 0 0 0 0 1:-942.54779 2:-673.69226 3:-37.881519 4:-151.89565 5:293.95618 6:85.952087 7:191.89378 8:-5.573956 
-0 -0 -0.01147726440180063 0 0 0 0 0 0 0 1:-942.54779 2:-673.69336 3:-37.91811 4:-151.27678 5:294.43637 6:86.20433 7:192.48399 8:-5.5355082 
-0 -0 -1 0 0 0 0 0 0 0 1:-942.54572 2:-673.61774 3:-35.468262 4:-193.08727 5:263.73312 6:69.616379 7:153.5235 8:-5.0462003 
-0 -0.003021936233512747 -1 0 0 0 0.002670236376091164 0 0 0 1:-941.53284 2:-673.15924 3:-21.251028 4:-436.31949 5:42.981468 6:-45.039192 7:-87.55574 8:1.1798259 
-0 -0 -1 0 0 1 0 0 0 0 1:-942.53943 2:-673.39087 3:-28.118488 4:-318.53009 5:171.76076 6:19.865208 7:36.634758 8:-1.4430573 
-0 -0.0005855331116882815 -0 0 0.7881834079303143 1 0 0 0 0 1:-941.53192 2:-673.12006 3:-19.361101 4:-467.9538 5:60.330997 6:-40.145676 7:-103.64654 8:0.35146606 
-0 -0 -1 0 0 1 0 0 0 0 1:-942.53845 2:-673.35474 3:-26.948429 4:-338.50171 5:157.10672 6:11.944879 7:18.030893 8:-1.187858 
-7.030650023972021e-06 -0 -0.08215287093308392 0 0 0 4.034527096814769e-05 0 0 0 1:-941.53656 2:-673.31122 3:-28.239069 4:-319.53729 5:-4.5314698 6:-56.057266 7:-19.829756 8:3.7873559 
-0 -0 -1 0 0 1 0 0 0 0 1:-942.53485 2:-673.22491 3:-22.743525 4:-410.27487 5:104.44507 6:-16.519102 7:-48.826458 8:-0.26786026 
-0 -0 -0 -0 0 0 0 0 6.572680214057787e-10 0 1:-934.52258 2:-673.05023 3:-24.864952 4:-421.02768 5:-239.11511 6:108.11578 7:16.820438 8:7.1930952 
-0 -1 -0 -0 0 0 0 1.691976906825248e-05 0 9.356861634159087e-07 1:-924.52045 2:-673.03375 3:-19.373856 4:-491.00159 5:-43.637466 6:190.446 7:-96.921646 8:-1.578126 
-2.676691717627402e-07 -1 -0.01547729762385113 -0.0001156470452179956 0.08855739076206756 0.0003555178400172135 4.443308722713014e-05 0 0 0 1:-942.52258 2:-673.04517 3:-19.277229 4:-487.66913 5:-21.13883 6:147.9682 7:-99.963081 8:3.6724293 
-0 -1 -0 -0 0 0 0 0 0 0 1:-924.52246 2:-673.03235 3:-24.132401 4:-436.94666 5:-234.39084 6:109.45969 7:29.659058 8:7.2731972 
-0 -0.6423007981483975 -0 -0 0 0 0 0 0 0 1:-934.52094 2:-673.03949 3:-20.686996 4:-472.71625 5:-85.708656 6:172.25021 7:-75.710411 8:0.24505022 
-0 -1 -0 -0 0 0 0 0 0 0 1:-942.4776 2:-540.02863 3:-18.312222 4:-491.35355 5:-40.719082 6:190.54836 7:-98.410461 8:-0.48594335 
-0 -0 -0 -0 1 0 0 0 0 0 1:-934.52264 2:-673.06891 3:-25.519129 4:-406.90085 5:-243.05621 6:108.01931 7:4.7628222 8:7.1063147 
-0 -1 -0 -0 0 0 0 0 0 0 1:-924.521 2:-673.03333 3:-20.673378 4:-476.23959 5:-95.730759 6:168.32925 7:-62.353424 8:0.8391028 
-0 -1 -0 -0 0 0 0 0 0 0 1:-924.52246 2:-673.03235 3:-24.132401 4:-436.94666 5:-234.39084 6:109.45969 7:29.659058 8:7.2731972 
-0 -1 -0 -0 0 0 0 0 0 0 1:-942.5224 2:-673.0437 3:-19.277372 4:-488.02066 5:-22.732576 6:151.6187 7:-99.88356 8:3.7342906 
-0 -0 -0 -0 0.676313048798528 0 0 0 0 0 1:-934.52063 2:-673.03088 3:-19.612696 4:-488.09131 5:-53.198288 6:185.3054 7:-90.33297 8:-1.1316787 
-0 -1 -0 -0 0 0 0 0 0 0 1:-924.52063 2:-673.03363 3:-19.756067 4:-486.65982 5:-58.959023 6:183.94107 7:-86.754524 8:-0.86717629 
-0 -0 -0 -0 1 0 0 0 0 0 1:-934.52118 2:-673.03442 3:-21.011721 4:-470.78955 5:-104.58955 6:163.81921 7:-59.320087 8:1.1921217 
-0 -0 -0 -0 1 0 0 0 0 0 1:-934.52258 2:-673.05316 3:-24.968243 4:-418.79712 5:-239.73738 6:108.10055 7:14.916604 8:7.1793933 
-0 -1 -0 -0 0 0 0 0 0 0 1:-924.52246 2:-673.03235 3:-24.132401 4:-436.94666 5:-234.39084 6:109.45969 7:29.659058 8:7.2731972 
-0 -0 -0 -0 1 0 0 0 0 0 1:-934.52081 2:-673.07477 3:-21.353205 4:-452.55011 5:-70.592125 6:182.73744 7:-113.78722 8:-0.9703185 
-0 -1 -0 -0 0 0 0 0 0 0 1:-924.52246 2:-673.03235 3:-24.132401 4:-436.94666 5:-234.39084 6:109.45969 7:29.659058 8:7.2731972 
-0 -1 -0 -0 0 0 0 0 0 0 1:-924.52246 2:-673.03235 3:-24.132401 4:-436.94666 5:-234.39084 6:109.45969 7:29.659058 8:7.2731972 
-0 -1 -0 -0 0 0 0 6.379843706198004e-08 0 0 1:-924.52197 2:-673.03345 3:-22.699032 4:-453.05249 5:-176.13805 6:132.02766 7:-8.5073671 8:4.5758786 
-0 -1 -0 -0 0 0 0 0 0 0 1:-924.52081 2:-673.03345 3:-20.252945 4:-481.01553 5:-78.877045 6:175.48468 7:-73.537262 8:0.057058208 
-0 -0 -0.001334283774581717 -0 1 0 0 0 0 0 1:-934.52081 2:-673.07611 3:-21.3876 4:-451.71872 5:-70.401115 6:181.81973 7:-114.44171 8:-0.99036831 
-0 -1 -0 -0 0 0 0 0 0 0 1:-934.52057 2:-673.04138 3:-19.876804 4:-481.30313 5:-51.282379 6:188.11404 7:-100.34415 8:-1.3837689 
-0 -1 -0 -0 0 0 0 3.035448534815112e-06 0 0 1:-924.52246 2:-673.03235 3:-24.15151 4:-436.72958 5:-235.15692 6:109.13445 7:30.167414 8:7.3087444 
-0 -1 -0 -0 0 0 0 0 0 0 1:-924.52124 2:-673.03357 3:-21.074665 4:-471.59286 5:-111.41988 6:160.58623 7:-51.697769 8:1.5698122 
-0 -1 -0 -0 0 0 0 0 0 0 1:-924.52094 2:-673.03339 3:-20.463161 4:-478.62756 5:-87.303902 6:171.90697 7:-67.945343 8:0.44808051 
-0 -1 -0 -0 0 0 0 0 0 0 1:-924.521 2:-673.03333 3:-20.673378 4:-476.23959 5:-95.730759 6:168.32925 7:-62.353424 8:0.8391028 
-0 -0 -0 -0 1 0 0 0 0 0 1:-934.52258 2:-673.07446 3:-25.725746 4:-402.52762 5:-244.6992 6:108.90147 7:0.97503382 8:7.0943751 
-0 -0 -0 -0 1 0 0 0 0 0 1:-934.52075 2:-673.07416 3:-21.204077 4:-454.50827 5:-65.389801 6:183.78137 7:-116.22263 8:-1.1944966 
-0 -1 -0 -0 0 0 0 0 0 0 1:-924.52246 2:-673.03235 3:-24.132401 4:-436.94666 5:-234.39084 6:109.45969 7:29.659058 8:7.2731972 
-0 -1 -0 -0 0 0 0 0 0 0 1:-924.52069 2:-673.03357 3:-19.966284 4:-484.27185 5:-67.38588 6:180.36337 7:-81.162605 8:-0.47615403 
-0 -0 -0 -0 0.3950938754605469 0 0 0 0 0 1:-934.52252 2:-673.04102 3:-24.555115 4:-427.80722 5:-237.6467 6:109.07411 7:22.551821 8:7.2496667 
-0 -1 -0 -0 0 0 0 0 0 0 1:-924.52246 2:-673.03235 3:-24.15151 4:-436.72958 5:-235.15692 6:109.13445 7:30.167414 8:7.3087444 
-0 -0 -0 -0 1 0 0 0 0 0 1:-934.5213 2:-673.0639 3:-22.235737 4:-446.31311 5:-118.47313 6:160.41441 7:-73.274864 8:1.4105744 
-0 -1 -0 -0 0 0 0 0 0 0 1:-924.52246 2:-673.03235 3:-24.132401 4:-436.94666 5:-234.39084 6:109.45969 7:29.659058 8:7.2731972 
-0 -0 -0 -0 0.07032789701985875 0 0 0 0 0 1:-924.52075 2:-673.03351 3:-20.080948 4:-482.96933 5:-71.982346 6:178.4119 7:-78.112465 8:-0.26286912 
-0 -0 -0 -0 1 0 0 0 0 0 1:-934.52264 2:-673.06891 3:-25.519129 4:-406.90085 5:-243.05621 6:108.01931 7:4.7628222 8:7.1063147 
-0 -0 -0.002129552566063616 -0 0.1382949248410863 0 0 0 0 0 1:-934.5213 2:-673.08038 3:-22.687315 4:-435.28082 5:-117.03528 6:163.51744 7:-87.601875 8:1.0995654 
-0 -1 -0 -0 0 0 0 0 0 0 1:-924.52148 2:-673.03339 3:-21.686205 4:-464.64603 5:-135.93436 6:150.17834 7:-35.43037 8:2.7073271 
-0 -0 -0 -0 0.6314128631179229 0 0 0 0 0 1:-934.52264 2:-673.07941 3:-25.897898 4:-398.81003 5:-245.73634 6:108.87608 7:-2.1980231 8:7.071538 
-0 -1 -0 -0 0 0 0 0 0 0 1:-924.52246 2:-673.03235 3:-24.15151 4:-436.72958 5:-235.15692 6:109.13445 7:30.167414 8:7.3087444 
-0 -1 -0 -0 0 0 0 0 0 0 1:-924.521 2:-673.03339 3:-20.596935 4:-477.10794 5:-92.666367 6:169.63 7:-64.386795 8:0.69659001 
-0 -1 -0 -0 0 0 0 0 0 0 1:-942.52252 2:-673.0448 3:-19.296375 4:-487.53995 5:-22.303429 6:148.55595 7:-99.434898 8:3.7238696 
-0 -1 -0 -0 0 0 0 0 0 0 1:-924.52094 2:-673.03339 3:-20.463161 4:-478.62756 5:-87.303902 6:171.90697 7:-67.945343 8:0.44808051 
-0 -1 -0 -0 0 0 0 0 0 0 1:-924.52246 2:-673.03235 3:-24.132401 4:-436.94666 5:-234.39084 6:109.45969 7:29.659058 8:7.2731972 
-0 -1 -0 -0 0 0 0 0 0 0 1:-924.52246 2:-673.03235 3:-24.132401 4:-436.94666 5:-234.39084 6:109.45969 7:29.659058 8:7.2731972 
-5.979786602445423e-06 -1 -0 -0 0 0 0 0 0 0 1:-924.52252 2:-673.03265 3:-24.151474 4:-436.64166 5:-234.75839 6:108.22158 7:30.147587 8:7.2929525 
-0 -0.608416626113169 -0 -0 0 0 0 0 0 0 1:-924.52081 2:-673.03345 3:-20.272055 4:-480.79846 5:-79.643127 6:175.15942 7:-73.028908 8:0.092605688 
-0 -0.9844449884990661 -1 -0 -0 1 0.001328165524723637 0 0 0 1:-942.53186 2:-673.11768 3:-19.269867 4:-469.58755 5:61.035397 6:-40.006042 7:-104.02171 8:0.68450612 
-0 -0 -0 -0 -1 0.006262574988757392 0 3.556875940890416e-06 0 0 1:-934.52094 2:-673.07642 3:-21.521339 4:-450.11121 5:-75.365196 6:178.63031 7:-110.90308 8:-0.75710559 
-0 -0 -0 -0 -1 0 0 0 0 0 1:-934.5213 2:-673.07935 3:-22.767548 4:-434.7218 5:-121.42429 6:161.57097 7:-83.917107 8:1.3173087 
-0 -0 -0 -0 -1 0.007668515139738538 0 0 0 0 1:-934.52087 2:-673.04883 3:-20.691063 4:-469.4101 5:-74.919792 6:176.49576 7:-89.57547 8:-0.38038582 
-0 -1 -0 -0 -0 1 4.334142790129168e-05 0 0 0 1:-942.53186 2:-673.11768 3:-19.269867 4:-469.58755 5:61.035397 6:-40.006042 7:-104.02171 8:0.68450612 
-0 -1 -0.997957520301035 -0.7852590996181467 -0 1 0 0 0 0 1:-942.53186 2:-673.11768 3:-19.269867 4:-469.58755 5:61.035397 6:-40.006042 7:-104.02171 8:0.68450612 
-0 -1 -0 -0 -1 0 0 0 0 0 1:-934.52264 2:-673.03906 3:-24.451715 4:-429.77414 5:-235.82909 6:106.35139 7:24.396032 8:7.2168651 
-0 -0 -0 -0 -1 0 0 0 0 0 1:-934.52087 2:-673.06287 3:-21.188478 4:-458.65018 5:-78.061989 6:178.5701 7:-99.56324 8:-0.45351014 
-0 -0 -0 -0 -1 0 0 0 0 0 1:-934.52191 2:-673.06311 3:-23.745512 4:-429.25104 5:-179.39168 6:135.63251 7:-33.094826 8:4.2341814 
-1.63079084424448e-05 -1 -0 -0.003497721720073213 -0 0 0.0002167499153553702 4.360577551900308e-05 6.621826681988278e-10 1.237914098426128e-06 1:-727.5285 2:-673.14954 3:-21.963652 4:-450.10925 5:-78.583702 6:8.9088268 7:-36.024742 8:6.4952574 
-0 -0 -0.0313338996494877 -0 -1 0 0 0 0 0 1:-934.52264 2:-673.05847 3:-25.14036 4:-414.99164 5:-240.37605 6:107.16245 7:11.723685 8:7.1409822 
-0 -0 -0 -0 -0 1 0 0 0 0 1:-942.53186 2:-673.11768 3:-19.269867 4:-469.58755 5:61.035397 6:-40.006042 7:-104.02171 8:0.68450612 
-0 -1 -0 -0 -0 0.8001860057387972 0 0 0 0 1:-942.52704 2:-673.08002 3:-19.273691 4:-478.99109 5:18.402685 6:57.644844 7:-101.89445 8:2.3389883 
-0 -0 -0.01505596825679644 -0.0007203195975017757 -1 0 3.266634999898662e-05 0 0 0 1:-934.52264 2:-673.07526 3:-25.57279 4:-404.08853 5:-237.7737 6:109.6781 7:-3.1315577 8:6.7789564 
-0 -0 -0 -0 -1 0 0 0 0 0 1:-934.5213 2:-673.07837 3:-22.656675 4:-436.33368 5:-118.15255 6:162.87703 7:-85.315918 8:1.1796861 
-0 -0.8968955417428194 -0 -0 -0 1 0 0 0 0 1:-942.53186 2:-673.11768 3:-19.269867 4:-469.58755 5:61.035397 6:-40.006042 7:-104.02171 8:0.68450612 
-0 -0 -0 -0 -1 0 0 0 0 0 1:-934.52234 2:-673.06226 3:-24.571024 4:-420.13773 5:-213.25932 6:120.08888 7:-9.6040621 8:5.8229203 
-0 -0 -0 -0 -0 1 0 0 0 0 1:-942.53186 2:-673.11768 3:-19.269869 4:-469.58759 5:61.035328 6:-40.006081 7:-104.02164 8:0.68435782 
-0 -1 -0.3383738912573487 -0 -0 1 0 0 0 0 1:-942.53186 2:-673.11768 3:-19.269867 4:-469.58755 5:61.035397 6:-40.006042 7:-104.02171 8:0.68450612 
-0 -1 -0.0006807620459498727 -0 -0 1 0 0 0 0 1:-942.53186 2:-673.11768 3:-19.269867 4:-469.58755 5:61.035397 6:-40.006042 7:-104.02171 8:0.68450612 
-0 -0.796822765358106 -0 -0 -0 1 0 0 0 0 1:-942.53186 2:-673.11768 3:-19.269867 4:-469.58755 5:61.035397 6:-40.006042 7:-104.02171 8:0.68450612 
-0 -0.7397095698830944 -0 -0 -1 0 0 0 0 0 1:-934.52142 2:-673.04962 3:-22.193293 4:-451.81723 5:-133.58736 6:153.91739 7:-52.678215 8:2.3074703 
-0 -0 -0 -0 -0 -0 0 0 6.570796261076049e-10 8.837648616127092e-07 1:-942.53186 2:-673.11761 3:-19.270157 4:-469.58148 5:60.920567 6:-40.01403 7:-104.00526 8:-1.4024359 
-0 -0 -0 -0 -0 -1 0 0 0 0 1:-942.53186 2:-673.11768 3:-19.269827 4:-469.57721 5:60.991566 6:-40.015572 7:-104.03909 8:0.59347892 
-0 -0 -1 -0 -0 -0 0 0 0 0 1:-942.53192 2:-673.11884 3:-19.306421 4:-468.94012 5:61.398022 6:-39.784042 7:-103.47858 8:0.48223197 
-0 -1 -0 -0 -0.0003555178400172135 -0.6798618325259975 0 1.588489293905304e-05 0 0 1:-942.526 2:-673.07153 3:-19.274563 4:-481.09076 5:8.7964115 6:79.537163 7:-101.43263 8:2.6191709 
-0 -0 -1 -1 -0 -0 0 0 0 0 1:-942.53668 2:-673.32526 3:-25.01619 4:-354.35706 5:143.83868 6:4.9558911 7:2.2455666 8:-0.78678346 
-0 -0 -1 -1 -0 -0 0 0 0 0 1:-942.53577 2:-673.25769 3:-23.803911 4:-392.17487 5:117.72439 6:-9.3406506 7:-31.968008 8:-0.49755028 
-0 -0 -1 -0 -0 -0 0 0 0 0 1:-942.53186 2:-673.11768 3:-19.269894 4:-469.57816 5:60.99144 6:-40.016949 7:-104.03661 8:0.59326708 
-0 -0 -1 -0 -0 -0 0 0 0 0 1:-942.53192 2:-673.11884 3:-19.306421 4:-468.94012 5:61.398022 6:-39.784042 7:-103.47858 8:0.48223197 
-0 -0 -0 -0 -0 -1 0 0 0 0 1:-942.53186 2:-673.11768 3:-19.269827 4:-469.57721 5:60.991566 6:-40.015572 7:-104.03909 8:0.59347892 
-0 -0 -0 -0 -0 -1 0.0006020778485755047 0 0 0 1:-942.53186 2:-673.11768 3:-19.269863 4:-469.56384 5:60.938267 6:-40.031906 7:-104.06099 8:0.48919514 
-0 -0 -0.3666562722179431 -0 -0 -0 0 0 0 0 1:-942.54071 2:-673.43933 3:-29.647671 4:-292.22556 5:192.4814 6:30.228355 7:60.341545 8:40.152554 
-0 -0.03838290768672398 -0 -0 -0 -0 0 0 0 0 1:-942.52753 2:-673.08356 3:-19.273336 4:-478.10254 5:22.343233 6:48.508156 7:-102.10902 8:2.0933986 
-0 -0 -0 -0.001423756317440465 -0 -0 0 0 0 0 1:-942.53076 2:-673.10889 3:-19.270773 4:-471.77509 5:51.030586 6:-17.201057 7:-103.54006 8:0.97990316 
-0 -0 -1 -1 -0 -0 0 0 0 0 1:-942.54089 2:-673.44281 3:-29.80047 4:-289.81931 5:192.82414 6:31.251471 7:63.374935 8:-1.807425 
-0 -0 -0 -0.4382197756528585 -0 -0 0 0 0 0 1:-942.53186 2:-673.11761 3:-19.27014 4:-469.58151 5:60.920666 6:-40.013996 7:-104.00538 8:-1.4030952 
-0 -0 -0.6380470498568627 -0 -0 -0 0 0 0 0 1:-942.53247 2:-673.13916 3:-19.964695 4:-457.7128 5:69.665466 6:-35.325638 7:-93.001503 8:0.39118978 
-0 -0 -0.2498853747285998 -0 -0 -0 0 0 0 0 1:-942.53192 2:-673.11884 3:-19.306421 4:-468.94012 5:61.398022 6:-39.784042 7:-103.47858 8:0.48223197 
-0 -0 -1 -0 -0 -0 0 0 0 0 1:-942.53186 2:-673.11768 3:-19.269836 4:-469.57733 5:60.991547 6:-40.015751 7:-104.03879 8:0.59345686 
-0 -0 -1 -0.00129215729822098 -0 -0 0 0 0 0 1:-942.53436 2:-673.20825 3:-22.193523 4:-419.61469 5:97.930199 6:-20.239136 7:-57.716274 8:9.8367319 
-0 -0 -1 -0 -0 -0 0 0 0 0 1:-942.53192 2:-673.11884 3:-19.306421 4:-468.94012 5:61.398022 6:-39.784042 7:-103.47858 8:0.48223197 
-0 -0 -0 -0 -0 -0.9978763621115951 0 0 0 0 1:-942.53186 2:-673.11768 3:-19.269827 4:-469.57721 5:60.991566 6:-40.015572 7:-104.03909 8:0.59347892 
-0 -0 -0 -0 -0 -0.0004109060312310797 0 0 0 0 1:-942.51947 2:-673.11749 3:-6.2886171 4:-468.89285 5:60.925716 6:-39.980526 7:-103.92029 8:0.59445983 
-0 -0 -0 -0.4330763337519479 -0 -0 0 0 0 0 1:-942.53186 2:-673.11768 3:-19.269842 4:-469.57718 5:60.991486 6:-40.015598 7:-104.03899 8:0.59402835 
-0 -0 -1 -1 -0 -0 0 0 0 0 1:-942.53589 2:-673.26318 3:-24.003757 4:-388.72324 5:118.60646 6:-8.6768341 7:-29.75951 8:-0.44663256 
-0 -0 -0 -0 -0 -0.999999963179668 0 0 0 0 1:-942.53186 2:-673.11768 3:-19.269827 4:-469.57721 5:60.991566 6:-40.015572 7:-104.03909 8:0.59347892 
-0 -0 -0.6459863238173883 -0 -0 -0 0 0 0 0 1:-942.53186 2:-673.11768 3:-19.26985 4:-469.57718 5:60.991444 6:-40.015614 7:-104.03895 8:0.5943141 
-0 -0 -0 -1 -0 -0 0 0 0 2.918377418526207e-08 1:-942.54156 2:-673.46765 3:-30.604891 4:-276.08878 5:202.89851 6:36.69669 7:76.165031 8:-1.9832386 
-9.344541216807739e-07 -0 -0 -0 -0 -1 0 0 0 0 1:-942.53186 2:-673.11768 3:-19.269863 4:-469.56384 5:60.938267 6:-40.031906 7:-104.06099 8:0.48919514 
-0 -0 -0 -0.270606844998195 -0 -0.1359680320187965 0 0 0 0 1:-942.53186 2:-673.11768 3:-19.269827 4:-469.57721 5:60.991566 6:-40.015572 7:-104.03909 8:0.59347892 
-0 -0 -0 -0 -0 -1 0 0 0 0 1:-942.53186 2:-673.11768 3:-19.269827 4:-469.57721 5:60.991566 6:-40.015572 7:-104.03909 8:0.59347892 
-0 -0 -1 -0 -0 -0 0 0 0 0 1:-942.53192 2:-673.11884 3:-19.306421 4:-468.94012 5:61.398022 6:-39.784042 7:-103.47858 8:0.48223197 
-0 -0 -1 -0 -0 -1 0 0 0 0 1:-942.53192 2:-673.11884 3:-19.306456 4:-468.94064 5:61.397995 6:-39.784763 7:-103.47727 8:0.482097 
-0 -0 -1 -0 -0 -0 0 0 0 0 1:-942.53192 2:-673.11884 3:-19.306452 4:-468.94058 5:61.397968 6:-39.784676 7:-103.47744 8:0.48210055 
-0 -0 -0 -0 -0 -0 0 0 0 8.965377204607341e-11 1:-937.90717 2:-673.06445 3:3766.1594 4:-268.43198 5:41.201347 6:-29.876488 7:-68.904327 8:-1.0933166 
-5.007135943657466e-06 -0.1061177078530032 -0.07460371100535095 -0 -0 -0 0.000447352265107454 0 0 0 1:-942.52997 2:-673.18634 3:-17.523081 4:-430.96072 5:87.476639 6:-25.484745 7:-69.242676 8:0.14903039 
-0 -0 -0 -0 -0 -1 0 0 0 0 1:-942.53186 2:-673.11768 3:-19.269827 4:-469.57721 5:60.991566 6:-40.015572 7:-104.03909 8:0.59347892 
-0 -0 -0 -1 -0 -0 0 0 0 0 1:-942.53186 2:-673.11768 3:-19.269833 4:-469.57727 5:60.991554 6:-40.015671 7:-104.03893 8:0.59346753 
-0 -0 -0.3585736958002941 -0.1889702734817396 -0 -0 0 0 0 0 1:-942.53192 2:-673.11884 3:-19.306421 4:-468.94012 5:61.398022 6:-39.784042 7:-103.47858 8:0.48223197 
-7.965056994529885e-06 -0 -0 -0 -0 -0 -0 0 6.577449648517929e-10 0 1:-914.53516 2:-673.24823 3:-26.434048 4:-355.91605 5:-45.665665 6:-77.392151 7:-26.868534 8:5.2158613 
-0 -1 -0.00177177497956549 -0.0004891305864456717 -0 -0.0004801500020380856 -0 8.390290410026962e-06 0 0 1:-914.53259 2:-673.13452 3:-20.9377 4:-448.65549 5:7.4569068 6:-62.187408 7:-68.219879 8:2.8019125 
-0 -0.1717163939475901 -0.0007083037159031179 -0.002241965228950266 -4.443308722713014e-05 -0.0011407732159412 -0.001049430113682959 4.518168967605053e-06 0 9.483482977902035e-07 1:-914.53296 2:-673.17822 3:-21.495947 4:-430.88242 5:48.931656 6:-41.804176 7:-92.595505 8:0.87201345 
-2.739633947104058e-07 -1 -0 -0 -0 -0 -0 -0 5.702879969557338e-08 0 1:280.24313 2:1777.5093 3:-20.407782 4:-461.2493 5:14.811847 6:-13.64637 7:-83.283264 8:-2.6848149 
-0 -1 -0 -0 -9.021908876780676e-06 -0 -0 -0 0 0 1:-608.52087 2:-673.13336 3:-20.324551 4:-483.61902 5:-69.426147 6:179.3714 7:-79.742149 8:6.5751152 
-0 -1 -0 -0 -0 -0 -0 -0 0 0 1:-608.52069 2:-673.13354 3:-19.789454 4:-489.69748 5:-47.975983 6:188.47833 7:-93.976135 8:5.5798383 
-0 -1 -0 -0 -0 -0 -0 -0 0 0 1:6102.4873 2:-675.25281 3:-14.791295 4:-482.12192 5:-67.103287 6:179.12498 7:-80.651039 8:6.468318 
-0 -1 -1.3411152126927e-05 -1.04866952716684e-05 -0 -0 -1.293300895851722e-05 -0 0 0.07484366531317539 1:-608.52075 2:-673.13678 3:-19.726566 4:-489.58582 5:-41.167603 6:188.25954 7:-97.647491 8:5.2719336 
-3.268141900870674e-05 -1 -4.46243268915066e-06 -4.075242690508109e-06 -1.09971071633489e-05 -4.71626514598935e-05 -2.951883980535824e-06 -1.290845937763202e-05 0 0 1:-608.5213 2:-673.13794 3:-20.54818 4:-479.89951 5:-72.515221 6:170.62347 7:-75.867699 8:6.7386723 
-4.436222339536019e-09 -0.03202678369666978 -0 -0 -0 -0 -0 -0 1.56462186610441e-13 1.671962802559437e-05 1:5130483.5 2:-2291.7571 3:110.34029 4:-336.41867 5:63.81987 6:-14.244741 7:20.626005 8:0.10549389 
-0 -0 -0 -0 -0 -0 -0 -0 5.982326753607337e-10 0 1:5134737.5 2:-2293.0964 3:118.45004 4:-338.62622 5:68.888344 6:-1.3527415 7:14.246511 8:-0.17549603 
-0 -1 -0 -0 -0 -0 -0 -0 0 0 1:-608.52063 2:-673.13361 3:-19.674789 4:-491.00003 5:-43.379555 6:190.42992 7:-97.026291 8:5.3666973 
-0 -1 -0 -0 -0 -0 -0 -0 -0 6.933499991746362e-10 1:53600.062 2:7623.666 3:-77.093422 4:-402.13715 5:-128.46077 6:-124.90423 7:25.926765 8:-2.6946766 
-0 -1 -0 -0 -0 -0 -0 -0 -0 0 1:53600.07 2:7623.7275 3:-73.717155 4:-456.11707 5:-63.387989 6:94.199112 7:-60.533592 8:-6.2491498 
-0 -1 -0 -0 -0 -0 -0 -0 -1.429049409251359e-09 0 1:53600.062 2:7623.6641 3:-77.162277 4:-400.6503 5:-128.87569 6:-124.91374 7:24.657579 8:-2.7068572 
-0 -1 -0 -6.570240900142766e-10 -0 -0 -0 -0 -4.232121845085532e-09 0 1:53600.07 2:7623.7236 3:-73.819405 4:-453.97781 5:-60.957569 6:99.883453 7:-62.012051 8:-6.3622684 
-0 -0.1608822128150005 -0 -0 -0 -0 -0 -0 -0 0 1:53600.062 2:7623.665 3:-77.127846 4:-401.3938 5:-128.66824 6:-124.90879 7:25.292177 8:-2.7018609 
-0 -1 -0 -0 -0 -0 -0 -0 -0 0 1:53600.07 2:7623.7393 3:-73.068611 4:-466.48608 5:-50.888088 6:136.28679 7:-77.141792 8:-6.9318242 
-0 -1 -0 -0 -0 -0 -0 -0 -0 0 1:53600.059 2:7623.6616 3:-77.235405 4:-399.40189 5:-127.95974 6:-124.41932 7:25.820297 8:-2.7198002 
-0 -1 -0 -0 -0 -7.653939534873049e-12 -0 -0 -0 0 1:53600.059 2:7623.6621 3:-77.233269 4:-399.28262 5:-128.62517 6:-124.67143 7:24.604332 8:-2.7188082 
-0 -1 -0 -0 -0 -0 -0 -0 -0 0 1:53600.059 2:7623.6616 3:-77.235413 4:-399.40189 5:-127.9597 6:-124.41933 7:25.820312 8:-2.7196918 
-0 -1 -6.570764207842544e-10 -0 -6.572680214057787e-10 -6.545287286639548e-10 -6.570796261076049e-10 -0 -3.449893091863336e-08 0 1:53600.07 2:7623.7246 3:-73.826302 4:-454.1395 5:-63.872776 6:91.965797 7:-59.609882 8:-6.2215443 
-0 -1 -0 -0 -0 -0 -0 -0 -1.134757442231954e-08 0 1:53600.062 2:7623.666 3:-77.093422 4:-402.13715 5:-128.46077 6:-124.90423 7:25.926765 8:-2.6946766 
-0 -1 -0 -0 -0 -0 -0 -0 -2.856263163477784e-09 0 1:53600.07 2:7623.7378 3:-73.099327 4:-465.60919 5:-50.567226 6:138.75264 7:-79.387802 8:-6.9818158 
-0 -0 -0 -0 -0 -0 -0 -6.577449648517929e-10 -3.202267982574112e-09 0 1:53600.062 2:7623.6699 3:-76.734154 4:-407.18341 5:-116.67995 6:-87.040718 7:11.112766 8:-3.3348372 
-0 -0 -0 -0 -0 -0 -0 -0 -5.3610854077592e-11 0 1:53600.074 2:7623.7446 3:-72.763412 4:-471.36557 5:-45.005939 6:156.09271 7:-84.957527 8:-7.253305 
-6.819569340158984e-10 -0 -0 -0 -0 -0 -0 -0 -0 0 1:53600.059 2:7623.6553 3:-77.448395 4:-395.29898 5:-127.20825 6:-123.69204 7:25.660563 8:-2.7574775 
-0 -1 -0 -0 -0 -0 -0 -0 -7.370237701491829e-12 0 1:53600.059 2:7623.6616 3:-77.235405 4:-399.40201 5:-127.9595 6:-124.41898 7:25.820467 8:-2.7197728 
-9.960606862863531e-06 -1 -9.130836455697776e-07 -6.102832788980906e-07 -0 -7.705968511346672e-07 -9.102119344216611e-07 -9.483482977902035e-07 -0.0009377459496794817 -6.933499991746362e-10 1:537.46692 2:-673.60559 3:-21.58675 4:-453.72995 5:55.627785 6:-40.947407 7:-99.486832 8:-2.425703 
-0 -1 -0 -3.091622084281917e-07 -9.356861634159087e-07 -4.673172472914608e-07 -2.826355148356246e-09 -0 -0.07392263899152186 -0 1:537.47882 2:-673.49506 3:-20.694824 4:-491.89743 5:-40.422577 6:191.68785 7:-98.990089 8:1.2723005 
