svm_type c_svc
kernel_type linear
nr_class 11
total_sv 250
rho 2606.67 -2.50783 -2.49707 -2.44175 -3.3337 -2.26355 -2.6199 -0.613655 -0.999317 -1.40036 -892.11 -84.3383 -310.222 -204.963 -22.1421 -355.003 -2916.28 -4799.15 -61.2908 355.642 -38.9706 82.0829 -122.379 62.898 4.48309 -0.962553 0.275441 -6.10288 -22.3574 -134.408 68.2233 2.91829 -0.962481 0.245391 49.183 3.89864 2.74197 4.8716 -0.962813 0.263719 -34.3905 18.5186 2.88869 -0.970136 0.135329 37.7143 3.83506 -0.962536 0.277698 2.58813 -0.963548 0.248822 -1.60161 -68.3811 1.01587 
label 4 0 3 13 9 14 8 6 20 11 5 
nr_sv 12 81 36 19 32 19 21 3 9 16 2 
SV 
0 0 0 0 0 0 0 0 6.819569340158984e-10 2.100045358823147e-08 1:89.448006 2:-674.51996 3:-61.31889 4:283.06866 5:-6.0624886 6:0.92614269 7:-2.0757596 8:-0.031613342 9:0.0032641345 10:0.00072091195 11:0.00082528213 12:0.011236969 13:-0.0010318356 14:0.0010953048 15:-0.001006303 16:-0.000999048 17:0.00017349042 
1 0 0 0 0 0 0 0 0 0 1:89.464249 2:-673.60974 3:-27.375696 4:-344.3732 5:20.038364 6:-46.644211 7:-68.089188 8:-0.83912092 9:-2.69171 10:-0.011933462 11:-0.24775492 12:-1.1337847 13:0.029461266 14:0.1955418 15:0.052052729 16:-0.20071705 17:0.00074888091 
1 0 0 0 0 0 0 2.764087607860873e-05 0 9.911561844085364e-06 1:89.467216 2:-673.46216 3:-21.068295 4:-455.30426 5:56.129845 6:-40.847286 7:-99.946655 8:-2.4482043 9:-3.6189399 10:-0.035559099 11:-0.32599875 12:-1.2143699 13:0.0028455893 14:0.32660502 15:0.043118827 16:-0.33485505 17:0.0070458027 
1 0 0 0 0 0 0 0 0 0 1:89.463356 2:-673.57703 3:-29.655176 4:-326.89578 5:-117.78535 6:-107.19865 7:21.670671 8:5.5699387 9:-0.65350509 10:0.081277207 11:-0.091792181 12:-1.6379877 13:0.16913235 14:-0.23066273 15:0.12938912 16:0.23652418 17:-0.026637755 
0 0 8.646588389513613e-07 0 0 0 3.097017324088333e-07 0 0 0 1:-422.54788 2:-674.20673 3:-55.519516 4:182.60497 5:-12.199779 6:20.601233 7:-12.679725 8:0.22814967 9:-0.40342683 10:-0.034899369 11:-0.050727341 12:-0.21155402 13:0.0061854147 14:-0.0039719697 15:0.025573511 16:-0.0045113927 17:-0.0012151216 
1 6.767255820624709e-06 6.166940990004475e-06 6.247465749559079e-06 1.630754928365692e-05 5.941196345301225e-06 7.655288843171485e-06 0 0 0 1:-422.53577 2:-673.37744 3:-27.887724 4:-351.50128 5:-122.30978 6:-111.54267 7:22.623613 8:5.7966776 9:-0.68027931 10:0.084465273 11:-0.095335364 12:-1.7044692 13:0.17598705 14:-0.24003321 15:0.13460875 16:0.24613774 17:-0.027706044 
1 0 0 0 0 0 0 0 0 0 1:89.463058 2:-673.66876 3:-29.898657 4:-300.00076 5:5.6017632 6:-48.962982 7:-55.346199 8:-0.19548817 9:-2.3209026 10:-0.0024299584 11:-0.21651348 12:-1.1021261 13:0.040245276 14:0.14219022 15:0.055783018 16:-0.14607814 17:-0.0018327597 
1 0 0 0 0 0 0 4.994143379163959e-06 0 2.804517079489494e-08 1:89.465492 2:-673.44592 3:-25.253494 4:-411.68903 5:-133.31633 6:-122.22945 7:24.971746 8:6.3486295 9:-0.74480486 10:0.092475615 11:-0.10466725 12:-1.8672521 13:0.19278745 14:-0.26288021 15:0.14751583 16:0.26954311 17:-0.03036488 
1 0 0 0 0 0 0 0 0 0 1:89.463051 2:-673.59607 3:-30.29413 4:-314.58707 5:-115.53085 6:-105.01676 7:21.191484 8:5.456903 9:-0.64025193 10:0.079651631 11:-0.089923218 12:-1.6047074 13:0.16569854 14:-0.225986 15:0.12675782 16:0.2317311 17:-0.026096722 
0 0 0 0 0 0 0 3.286083577055012e-07 0 0 1:89.451775 2:-674.50378 3:-57.613132 4:236.64578 5:123.03591 6:108.74244 7:-99.721611 8:-6.1698747 9:-2.2182243 10:-0.1583956 11:-0.19123362 12:0.46241686 13:-0.15195714 14:0.45982945 15:-0.060185142 16:-0.48822582 17:0.030668605 
0.1322945569833675 0 0 0 0 0 0 0 0 0 1:89.462433 2:-673.63409 3:-31.572037 4:-289.96967 5:-111.02185 6:-100.65298 7:20.233109 8:5.2308311 9:-0.61374551 10:0.076400481 11:-0.086185291 12:-1.5381467 13:0.15883093 14:-0.21663253 15:0.12149522 16:0.22214498 17:-0.025014654 
0.6211936731788126 0 0 0 0 0 0 0 0 0 1:89.462669 2:-673.61932 3:-31.075073 4:-299.54312 5:-112.77535 6:-102.35001 7:20.60581 8:5.318748 9:-0.6240536 10:0.077664815 11:-0.087638929 12:-1.5640315 13:0.16150166 14:-0.22026999 15:0.12354179 16:0.22587292 17:-0.025435459 
-1 0 0 0 0 0 0 0 0 0 1:-912.53394 2:-673.12769 3:-24.224913 4:-413.03983 5:-133.70341 6:-122.43085 7:25.064917 8:3.3676343 9:-0.63609922 10:0.088688292 11:-0.1100201 12:-1.9332002 13:0.20634703 14:-0.25813755 15:0.15841201 16:0.25574151 17:-0.031751443 
-0.9671972498226467 0 0 0 0 0 0 0 0 0.02205900391316806 1:-426.54834 2:-670.22614 3:-56.423981 4:198.2926 5:-21.57053 6:-14.084814 7:1.2072873 8:1.7330166 9:-0.035557233 10:0.015034488 11:0.035856567 12:0.55041873 13:-0.045185491 14:-0.12901919 15:0.032261282 16:0.096298404 17:-0.0027084355 
-0 0 0 0 0 0.00181992026735247 0 0.1342017451978155 0 0 1:-942.52045 2:-673.02795 3:-19.280931 4:-491.91107 5:-40.693108 6:191.78381 7:-98.8078 8:-7.562777 9:1.9324626 10:1.8199637 11:-0.11899603 12:-0.43419296 13:0.055079412 14:-0.31212255 15:0.2096651 16:0.23276201 17:-0.0055015208 
-0 0 0 0 0 0 0 0.9555672937569144 0 0 1:-846.4942 2:-644.05872 3:-1.4393312 4:-490.28311 5:-41.524448 6:189.31917 7:-97.740479 8:-5.6853552 9:-3.0700619 10:-0.32889989 11:-0.40036035 12:-1.0553458 13:0.0015787061 14:-0.088500775 15:0.25235793 16:-0.045217119 17:-0.010236655 
-0 0 0 1 0 0 0 0 0 0 1:-942.52246 2:-673.02649 3:-24.135029 4:-436.77072 5:-235.2769 6:109.17136 7:30.314671 8:1.4663795 9:4.9650631 10:1.9267609 11:0.13907202 12:-0.80985135 13:0.18271844 14:-0.46606138 15:0.23661919 16:0.37716749 17:-0.013321497 
-0 0 0 1 0 0 0 0 0 0 1:-912.52136 2:-673.04382 3:-19.651768 4:-486.37427 5:-47.083893 6:169.46214 7:-90.21286 8:1.635579 9:-3.2528079 10:-0.29512981 11:-0.41259176 12:-1.6719941 13:0.04433563 14:-0.02172396 15:0.20526062 16:-0.048519988 17:-0.009093578 
-0 0 0 0 0 0 0 0 0 0.01101947694818237 1:-796.53198 2:-673.16595 3:-19.483051 4:-468.29788 5:61.697861 6:-39.571404 7:-102.90376 8:-1.6816746 9:-3.7220881 10:0.020319458 11:-0.32662597 12:-0.73357302 13:-0.0057238555 14:-0.54115278 15:0.26266441 16:0.42000225 17:-0.074039996 
-0 0 0 0 0 0.001703450121057864 0 0 0 0 1:-942.52063 2:-673.0296 3:-19.355682 4:-490.67081 5:-41.808636 6:186.82387 7:-97.020256 8:2.4983821 9:1.6265376 10:1.8202605 11:-0.075363934 12:-0.032009613 13:-0.046086822 14:0.082998298 15:0.094019234 16:-0.12489363 17:0.029374683 
-0.1011058976978007 0 0 0 0 0 0 0 0 0 1:-837.53387 2:-673.14941 3:-24.052647 4:-416.35434 5:-126.84223 6:-119.75351 7:20.449537 8:9.0343857 9:-0.85055435 10:0.071032673 11:-0.037501618 12:-0.80358917 13:0.038287412 14:0.1553074 15:0.057893366 16:-0.17003039 17:0.0095425881 
-0 0 0 0 0 0 0 0 0.5751878109340338 0 1:-732.22369 2:310.81451 3:-24.486433 4:-411.62173 5:-133.45894 6:-122.47649 7:25.200939 8:-2.661783 9:-0.27815279 10:-0.0096652145 11:0.029577157 12:0.27461916 13:-0.0020470133 14:-0.088357642 15:0.080601238 16:0.048335344 17:-0.0052800514 
-0 0 0 0 0 0 0 0.4874871475457315 0 0 1:-388.52078 2:-673.20544 3:-19.898767 4:-490.20099 5:-40.425758 6:190.72751 7:-98.624443 8:5.2445745 9:-3.5556469 10:-0.40340218 11:-0.33310336 12:1.0547428 13:5.7959929 14:-0.29053223 15:-0.13072757 16:-0.1423583 17:-0.29558489 
-0 0 0 0.08942269101316029 0 0 0 0 0 0 1:-942.51953 2:-669.03107 3:-19.410238 4:-489.68408 5:-42.291393 6:183.0643 7:-95.929443 8:22.350428 9:-3.9424922 10:-0.30350894 11:-0.2745187 12:0.48677769 13:-0.24748117 14:0.21883708 15:0.083653584 16:-0.29589453 17:0.035941467 
-1 0 0 0 0 0 0 0 0 0 1:-912.53394 2:-673.12769 3:-24.224913 4:-413.03983 5:-133.70341 6:-122.43085 7:25.064917 8:3.3676343 9:-0.63609922 10:0.088688292 11:-0.1100201 12:-1.9332002 13:0.20634703 14:-0.25813755 15:0.15841201 16:0.25574151 17:-0.031751443 
-0.2152581450710629 0 0.001746671095326931 0 0 0 0 0 0 0 1:-912.53198 2:-673.12811 3:-19.412758 4:-468.0578 5:58.028919 6:-41.113976 7:-101.38713 8:-5.5131669 9:-3.5754764 10:-0.022558179 11:-0.34413126 12:-1.3169185 13:0.0020753338 14:0.26067808 15:0.10681792 16:-0.32242724 17:-0.035382967 
-0 0 0 0 0 0 0.2315661810408232 0 0 0 1:-912.53223 2:-673.13019 3:-19.94455 4:-461.59891 5:40.55896 6:-48.424526 7:-88.024666 8:-4.6733265 9:-3.3000205 10:-0.013707502 11:-0.33034718 12:-1.43529 13:0.034128234 14:0.12203937 15:0.13657185 16:-0.19712013 17:-0.045942981 
-0.195776877793025 0 0 0 0 0 0 0 0 0 1:-760.53223 2:-673.18127 3:-20.039513 4:-461.09793 5:46.245083 6:-45.848328 7:-94.078133 8:0.015919827 9:-3.5726476 10:-0.02619032 11:-0.31354281 12:-1.2264578 13:0.005819039 14:0.28788561 15:0.043220539 16:-0.28933847 17:0.0053921756 
-0.8838046793186551 0 0 0 0 0 0 0 0 0 1:-760.53229 2:-673.17908 3:-20.197849 4:-459.86041 5:36.80146 6:-49.993706 7:-87.924698 8:0.45503563 9:-3.4329948 10:-0.019693268 11:-0.30293339 12:-1.2617837 13:0.015597469 14:0.25694209 15:0.048843894 16:-0.25759315 17:0.0034144477 
-0 0 0 0 0 0 0 0 0.2186247071908634 0 1:10389.907 2:715.30536 3:-25.982899 4:-435.58258 5:-46.536922 6:-81.78418 7:-35.366539 8:-5.7407136 9:-1.6521704 10:-0.060838047 11:-0.10002451 12:0.45066375 13:-0.088905573 14:0.18041794 15:-0.81987405 16:0.36050919 17:-0.0079894019 
-0 0 0 0 0.4505361649951499 0 0 0 0 0 1:-942.52246 2:-673.02747 3:-24.169466 4:-436.02719 5:-235.48505 6:109.16614 7:29.679668 8:1.457678 9:4.9519701 10:1.6698868 11:0.12302198 12:-0.84944552 13:0.1596217 14:-0.26425835 15:-0.65962297 16:0.76873976 17:-0.017027052 
-0 0 0 0 0 0 0 0 0 0.1624344330077778 1:-912.521 2:-673.04108 3:-19.499168 4:-488.81403 5:-44.142754 6:179.36511 7:-94.120674 8:1.4749187 9:-3.3377073 10:-0.30827704 11:-0.42302874 12:-1.6651297 13:0.039278354 14:-0.013512813 15:0.20720109 16:-0.059339713 17:-0.0083693555 
-0 0 0 0 0 0 0.09550937960527049 0 0 0 1:-942.53363 2:-673.11615 3:-23.38065 4:-422.91626 5:-104.19624 6:-109.95182 7:5.4418626 8:-3.8503189 9:4.1868758 10:2.1402836 11:0.19634683 12:-0.34731403 13:0.12230263 14:-0.049001843 15:0.04956596 16:0.056560449 17:0.010042152 
-0 0 0 0 0 0 0 0 1 0 1:87439.43 2:-700.95551 3:-106.76438 4:-448.05994 5:-95.09623 6:115.00668 7:-46.9356 8:7.9058471 9:-2.2408051 10:-0.28873596 11:-0.21288271 12:0.59073597 13:0.88374561 14:-0.33352438 15:0.12555404 16:0.18827668 17:-0.060730591 
-1 0 0 0 0 0 0.0743757752388193 0 0 0 1:-912.53394 2:-673.12769 3:-24.224913 4:-413.03983 5:-133.70341 6:-122.43085 7:25.064917 8:3.3676343 9:-0.63609922 10:0.088688292 11:-0.1100201 12:-1.9332002 13:0.20634703 14:-0.25813755 15:0.15841201 16:0.25574151 17:-0.031751443 
-0.02932906890335524 0 0 0 0.0005233426068862298 0 0 0.5592073091024982 1 0.0145948720309145 1:174394.38 2:-728.43066 3:-188.95634 4:-450.32458 5:-14.478048 6:-75.527245 7:-49.843452 8:4.7942562 9:-2.4663889 10:-0.03203563 11:-0.17710447 12:0.65184176 13:-0.094798438 14:-0.27057853 15:0.088897839 16:0.25008997 17:-0.018771812 
-0 0 0 0 0.4568515166189004 0 0 0 0 0 1:-741.5246 2:-673.13513 3:-21.429678 4:-456.82922 5:-68.321686 6:97.959579 7:-74.777786 8:6.5149598 9:-2.4895427 10:-0.27364269 11:-0.19196469 12:0.66765404 13:-0.14405319 14:-0.1994995 15:0.040769458 16:0.1829747 17:-0.0059082187 
-0 0.03126985142207692 0.001263228256964537 0 0 0.006316488088733539 0 0 0 0 1:-941.52472 2:-673.10547 3:-21.022167 4:-456.03162 5:6.0482874 6:142.85947 7:-75.308662 8:54.868332 9:-5.8309216 10:-0.20811851 11:-0.24527581 12:0.55924863 13:-0.35914814 14:0.3167477 15:-0.04537379 16:-0.32523555 17:0.018121753 
-0 0 0 1 0 0 0 0 0 0 1:-942.52246 2:-673.02649 3:-24.135029 4:-436.77072 5:-235.27689 6:109.17134 7:30.314672 8:1.4663664 9:4.9649839 10:1.926587 11:0.1391519 12:-0.8083812 13:0.18249689 14:-0.46604371 15:0.23702146 16:0.37658325 17:-0.013253288 
-0 0 0 1 0 0 0 0 0 0 1:-942.52246 2:-673.02649 3:-24.135029 4:-436.77072 5:-235.2769 6:109.17136 7:30.314671 8:1.4663795 9:4.9650631 10:1.9267609 11:0.13907202 12:-0.80985135 13:0.18271844 14:-0.46606138 15:0.23661919 16:0.37716749 17:-0.013321497 
-0 0 0 0 0 0 0.2419478604497587 0 0 0 1:-912.5321 2:-673.13068 3:-19.915812 4:-461.15997 5:40.510757 6:-48.208107 7:-93.760864 8:-8.7869244 9:-3.0519245 10:-0.032309085 11:-0.28510022 12:-0.68968987 13:-0.031703327 14:0.33232507 15:-0.43999851 16:-0.043829996 17:-0.00047503351 
-0 0 0 0 0 3.760329990102664e-06 0 0.03162939684303531 0 0 1:-942.52045 2:-673.02795 3:-19.280931 4:-491.91107 5:-40.693108 6:191.78381 7:-98.8078 8:-7.562777 9:1.9324626 10:1.8199637 11:-0.11899603 12:-0.43419296 13:0.055079412 14:-0.31212255 15:0.2096651 16:0.23276201 17:-0.0055015208 
-0 0 0 0 0 0 0 0.02891101323575746 1 0 1:160823.53 2:53599.852 3:-179.47307 4:-401.7735 5:-5.9001365 6:100.82436 7:-80.272369 8:-6.5706224 9:-0.31126255 10:-0.27029753 11:-0.23857871 12:0.309259 13:-0.088701852 14:-0.3323274 15:0.16280891 16:0.11641844 17:-0.063274123 
-0 0 0 0.0002049812212385477 0 0 0 0 0 0 1:-595.32605 2:142637.67 3:-37.606583 4:-214.22791 5:-137.20895 6:31.529503 7:31.454262 8:0.8303296 9:0.32114255 10:-0.12530461 11:-0.038656328 12:0.012044211 13:-0.11136267 14:-0.15831724 15:0.027144959 16:-0.22104909 17:-0.15697604 
-0 0 0.002841317628894415 0 0 0 0 0 0 0 1:-933.52063 2:-637.12024 3:-19.455267 4:-467.55551 5:53.648476 6:-42.984852 7:-99.366394 8:-8.3660727 9:-3.3023155 10:-0.1099437 11:-0.21179681 12:0.72374314 13:-0.12976007 14:-0.01121626 15:0.064333975 16:-0.039956436 17:-0.0029077723 
-0 0 0 0 0 0 0 1 0 0 1:-761.52057 2:-673.08679 3:-19.488913 4:-491.15186 5:-39.5308 6:191.07207 7:-98.475952 8:3.2472565 9:-3.5309236 10:-0.27766621 11:-0.4465757 12:-1.6540951 13:0.026750961 14:-0.42822853 15:0.34313855 16:0.27357385 17:-0.060567666 
-0 0 0 0 0 0 0.2129805403882886 0 0 0 1:-912.53223 2:-673.12793 3:-20.024302 4:-461.11014 5:33.51368 6:-51.521534 7:-85.12104 8:-4.3746614 9:-3.2093174 10:0.0037427654 11:-0.32518852 12:-1.4990999 13:0.056746095 14:-0.027347652 15:0.16029732 16:-0.035320327 17:-0.055755284 
-0 0.08929714004338944 0 0 0 0 0 0 0 0 1:-942.53021 2:-673.12518 3:-24.030891 4:-412.75662 5:-107.478 6:-19.108135 7:-10.642619 8:-3.9660387 9:3.8916152 10:1.395574 11:0.12466796 12:-0.32619774 13:0.090799615 14:-0.031055795 15:0.067691021 16:0.01978207 17:0.016152767 
-1 0 0 0 0 0 0 0 0 0 1:-760.53223 2:-673.18127 3:-20.077736 4:-460.66376 5:44.712891 6:-46.498817 7:-93.061432 8:0.087012082 9:-3.5491972 10:-0.025093207 11:-0.31178671 12:-1.2322088 13:0.0074999705 14:0.28204304 15:0.044239644 16:-0.28331658 17:0.0050201803 
-0 0 0 1 0 0 0 0 0 0 1:-942.52246 2:-673.02649 3:-24.135029 4:-436.77072 5:-235.2769 6:109.17136 7:30.314667 8:1.4663969 9:4.965169 10:1.926993 11:0.13896552 12:-0.81181151 13:0.18301384 14:-0.46608493 15:0.23608282 16:0.3779465 17:-0.013412443 
-0 0 0 0 0.003578417803875097 0 0 0 0 0 1:-899.52063 2:-630.21051 3:-26.977106 4:-353.72549 5:-149.65131 6:-122.51094 7:-26.136971 8:-1.0418969 9:0.63887203 10:0.063863464 11:-0.0321775 12:-0.6561327 13:0.038206145 14:0.22996679 15:0.062707819 16:-0.27598557 17:0.0050661885 
-0 0 0 0 0.7763157181086058 0 0 0 0 0 1:-912.53009 2:-673.10059 3:-22.780523 4:-436.36542 5:-107.48364 6:-33.546497 7:-10.052149 8:1.9342519 9:-1.4016669 10:-0.029456139 11:-0.20416039 12:-1.8751187 13:0.16121309 14:-0.18475688 15:0.1761687 16:0.15889655 17:-0.025293553 
-0 0 0 0.4324178261565617 0 0 0 0 0 0 1:-942.52246 2:-673.02649 3:-24.135029 4:-436.77072 5:-235.2769 6:109.17129 7:30.314667 8:1.4663277 9:4.9638529 10:1.9107995 11:0.13896638 12:-0.80503947 13:0.18210585 14:-0.46750674 15:0.23801801 16:0.37668547 17:-0.013129663 
-0 0 0 0 0 0 0 0 1 0 1:-609.61505 2:24434.75 3:-26.697151 4:-377.62265 5:-122.65106 6:-123.81276 7:25.75256 8:-2.509809 9:-0.21843456 10:0.0084389281 11:0.026216924 12:0.24232152 13:-0.016115123 14:-0.11267847 15:0.061188694 16:0.026389997 17:-0.032839876 
-0 0.2034815528377202 0.0004118894794753207 0 0 0.0417342503456827 0 0 0 0 1:-942.52734 2:-673.08191 3:-19.293818 4:-478.2265 5:19.633606 6:51.804523 7:-101.44435 8:-4.9926724 9:-1.0402189 10:-0.69602698 11:-0.21066809 12:0.0083702169 13:-0.069326855 14:0.11785761 15:0.12164746 16:-0.21776453 17:0.019969363 
-0 0 0 0 0 0 0 0 0 0.0136058967899838 1:-851.52661 2:-673.11707 3:-19.893604 4:-470.72162 5:10.696862 6:71.644852 7:-99.854362 8:57.28688 9:-5.6349592 10:-0.070883758 11:-0.25684533 12:-0.086276188 13:-0.2683571 14:0.27529702 15:-0.11806016 16:-0.15439279 17:0.040199108 
-0 0 0 3.020248845660733e-05 0 0 0 0 0 0 1:-764.88385 2:-567.68097 3:32997.699 4:1272.7916 5:-107.18127 6:48.987659 7:198.56943 8:0.85086906 9:4.5392327 10:-0.78372967 11:-0.022622043 12:1.1269457 13:-0.063990153 14:0.60948038 15:-0.63231838 16:-1.283756 17:0.3629398 
-0 0 0 0 0 0.002813583263430153 0 0.01069659536334009 0 0 1:-942.52045 2:-673.02795 3:-19.280931 4:-491.91107 5:-40.693108 6:191.78381 7:-98.8078 8:-7.562777 9:1.9324626 10:1.8199637 11:-0.11899603 12:-0.43419296 13:0.055079412 14:-0.31212255 15:0.2096651 16:0.23276201 17:-0.0055015208 
-0 0 0 0 0.1935011100091315 0 0 0 0 0 1:-942.52356 2:-673.03882 3:-24.276211 4:-432.0242 5:-225.57947 6:88.673721 7:29.768555 8:1.1364286 9:6.7208109 10:0.83386844 11:0.24681488 12:-0.095728554 13:0.1351959 14:-0.38662022 15:0.091913216 16:0.39974022 17:0.0060809716 
-0 0 0 0 0 0 0 0 0 0.352665457238463 1:-795.53192 2:-673.164 3:-19.410892 4:-469.54568 5:60.779755 6:-40.066921 7:-104.06749 8:-1.6676697 9:-3.7279279 10:0.0052564214 11:-0.31895977 12:-0.72887528 13:0.014682328 14:-0.47526017 15:0.20569043 16:0.41109017 17:-0.035576191 
-0 0 0 0 0 9.903511148523947e-07 0 0 0 0 1:-894.37701 2:-178.17879 3:-20.821661 4:-443.83466 5:79.713013 6:-30.193138 7:-80.978897 8:8.9707737 9:-4.460084 10:-0.1039992 11:-0.19111976 12:1.1323155 13:-0.24810402 14:0.10059305 15:0.013073191 16:-0.16047615 17:-0.019967698 
-0 0 0 0 0 0 0.003249771136345847 0 0 0 1:-930.53149 2:-673.11292 3:-20.77281 4:-454.62842 5:-8.0379477 6:-44.442726 7:-64.002441 8:4.425077 9:-2.8310366 10:-0.087791465 11:-0.13910934 12:0.7231589 13:-0.11900114 14:-0.22072375 15:0.072609223 16:0.19579048 17:-0.009891686 
-0 0 0 1 0 0 0 0 0 0 1:-942.52246 2:-673.02649 3:-24.135029 4:-436.77072 5:-235.2769 6:109.17129 7:30.314665 8:1.466332 9:4.9638791 10:1.9108576 11:0.13893975 12:-0.80552948 13:0.1821797 14:-0.46751264 15:0.23788391 16:0.3768802 17:-0.013152399 
-0 0 0 0 0 0 0 0 0 0.4193552878440983 1:-912.53192 2:-673.12695 3:-19.337978 4:-469.11581 5:59.10141 6:-40.711407 7:-102.98601 8:-5.5775003 9:-3.6042829 10:-0.04165484 11:-0.33943444 12:-1.2930634 13:0.014468263 14:0.34367871 15:0.053305276 16:-0.36120999 17:0.0060635586 
-0 0 0 0.4176301913820661 0 0 0 0 0 0 1:-912.52356 2:-673.05798 3:-20.434307 4:-473.87689 5:-62.263596 6:118.71175 7:-70.134758 8:-0.5358988 9:-2.706996 10:-0.23159476 11:-0.36462864 12:-1.7695792 13:0.08345747 14:-0.05851049 15:0.20600356 16:-0.0074567199 17:-0.014158633 
-1 0 0 0 0 0 0 0 0 0 1:-912.53394 2:-673.12769 3:-24.224913 4:-413.03983 5:-133.70341 6:-122.43085 7:25.064917 8:3.3676343 9:-0.63609922 10:0.088688292 11:-0.1100201 12:-1.9332002 13:0.20634703 14:-0.25813755 15:0.15841201 16:0.25574151 17:-0.031751443 
-0 0 0 1 0 0 0 0 0 0 1:-912.52356 2:-673.05798 3:-20.434307 4:-473.87689 5:-62.263596 6:118.71175 7:-70.134758 8:-0.5358988 9:-2.706996 10:-0.23159476 11:-0.36462864 12:-1.7695792 13:0.08345747 14:-0.05851049 15:0.20600356 16:-0.0074567199 17:-0.014158633 
-0 0 0 0.9625331749146246 0 0 0 0 0 0 1:-912.52112 2:-673.04211 3:-19.556393 4:-487.89911 5:-45.245682 6:175.6515 7:-92.655243 8:1.5351664 9:-3.3058701 10:-0.30334684 11:-0.41911486 12:-1.6677039 13:0.041174833 14:-0.016591992 15:0.20647341 16:-0.055282317 17:-0.0086409394 
-0 0 0 0 0 0 0 0.0192304541649489 0 0 1:-796.38715 2:-250.09518 3:-20.181736 4:-475.6579 5:-44.943913 6:191.62254 7:-112.16071 8:-7.8474412 9:-2.7353783 10:-0.40293813 11:-0.32444379 12:0.33285084 13:-0.10443968 14:-0.29229552 15:0.077081136 16:0.26606789 17:-0.020502528 
-0 0 0 0 0 0 0 0 0 0.9993805289596385 1:-878.52234 2:-673.06311 3:-19.339361 4:-488.1756 5:-23.727314 6:153.41206 7:-99.83844 8:0.62458843 9:-3.4604015 10:-0.29665634 11:-0.39760292 12:-1.3557768 13:-0.027053792 14:0.40086707 15:0.12545609 16:-0.49124324 17:0.019629749 
-0 0 0 0 0 0 0 0 1 0 1:87439.422 2:-701.00464 3:-106.01932 4:-444.28336 5:-10.759558 6:-6.1829486 7:-67.556763 8:4.4319735 9:-2.8364127 10:-0.13331357 11:-0.19617347 12:0.83192903 13:0.85987103 14:-0.18489715 15:0.036446899 16:0.0868515 17:-0.056414038 
-0.1206292716840276 0 0 0 0.1434409525056967 0 0.1382728318605181 0 0 0 1:-906.53235 2:-673.12988 3:-20.4818 4:-455.97198 5:15.085865 6:-60.269688 7:-73.411987 8:51.460999 9:-4.9280691 10:0.060475893 11:-0.18373536 12:-0.30299586 13:-0.18164971 14:0.097184308 15:-0.11603253 16:0.055242378 17:0.021737332 
-0 0 0 0 0.3601432303254125 0 0 0 0 0 1:-912.52582 2:-673.07263 3:-21.234987 4:-461.06165 5:-77.598236 6:66.718773 7:-49.669312 8:3.3024287 9:-2.3719761 10:-0.15872733 11:-0.30430833 12:-1.7432119 13:0.096804865 14:-0.1069146 15:0.18512814 16:0.063734651 17:-0.016607387 
-0 0 0 0 0 0 0 0 1 0 1:-709.42963 2:-342.18982 3:-24.378643 4:-413.9473 5:-134.00798 6:-122.69032 7:25.240969 8:-2.6530311 9:-0.28126806 10:-0.0099665402 11:0.029444896 12:0.27169147 13:-0.0012736912 14:-0.088232145 15:0.081429183 16:0.049474951 17:-0.0045964941 
-0 0 0 0 0 0 0 0 1 0 1:-632.41046 2:-281.21631 3:-24.528751 4:-412.49203 5:-133.7272 6:-122.45361 7:25.1898 8:-2.665338 9:-0.27960062 10:-0.010092387 11:0.029615412 12:0.27530509 13:-0.001689829 14:-0.087770149 15:0.081093431 16:0.048881445 17:-0.0046079792 
-0 0 0 1 0 0 0 0 0 0 1:-912.52136 2:-673.04382 3:-19.651768 4:-486.37427 5:-47.083893 6:169.46214 7:-90.21286 8:1.635579 9:-3.2528079 10:-0.29512981 11:-0.41259176 12:-1.6719941 13:0.04433563 14:-0.02172396 15:0.20526062 16:-0.048519988 17:-0.009093578 
-0 0 0 1 0 0 0 0 0 0 1:-942.51971 2:-669.03247 3:-19.486538 4:-488.46426 5:-43.761936 6:178.11279 7:-93.975426 8:22.430656 9:-3.8990109 10:-0.29788992 11:-0.26830059 12:0.4932254 13:-0.24793671 14:0.23557542 15:0.078730881 16:-0.3110359 17:0.037115704 
-0.05559872228058056 0 0 0 0 0 0 0 0 0 1:-837.53387 2:-673.14941 3:-24.052647 4:-416.35434 5:-126.84223 6:-119.75351 7:20.449537 8:9.0343857 9:-0.85055435 10:0.071032673 11:-0.037501618 12:-0.80358917 13:0.038287412 14:0.1553074 15:0.057893366 16:-0.17003039 17:0.0095425881 
-0 0 0 0 0 0 0 0.01222127315751039 0 0 1:-788.18512 2:-567.93945 3:9696.5098 4:22.511274 5:-80.498932 6:196.9767 7:-10.551098 8:2.63924 9:-0.99661636 10:-0.50736201 11:-0.2998341 12:-0.32795897 13:-0.037278812 14:-0.098725162 15:0.051346205 16:-0.23392175 17:0.094386682 
-0 0 0 0 0 0 0 0 1 0 1:-773.43341 2:-354.16962 3:-24.31637 4:-413.96341 5:-134.01541 6:-122.6873 7:25.240042 8:-2.653017 9:-0.28133193 10:-0.0099833347 11:0.029470785 12:0.27171558 13:-0.0012681152 14:-0.088222437 15:0.081433617 16:0.049489558 17:-0.0045810938 
-0 0 0 0 0 0 0 1 0 0 1:-705.24249 2:102.89565 3:15.354127 4:-488.41974 5:-39.92123 6:188.73651 7:-98.177597 8:-0.77867627 9:-3.3901646 10:-0.48958272 11:3.7285905 12:0.31386241 13:-0.13021535 14:-0.35462338 15:0.07903143 16:-0.067502595 17:0.061548993 
-0 0 0 0.690309825372086 0 0 0 0 0 0 1:-934.47748 2:-535.03412 3:-19.60581 4:-487.32703 5:-48.848022 6:177.41394 7:-90.973793 8:-3.3284898 9:-2.8674605 10:-0.3253665 11:-0.31187144 12:-0.049152855 13:-0.11915988 14:0.1563926 15:0.20261282 16:-0.34197515 17:0.015384399 
-0 0 0 0 0 0 0 0.1437396600840434 0 0 1:-906.52051 2:-673.04181 3:-19.405256 4:-490.20914 5:-40.830227 6:190.75458 7:-98.447929 8:-5.7194452 9:-3.0837991 10:-0.33032373 11:-0.40159109 12:-1.0517533 13:0.00062297197 14:-0.087509766 15:0.2527808 16:-0.04615768 17:-0.010267886 
-0 0 0 0 0 0 0 0 0 0.0006100445108196065 1:-796.53198 2:-673.16595 3:-19.483051 4:-468.29788 5:61.697861 6:-39.571404 7:-102.90376 8:-1.6816746 9:-3.7220881 10:0.020319458 11:-0.32662597 12:-0.73357302 13:-0.0057238555 14:-0.54115278 15:0.26266441 16:0.42000225 17:-0.074039996 
-0 0.4687955530277349 0 0 0 0 0 0 0 0 1:-942.52814 2:-673.08282 3:-20.803982 4:-460.75452 5:-39.352711 6:22.490263 7:-61.261105 8:-6.0802035 9:4.5412226 10:1.5578785 11:0.094731286 12:-0.285981 13:0.090793967 14:-0.13026714 15:0.049630322 16:0.14791156 17:0.01602114 
-0.08261459127569443 0 0 0 0 0 0 0 0 0 1:14933.458 2:-678.16119 3:-38.370216 4:-415.83176 5:-43.166611 6:-82.739929 7:-32.661957 8:6.1101894 9:-2.0732477 10:-0.028504157 11:-0.075912841 12:0.6422388 13:-0.075251855 14:-0.3581236 15:0.084597014 16:0.34448633 17:-0.01935176 
-0.1021737263151692 0 0 0 0 0 0 0 0 0 1:-837.53387 2:-673.14941 3:-24.052647 4:-416.35434 5:-126.84223 6:-119.75351 7:20.449537 8:9.0343857 9:-0.85055435 10:0.071032673 11:-0.037501618 12:-0.80358917 13:0.038287412 14:0.1553074 15:0.057893366 16:-0.17003039 17:0.0095425881 
-0 0 0 0 0 0 0 0.1287778883946764 1 0 1:59984.602 2:-200.25864 3:-82.088966 4:-438.62463 5:-207.12918 6:84.328491 7:21.154459 8:1.0759692 9:-0.2062306 10:-0.28162757 11:-0.074769191 12:0.17187457 13:-0.041196469 14:0.00096989475 15:0.16388552 16:-0.12203097 17:0.0071426444 
-0 0 0 0 0 0 0 1 1 0.004274998756877191 1:58333.445 2:-691.75586 3:-77.668556 4:-466.53656 5:-75.079933 6:89.643967 7:-55.883305 8:7.0607228 9:-2.4855895 10:-0.25776684 11:-0.21132621 12:0.51232678 13:-0.14345296 14:-0.043436967 15:-0.74276489 16:0.5566625 17:-0.012514302 
-0 0 0 0 0 0 0 0 0.7747955160438115 0 1:-622.78406 2:23898.754 3:-26.6709 4:-377.66479 5:-123.10492 6:-123.79276 7:25.106577 8:-2.521524 9:-0.21744522 10:0.007903629 11:0.01688306 12:0.21244317 13:-0.042144831 14:0.11494101 15:-0.83350796 16:0.39089677 17:-0.034986615 
-0 0 0 1 0 0 0 1 0 0 1:-942.51923 2:-669.02899 3:-19.295784 4:-491.5134 5:-40.085785 6:190.49182 7:-98.861343 8:22.230904 9:-4.0159674 10:-0.30430079 11:-0.29184291 12:0.39806688 13:-0.22292428 14:0.026978197 15:0.12265736 16:-0.10877248 17:0.02188934 
-0 0.01318440678570253 0.00028931090603276 0 0 0 0.01090384224566993 0 0 0 1:-899.5304 2:-630.74384 3:-44.77676 4:-17.336824 5:-60.204819 6:-51.794296 7:9.8260775 8:-4.3141594 9:0.028927598 10:0.0092825722 11:0.012324166 12:0.046424925 13:-0.024402933 14:0.31972784 15:0.0090541812 16:-0.36751571 17:0.022271119 
-0 0 0 0 0 0 0 0 0.5922728131809687 0 1:41815.578 2:-296.53693 3:-61.463657 4:-449.85144 5:-146.6532 6:84.011192 7:-14.214175 8:-1.677148 9:-1.0430199 10:-0.28076273 11:-0.13786414 12:0.26469192 13:-0.096118107 14:0.23056673 15:-0.74120313 16:0.24301617 17:0.003420311 
-0 -0 0 0 0 0 0 0 6.570764207842544e-10 6.668003653213845e-08 1:-942.53577 2:-673.25769 3:-23.803984 4:-392.18143 5:117.75062 6:-9.3369331 7:-31.956581 8:-0.44147739 9:1.2209877 10:-0.56568581 11:-0.019091552 12:0.0064206184 13:-0.011511577 14:0.027917597 15:0.013220137 16:-0.045388278 17:-0.0059214407 
-5.415692232389449e-06 -0.3728366177009468 0 0 0 0 2.098654108978164e-05 0 0 0 1:-942.52887 2:-673.10876 3:-22.814251 4:-430.74258 5:-81.633438 6:9.5824795 7:-34.137917 8:-4.1848183 9:4.6908827 10:-0.42689568 11:0.076459348 12:-0.38217273 13:0.093696654 14:-0.032558691 15:-0.09668944 16:0.12412242 17:0.016029367 
-0 -0 0 0 0 0.9129479551659194 0 0 0 0 1:-942.53571 2:-673.25598 3:-23.727352 4:-393.38541 5:117.62417 6:-9.842473 7:-33.48563 8:21.550058 9:0.97081375 10:2.3678906 11:0.11987257 12:0.58259284 13:-0.097907633 14:-0.031507183 15:-0.090751499 16:0.11046739 17:0.0027313079 
-0 -0 0 0 0 1 0 0 0 0 1:-942.53809 2:-673.34119 3:-26.509705 4:-345.991 5:151.61111 6:8.9747257 7:11.054569 8:-1.0892045 9:-0.98523533 10:2.0771456 11:0.00073078676 12:0.12201013 13:-0.031467643 14:0.095162272 15:1.291945e-05 16:-0.1098149 17:-0.0021625666 
-0 -0 1 0 0 0 0 0 0 0 1:-942.53961 2:-673.39764 3:-28.337931 4:-314.78525 5:174.50746 6:21.350231 7:40.122993 8:-1.4887505 9:-1.5511011 10:2.0665267 11:0.0011411572 12:0.077676155 13:-0.021217328 14:0.086484887 15:-0.006228684 16:-0.093841918 17:0.00057194527 
-0 -0 1 0 0 0 0 0 0 0 1:-942.53815 2:-673.34344 3:-26.582834 4:-344.74277 5:152.52699 6:9.4697485 7:12.217322 8:-1.1051065 9:-1.0068048 10:2.0761909 11:0.00085077249 12:0.12166709 13:-0.031692341 14:0.1009538 15:-0.0012720247 16:-0.11565267 17:-0.0019411347 
-0 -0.2531600494928672 0 0 0 0 0 0 0 0 1:-942.52496 2:-673.06964 3:-20.0627 4:-473.05478 5:-19.59082 6:103.81763 7:-84.434433 8:-4.1184988 9:3.3077908 10:-0.69226474 11:-0.057707179 12:-0.21395391 13:-0.0022354836 14:0.068975121 15:0.11746385 16:-0.16961965 17:-0.0062691364 
-0 -0.1779365272626474 0 0 0 0.7309977725212401 0 0 0 1.128976922982582e-07 1:-942.53192 2:-673.11981 3:-19.360037 4:-467.98041 5:60.423004 6:-40.115574 7:-103.60276 8:0.51169002 9:1.2074404 10:2.1223099 11:0.0045053586 12:0.24892306 13:-0.031010095 14:0.0056107193 15:0.00096472539 16:0.018332982 17:0.015152216 
-0 -0 0.6118930956300209 0 0 0 0 0 0 0 1:-942.53815 2:-673.34344 3:-26.582834 4:-344.74277 5:152.52699 6:9.4697485 7:12.217322 8:-1.1051065 9:-1.0068048 10:2.0761909 11:0.00085077249 12:0.12166709 13:-0.031692341 14:0.1009538 15:-0.0012720247 16:-0.11565267 17:-0.0019411347 
-0 -0 0.3155334033544386 0 0 0 0 0 0 0 1:-942.53906 2:-673.37817 3:-27.75034 4:-324.72809 5:163.88586 6:15.990968 7:28.834576 8:-1.2187626 9:0.079712249 10:-0.5859679 11:-0.016030356 12:-0.083771929 13:0.011109239 14:-0.0022025381 15:0.0019045606 16:0.00074664428 17:-0.00037831001 
-0 -0 0 0 0 0 0 0 0 5.377538679673437e-09 1:-942.54047 2:-673.44147 3:-30.281136 4:-280.50238 5:159.4115 6:17.881617 7:47.56757 8:-0.83344829 9:0.19897944 10:-0.5844152 11:0.011489567 12:-0.053518202 13:0.019218612 14:-0.0017433446 15:-0.01031806 16:0.010821559 17:0.0047332984 
-0 -0 1 0 0 0 0 0 0 0 1:-942.53784 2:-673.33215 3:-26.21719 4:-350.98392 5:147.94769 6:6.9946446 7:6.4036274 8:-1.0252455 9:-0.89428788 10:2.0785186 11:0.00077816244 12:0.1298566 13:-0.03337707 14:0.10054532 15:0.00012092686 16:-0.11622863 17:-0.0024776475 
-0 -0 0 0 0 0 0 0 0 5.561319228300381e-07 1:-942.53192 2:-673.11884 3:-19.30654 4:-468.94733 5:61.424438 6:-39.780804 7:-103.46539 8:0.53798908 9:2.5680332 10:-0.51889122 11:-0.020800784 12:0.063798308 13:-0.014521933 14:-0.12867013 15:0.053616554 16:0.11643992 17:-0.023141295 
-0 -0 0 0 0 1 0 0 0 0 1:-942.53827 2:-673.34778 3:-26.730316 4:-342.2724 5:154.11063 6:10.47698 7:14.692237 8:-9.0538626 9:1.1491436 10:2.3123875 11:0.065264389 12:-0.1149743 13:0.051245328 14:0.0043744221 15:0.0063653672 16:-0.0040872996 17:-0.0065593049 
-0 -0 0.01633127441514855 0 0 0 0 0 0 0 1:-942.53845 2:-673.35822 3:-27.213573 4:-333.64966 5:148.91774 6:8.8900194 7:15.403076 8:-0.94454318 9:-0.91710418 10:2.0792122 11:0.0091206599 12:0.13182841 13:-0.028698254 14:0.084058397 15:-0.00087455282 16:-0.096179329 17:-0.0010863348 
-0 -0 0.04479146294948606 0 0 0 0 0 0 0 1:-942.53967 2:-673.396 3:-28.60079 4:-311.58356 5:159.82202 6:15.145053 7:44.037525 8:-0.84572852 9:0.088389926 10:-0.58348632 11:-0.0014535086 12:-0.11498265 13:0.020553194 14:-0.006721044 15:-0.0010610275 16:0.009883916 17:0.0011022878 
-0 -0 0 0 0 0.9772377737668844 0 0 0 0 1:-942.53284 2:-673.15155 3:-20.366917 4:-450.84824 5:74.705505 6:-32.602875 7:-86.605209 8:0.30952483 9:2.2831228 10:-0.5437656 11:-0.020272112 12:0.086575754 13:-0.030214496 14:0.02887987 15:0.02920779 16:-0.061125573 17:-0.013055483 
-0 -0 1 0 0 0 0 0 0 0 1:-942.53851 2:-673.35699 3:-27.021608 4:-337.25339 5:158.02211 6:12.43987 7:19.193745 8:-1.2010252 9:-1.1429579 10:2.0738971 11:0.00092629687 12:0.11055862 13:-0.029105484 14:0.097099766 15:-0.0023682918 16:-0.11000065 17:-0.0015311178 
-0 -0 0 0 0 1 0 0 0 0 1:-942.5354 2:-673.24414 3:-23.365208 4:-399.67081 5:112.2555 6:-12.307053 7:-38.93301 8:-0.34560254 9:1.3565854 10:-0.56282163 11:-0.019396933 12:0.016293902 13:-0.013705812 14:0.024639878 15:0.01603985 16:-0.044371635 17:-0.0065804953 
-0 -0 0 0 0 1 0 0 0 0 1:-942.53809 2:-673.34119 3:-26.509706 4:-345.991 5:151.61111 6:8.9747248 7:11.054573 8:-1.0891826 9:-0.98495764 10:2.0768604 11:0.00084571447 12:0.12262772 13:-0.031663954 14:0.098728143 15:-0.00084880349 16:-0.11314923 17:-0.0020380476 
-0 -0 0.005026677361441061 0 0 0 0 0 0 0 1:-942.53064 2:-673.30457 3:-27.512495 4:-344.30569 5:81.685089 6:173.32149 7:23.60256 8:1.7993639 9:0.57011431 10:-0.73771513 11:-0.061192013 12:-0.16586924 13:-0.014051157 14:0.050749887 15:0.07087373 16:-0.11833441 17:0.010394193 
-1.35156358823526e-06 -0 0 0 0 0 0 0 0 0 1:-942.53491 2:-673.22528 3:-24.035702 4:-392.24362 5:44.20776 6:-41.388168 7:-37.657913 8:3.1029913 9:2.682529 10:-0.52734876 11:0.051976588 12:0.042220443 13:0.0031790617 14:0.0055756415 15:0.0058588535 16:-0.0071554724 17:-0.00065237045 
-0 -0 0 0.00195376311851342 0 0 0 0 0 0 1:-942.53186 2:-673.11823 3:-19.266554 4:-469.52377 5:61.744617 6:-40.045994 7:-104.41862 8:22.507269 9:1.7487966 10:-0.50678867 11:0.024178995 12:0.51978111 13:-0.091303885 14:-0.13203426 15:-0.069350041 16:0.23029223 17:0.024785576 
-0 -0 1 0 0 0 0 0 0 0 1:-942.53815 2:-673.34344 3:-26.582834 4:-344.74277 5:152.52699 6:9.4697495 7:12.217319 8:-1.1051284 9:-1.0070825 10:2.0764761 11:0.00073584472 12:0.12104949 13:-0.031496029 14:0.097387925 15:-0.00041030173 16:-0.11231834 17:-0.0020656534 
-0 -0 0 0.01533945757629614 0.02326855754498077 0 0 1.786650709609099e-05 0 0 1:-942.52148 2:-673.05585 3:-20.30913 4:-472.89877 5:-42.513744 6:178.3576 7:-93.115204 8:-2.3960319 9:3.2572315 10:-0.74680841 11:-0.085681103 12:-0.24986538 13:0.0038077291 14:0.05788365 15:0.1001907 16:-0.10153055 17:0.032279223 
-0 -0 1 0 0 0 0 0 0 0 1:-942.53876 2:-673.36719 3:-27.350689 4:-331.63635 5:162.14345 6:14.667461 7:24.426054 8:-1.2729764 9:-1.245239 10:2.0723169 11:0.0008873652 12:0.10180853 13:-0.026981918 14:0.091489576 15:-0.0025975155 16:-0.10320199 17:-0.001161087 
-0 -0 0 0 0 0.2797250317356422 0 0 0 0 1:-942.53442 2:-673.20911 3:-22.231657 4:-419.01248 5:98.033722 6:-19.983946 7:-56.965504 8:-0.15413035 9:0.34079105 10:2.1014996 11:-0.00019384205 12:0.22781995 13:-0.056683931 14:0.12304775 15:0.01405016 16:-0.15611964 17:-0.0089659607 
-0 -0 0.09565446848245958 0 0 0 0 0 0 0 1:-942.53827 2:-673.34961 3:-26.838043 4:-340.35086 5:151.98622 6:9.8085833 7:14.492542 8:-13.05467 9:-0.56110764 10:2.0614359 11:-0.018919298 12:-0.1271107 13:0.02237393 14:0.11584376 15:0.041725934 16:-0.16600752 17:-0.007224102 
-0 -0 0 0 0.05674438236525488 0 0.001152992936594803 0 0 1.718759030263598e-07 1:-942.53229 2:-673.11743 3:-20.301817 4:-457.84595 5:19.631245 6:-57.592876 7:-76.613167 8:3.4622481 9:3.1654959 10:-0.51151526 11:0.040154789 12:-0.0017508111 13:0.026058907 14:-0.10421765 15:0.0047392137 16:0.14454071 17:0.015663063 
-0 -0 1 0 0 0 0 0 0 0 1:-942.53876 2:-673.36719 3:-27.350689 4:-331.63635 5:162.14345 6:14.667461 7:24.426054 8:-1.2729764 9:-1.245239 10:2.0723169 11:0.0008873652 12:0.10180853 13:-0.026981918 14:0.091489576 15:-0.0025975155 16:-0.10320199 17:-0.001161087 
-0 -0 0 0 0 0 9.62968472722794e-05 0 0 0 1:-942.53247 2:-673.14362 3:-20.207216 4:-453.12051 5:64.186539 6:-37.830971 7:-95.527802 8:36.53561 9:1.223007 10:-0.48641667 11:0.053948171 12:0.83889383 13:-0.17589743 14:-0.10773505 15:-0.097843334 16:0.20521882 17:0.0076196864 
-0 -0 0 0 0.08916719292508077 0 0 0 0 0 1:-942.53198 2:-673.11761 3:-19.46109 4:-467.40012 5:53.303783 6:-43.281151 7:-98.964195 8:0.90031409 9:2.6793203 10:-0.53071684 11:-0.0062865512 12:0.046145469 13:0.010252086 14:-0.096937299 15:0.00938736 16:0.12942116 17:0.014851269 
-0 -0 0.3970785512070434 0 0 0 0 0 0 0 1:-942.53815 2:-673.34344 3:-26.582834 4:-344.74277 5:152.52699 6:9.4697495 7:12.217325 8:-1.1051197 9:-1.0069532 10:2.0763845 11:0.00082496874 12:0.12140195 13:-0.03167516 14:0.099825524 15:-0.00091369625 16:-0.11461975 17:-0.0021905175 
-0 -0 0.3023762160180165 0 0 0 0 0 0 0 1:-942.53979 2:-673.40704 3:-28.751896 4:-307.48572 5:171.47153 6:20.688631 7:41.817188 8:-1.3659606 9:-1.4742657 10:2.0679944 11:0.0073657259 12:0.088259786 13:-0.02027341 14:0.08677578 15:-0.0082480637 16:-0.09239053 17:0.00121281 
-0 -0.00209530966015964 0 0 0 0.5177839061312509 0 0 0 0 1:-942.52362 2:-673.14246 3:-22.989027 4:-428.42664 5:4.953239 6:215.28253 7:-41.016468 8:3.6362195 9:0.45740151 10:1.7996964 11:-0.085915953 12:-0.092564233 13:-0.056535169 14:0.048415922 15:0.12487955 16:-0.13997562 17:-0.0029318223 
-0 -0 0 0 0 0 0.001091388802974024 0 0 0 1:-942.53314 2:-673.15607 3:-21.746664 4:-432.22574 5:21.721512 6:-54.309006 7:-66.073196 8:-4.4841485 9:3.4687276 10:-0.52474231 11:0.034033 12:-0.12279653 13:0.042451378 14:-0.022317065 15:0.039258946 16:0.0073517952 17:-0.0013104911 
-0 -0 -0 0 0 0 0 0 6.570240900142766e-10 0 1:-942.54779 2:-673.69336 3:-37.918083 4:-151.27151 5:294.414 6:86.199615 7:192.47513 8:-5.5821609 9:-4.4791718 10:2.0053289 11:-0.01438211 12:-0.28472176 13:0.063650861 14:-0.40386382 15:0.082673639 16:0.40123969 17:-0.020636192 
-0 -0 -1 0 0 0 0 0 0 0 1:-942.53986 2:-673.40668 3:-28.630388 4:-309.79251 5:178.17174 6:23.330391 7:44.773911 8:-1.555095 9:-1.6672481 10:1.9598361 11:-0.015200523 12:-0.01865714 13:5.1941501e-05 14:-0.35353231 15:0.10650458 16:0.31686357 17:-0.033529345 
-0 -0 -1 0 0 1 0 0 0 0 1:-942.53644 2:-673.28247 3:-24.608307 4:-378.44504 5:127.79939 6:-3.8959522 7:-19.176683 8:-0.67585701 9:-0.43021891 10:1.9018633 11:-0.015627703 12:0.090654664 13:-0.029341076 14:-0.25562492 15:0.099019751 16:0.20941508 17:-0.035690259 
-0 -0 -0 0 0 0.04173456260438929 0 0 0 0 1:-941.53253 2:-673.14514 3:-20.303959 4:-451.57996 5:62.276016 6:-37.919651 7:-94.520844 8:0.40534905 9:-3.7887013 10:-0.00050213141 11:-0.30596745 12:-0.64384526 13:-0.020899966 14:-0.30106223 15:0.1859639 16:0.21165496 17:-0.054523498 
-0 -0 -1 0 0 0 0 0 0 0 1:-942.54028 2:-673.42133 3:-29.105728 4:-301.67902 5:184.12479 6:26.548019 7:52.331696 8:-1.6589926 9:-1.8145865 10:1.9571415 11:-0.015090751 12:-0.030404085 13:0.0028357566 14:-0.35648522 15:0.10492877 16:0.32186759 17:-0.032814994 
-0 -0 -0.1403907690459303 0 0 0 0 0 0 0 1:-941.53278 2:-673.1604 3:-21.134703 4:-437.43219 5:49.568302 6:-42.189671 7:-91.04113 8:0.88761467 9:-3.5017042 10:0.21477851 11:-0.2682355 12:-0.49189079 13:-0.039206456 14:-0.13537824 15:0.14217539 16:0.068035483 17:-0.018150594 
-0 -0 -0 0 0 0.005386930524588215 0 0 0 0 1:-936.53162 2:-658.69531 3:-25.941408 4:-150.61243 5:294.64197 6:86.236351 7:192.48337 8:1.4605544 9:-2.8861067 10:2.0920849 11:0.10982916 12:0.38175637 13:0.046259142 14:-0.69478381 15:-0.00082972425 16:0.80023015 17:-0.026973523 
-0 -0 -1 0 0 0.7837786416731721 0 0 0 0 1:-942.53937 2:-673.38861 3:-28.045361 4:-319.77832 5:170.84489 6:19.370186 7:35.472027 8:-1.4270511 9:-1.4846201 10:1.9356941 11:-0.015423588 12:-0.0024690095 13:-0.0045299004 14:-0.33379263 15:0.10425869 16:0.29589903 17:-0.033658057 
-0 -0 -0.6378600751132502 0 0 0 0 0 0 0 1:-942.54175 2:-673.47437 3:-30.824572 4:-272.34991 5:205.57652 6:38.182617 7:79.689766 8:-4.0310369 9:-2.268126 10:1.9585081 11:-0.017840357 12:-0.11391623 13:0.021803113 14:-0.3608658 15:0.10609324 16:0.32752654 17:-0.031032035 
-0 -0 -0 0 0 0.002547338603514217 0 0 0 0 1:-941.53229 2:-673.13263 3:-19.746344 4:-461.42508 5:66.8022 6:-36.844704 7:-96.54332 8:0.22962198 9:-3.8876565 10:0.0032202813 11:-0.31720963 12:-0.65200913 13:-0.034918092 14:-0.3045356 15:0.210263 16:0.18632685 17:-0.073126413 
-0 -0.002975387247218124 -0.01043430525888315 0.0001156161278184251 0.000471519924824964 0.0002955171980293018 2.043594099972358e-05 1.455650052915955e-05 0 9.19420772493499e-07 1:-936.5213 2:-647.14441 3:-21.072104 4:-446.59726 5:48.921093 6:51.505543 7:-73.883308 8:5.5263324 9:3.4201291 10:2.0496204 11:0.1212709 12:0.72124767 13:-0.050071366 14:-0.40902263 15:0.025877073 16:0.44440714 17:-0.038967159 
-0 -0 -1 0 0 0 0 0 0 0 1:-942.53857 2:-673.35925 3:-27.094685 4:-336.00525 5:158.93845 6:12.934935 7:20.356365 8:-1.2198733 9:-1.2041752 10:2.0240314 11:-0.013025118 12:0.030036077 13:-0.012041049 14:-0.30033156 15:0.10004835 16:0.26084024 17:-0.034254905 
-0 -0 -0 0 0 0.1531761224451478 0 0 0 0 1:-942.54779 2:-673.69336 3:-37.91811 4:-151.27678 5:294.43637 6:86.20433 7:192.48399 8:-5.5355082 9:-3.296756 10:0.59118468 11:-0.0077232765 12:-0.40622258 13:0.099717729 14:-0.48577511 15:0.084355451 16:0.49547324 17:-0.024705585 
-0 -0.002789063968980018 -0 0 0 0 0.002670049665730677 0 0 0 1:-941.53284 2:-673.15924 3:-21.251028 4:-436.31949 5:42.981468 6:-45.039192 7:-87.55574 8:1.1798259 9:-3.3994365 10:0.21013616 11:-0.26078108 12:-0.51186854 13:-0.032842629 14:-0.14854915 15:0.14233907 16:0.084747791 17:-0.018086618 
-0 -0 -1 0 0 0 0 0 0 0 1:-942.53943 2:-673.39087 3:-28.118488 4:-318.53009 5:171.76076 6:19.865208 7:36.634758 8:-1.4430573 9:-1.5075651 10:1.9355648 11:-0.015521628 12:-0.0048938245 13:-0.003905311 14:-0.33781281 15:0.10487799 16:0.30000323 17:-0.033672675 
-0 -0.0007879661504958226 -0 0 0.018965332243871 0 0 0 0 0 1:-941.53192 2:-673.12006 3:-19.361101 4:-467.9538 5:60.330997 6:-40.145676 7:-103.64654 8:0.35146606 9:-3.7677419 10:0.14108783 11:-0.30027571 12:-0.58742744 13:-0.0198009 14:-0.24358533 15:0.15318859 16:0.19004758 17:-0.020911124 
-0 -0 -1 0 0 0 0 0 0 0 1:-942.53845 2:-673.35474 3:-26.948429 4:-338.50171 5:157.10672 6:11.944879 7:18.030893 8:-1.187858 9:-1.1587282 10:2.016664 11:-0.013033936 12:0.034474496 13:-0.013376194 14:-0.2929666 15:0.098826252 16:0.25337997 17:-0.034185652 
-7.031599828955836e-06 -0 -0 0 0 6.02171100515315e-05 4.030655160148761e-05 0 0 0 1:-941.53656 2:-673.31122 3:-28.239069 4:-319.53729 5:-4.5314698 6:-56.057266 7:-19.829756 8:3.7873559 9:-2.5222533 10:0.025660703 11:-0.16379708 12:-0.62007314 13:0.025236988 14:-0.26039892 15:0.13801119 16:0.20874096 17:-0.032950174 
-0 -0 -1 0 0 1 0 0 0 0 1:-942.53485 2:-673.22491 3:-22.743525 4:-410.27487 5:104.44507 6:-16.519102 7:-48.826458 8:-0.26786026 9:0.14949265 10:1.8303419 11:-0.016698699 12:0.1398901 13:-0.043397028 14:-0.20711528 15:0.095039517 16:0.15630911 17:-0.036519013 
-0 -0 -0 -0 0 0 0 0 6.572680214057787e-10 0 1:-934.52258 2:-673.05023 3:-24.864952 4:-421.02768 5:-239.11511 6:108.11578 7:16.820438 8:7.1930952 9:-0.042645719 10:-0.21851146 11:-0.18940756 12:-2.0462391 13:0.13773841 14:0.089548044 15:-0.65540463 16:0.40906537 17:-0.019989928 
-0 -0 -0 -0 0 0 0 1.6919826280613e-05 0 9.356861549368855e-07 1:-924.52045 2:-673.03375 3:-19.373856 4:-491.00159 5:-43.637466 6:190.446 7:-96.921646 8:-1.578126 9:-3.2827494 10:-0.32109454 11:-0.44018602 12:-1.773703 13:0.055529252 14:-0.00096494617 15:0.20737535 16:-0.065569706 17:-0.011206083 
-2.691190606315493e-07 -1 -0.01418144835348008 -0.0001156161278184251 0.07621222728924168 0.0003550129857183958 4.4406313138113e-05 0 0 0 1:-942.52258 2:-673.04517 3:-19.277229 4:-487.66913 5:-21.13883 6:147.9682 7:-99.963081 8:3.6724293 9:1.4380773 10:1.8662136 11:-0.067966148 12:0.061830867 13:-0.039408598 14:-0.25891104 15:0.15906103 16:0.1831577 17:0.015465456 
-0 -0 -0 -0 0.03254891406120534 0 0 0 0 0 1:-934.52094 2:-673.03949 3:-20.686996 4:-472.71625 5:-85.708656 6:172.25021 7:-75.710411 8:0.24505022 9:-2.5479276 10:-0.3006725 11:-0.39240766 12:-1.8184607 13:0.047150973 14:0.19987963 15:-0.67654413 16:0.31139874 17:-0.014374759 
-0 -0 -0 -0 1 0 0 0 0 0 1:-934.52148 2:-673.05792 3:-22.411367 4:-446.43246 5:-132.55013 6:153.93996 7:-59.300072 8:2.1489284 9:-1.636131 10:-0.27690148 11:-0.33159646 12:-1.8114791 13:0.063615859 14:0.18015781 15:-0.67320293 16:0.32485929 17:-0.015890434 
-0 -1 -0 -0 0 0 0 0 0 0 1:-942.4776 2:-540.02863 3:-18.312222 4:-491.35355 5:-40.719082 6:190.54836 7:-98.410461 8:-0.48594335 9:3.5876508 10:2.0987499 11:-0.025789997 12:-0.32275376 13:0.064258382 14:-0.55987161 15:0.19719419 16:0.52185154 17:-0.0025606935 
-0 -0 -0 -0 1 0 0 0 0 0 1:-934.52264 2:-673.06891 3:-25.519129 4:-406.90085 5:-243.05621 6:108.01931 7:4.7628222 8:7.1063147 9:0.20067397 10:-0.21800491 11:-0.18562241 12:-1.958812 13:0.12642062 14:0.10373693 15:-0.65865648 16:0.39163309 17:-0.019891795 
-0 -0 -0 -0 1 0 0 0 0 0 1:-934.52118 2:-673.04822 3:-21.531965 4:-459.94611 5:-109.02568 6:163.09763 7:-67.187935 8:1.1992731 9:-2.0984325 10:-0.28880033 11:-0.36210167 12:-1.8172706 13:0.055681255 14:0.18964534 15:-0.674788 16:0.31858775 17:-0.015135179 
-0 -0.1548060924308579 -0 -0 0 0 0 0 0 0 1:-924.52246 2:-673.03235 3:-24.132401 4:-436.94666 5:-234.39084 6:109.45969 7:29.659058 8:7.2731972 9:-0.31041431 10:-0.21765068 11:-0.1866238 12:-2.1313977 13:0.17906298 14:-0.15174644 15:0.23669077 16:0.071792945 17:-0.018381767 
-0 -1 -0 -0 0 0 0 0 0 0 1:-942.5224 2:-673.0437 3:-19.277372 4:-488.02066 5:-22.732576 6:151.6187 7:-99.88356 8:3.7342906 9:1.4431543 10:1.8574888 11:-0.069213793 12:0.059311345 13:-0.039995741 14:-0.25756535 15:0.16051044 16:0.18032852 17:0.015732303 
-0 -1 -0 -0 0 0 0 0 0 0 1:-924.52063 2:-673.03363 3:-19.756067 4:-486.65982 5:-58.959023 6:183.94107 7:-86.754524 8:-0.86717629 9:-3.0440075 10:-0.31278577 11:-0.41981956 12:-1.8024335 13:0.065451637 14:-0.013075909 15:0.20973 16:-0.054536562 17:-0.011782443 
-0 -0 -0 -0 1 0 0 0 0 0 1:-934.52118 2:-673.03442 3:-21.011721 4:-470.78955 5:-104.58955 6:163.81921 7:-59.320087 8:1.1921217 9:-2.301595 10:-0.29000443 11:-0.36692736 12:-1.8788174 13:0.063028447 14:0.18040146 15:-0.67262733 16:0.3303293 17:-0.015149852 
-0 -0 -0 -0 1 0 0 0 0 0 1:-934.52081 2:-673.07477 3:-21.353205 4:-452.55011 5:-70.592125 6:182.73744 7:-113.78722 8:-0.9703185 9:-2.4435835 10:-0.31317177 11:-0.41617826 12:-1.6122522 13:0.010982502 14:0.24532755 15:-0.68641359 16:0.26179764 17:-0.013353517 
-0 -1 -0 -0 0 0 0 6.404315865251667e-08 0 0 1:-924.52197 2:-673.03345 3:-22.699032 4:-453.05249 5:-176.13805 6:132.02766 7:-8.5073671 8:4.5758786 9:-1.2103237 10:-0.2507031 11:-0.26042837 12:-1.9857483 13:0.13658734 14:-0.10673021 15:0.23719713 16:0.01741386 17:-0.014638605 
-0 -0 -0.001136472154979665 -0 1 0 0 0 0 0 1:-934.52081 2:-673.07611 3:-21.3876 4:-451.71872 5:-70.401115 6:181.81973 7:-114.44171 8:-0.99036831 9:-2.4322073 10:-0.3121492 11:-0.41558623 12:-1.6051122 13:0.010227468 14:0.24567705 15:-0.6864087 16:0.26090196 17:-0.013319117 
-0 -1 -0 -0 0 0 0 3.034085063589039e-06 0 0 1:-924.52246 2:-673.03235 3:-24.15151 4:-436.72958 5:-235.15692 6:109.13445 7:30.167414 8:7.3087444 9:-0.29847723 10:-0.21723524 11:-0.18560547 12:-2.1328342 13:0.1795591 14:-0.15235198 15:0.23680851 16:0.072344601 17:-0.018410586 
-0 -0 -0 -0 0.2233762495832657 0 0 0 0 0 1:-934.52258 2:-673.07446 3:-25.725746 4:-402.52762 5:-244.6992 6:108.90147 7:0.97503382 8:7.0943751 9:0.27883643 10:-0.21907292 11:-0.18471339 12:-1.931782 13:0.12271053 14:0.10863847 15:-0.65932304 16:0.38532734 17:-0.019799097 
-0 -0 -0 -0 1 0 0 0 0 0 1:-934.52075 2:-673.07416 3:-21.204077 4:-454.50827 5:-65.389801 6:183.78137 7:-116.22263 8:-1.1944966 9:-2.5293105 10:-0.31440508 11:-0.42222774 12:-1.6081461 13:0.00881135 14:0.24778733 15:-0.68744326 16:0.26040074 17:-0.013270221 
-0 -0.7487255445525235 -0 -0 0 0 0 0 0 0 1:-924.52246 2:-673.03235 3:-24.132401 4:-436.94666 5:-234.39084 6:109.45969 7:29.659058 8:7.2731972 9:-0.31041431 10:-0.21765068 11:-0.1866238 12:-2.1313977 13:0.17906298 14:-0.15174644 15:0.23669077 16:0.071792945 17:-0.018381767 
-0 -0 -0 -0 0.4695597217028661 0 0 0 0 0 1:-934.52258 2:-673.05872 3:-25.174862 4:-414.42389 5:-241.38039 6:108.98271 7:11.128816 8:7.1674538 9:0.073935628 10:-0.21949948 11:-0.18790089 12:-2.0054047 13:0.13224131 14:0.096689939 15:-0.65658468 16:0.40000716 17:-0.019881735 
-0 -1 -0 -0 0 0 0 0 0 0 1:-924.52246 2:-673.03235 3:-24.15151 4:-436.72958 5:-235.15692 6:109.13445 7:30.167414 8:7.3087444 9:-0.29847723 10:-0.21723524 11:-0.18560547 12:-2.1328342 13:0.1795591 14:-0.15235198 15:0.23680851 16:0.072344601 17:-0.018410586 
-0 -0 -0 -0 0.2100722010115342 0 0 0 0 0 1:-934.5213 2:-673.0639 3:-22.235737 4:-446.31311 5:-118.47313 6:160.41441 7:-73.274864 8:1.4105744 9:-1.798035 10:-0.28505027 11:-0.35076758 12:-1.7551399 13:0.05011943 14:0.19674948 15:-0.67658454 16:0.30832121 17:-0.015283084 
-0 -0 -0 -0 1 0 0 0 0 0 1:-934.52252 2:-673.05579 3:-25.071569 4:-416.65445 5:-240.7581 6:108.99795 7:13.03265 8:7.1811557 9:0.035516731 10:-0.21957946 11:-0.18849854 12:-2.0192091 13:0.13402833 14:0.094449587 15:-0.65607119 16:0.40275964 17:-0.01989723 
-0 -0 -0 -0 0.9297054732625685 0 0 0 0 0 1:-934.52264 2:-673.06891 3:-25.519129 4:-406.90085 5:-243.05621 6:108.01931 7:4.7628222 8:7.1063147 9:0.20067397 10:-0.21800491 11:-0.18562241 12:-1.958812 13:0.12642062 14:0.10373693 15:-0.65865648 16:0.39163309 17:-0.019891795 
-0 -0 -0.001975300186349806 -0 0 0 0 0 0 0 1:-934.5213 2:-673.08038 3:-22.687315 4:-435.28082 5:-117.03528 6:163.51744 7:-87.601875 8:1.0995654 9:-1.6625365 10:-0.28867504 11:-0.35482204 12:-1.6679286 13:0.036457952 14:0.21409859 15:-0.68009198 16:0.28825623 17:-0.014954582 
-0 -1 -0 -0 0 0 0 0 0 0 1:-942.52081 2:-673.03107 3:-19.297773 4:-490.96719 5:-37.842781 6:184.1483 7:-98.659767 8:4.3269911 9:1.5011582 10:1.8142684 11:-0.083894759 12:-0.038267508 13:-0.03089978 14:-0.28596804 15:0.16725877 16:0.21654151 17:0.012862176 
-0 -0.6890172555648301 -0 -0 0 0 0 0 0 0 1:-924.52148 2:-673.03339 3:-21.686205 4:-464.64603 5:-135.93436 6:150.17834 7:-35.43037 8:2.7073271 9:-1.8416647 10:-0.27394924 11:-0.31468576 12:-1.9101909 13:0.11015698 14:-0.074215315 15:0.23131759 16:-0.012624781 17:-0.01304954 
-0 -1 -0 -0 0 0 0 0 0 0 1:-924.52246 2:-673.03235 3:-24.15151 4:-436.72958 5:-235.15692 6:109.13445 7:30.167414 8:7.3087444 9:-0.29847723 10:-0.21723524 11:-0.18560547 12:-2.1328342 13:0.1795591 14:-0.15235198 15:0.23680851 16:0.072344601 17:-0.018410586 
-0 -0 -0 -0 1 0 0 0 0 0 1:-934.52264 2:-673.07483 3:-25.725712 4:-402.43973 5:-244.30078 6:107.98884 7:0.95515406 8:7.0789099 9:0.27751175 10:-0.21784495 11:-0.1844271 12:-1.9312035 13:0.12284657 14:0.10821763 15:-0.65968335 16:0.38612816 17:-0.019860806 
-0 -1 -0 -0 0 0 0 0 0 0 1:-942.52252 2:-673.0448 3:-19.296375 4:-487.53995 5:-22.303429 6:148.55595 7:-99.434898 8:3.7238696 9:1.4553068 10:1.8940796 11:-0.069282085 12:0.012045274 13:-0.031405602 14:-0.25765872 15:0.1460804 16:0.20013949 17:0.01310466 
-0 -0 -0 -0 0.05852521308930915 0 0 0 0 0 1:-924.52081 2:-673.03387 3:-20.100023 4:-482.66434 5:-72.349907 6:177.17378 7:-77.62394 8:-0.24310073 9:-2.8323638 10:-0.30825651 11:-0.39928636 12:-1.7924294 13:0.06920062 14:-0.023972491 15:0.2211435 16:-0.057828076 17:-0.010725855 
-5.97834668892753e-06 -1 -0 -0 0 0 0 0 0 0 1:-924.52252 2:-673.03265 3:-24.151474 4:-436.64166 5:-234.75839 6:108.22158 7:30.147587 8:7.2929525 9:-0.30178031 10:-0.22035785 11:-0.18332219 12:-2.0955026 13:0.17415638 14:-0.15233102 15:0.2465051 16:0.058539003 17:-0.016767064 
-0 -0 -0 -0 -0 0.1666822882306541 0.001264243869433274 0 0 0 1:-942.53186 2:-673.11768 3:-19.269867 4:-469.58755 5:61.035397 6:-40.006042 7:-104.02171 8:0.68450612 9:6.3214507 10:0.0095786937 11:0.10625863 12:-0.37498662 13:0.19209227 14:-1.1632522 15:0.14650548 16:1.2433761 17:-0.037087355 
-0 -0 -0 -0.0001559310723167809 -1 0 0 3.547446519473151e-06 0 0 1:-934.52094 2:-673.07642 3:-21.521339 4:-450.11121 5:-75.365196 6:178.63031 7:-110.90308 8:-0.75710559 9:-2.3506055 10:-0.30940536 11:-0.40753263 12:-1.6028284 13:0.01206394 14:0.24115875 15:-0.68272662 16:0.26089031 17:-0.013036879 
-0 -0 -0 -0 -1 0 0 0 0 0 1:-934.5213 2:-673.07935 3:-22.767548 4:-434.7218 5:-121.42429 6:161.57097 7:-83.917107 8:1.3173087 9:-1.6043798 10:-0.28765929 11:-0.34824568 12:-1.6688981 13:0.038184088 14:0.20986578 15:-0.67586213 16:0.28761485 17:-0.014564244 
-0 -0 -0.006666883175387335 -0 -1 0.002015325776368372 0 0 0 0 1:-934.52087 2:-673.04883 3:-20.691063 4:-469.4101 5:-74.919792 6:176.49576 7:-89.57547 8:-0.38038582 9:-2.6256223 10:-0.30724376 11:-0.40598249 12:-1.741724 13:0.032215636 14:0.21600997 15:-0.67711031 16:0.2904416 17:-0.013383223 
-0 -0.2229176037874241 -0 -0 -0 0 2.883298359117434e-05 0 0 0 1:-942.53186 2:-673.11768 3:-19.269867 4:-469.58755 5:61.035397 6:-40.006042 7:-104.02171 8:0.68450612 9:6.3214507 10:0.0095786937 11:0.10625863 12:-0.37498662 13:0.19209227 14:-1.1632522 15:0.14650548 16:1.2433761 17:-0.037087355 
-0 -0.1619728491862349 -0 -0 -0 0 0 0 0 0 1:-942.53186 2:-673.11768 3:-19.269867 4:-469.58755 5:61.035397 6:-40.006042 7:-104.02171 8:0.68450612 9:6.3214507 10:0.0095786937 11:0.10625863 12:-0.37498662 13:0.19209227 14:-1.1632522 15:0.14650548 16:1.2433761 17:-0.037087355 
-0 -1 -0.01569074116784631 -0 -1 0 0 0 0 0 1:-934.52264 2:-673.03906 3:-24.451715 4:-429.77414 5:-235.82909 6:106.35139 7:24.396032 8:7.2168651 9:-0.19963011 10:-0.21782564 11:-0.19055992 12:-2.0880482 13:0.14331232 14:0.079892218 15:-0.65071911 16:0.41680804 17:-0.019606916 
-0 -0 -0 -0 -1 0 0 0 0 0 1:-934.52087 2:-673.06287 3:-21.188478 4:-458.65018 5:-78.061989 6:178.5701 7:-99.56324 8:-0.45351014 9:-2.4427891 10:-0.30965725 11:-0.40461177 12:-1.6729131 13:0.022586184 14:0.22865307 15:-0.67920882 16:0.27472076 17:-0.013176247 
-0 -0 -0 -0 -1 0 0 0 0 0 1:-934.52191 2:-673.06311 3:-23.745512 4:-429.25104 5:-179.39168 6:135.63251 7:-33.094826 8:4.2341814 9:-0.8543399 10:-0.25490889 11:-0.26994076 12:-1.8569529 13:0.087330565 14:0.14947928 15:-0.66357106 16:0.3462325 17:-0.016929587 
-1.630754928365692e-05 -1 -0 -0.0001137793114490955 -0 0 0.0002065231885035593 4.36332864549178e-05 6.621827013163536e-10 1.237945837976545e-06 1:-727.5285 2:-673.14954 3:-21.963652 4:-450.10925 5:-78.583702 6:8.9088268 7:-36.024742 8:6.4952574 9:-2.1108925 10:-0.079544194 11:-0.20418529 12:-0.90171385 13:0.031677473 14:-0.18227442 15:0.16663171 16:0.12556791 17:-0.01438969 
-0 -0 -0 -0 -1 0 0 0 0 0 1:-934.52264 2:-673.05847 3:-25.14036 4:-414.99164 5:-240.37605 6:107.16245 7:11.723685 8:7.1409822 9:0.057820536 10:-0.2185204 11:-0.18686186 12:-1.9965981 13:0.13126281 14:0.095248729 15:-0.65378183 16:0.39765745 17:-0.019441908 
-0 -0 -0 -0 -0 6.187438267470246e-05 0 0 0 0 1:-942.53186 2:-673.11768 3:-19.269867 4:-469.58755 5:61.035397 6:-40.006042 7:-104.02171 8:0.68450612 9:6.3214507 10:0.0095786937 11:0.10625863 12:-0.37498662 13:0.19209227 14:-1.1632522 15:0.14650548 16:1.2433761 17:-0.037087355 
-0 -0 -0 -0 -1 0 3.13264703279183e-05 0 0 0 1:-934.52264 2:-673.07526 3:-25.57279 4:-404.08853 5:-237.7737 6:109.6781 7:-3.1315577 8:6.7789564 9:0.18003091 10:-0.22139068 11:-0.19162172 12:-1.9068818 13:0.1171674 14:0.11278843 15:-0.65763324 16:0.37764689 17:-0.01912356 
-0 -0 -0 -0 -1 0 0 0 0 0 1:-934.5213 2:-673.07837 3:-22.656675 4:-436.33368 5:-118.15255 6:162.87703 7:-85.315918 8:1.1796861 9:-1.6649345 10:-0.28934768 11:-0.35251817 12:-1.6677535 13:0.036795285 14:0.21154119 15:-0.67616194 16:0.28632572 17:-0.014454137 
-0 -0 -0 -0 -1 0 0 0 0 0 1:-934.52234 2:-673.06226 3:-24.571024 4:-420.13773 5:-213.25932 6:120.08888 7:-9.6040621 8:5.8229203 9:-0.33130187 10:-0.2350129 11:-0.2240292 12:-1.9256195 13:0.11038765 14:0.12106199 15:-0.65846223 16:0.37277538 17:-0.018293273 
-0 -0 -0.1468225084920829 -0.01916714178493007 -0 0 0 0 0 0 1:-942.53186 2:-673.11768 3:-19.269869 4:-469.58759 5:61.035328 6:-40.006081 7:-104.02164 8:0.68435782 9:6.3195033 10:0.017055424 11:0.10758292 12:-0.36462292 13:0.18906802 14:-1.1341609 15:0.14023589 16:1.2155471 17:-0.035430625 
-0 -0 -0 -0 -0 3.252393942347113e-07 0 0 0 0 1:-942.53186 2:-673.11768 3:-19.269867 4:-469.58755 5:61.035397 6:-40.006042 7:-104.02171 8:0.68450612 9:6.3214507 10:0.0095786937 11:0.10625863 12:-0.37498662 13:0.19209227 14:-1.1632522 15:0.14650548 16:1.2433761 17:-0.037087355 
-0 -0 -0 -0 -0 0.008837030303550786 0 0 0 0 1:-942.53186 2:-673.11768 3:-19.269867 4:-469.58755 5:61.035397 6:-40.006042 7:-104.02171 8:0.68450612 9:6.3214507 10:0.0095786937 11:0.10625863 12:-0.37498662 13:0.19209227 14:-1.1632522 15:0.14650548 16:1.2433761 17:-0.037087355 
-0 -0 -0 -0 -1 0 0 0 0 0 1:-934.52142 2:-673.04962 3:-22.193293 4:-451.81723 5:-133.58736 6:153.91739 7:-52.678215 8:2.3074703 9:-1.7020787 10:-0.27848861 11:-0.32978249 12:-1.8414174 13:0.067961164 14:0.17292912 15:-0.66790205 16:0.3283793 17:-0.015410824 
-0 -0 -0 -0 -0 -0 0 0 6.570796261076049e-10 8.832656198905591e-07 1:-942.53186 2:-673.11761 3:-19.270157 4:-469.58148 5:60.920567 6:-40.01403 7:-104.00526 8:-1.4024359 9:4.083497 10:2.532516 11:0.085878387 12:-0.18119651 13:0.13538258 14:-0.90722835 15:0.13218698 16:0.9604944 17:-0.033822708 
-0 -0.05347666693961975 -1 -6.007057871091536e-05 -0.0003550129857183958 -0.003875620424813753 0 1.588089112258193e-05 0 0 1:-942.526 2:-673.07153 3:-19.274563 4:-481.09076 5:8.7964115 6:79.537163 7:-101.43263 8:2.6191709 9:4.1990323 10:2.0366609 11:0.069090307 12:-0.0074577723 13:0.036902398 14:-0.29923382 15:0.053291194 16:0.32894972 17:0.013153645 
-0 -0 -0 -0 -0 -0.0002176092729169455 0 0 0 0 1:-942.53186 2:-673.11761 3:-19.27014 4:-469.58151 5:60.920666 6:-40.013996 7:-104.00538 8:-1.4030952 9:4.0751672 10:2.5410736 11:0.082430556 12:-0.19972429 13:0.14127189 14:-1.0142045 15:0.15803866 16:1.0605243 17:-0.037558276 
-0 -0 -1 -1 -0 -0 0 0 0 0 1:-942.53577 2:-673.25769 3:-23.803911 4:-392.17487 5:117.72439 6:-9.3406506 7:-31.968008 8:-0.49755028 9:-0.17349632 10:2.0803757 11:-0.01653464 12:0.041862033 13:-0.0066672945 14:-0.26639563 15:0.090338893 16:0.22806045 17:-0.03868651 
-0 -0 -0.4914084030847325 -0 -0 -0.10415389148645 0 0 0 0 1:-942.53186 2:-673.11768 3:-19.269894 4:-469.57816 5:60.99144 6:-40.016949 7:-104.03661 8:0.59326708 9:4.0290294 10:2.1579413 11:0.10935228 12:0.097756304 13:0.044970572 14:-0.27021468 15:-0.012126856 16:0.35271981 17:0.010266058 
-0 -0 -0.04922098802270471 -0 -0 -0 0 0 0 0 1:-942.54071 2:-673.43933 3:-29.647671 4:-292.22556 5:192.4814 6:30.228355 7:60.341545 8:40.152554 9:-3.5539312 10:2.1584041 11:0.047552891 12:0.63218665 13:-0.11430458 14:-0.7268557 15:-0.006654304 16:0.83048385 17:-0.034110557 
-0 -0 -0.8780630482134995 -0.1315354369955 -0 -0 0 0 0 0 1:-942.54089 2:-673.44281 3:-29.80047 4:-289.81931 5:192.82414 6:31.251471 7:63.374935 8:-1.807425 9:-2.0488591 10:2.1030796 11:-0.029614931 12:-0.24395339 13:0.071167506 14:-0.64780354 15:0.14091314 16:0.62519389 17:-0.052215271 
-0 -0 -1 -0 -0 -0.0006709499246965882 0 0 0 0 1:-942.53247 2:-673.13916 3:-19.964695 4:-457.7128 5:69.665466 6:-35.325638 7:-93.001503 8:0.39118978 9:2.2614119 10:-0.095549129 11:-0.015766887 12:0.092523925 13:-0.026768049 14:-0.055707246 15:0.047816541 16:0.025059769 17:-0.023338621 
-0 -0 -0 -0 -0 -0.0002329218998513441 0 0 0 0 1:-942.52423 2:-673.11755 3:-11.281702 4:-469.16037 5:60.880138 6:-39.992428 7:-103.93227 8:-1.4024916 9:4.0771642 10:2.5408828 11:0.082501821 12:-0.19927675 13:0.14125317 14:-1.0139461 15:0.15783688 16:1.0601181 17:-0.037462033 
-0 -0 -0 -3.534006630672164e-07 -0 -0 0 0 0 0 1:-901.99139 2:-672.51361 3:41274.867 4:1708.9529 5:-149.00627 6:71.389786 7:274.34985 8:3.7372875 9:14.357964 10:1.346818 11:0.47103378 12:2.3087263 13:-0.015606153 14:0.80840003 15:-1.0014623 16:-1.4978021 17:0.48902223 
-0 -0 -1 -0 -0 -0 0 0 0 0 1:-942.53436 2:-673.20825 3:-22.193523 4:-419.61469 5:97.930199 6:-20.239136 7:-57.716274 8:9.8367319 9:-0.038193338 10:2.0768154 11:0.0062595457 12:0.33589315 13:-0.074747786 14:-0.15619032 15:0.035892125 16:0.1446345 17:-0.029092129 
-0 -0 -0 -1.091217286369032e-05 -0 -0 0 0 0 0 1:-937.81158 2:-673.06299 3:3866.0149 4:-263.16782 5:40.694794 6:-29.606888 7:-67.99044 8:-1.085815 9:5.0687132 10:2.4391658 11:0.12208125 12:0.040185265 13:0.12575071 14:-0.77030575 15:0.031083377 16:0.75266302 17:0.013461167 
-0 -0 -1 -0.2984306677009204 -0 -0 0 0 0 0 1:-942.53589 2:-673.26318 3:-24.003757 4:-388.72324 5:118.60646 6:-8.6768341 7:-29.75951 8:-0.44663256 9:1.0749687 10:-0.11804466 11:-0.025053011 12:-0.11469349 13:0.030008217 14:-0.32668298 15:0.084160171 16:0.30440718 17:-0.034557957 
-0 -0 -0 -0 -0 -0.01008851927492172 0 0 0 0 1:-942.53186 2:-673.11761 3:-19.27014 4:-469.58151 5:60.920666 6:-40.013996 7:-104.00538 8:-1.4030952 9:4.0751672 10:2.5410736 11:0.082430556 12:-0.19972429 13:0.14127189 14:-1.0142045 15:0.15803866 16:1.0605243 17:-0.037558276 
-0 -0 -0 -0 -0 -0.05835733164899186 0 0 0 0 1:-942.53186 2:-673.11768 3:-19.26984 4:-469.57718 5:60.991493 6:-40.015594 7:-104.03901 8:0.59396243 9:4.0074744 10:2.5373611 11:0.088643163 12:-0.14453375 13:0.12815087 14:-0.93928576 15:0.13195549 16:0.9967609 17:-0.033916585 
-0 -0.0009157758277419252 -1 -1 -0 -0 0 0 0 2.965384520710333e-08 1:-942.54156 2:-673.46765 3:-30.604891 4:-276.08878 5:202.89851 6:36.69669 7:76.165031 8:-1.9832386 9:-2.2980528 10:2.0983257 11:-0.029403359 12:-0.26356769 13:0.075861394 14:-0.65167248 15:0.13788804 16:0.63262933 17:-0.050756987 
-9.494448528778264e-07 -0 -0 -0 -0 -0 0 0 0 0 1:-942.53186 2:-673.11768 3:-19.269863 4:-469.56384 5:60.938267 6:-40.031906 7:-104.06099 8:0.48919514 9:1.1420276 10:2.1730106 11:-0.032598898 12:-0.058599066 13:0.062186982 14:-0.85473877 15:0.18201913 16:0.84907585 17:-0.035186775 
-0 -0 -0 -0.001689066816951888 -0 -0 0 0 0 0 1:-942.53046 2:-673.20557 3:-18.144676 4:-420.35068 5:95.261345 6:-21.27702 7:-59.359619 8:0.013276999 9:3.2489212 10:2.4352214 11:0.10818951 12:0.035970137 13:0.03867384 14:-0.29432955 15:0.038212694 16:0.31178108 17:-0.034110043 
-0 -0 -0 -0.555252822493287 -0 -0 0.000604493531402686 0 0 0 1:-942.53192 2:-673.11884 3:-19.306456 4:-468.94064 5:61.397995 6:-39.784763 7:-103.47727 8:0.482097 9:1.1643691 10:1.9832983 11:-0.025218314 12:0.075877331 13:-0.0033808006 14:-0.50756317 15:0.14345244 16:0.47315368 17:-0.048843998 
-0 -0 -0 -0 -0 -0 0 0 0 9.892434203848273e-11 1:-937.90717 2:-673.06445 3:3766.1594 4:-268.43198 5:41.201347 6:-29.876488 7:-68.904327 8:-1.0933166 9:5.0443101 10:2.4409792 11:0.12142026 12:0.035826109 13:0.12559196 14:-0.76640534 15:0.031882148 16:0.75107348 17:0.012507189 
-4.9917514924234e-06 -0 -0 -0 -0 -0 0.0004255569539410252 0 0 0 1:-942.52997 2:-673.18634 3:-17.523081 4:-430.96072 5:87.476639 6:-25.484745 7:-69.242676 8:0.14903039 9:3.4442329 10:2.4362187 11:0.1101401 12:0.070474133 13:0.029222198 14:-0.24329357 15:0.03077139 16:0.25926968 17:-0.031982031 
-7.964990575580319e-06 -0 -0 -0 -0 -0 -0 0 6.577449648517929e-10 0 1:-914.53516 2:-673.24823 3:-26.434048 4:-355.91605 5:-45.665665 6:-77.392151 7:-26.868534 8:5.2158613 9:-1.811087 10:0.1315562 11:-0.1319011 12:-0.63423592 13:0.028129645 14:-0.2159791 15:0.13835034 16:0.17363071 17:-0.015876312 
-0 -1 -0.001675218762203413 -0.0004889279854954914 -0 -0.0004613934356763312 -0 8.459479043637154e-06 0 0 1:-914.53259 2:-673.13452 3:-20.9377 4:-448.65549 5:7.4569068 6:-62.187408 7:-68.219879 8:2.8019125 9:-2.9223673 10:0.0029853939 11:-0.22054403 12:-0.59275097 13:-0.026358044 14:0.085842088 15:0.086031914 16:-0.12259422 17:-0.00072052202 
-0 -0.008806181965492373 -0.0006864463657274741 -0.002241864172836397 -4.4406313138113e-05 -0.001069533076179595 -0.001030050485343711 4.4530229834348e-06 0 9.483478355895839e-07 1:-914.53296 2:-673.17822 3:-21.495947 4:-430.88242 5:48.931656 6:-41.804176 7:-92.595505 8:0.87201345 9:-3.4400384 10:0.25495496 11:-0.25214085 12:-0.3859928 13:-0.068035312 14:0.22599329 15:0.06400948 16:-0.27161783 17:0.0030872812 
-2.740697260603897e-07 -1 -0 -0 -0 -0 -0 -0 5.702772591740765e-08 0 1:280.24313 2:1777.5093 3:-20.407782 4:-461.2493 5:14.811847 6:-13.64637 7:-83.283264 8:-2.6848149 9:-4.1378551 10:-0.78642005 11:27.697821 12:-1.020468 13:0.082360148 14:-1.1062586 15:-0.67312175 16:-0.71791053 17:0.34212306 
-0 -1 -0 -0 -9.040165288852343e-06 -0 -0 -0 0 0 1:-608.52087 2:-673.13336 3:-20.324551 4:-483.61902 5:-69.426147 6:179.3714 7:-79.742149 8:6.5751152 9:-3.0291078 10:-0.37044346 11:-0.26467097 12:0.45149818 13:-0.12429053 14:-0.39434305 15:0.19827819 16:0.30626422 17:-0.015207878 
-0 -1 -0 -0 -0 -0 -0 -0 0 0 1:-608.52069 2:-673.13354 3:-19.789454 4:-489.69748 5:-47.975983 6:188.47833 7:-93.976135 8:5.5798383 9:-3.3630297 10:-0.3813796 11:-0.29350352 12:0.48584038 13:-0.13729566 14:-0.37745839 15:0.19337258 16:0.29315484 17:-0.01467381 
-0 -1 -0 -0 -0 -0 -0 -0 0 0 1:6102.4873 2:-675.25281 3:-14.791295 4:-482.12192 5:-67.103287 6:179.12498 7:-80.651039 8:6.468318 9:-3.0424528 10:-0.37898812 11:-0.26879519 12:0.45724994 13:-0.12529276 14:-0.39173841 15:0.19752061 16:0.30381095 17:-0.015260621 
-0 -1 -1.337404852806837e-05 -1.04559825020883e-05 -0 -0 -1.289388116454699e-05 -0 0 0.06295863528713104 1:-608.52075 2:-673.13678 3:-19.726566 4:-489.58582 5:-41.167603 6:188.25954 7:-97.647491 8:5.2719336 9:-3.4498029 10:-0.38235059 11:-0.2988463 12:0.51456046 13:-0.14273587 14:-0.37380341 15:0.19479568 16:0.28590479 17:-0.013983216 
-3.268512136731603e-05 -1 -4.49245856802262e-06 -4.100518027071257e-06 -1.097778921400222e-05 -4.718073297439095e-05 -2.98700995803494e-06 -1.291250202707195e-05 0 0 1:-608.5213 2:-673.13794 3:-20.54818 4:-479.89951 5:-72.515221 6:170.62347 7:-75.867699 8:6.7386723 9:-2.9414637 10:-0.35882083 11:-0.25425941 12:0.44873324 13:-0.11989852 14:-0.40160191 15:0.19667383 16:0.31536108 17:-0.015764803 
-4.436722101873559e-09 -0.0313508004091967 -0 -0 -0 -0 -0 -0 1.616334912338981e-13 1.406458327287377e-05 1:5130483.5 2:-2291.7571 3:110.34029 4:-336.41867 5:63.81987 6:-14.244741 7:20.626005 8:0.10549389 9:0.78197742 10:0.084509194 11:0.81395847 12:-0.24045092 13:0.018533597 14:-0.18033917 15:0.42069992 16:-0.28656065 17:-0.057764959 
-0 -0 -0 -0 -0 -0 -0 -0 5.982162430983455e-10 0 1:5134737.5 2:-2293.0964 3:118.45004 4:-338.62622 5:68.888344 6:-1.3527415 7:14.246511 8:-0.17549603 9:0.74385595 10:0.10151507 11:-1.2006838 12:-0.13960841 13:-0.030407766 14:0.13647103 15:-0.42159703 16:0.10894006 17:-0.083422214 
-0 -0.4803189764373241 -0 -0 -0 -0 -0 -0 0 0 1:-608.52063 2:-673.13361 3:-19.674789 4:-491.00003 5:-43.379555 6:190.42992 7:-97.026291 8:5.3666973 9:-3.4337816 10:-0.38195798 11:-0.30049214 12:0.47828814 13:-0.13783532 14:-0.37401947 15:0.18824115 16:0.29627171 17:-0.015251204 
-0 -1 -0 -0 -0 -0 -0 -0 -0 6.933499991746362e-10 1:53600.062 2:7623.666 3:-77.093422 4:-402.13715 5:-128.46077 6:-124.90423 7:25.926765 8:-2.6946766 9:-0.31200099 10:-0.029591395 11:2.0199761 12:0.14601153 13:0.082580298 14:0.24693939 15:0.29581094 16:0.39119795 17:0.77348405 
-0 -1 -0 -0 -0 -0 -0 -0 -0 0 1:53600.07 2:7623.7275 3:-73.717155 4:-456.11707 5:-63.387989 6:94.199112 7:-60.533592 8:-6.2491498 9:-2.188544 10:-0.33409566 11:1.788525 12:0.29460132 13:-0.028533323 14:0.42318165 15:0.33964196 16:0.15719853 17:0.7891044 
-0 -1 -0 -0 -0 -0 -0 -0 -1.427411669134177e-09 0 1:53600.062 2:7623.6641 3:-77.162277 4:-400.6503 5:-128.87569 6:-124.91374 7:24.657579 8:-2.7068572 9:-0.27976209 10:0.17870009 11:2.0194826 12:0.13868757 13:0.06047675 14:0.43780354 15:-0.38316303 16:0.64803237 17:0.77417064 
-0 -1 -0 -6.570240900142766e-10 -0 -0 -0 -0 -4.233474779224254e-09 0 1:53600.07 2:7623.7236 3:-73.819405 4:-453.97781 5:-60.957569 6:99.883453 7:-62.012051 8:-6.3622684 9:-2.2207782 10:-0.13193275 11:1.7878718 12:0.31479996 13:-0.041010913 14:0.43096229 15:0.35279664 16:0.13340814 17:0.77624863 
-0 -0.1608808473497414 -0 -0 -0 -0 -0 -0 -0 0 1:53600.062 2:7623.665 3:-77.127846 4:-401.3938 5:-128.66824 6:-124.90879 7:25.292177 8:-2.7018609 9:-0.29334226 10:0.11443006 11:2.0181813 12:0.13401251 13:0.063639909 14:0.41398337 15:-0.30884695 16:0.62286788 17:0.77343369 
-0 -1 -0 -0 -0 -0 -0 -0 -0 0 1:53600.07 2:7623.7393 3:-73.068611 4:-466.48608 5:-50.888088 6:136.28679 7:-77.141792 8:-6.9318242 9:-2.5466189 10:-0.38833463 11:1.7440521 12:0.32143611 13:-0.049298983 14:0.45408309 15:0.34887555 16:0.11492611 17:0.79177982 
-0 -1 -0 -0 -0 -0 -0 -0 -0 0 1:53600.059 2:7623.6616 3:-77.235405 4:-399.40189 5:-127.95974 6:-124.41932 7:25.820297 8:-2.7198002 9:-0.30772051 10:-0.0070647374 11:2.0210176 12:0.15482545 13:0.081740968 14:0.25012875 15:0.29535916 16:0.38761944 17:0.77360499 
-0 -1 -0 -0 -0 -5.103130473209386e-12 -0 -0 -0 0 1:53600.059 2:7623.6621 3:-77.233269 4:-399.28262 5:-128.62517 6:-124.67143 7:24.604332 8:-2.7188082 9:-0.27943674 10:0.13992356 11:2.0199521 12:0.14587985 13:0.064267486 14:0.40073574 15:-0.24771133 16:0.59543079 17:0.77409559 
-0 -1 -0 -0 -0 -0 -0 -0 -0 0 1:53600.059 2:7623.6616 3:-77.235413 4:-399.40189 5:-127.9597 6:-124.41933 7:25.820312 8:-2.7196918 9:-0.30560526 10:-0.020925237 11:2.0207341 12:0.15401113 13:0.081773527 14:0.24991038 15:0.29526898 16:0.38786861 17:0.77358603 
-0 -1 -6.570764207842544e-10 -0 -6.572680214057787e-10 -6.570795708431443e-10 -6.570796261076049e-10 -0 -3.451267970434855e-08 0 1:53600.07 2:7623.7246 3:-73.826302 4:-454.1395 5:-63.872776 6:91.965797 7:-59.609882 8:-6.2215443 9:-2.1658466 10:-0.33098948 11:1.7913419 12:0.29658303 13:-0.027650537 14:0.4216485 15:0.33886448 16:0.1593709 17:0.78898346 
-0 -1 -0 -0 -0 -0 -0 -0 -1.134473289162789e-08 0 1:53600.062 2:7623.666 3:-77.093422 4:-402.13715 5:-128.46077 6:-124.90423 7:25.926765 8:-2.6946766 9:-0.31200099 10:-0.029591395 11:2.0199761 12:0.14601153 13:0.082580298 14:0.24693939 15:0.29581094 16:0.39119795 17:0.77348405 
-0 -1 -0 -0 -0 -0 -0 -0 -2.844562301949466e-09 0 1:53600.07 2:7623.7378 3:-73.099327 4:-465.60919 5:-50.567226 6:138.75264 7:-79.387802 8:-6.9818158 9:-2.5152955 10:-0.46968457 11:1.7360812 12:0.31019714 13:-0.064048201 14:0.57702738 15:-0.097925983 16:0.28652668 17:0.79187864 
-0 -0 -0 -0 -0 -0 -0 -6.577449648517929e-10 -3.202261470331313e-09 0 1:53600.062 2:7623.6699 3:-76.734154 4:-407.18341 5:-116.67995 6:-87.040718 7:11.112766 8:-3.3348372 9:-0.62417579 10:-0.048918162 11:1.9822954 12:0.18473738 13:0.062369231 14:0.28215688 15:0.30238792 16:0.34567511 17:0.77638119 
-0 -0 -0 -0 -0 -0 -0 -0 -5.361074162679391e-11 0 1:53600.074 2:7623.7446 3:-72.763412 4:-471.36557 5:-45.005939 6:156.09271 7:-84.957527 8:-7.253305 9:-2.7229447 10:-0.41694799 11:1.7224102 12:0.32996246 13:-0.057884865 14:0.45765337 15:0.35473585 16:0.10641509 17:0.79249704 
-6.819569340158984e-10 -0 -0 -0 -0 -0 -0 -0 -0 0 1:53600.059 2:7623.6553 3:-77.448395 4:-395.29898 5:-127.20825 6:-123.69204 7:25.660563 8:-2.7574775 9:-0.30374789 10:-0.015235894 11:2.0214319 12:0.16544612 13:0.080621786 14:0.25097096 15:0.29443777 16:0.38685954 17:0.77378511 
-0 -1 -0 -0 -0 -0 -0 -0 -7.370235754862441e-12 0 1:53600.059 2:7623.6616 3:-77.235405 4:-399.40201 5:-127.9595 6:-124.41898 7:25.820467 8:-2.7197728 9:-0.29400772 10:0.1858812 11:2.0268126 12:0.16308092 13:0.080416538 14:0.26699188 15:0.28983098 16:0.3739318 17:0.77552426 
-9.960607468468488e-06 -1 -9.12963093366468e-07 -6.102777772993018e-07 -0 -7.740442176755913e-07 -9.129194650976624e-07 -9.483478355895839e-07 -0.0007896441696983427 -6.933499991746362e-10 1:537.46692 2:-673.60559 3:-21.58675 4:-453.72995 5:55.627785 6:-40.947407 7:-99.486832 8:-2.425703 9:-3.6068554 10:-0.035214156 11:-0.32554352 12:-1.2163459 13:0.002444084 14:0.3293367 15:0.045724563 16:-0.33926541 17:0.0070570107 
-0 -1 -0 -3.09142995194197e-07 -9.356861549368855e-07 -4.639016203009539e-07 -9.892434203848273e-11 -0 -0.06218305570070472 -0 1:537.47882 2:-673.49506 3:-20.694824 4:-491.89743 5:-40.422577 6:191.68785 7:-98.990089 8:1.2723005 9:-3.4446328 10:-0.32447749 11:-0.4372268 12:-1.6609414 13:0.032465927 14:-0.00039800745 15:0.21249117 16:-0.077347472 17:-0.0075111333 
