svm_type c_svc
kernel_type linear
nr_class 11
total_sv 270
rho 2688.26 -2.50785 -2.49708 -2.44173 -3.33374 -2.26358 -2.61991 -0.613834 -0.999317 -1.40051 -931.629 -84.4209 -270.096 -328.798 -22.7107 -402.134 -3150.12 -4799.7 -29.7744 644.302 -38.9688 96.2255 -188.959 62.9315 4.48312 -0.962553 0.275443 -6.1031 -22.5767 -122.013 68.2295 2.91767 -0.962481 0.245375 62.5112 3.89877 2.742 4.87183 -0.962813 0.263719 -5.5666 18.577 2.88904 -0.970136 0.13533 37.7155 3.83417 -0.962536 0.277699 2.58815 -0.963548 0.248823 -1.60161 -81.0782 1.01587 
label 4 0 3 13 9 14 8 6 20 11 5 
nr_sv 12 85 46 22 35 15 25 3 9 16 2 
SV 
0 0 0 0 0 0 0 0 6.819569340158984e-10 2.033882843287224e-08 1:89.448006 2:-674.51996 3:-61.31889 4:283.06866 5:-6.0624886 6:0.92614269 7:-2.0757596 8:-0.031613342 9:0.0032641345 10:0.00072091195 11:0.00082528219 
1 0 0 0 0 0 0 0 0 0 1:89.464249 2:-673.60974 3:-27.375696 4:-344.3732 5:20.038364 6:-46.644211 7:-68.089188 8:-0.83912092 9:-2.69171 10:-0.011933463 11:-0.24775492 
1 0 0 0 0 0 0 2.763812719631578e-05 0 9.925790018640415e-06 1:89.467216 2:-673.46216 3:-21.068295 4:-455.30426 5:56.129845 6:-40.847286 7:-99.946655 8:-2.4482043 9:-3.6189399 10:-0.035559103 11:-0.32599875 
1 0 0 0 0 0 0 0 0 0 1:89.463356 2:-673.57703 3:-29.655176 4:-326.89578 5:-117.78535 6:-107.19865 7:21.670671 8:5.5699387 9:-0.65350509 10:0.081277207 11:-0.091792181 
0 0 8.646327300101552e-07 0 0 0 3.096657556957744e-07 0 0 0 1:-422.54788 2:-674.20673 3:-55.519516 4:182.60497 5:-12.199779 6:20.601233 7:-12.679725 8:0.22814967 9:-0.40342683 10:-0.034899369 11:-0.050727341 
1 6.76730404146413e-06 6.166986402186613e-06 6.247451645458246e-06 1.630763478803413e-05 5.941251072359431e-06 7.655352792944652e-06 0 0 0 1:-422.53577 2:-673.37744 3:-27.887724 4:-351.50128 5:-122.30978 6:-111.54267 7:22.623613 8:5.7966776 9:-0.68027931 10:0.084465273 11:-0.095335364 
1 0 0 0 0 0 0 4.993926913202428e-06 0 1.87801738763176e-08 1:89.465492 2:-673.44592 3:-25.253494 4:-411.68903 5:-133.31633 6:-122.22945 7:24.971746 8:6.3486295 9:-0.74480486 10:0.092475615 11:-0.10466725 
1 0 0 0 0 0 0 0 0 0 1:89.462807 2:-673.61084 3:-30.791094 4:-305.01364 5:-113.77735 6:-103.31974 7:20.818783 8:5.3689861 9:-0.62994385 10:0.078387298 11:-0.08846958 
1 0 0 0 0 0 0 0 0 0 1:89.463051 2:-673.59607 3:-30.29413 4:-314.58707 5:-115.53085 6:-105.01676 7:21.191484 8:5.456903 9:-0.64025193 10:0.079651631 11:-0.089923218 
0 0 0 0 0 0 0 3.289869298748576e-07 0 0 1:89.451775 2:-674.50378 3:-57.613132 4:236.64578 5:123.03591 6:108.74244 7:-99.721611 8:-6.1698747 9:-2.2182243 10:-0.1583956 11:-0.19123362 
0.4601052570026895 0 0 0 0 0 0 0 0 0 1:89.462433 2:-673.63409 3:-31.572037 4:-289.96967 5:-111.02185 6:-100.65298 7:20.233109 8:5.2308311 9:-0.61374551 10:0.076400481 11:-0.086185291 
1 0 0 0 0 0 0 0 0 0 1:89.462669 2:-673.61932 3:-31.075073 4:-299.54312 5:-112.77535 6:-102.35001 7:20.60581 8:5.318748 9:-0.6240536 10:0.077664815 11:-0.087638929 
-0 0 0 0 0 0 0.1332945299105021 0 0 0 1:-912.53394 2:-673.12769 3:-24.224913 4:-413.03983 5:-133.70341 6:-122.43085 7:25.064917 8:3.3676343 9:-0.63609922 10:0.088688292 11:-0.1100201 
-1 0 0 0 0 0 0 0 0 0.006224199369815304 1:-426.54834 2:-670.22614 3:-56.423981 4:198.2926 5:-21.57053 6:-14.084814 7:1.2072873 8:1.7330166 9:-0.035557233 10:0.015034489 11:0.035856567 
-0 0 0 0 0 0 0 0 0 0.6837633999168277 1:-906.52124 2:-673.06146 3:-20.125814 4:-476.82828 5:-41.767368 6:182.79106 7:-94.966064 8:-5.6592612 9:-2.9871192 10:-0.31862146 11:-0.38949284 
-0 0 0 1 0 0 0 0 0 0.294336716238301 1:-909.52057 2:-673.04041 3:-19.346565 4:-490.87628 5:-39.722733 6:189.00746 7:-99.576584 8:-5.782886 9:-3.0795925 10:-0.33394432 11:-0.39635569 
-0 0 0 0 0 0.001668586545296949 0 0.07631858131638489 0 0 1:-942.52045 2:-673.02795 3:-19.280931 4:-491.91107 5:-40.693108 6:191.78381 7:-98.8078 8:-7.562777 9:1.9324626 10:1.8199637 11:-0.11899602 
-0 0 0 0 0.406516494319425 0 0 0 0 0 1:-911.53223 2:-673.13684 3:-20.333567 4:-454.31082 5:30.839323 6:-51.816391 7:-91.976639 8:-8.4223804 9:-2.8432229 10:-0.028179258 11:-0.27229884 
-0 0 0 0 0 0 0 1 0 0 1:-846.4942 2:-644.05872 3:-1.4393312 4:-490.28311 5:-41.524448 6:189.31917 7:-97.740479 8:-5.6853552 9:-3.0700619 10:-0.32889989 11:-0.40036035 
-0 0 0 0 0 0.002397870094701637 0 0 0 0 1:-942.52063 2:-673.0296 3:-19.355682 4:-490.67081 5:-41.808636 6:186.82387 7:-97.020256 8:2.4983821 9:1.6265376 10:1.8202605 11:-0.075363934 
-0 0 0 0 0 0 0 0 0.5751483300632577 0 1:-732.22369 2:310.81451 3:-24.486433 4:-411.62173 5:-133.45894 6:-122.47649 7:25.200939 8:-2.661783 9:-0.27815279 10:-0.0096652145 11:0.029577155 
-0 0 0 1 0 0 0 0 0 0 1:-942.52246 2:-673.02649 3:-24.135029 4:-436.77072 5:-235.2769 6:109.17133 7:30.314667 8:1.4663624 9:4.9645109 10:1.9188963 11:0.13896593 
-0 0 0 0 0 0 0 1 0 0 1:-388.52078 2:-673.20544 3:-19.898767 4:-490.20099 5:-40.425758 6:190.72751 7:-98.624443 8:5.2445745 9:-3.5556469 10:-0.40340218 11:-0.33310336 
-0 0 0 0.8134671756467565 0 0 0 0 0 0 1:-942.51953 2:-669.03107 3:-19.410238 4:-489.68408 5:-42.291393 6:183.0643 7:-95.929443 8:22.350428 9:-3.9424922 10:-0.30350894 11:-0.2745187 
-0.0007022563520966206 0 0 0 0 0 0 0 0 0 1:87439.43 2:-700.96881 3:-107.10176 4:-440.84164 5:-92.819481 6:81.49157 7:-40.507366 8:7.8962426 9:-2.0976593 10:-0.2547783 11:-0.178251 
-0 0 0 1 0 0 0 0 0 0 1:-930.52246 2:-673.04321 3:-20.665197 4:-473.33224 5:-82.330917 6:138.20863 7:-63.116104 8:7.2737861 9:-2.633909 10:-0.33659443 11:-0.19734506 
-0 0 0.001750231764689971 0 0 0 0.4807130097234723 0 0 0 1:-912.53198 2:-673.12811 3:-19.412758 4:-468.0578 5:58.028919 6:-41.113976 7:-101.38713 8:-5.5131669 9:-3.5754764 10:-0.022558181 11:-0.34413126 
-0 0 0 0 0 0 0 0 0 0.1108021492310543 1:-795.53204 2:-673.16852 3:-19.55715 4:-467.0498 5:62.614079 6:-39.07642 7:-101.74064 8:-1.6965953 9:-3.7281189 10:0.010807501 11:-0.32350498 
-0 0 0 0 0 0 0.01659336304797242 0 0 0 1:-912.53223 2:-673.13019 3:-19.94455 4:-461.59891 5:40.55896 6:-48.424526 7:-88.024666 8:-4.6733265 9:-3.3000205 10:-0.013707503 11:-0.33034718 
-0 0 0 0.5286079444904241 0 0 0 0 0 0 1:-932.51178 2:-636.06213 3:-18.329906 4:-483.60968 5:-7.133759 6:110.79037 7:-99.61573 8:-6.047677 9:-3.1669319 10:-0.31536511 11:-0.26712108 
-1 0 0 0 0 0 0 0 0 0 1:-900.53375 2:-673.12939 3:-23.688192 4:-419.84778 5:-114.94122 6:-114.53922 7:12.483628 8:-1.5169683 9:-0.67183471 10:0.05163607 11:-0.072257794 
-0 0 0 0 0 0 0 0 0.2186794606830359 0 1:10389.907 2:715.30536 3:-25.982899 4:-435.58258 5:-46.536922 6:-81.78418 7:-35.366539 8:-5.7407136 9:-1.6521704 10:-0.060838047 11:-0.10002451 
-0 0 0 0.1978007924966858 0 0 0 0 0 0 1:-912.521 2:-673.04108 3:-19.499168 4:-488.81403 5:-44.142754 6:179.36511 7:-94.120674 8:1.4749187 9:-3.3377073 10:-0.30827704 11:-0.42302871 
-0 0 0 0 0 0 0.09405394332905459 0 0 0 1:-942.53363 2:-673.11615 3:-23.38065 4:-422.91626 5:-104.19624 6:-109.95182 7:5.4418626 8:-3.8503189 9:4.1868758 10:2.1402836 11:0.19634683 
-0 0 0 0 0 0 0 0 1 0 1:87439.43 2:-700.95551 3:-106.76438 4:-448.05994 5:-95.09623 6:115.00668 7:-46.9356 8:7.9058471 9:-2.2408051 10:-0.28873596 11:-0.21288271 
-0.007725248943566087 0 0 0 0 0 0 0.5559432271996672 1 0.01587110005151092 1:174394.38 2:-728.43066 3:-188.95634 4:-450.32458 5:-14.478048 6:-75.527245 7:-49.843452 8:4.7942562 9:-2.4663889 10:-0.032035634 11:-0.17710447 
-0 0 0 0 1 0 0 0 0 0 1:-741.5246 2:-673.13513 3:-21.429678 4:-456.82922 5:-68.321686 6:97.959579 7:-74.777786 8:6.5149598 9:-2.4895427 10:-0.27364269 11:-0.19196469 
-0 0 0 0 0.02185355897942984 0 0 0 0 0 1:-942.52557 2:-673.05768 3:-24.373596 4:-425.50336 5:-209.23671 6:46.163372 7:24.503073 8:0.36373881 9:4.9621234 10:1.647688 11:0.17239632 
-0.201805636655559 0 0 0 0 0 0 0 0 0 1:-837.53387 2:-673.15155 3:-23.932533 4:-417.15759 5:-118.93086 6:-116.25859 7:15.312672 8:8.666461 9:-0.96821249 10:0.066853561 11:-0.047635134 
-1 0 0 0 0 0 0 0 0 0 1:-855.53259 2:-673.18329 3:-20.633522 4:-445.04327 5:65.98983 6:-35.450176 7:-103.82727 8:-0.88285631 9:-3.7483873 10:-0.043969087 11:-0.33309469 
-0 0.03304066271821374 0.00126507504610177 0 0 0.006305125834788905 0 0 0 0 1:-941.52472 2:-673.10547 3:-21.022167 4:-456.03162 5:6.0482874 6:142.85947 7:-75.308662 8:54.868332 9:-5.8309216 10:-0.20811851 11:-0.2452758 
-0.9999433696376022 0 0 0 0 0 0 0 0 0 1:-837.53387 2:-673.15155 3:-23.932533 4:-417.15759 5:-118.93086 6:-116.25859 7:15.312672 8:8.666461 9:-0.96821249 10:0.066853561 11:-0.047635134 
-0 0 0 1 0 0 0 0 0 0 1:-942.52246 2:-673.02649 3:-24.135029 4:-436.77072 5:-235.2769 6:109.17133 7:30.314667 8:1.4663624 9:4.9645109 10:1.9188963 11:0.13896593 
-0 0 0 0 0 0 0.1377036011193216 0 0 0 1:-912.5321 2:-673.13068 3:-19.915812 4:-461.15997 5:40.510757 6:-48.208107 7:-93.760864 8:-8.7869244 9:-3.0519245 10:-0.032309085 11:-0.28510022 
-0 0 0 0 0 0.002442769949325254 0 0.007076089251877643 0 0 1:-942.52045 2:-673.02795 3:-19.280931 4:-491.91107 5:-40.693108 6:191.78381 7:-98.8078 8:-7.562777 9:1.9324626 10:1.8199637 11:-0.11899602 
-0 0 0 0 0 0 0 0.0289699347509989 1 0 1:160823.53 2:53599.852 3:-179.47307 4:-401.7735 5:-5.9001365 6:100.82436 7:-80.272369 8:-6.5706224 9:-0.31126255 10:-0.27029753 11:-0.23857872 
-0 0 0 1 0 0 0 0 0 0 1:-907.52081 2:-673.04016 3:-20.055628 4:-483.01935 5:-68.865196 6:178.79865 7:-80.728233 8:-4.4378467 9:-2.6596196 10:-0.29982063 11:-0.37214461 
-0 0 0 1 0 0 0 0 0 0 1:-942.52246 2:-673.02649 3:-24.135029 4:-436.77072 5:-235.27689 6:109.17131 7:30.314671 8:1.4663361 9:4.9643526 10:1.9185482 11:0.1391257 
-0 0 0 0 0.001471983115661985 0 0 0 0 0 1:-301.52274 2:-673.25812 3:-21.926853 4:-460.00027 5:-88.506256 6:141.34561 7:-72.220284 8:7.3197379 9:-2.4004772 10:-0.32725748 11:-0.19506796 
-0.06051927269630279 0 0 0 0 0 0 0 0 0 1:-829.53326 2:-673.21973 3:-22.208244 4:-419.79547 5:45.253941 6:-42.386005 7:-89.375473 8:-0.96510386 9:-3.2998545 10:-0.0096163824 11:-0.25961256 
-0 0 0.002843960900480218 0 0 0 0 0 0 0 1:-933.52063 2:-637.12024 3:-19.455267 4:-467.55551 5:53.648476 6:-42.984852 7:-99.366394 8:-8.3660727 9:-3.3023155 10:-0.1099437 11:-0.21179682 
-0 0 0 0 0 0 0 1 0 0 1:-761.52057 2:-673.08679 3:-19.488913 4:-491.15186 5:-39.5308 6:191.07207 7:-98.475952 8:3.2472565 9:-3.5309236 10:-0.27766621 11:-0.4465757 
-0 0.06867934887968177 0 0 0 0 0 0 0 0 1:-942.53021 2:-673.12518 3:-24.030891 4:-412.75662 5:-107.478 6:-19.108135 7:-10.642619 8:-3.9660387 9:3.8916152 10:1.395574 11:0.12466798 
-0.2372714395018469 0 0 0 0 0 0 0 0 0 1:-845.53387 2:-673.14764 3:-24.061874 4:-415.84927 5:-126.63876 6:-119.42477 7:19.474794 8:-0.99260259 9:-0.49164936 10:0.058142815 11:-0.066845573 
-0 0 0 0 0.005657722879605641 0 0 0 0 0 1:-899.52063 2:-630.21051 3:-26.977106 4:-353.72549 5:-149.65131 6:-122.51094 7:-26.136971 8:-1.0418969 9:0.63887203 10:0.063863464 11:-0.032177497 
-0 0 0 0 0 0 0 0 0 0.0002831394524348717 1:-897.52472 2:-628.52863 3:-36.558216 4:-160.73473 5:-69.174347 6:-67.932358 7:-62.591568 8:-4.9158559 9:0.19494046 10:0.012900804 11:-0.057380866 
-0 0 0 0 1 0 0 0 0 0 1:-942.52283 2:-673.0293 3:-24.134766 4:-436.06851 5:-232.08969 6:101.86837 7:30.157484 8:1.3404514 9:4.9355698 10:1.2048208 11:0.14462882 
-0 0 0 1 0 0 0 0 0 0 1:-942.52246 2:-673.02649 3:-24.135029 4:-436.77072 5:-235.2769 6:109.17129 7:30.314667 8:1.4663277 9:4.9638529 10:1.9107995 11:0.13896637 
-0 0 0 0 0 0 0 0 1 0 1:-609.61505 2:24434.75 3:-26.697151 4:-377.62265 5:-122.65106 6:-123.81276 7:25.75256 8:-2.509809 9:-0.21843456 10:0.0084389281 11:0.026216922 
-0 0.2147067083150475 0.000411302187055206 0 0.5925762408026101 0.04231977799198157 0 0 0 0 1:-942.52734 2:-673.08191 3:-19.293818 4:-478.2265 5:19.633606 6:51.804523 7:-101.44435 8:-4.9926724 9:-1.0402189 10:-0.69602698 11:-0.2106681 
-0 0 0 0 0 0 0 0 0 0.1017784902223464 1:-851.52661 2:-673.11707 3:-19.893604 4:-470.72162 5:10.696862 6:71.644852 7:-99.854362 8:57.28688 9:-5.6349592 10:-0.070883758 11:-0.25684536 
-0 0 0 1.424630942362611e-05 0 0 0 0 0 0 1:-764.88385 2:-567.68097 3:32997.699 4:1272.7916 5:-107.18127 6:48.987659 7:198.56943 8:0.85086906 9:4.5392327 10:-0.78372967 11:-0.022622049 
-0 0 0 0 0 3.341274922302606e-06 0 0.03649159751294808 0 0 1:-942.52045 2:-673.02795 3:-19.280931 4:-491.91107 5:-40.693108 6:191.78381 7:-98.8078 8:-7.562777 9:1.9324626 10:1.8199637 11:-0.11899602 
-0.9966638749415186 0 0 0 0 0 0 0 0 0 1:-837.53387 2:-673.15155 3:-23.932533 4:-417.15759 5:-118.93086 6:-116.25859 7:15.312672 8:8.666461 9:-0.96821249 10:0.066853561 11:-0.047635134 
-0 0 0 0 0.1911429868311856 0 0 0 0 0 1:-942.52356 2:-673.03882 3:-24.276211 4:-432.0242 5:-225.57947 6:88.673721 7:29.768555 8:1.1364286 9:6.7208109 10:0.8338685 11:0.24681489 
-0 0 0 0 0 9.50366569549641e-07 0 0 0 0 1:-894.37701 2:-178.17879 3:-20.821661 4:-443.83466 5:79.713013 6:-30.193138 7:-80.978897 8:8.9707737 9:-4.460084 10:-0.1039992 11:-0.19111976 
-0 0 0 0 0 0 0.002193032272393666 0 0 0 1:-930.53149 2:-673.11292 3:-20.77281 4:-454.62842 5:-8.0379477 6:-44.442726 7:-64.002441 8:4.425077 9:-2.8310366 10:-0.087791465 11:-0.13910936 
-0 0 0 1 0 0 0 0 0 0 1:-942.52246 2:-673.02649 3:-24.135029 4:-436.77072 5:-235.2769 6:109.17129 7:30.314665 8:1.466332 9:4.9638791 10:1.9108576 11:0.13893974 
-0 0 0 1 0 0 0 0 0 0 1:-912.52112 2:-673.04211 3:-19.556393 4:-487.89911 5:-45.245682 6:175.6515 7:-92.655243 8:1.5351664 9:-3.3058701 10:-0.30334684 11:-0.41911486 
-0 0 0 0 0.07983166908808738 0 0 0 0 0 1:-911.52063 2:-673.039 3:-19.746033 4:-486.49265 5:-56.608078 6:184.00275 7:-88.861977 8:-5.0065837 9:-2.8505096 10:-0.30623609 11:-0.38854274 
-0.5223442239732259 0 0 0 0 0 0 0 0 0 1:-837.53387 2:-673.15155 3:-23.932533 4:-417.15759 5:-118.93086 6:-116.25859 7:15.312672 8:8.666461 9:-0.96821249 10:0.066853561 11:-0.047635134 
-0 0 0 0.4785788478125089 0 0 0 0 0 0 1:-942.52246 2:-673.02649 3:-24.135029 4:-436.77072 5:-235.27692 6:109.17136 7:30.314661 8:1.4664016 9:4.9647484 10:1.9194183 11:0.13872629 
-0 0 0 0 0 0 0 0 1 0 1:87439.422 2:-701.00464 3:-106.01932 4:-444.28336 5:-10.759558 6:-6.1829486 7:-67.556763 8:4.4319735 9:-2.8364127 10:-0.13331357 11:-0.19617349 
-0 0 0 0 0.2589247254335887 0 0.1303028170811522 0 0 0 1:-906.53235 2:-673.12988 3:-20.4818 4:-455.97198 5:15.085865 6:-60.269688 7:-73.411987 8:51.460999 9:-4.9280691 10:0.06047589 11:-0.18373537 
-0 0 0 0 0.1106940486462033 0 0 0 0 0 1:-913.52686 2:-673.10376 3:-20.722765 4:-457.31433 5:-19.645906 6:58.415527 7:-92.467957 8:-6.5313911 9:-2.5652468 10:-0.16165398 11:-0.30526933 
-0 0 0 0 0 0 0 0 1 0 1:-709.42963 2:-342.18982 3:-24.378643 4:-413.9473 5:-134.00798 6:-122.69032 7:25.240969 8:-2.6530311 9:-0.28126806 10:-0.0099665402 11:0.029444896 
-0 0 0 0 0 0 0 0 1 0 1:-632.41046 2:-281.21631 3:-24.528751 4:-412.49203 5:-133.7272 6:-122.45361 7:25.1898 8:-2.665338 9:-0.27960062 10:-0.010092387 11:0.02961541 
-0 0 0 1 0 0 0 0 0 0 1:-942.51971 2:-669.03247 3:-19.486538 4:-488.46426 5:-43.761936 6:178.11279 7:-93.975426 8:22.430656 9:-3.8990109 10:-0.29788992 11:-0.26830059 
-0.3704058170843764 0 0 0 0 0 0 0 0 0 1:-837.53387 2:-673.15155 3:-23.932533 4:-417.15759 5:-118.93086 6:-116.25859 7:15.312672 8:8.666461 9:-0.96821249 10:0.066853561 11:-0.047635134 
-0.708324998126304 0 0 0 0 0 0 0 0 0 1:-837.53387 2:-673.15155 3:-23.932533 4:-417.15759 5:-118.93086 6:-116.25859 7:15.312672 8:8.666461 9:-0.96821249 10:0.066853561 11:-0.047635134 
-0 0 0 0 0 0 0 0.01213931154677993 0 0 1:-788.18512 2:-567.93945 3:9696.5098 4:22.511274 5:-80.498932 6:196.9767 7:-10.551098 8:2.63924 9:-0.99661636 10:-0.50736201 11:-0.2998341 
-0 0 0 0 0 0 0 0 1 0 1:-773.43341 2:-354.16962 3:-24.31637 4:-413.96341 5:-134.01541 6:-122.6873 7:25.240042 8:-2.653017 9:-0.28133193 10:-0.0099833347 11:0.029470785 
-0 0 0 1 0 0 0 0 0 0 1:-909.52106 2:-673.04285 3:-20.313549 4:-479.0105 5:-75.34597 6:171.88539 7:-76.992653 8:-4.1511555 9:-2.489423 10:-0.31365076 11:-0.34303704 
-0 0 0 0 0 0 0 1 0 0 1:-705.24249 2:102.89565 3:15.354127 4:-488.41974 5:-39.92123 6:188.73651 7:-98.177597 8:-0.77867627 9:-3.3901646 10:-0.48958272 11:3.7285905 
-0 0 0 0.7407705847121154 0 0 0 0 0 0 1:-934.47748 2:-535.03412 3:-19.60581 4:-487.32703 5:-48.848022 6:177.41394 7:-90.973793 8:-3.3284898 9:-2.8674605 10:-0.3253665 11:-0.31187144 
-1 0 0 0 0 0 0 0 0 0 1:-840.53387 2:-673.15021 3:-24.062864 4:-415.54004 5:-125.31387 6:-118.77953 7:17.823458 8:-1.0681922 9:-0.50306439 10:0.05778892 11:-0.069154069 
-0 0 0 0.167085866278857 0 0 0 0.1782081128313818 0 0 1:-906.52051 2:-673.04181 3:-19.405256 4:-490.20914 5:-40.830227 6:190.75458 7:-98.447929 8:-5.7194452 9:-3.0837991 10:-0.33032373 11:-0.40159109 
-0 0 0 0 0 0 0 0 0 0.7869408055176814 1:-797.53192 2:-673.16333 3:-19.408987 4:-469.54572 5:60.779694 6:-40.066895 7:-104.06733 8:-1.6675529 9:-3.7235851 10:0.00092525082 11:-0.31644526 
-0 0.4955125621490978 0 0 0 0 0 0 0 0 1:-942.52814 2:-673.08282 3:-20.803982 4:-460.75452 5:-39.352711 6:22.490263 7:-61.261105 8:-6.0802035 9:4.5412226 10:1.5578785 11:0.094731301 
-0.3543991190905784 0 0 0 0 0 0 0 0 0 1:14933.458 2:-678.16119 3:-38.370216 4:-415.83176 5:-43.166611 6:-82.739929 7:-32.661957 8:6.1101894 9:-2.0732477 10:-0.028504159 11:-0.075912848 
-0 0 0 0 0 0 0 0.1362044803079747 1 0 1:59984.602 2:-200.25864 3:-82.088966 4:-438.62463 5:-207.12918 6:84.328491 7:21.154459 8:1.0759692 9:-0.2062306 10:-0.28162757 11:-0.074769191 
-0 0 0 0 0 0 0 1 1 0 1:58333.445 2:-691.75586 3:-77.668556 4:-466.53656 5:-75.079933 6:89.643967 7:-55.883305 8:7.0607228 9:-2.4855895 10:-0.25776684 11:-0.21132621 
-0 0 0 1 0 0 0 0 0 0 1:-913.52185 2:-673.04633 3:-20.182875 4:-479.47885 5:-65.063072 6:155.53162 7:-77.626221 8:-4.5427647 9:-2.5704355 10:-0.30050173 11:-0.34041178 
-0 0 0 0 0 0 0 0 0.7747943993300601 0 1:-622.78406 2:23898.754 3:-26.6709 4:-377.66479 5:-123.10492 6:-123.79276 7:25.106577 8:-2.521524 9:-0.21744522 10:0.007903629 11:0.016883062 
-0 0 0 1 0 0 0 1 0 0 1:-942.51923 2:-669.02899 3:-19.295784 4:-491.5134 5:-40.085785 6:190.49182 7:-98.861343 8:22.230904 9:-4.0159674 10:-0.30430079 11:-0.29184291 
-0 0.01376395789557791 0.0002890028191999476 0 0 0 0.01187432093081224 0 0 0 1:-899.5304 2:-630.74384 3:-44.77676 4:-17.336824 5:-60.204819 6:-51.794296 7:9.8260775 8:-4.3141594 9:0.028927598 10:0.0092825722 11:0.01232417 
-0 0 0 0 0 0 0 0 0.5922592134535257 0 1:41815.578 2:-296.53693 3:-61.463657 4:-449.85144 5:-146.6532 6:84.011192 7:-14.214175 8:-1.677148 9:-1.0430199 10:-0.28076273 11:-0.13786414 
-0 -0 0 0 0 0 0 0 6.570764207842544e-10 6.665819350607433e-08 1:-942.53577 2:-673.25769 3:-23.803984 4:-392.18143 5:117.75062 6:-9.3369331 7:-31.956581 8:-0.44147739 9:1.2209877 10:-0.56568581 11:-0.019091552 
-5.415531513545149e-06 -0.356829476119167 0 0 0 0 2.102716291912379e-05 0 0 0 1:-942.52887 2:-673.10876 3:-22.814251 4:-430.74258 5:-81.633438 6:9.5824795 7:-34.137917 8:-4.1848183 9:4.6908827 10:-0.42689568 11:0.076459348 
-0 -0 0 0 0 1 0 0 0 0 1:-942.53571 2:-673.25598 3:-23.727352 4:-393.38541 5:117.62417 6:-9.842473 7:-33.48563 8:21.550058 9:0.97081375 10:2.3678906 11:0.11987258 
-0 -0 0 0 0 1 0 0 0 0 1:-942.53809 2:-673.34119 3:-26.509705 4:-345.991 5:151.61111 6:8.9747257 7:11.054569 8:-1.0892045 9:-0.98523533 10:2.0771456 11:0.00073078752 
-0 -0 1 0 0 0.09671131024156195 0 0 0 0 1:-942.53961 2:-673.39764 3:-28.337931 4:-314.78525 5:174.50746 6:21.350231 7:40.122993 8:-1.4887505 9:-1.5511011 10:2.0665267 11:0.0011411577 
-0 -0 0 0 0 0.598284193385703 0 0 0 0 1:-942.53815 2:-673.34344 3:-26.582834 4:-344.74277 5:152.52699 6:9.4697485 7:12.217322 8:-1.1051065 9:-1.0068048 10:2.0761909 11:0.00085077336 
-0 -0 0.8063953363096207 0 0 0 0 0 0 0 1:-942.54083 2:-673.43597 3:-29.848728 4:-290.53192 5:179.37775 6:25.216175 7:67.016663 8:-1.2066996 9:-0.4030748 10:-0.59242409 11:-0.0038115524 
-0 -0.2804732650340514 0 0 0 0 0 0 0 0 1:-942.52496 2:-673.06964 3:-20.0627 4:-473.05478 5:-19.59082 6:103.81763 7:-84.434433 8:-4.1184988 9:3.3077908 10:-0.69226474 11:-0.057707179 
-0 -0.1816499139435818 0 0 0 1 0 0 0 1.129142108222365e-07 1:-942.53192 2:-673.11981 3:-19.360037 4:-467.98041 5:60.423004 6:-40.115574 7:-103.60276 8:0.51169002 9:1.2074404 10:2.1223099 11:0.0045053456 
-0 -0 0 0 0 0 0 0 0 5.378095894844082e-09 1:-942.54047 2:-673.44147 3:-30.281136 4:-280.50238 5:159.4115 6:17.881617 7:47.56757 8:-0.83344829 9:0.19897944 10:-0.5844152 11:0.011489566 
-0 -0 0 0 0 1 0 0 0 0 1:-942.53845 2:-673.3559 3:-26.985044 4:-337.8775 5:157.56419 6:12.192362 7:18.612375 8:-1.1930684 9:-1.1320503 10:2.0745833 11:0.00077712204 
-0 -0 0 0 0 0.0253730290030031 0 0 0 0 1:-942.53821 2:-673.34595 3:-26.654562 4:-343.47519 5:153.76192 6:9.9576826 7:13.228361 8:7.8634582 9:-1.3620052 10:2.0877886 11:0.017305816 
-0 -0 1 0 0 0 0 0 0 0 1:-942.53784 2:-673.33215 3:-26.21719 4:-350.98392 5:147.94769 6:6.9946446 7:6.4036274 8:-1.0252455 9:-0.89428788 10:2.0785186 11:0.00077816314 
-0 -0 0 0 0 0.7329926491110733 0 0 0 0 1:-942.54016 2:-673.41766 3:-29.030046 4:-302.87817 5:179.88721 6:24.649733 7:49.172375 8:-1.5547178 9:-1.6835141 10:2.0638981 11:0.0038332532 
-0 -0 0 0 0 1 0 0 0 0 1:-942.53522 2:-673.23846 3:-23.182335 4:-402.78546 5:109.9398 6:-13.548687 7:-41.84993 8:-0.36189041 9:0.046540342 10:2.0956314 11:0.00016643501 
-0 -0 0.6274686105503585 0 0 0 0 0 0 0 1:-942.53979 2:-673.40887 3:-28.875956 4:-305.228 5:168.09296 6:19.450127 7:40.857044 8:-1.2651657 9:-1.3902292 10:2.0695121 11:0.011049673 
-0 -0 0.3538540506376344 0 0 0 0 0 0 0 1:-942.53815 2:-673.34344 3:-26.582834 4:-344.74277 5:152.52699 6:9.4697495 7:12.217325 8:-1.1051197 9:-1.0069532 10:2.0763845 11:0.00082496949 
-0 -0 0 0 0 0.6333313351493619 0 0 0 5.561670499520151e-07 1:-942.53192 2:-673.11884 3:-19.30654 4:-468.94733 5:61.424438 6:-39.780804 7:-103.46539 8:0.53798908 9:2.5680332 10:-0.51889122 11:-0.020800803 
-0 -0 0.3799030318768667 0 0 0 0 0 0 0 1:-942.54126 2:-673.46179 3:-30.611465 4:-275.55807 5:188.1841 6:30.505266 7:67.473747 8:-1.6017411 9:-1.8857391 10:2.0598791 11:0.012758736 
-0 -0 0 0 0 0.9893203209406592 0 0 0 0 1:-942.53223 2:-673.13013 3:-19.67219 4:-462.70639 5:66.004776 6:-37.305576 7:-97.651268 8:0.46099824 9:2.4934907 10:-0.53749257 11:-0.02059154 
-0 -0 1 0 0 0 0 0 0 0 1:-942.53851 2:-673.35699 3:-27.021608 4:-337.25339 5:158.02211 6:12.43987 7:19.193745 8:-1.2010252 9:-1.1429579 10:2.0738971 11:0.00092629751 
-0 -0 0.007209247803714304 0 0 0 0 0 0 0 1:-942.53064 2:-673.30457 3:-27.512495 4:-344.30569 5:81.685089 6:173.32149 7:23.60256 8:1.7993639 9:0.57011431 10:-0.73771513 11:-0.06119201 
-1.351772527918981e-06 -0 0 0 0 0 0 0 0 0 1:-942.53491 2:-673.22528 3:-24.035702 4:-392.24362 5:44.20776 6:-41.388168 7:-37.657913 8:3.1029913 9:2.682529 10:-0.52734876 11:0.051976588 
-0 -0 0.5887014015995593 0 0 0 0 0 0 0 1:-942.54041 2:-673.42389 3:-29.587027 4:-294.86761 5:166.84906 6:19.522552 7:58.16312 8:-0.95278639 9:-1.466063 10:2.0710886 11:0.022609117 
-0 -0 0 0 0 1 0 0 0 0 1:-942.53192 2:-673.11993 3:-19.343105 4:-468.3233 5:61.882797 6:-39.533245 7:-102.88386 8:0.531192 9:2.5724638 10:-0.5259608 11:-0.020810459 
-0 -0 0 0.001954209140818831 0 0 0 0 0 0 1:-942.53186 2:-673.11823 3:-19.266554 4:-469.52377 5:61.744617 6:-40.045994 7:-104.41862 8:22.507269 9:1.7487966 10:-0.50678867 11:0.024178982 
-0 -0 1 0 0 0 0 0 0 0 1:-942.53815 2:-673.34344 3:-26.582834 4:-344.74277 5:152.52699 6:9.4697495 7:12.217319 8:-1.1051284 9:-1.0070825 10:2.0764761 11:0.00073584577 
-0 -0 0 0.01534316331872589 0.02772443129798636 0 0 1.786662680720182e-05 0 0 1:-942.52148 2:-673.05585 3:-20.30913 4:-472.89877 5:-42.513744 6:178.3576 7:-93.115204 8:-2.3960319 9:3.2572315 10:-0.74680841 11:-0.085681103 
-0 -0 0 0 0 0.2062625375275058 0 0 0 0 1:-942.5343 2:-673.20459 3:-22.0854 4:-421.50894 5:96.202019 6:-20.973984 7:-59.290981 8:-0.12218384 9:0.38584828 10:2.1026139 11:-0.00034254396 
-0 -0 0 0 0 1 0 0 0 0 1:-942.53442 2:-673.20911 3:-22.231657 4:-419.01248 5:98.033722 6:-19.983946 7:-56.965504 8:-0.15413035 9:0.34079105 10:2.1014996 11:-0.00019384039 
-0 -0 0 0 0 1 0 0 0 0 1:-942.53387 2:-673.18994 3:-21.610062 4:-429.62244 5:90.24894 6:-24.191624 7:-66.848778 8:-0.018276088 9:0.5332185 10:2.1046057 11:-0.00015902332 
-0 -0 0.1526866157634603 0 0 0 0 0 0 0 1:-942.53827 2:-673.34961 3:-26.838043 4:-340.35086 5:151.98622 6:9.8085833 7:14.492542 8:-13.05467 9:-0.56110764 10:2.0614359 11:-0.018919298 
-0 -0 1 0 0 0 0 0 0 0 1:-942.54053 2:-673.435 3:-29.699963 4:-291.20984 5:180.05676 6:25.720701 7:54.936142 8:-1.4878814 9:-1.686144 10:2.0640063 11:0.010027806 
-0 -0 0 0 0.06988874492699347 0 0.001153593258449577 0 0 1.718466152264725e-07 1:-942.53229 2:-673.11743 3:-20.301817 4:-457.84595 5:19.631245 6:-57.592876 7:-76.613167 8:3.4622481 9:3.1654959 10:-0.51151526 11:0.040154777 
-0 -0.006750584860815742 0 0 0 0 0 0 0 0 1:-942.53223 2:-673.12775 3:-19.828344 4:-461.34363 5:55.869686 6:-41.707684 7:-92.723793 8:0.84718323 9:1.2918321 10:2.1239436 11:0.01143459 
-0 -0 0 0 0 0 9.663378888359467e-05 0 0 0 1:-942.53247 2:-673.14362 3:-20.207216 4:-453.12051 5:64.186539 6:-37.830971 7:-95.527802 8:36.53561 9:1.223007 10:-0.48641667 11:0.053948168 
-0 -0 0 0 0.1083677912348875 0 0 0 0 0 1:-942.53198 2:-673.11761 3:-19.46109 4:-467.40012 5:53.303783 6:-43.281151 7:-98.964195 8:0.90031409 9:2.6793203 10:-0.53071684 11:-0.0062865638 
-0 -0 0.01762700814731623 0 0 0 0 0 0 0 1:-942.54059 2:-673.43597 3:-29.753553 4:-290.25513 5:179.10928 6:25.394459 7:54.819984 8:-1.400699 9:-0.29502052 10:-0.59264475 11:-0.008353374 
-0 -0 0 0 0 1 0 0 0 0 1:-942.53522 2:-673.23846 3:-23.182335 4:-402.78546 5:109.9398 6:-13.548687 7:-41.849937 8:-0.36189911 9:0.04641109 10:2.0957229 11:7.7311277e-05 
-0 -0 0 0 0 0.9821912377809929 0 0 0 0 1:-942.53522 2:-673.23737 3:-23.145771 4:-403.40958 5:109.48188 6:-13.796197 7:-42.431297 8:-0.35389826 9:0.057874065 10:2.0958385 11:0.00015799102 
-0 -0 0.1976017261048319 0 0 0 0 0 0 0 1:-942.53815 2:-673.34344 3:-26.582834 4:-344.74277 5:152.52699 6:9.4697495 7:12.217325 8:-1.1051197 9:-1.0069532 10:2.0763845 11:0.00082496949 
-0 -0 0 0 0 0.7834030945094113 0 0 0 0 1:-942.534 2:-673.19537 3:-21.750401 4:-427.04434 5:93.427826 6:-23.231504 7:-65.163795 8:37.884705 9:-0.91380304 10:2.1525037 11:0.069747731 
-0 -0 1 0 0 0 0 0 0 0 1:-942.53979 2:-673.40704 3:-28.751896 4:-307.48572 5:171.47153 6:20.688631 7:41.817188 8:-1.3659606 9:-1.4742657 10:2.0679944 11:0.0073657259 
-0 -0 0 0 0 4.255075261858648e-05 0 0 0 0 1:-942.52362 2:-673.14246 3:-22.989027 4:-428.42664 5:4.953239 6:215.28253 7:-41.016468 8:3.6362195 9:0.45740151 10:1.7996964 11:-0.085915938 
-0 -0 0 0 0 0 0.001091463405806146 0 0 0 1:-942.53314 2:-673.15607 3:-21.746664 4:-432.22574 5:21.721512 6:-54.309006 7:-66.073196 8:-4.4841485 9:3.4687276 10:-0.52474231 11:0.034032997 
-0 -0 1 0 0 0 0 0 0 0 1:-942.53827 2:-673.3501 3:-26.819199 4:-340.66156 5:153.84306 6:10.376966 7:14.997903 8:-1.1141976 9:-1.039994 10:2.0761645 11:0.0019767853 
-0 -0 -0 0 0 0 0 0 6.570240900142766e-10 0 1:-942.54779 2:-673.69336 3:-37.918083 4:-151.27151 5:294.414 6:86.199615 7:192.47513 8:-5.5821609 9:-4.4791718 10:2.0053289 11:-0.014382112 
-0 -0 -1 0 0 0 0 0 0 0 1:-942.53986 2:-673.40668 3:-28.630388 4:-309.79251 5:178.17174 6:23.330391 7:44.773911 8:-1.555095 9:-1.6672481 10:1.9598361 11:-0.015200522 
-0 -0 -0 0 0 0.00376891006866634 0 0 0 0 1:-941.53235 2:-673.14032 3:-20.19162 4:-453.40475 5:57.581646 6:-40.065533 7:-98.259529 8:0.50990331 9:-3.663655 10:0.33557624 11:-0.27741924 
-0 -0 -1 0 0 0.1067288222254321 0 0 0 0 1:-942.53644 2:-673.28247 3:-24.608307 4:-378.44504 5:127.79939 6:-3.8959522 7:-19.176683 8:-0.67585701 9:-0.43021891 10:1.9018633 11:-0.015627701 
-0 -0 -0.7727695386773697 0 0 0.003132694339971093 0 0 0 0 1:-942.54639 2:-673.64148 3:-36.235828 4:-179.98172 5:273.44235 6:74.817329 7:165.70723 8:-3.1720469 9:-2.8641133 10:0.69289917 11:-0.0025983755 
-0 -0 -1 0 0 0 0 0 0 0 1:-942.54028 2:-673.42133 3:-29.105728 4:-301.67902 5:184.12479 6:26.548019 7:52.331696 8:-1.6589926 9:-1.8145865 10:1.9571415 11:-0.01509075 
-0 -0 -0 0 0 0.00118066480378062 0 0 0 0 1:-941.53278 2:-673.1604 3:-21.134703 4:-437.43219 5:49.568302 6:-42.189671 7:-91.04113 8:0.88761467 9:-3.5017042 10:0.21477851 11:-0.2682355 
-0 -0 -0 0 0 0.003902694795056557 0 0 0 0 1:-936.53162 2:-658.69531 3:-25.941408 4:-150.61243 5:294.64197 6:86.236351 7:192.48337 8:1.4605544 9:-2.8861067 10:2.0920849 11:0.10982916 
-0 -0 -1 0 0 0.004070014793624776 0 0 0 0 1:-942.53937 2:-673.38861 3:-28.045361 4:-319.77832 5:170.84489 6:19.370186 7:35.472027 8:-1.4270511 9:-1.4846201 10:1.9356941 11:-0.015423587 
-0 -0 -0 0 0 0.02704730921441907 0 0 0 0 1:-942.54779 2:-673.69336 3:-37.91811 4:-151.27678 5:294.43637 6:86.20433 7:192.48399 8:-5.5354538 9:-3.2957006 10:0.58426052 11:-0.0078640049 
-0 -0 -1 0 0 0 0 0 0 0 1:-942.54175 2:-673.47437 3:-30.824572 4:-272.34991 5:205.57652 6:38.182617 7:79.689766 8:-4.0310369 9:-2.268126 10:1.9585081 11:-0.017840356 
-0 -0 -0 0 0 0.01421494511541873 0 0 0 0 1:-942.54779 2:-673.69336 3:-37.918091 4:-151.27165 5:294.41479 6:86.199478 7:192.47539 8:-5.580121 9:-4.4400043 10:1.741344 11:-0.019922433 
-0 -0.002978415629268634 -0.01495447392132705 0.0001156194696872955 0.0004728021587578393 0.0002607070571492361 2.047658660892843e-05 1.45560934562316e-05 0 9.194117878644784e-07 1:-936.5213 2:-647.14441 3:-21.072104 4:-446.59726 5:48.921093 6:51.505543 7:-73.883308 8:5.5263324 9:3.4201291 10:2.0496204 11:0.1212709 
-0 -0 -1 0 0 0 0 0 0 0 1:-942.53857 2:-673.35925 3:-27.094685 4:-336.00525 5:158.93845 6:12.934935 7:20.356365 8:-1.2198733 9:-1.2041752 10:2.0240314 11:-0.013025117 
-0 -0 -0 0 0 0.07644851855023649 0 0 0 0 1:-942.54773 2:-673.69116 3:-37.844643 4:-152.51544 5:293.569 6:85.703011 7:191.27866 8:-3.5697572 9:-4.5337353 10:2.0216267 11:-0.010460805 
-0 -0 -0 0 0 0.02898779591780395 0 0 0 0 1:-942.54779 2:-673.69226 3:-37.881542 4:-151.90086 5:293.9783 6:85.956848 7:191.90257 8:-5.5278878 9:-3.2925279 10:0.64012104 11:-0.0066888425 
-0 -0.002784655351508488 -0 0 0 0 0.002670313863104172 0 0 0 1:-941.53284 2:-673.15924 3:-21.251028 4:-436.31949 5:42.981468 6:-45.039192 7:-87.55574 8:1.1798259 9:-3.3994365 10:0.21013616 11:-0.26078108 
-0 -0 -1 0 0 0 0 0 0 0 1:-942.53943 2:-673.39087 3:-28.118488 4:-318.53009 5:171.76076 6:19.865208 7:36.634758 8:-1.4430573 9:-1.5075651 10:1.9355648 11:-0.015521626 
-0 -0.0007965017367499905 -0 0 0.01928433792977968 0.04405898873794297 0 0 0 0 1:-941.53192 2:-673.12006 3:-19.361101 4:-467.9538 5:60.330997 6:-40.145676 7:-103.64654 8:0.35146606 9:-3.7677419 10:0.14108783 11:-0.30027574 
-0 -0 -1 0 0 0 0 0 0 0 1:-942.53845 2:-673.35474 3:-26.948429 4:-338.50171 5:157.10672 6:11.944879 7:18.030893 8:-1.187858 9:-1.1587282 10:2.016664 11:-0.013033935 
-7.031619132196768e-06 -0 -0.3437230161946468 0 0 0.0002304699823406752 4.031684589146715e-05 0 0 0 1:-941.53656 2:-673.31122 3:-28.239069 4:-319.53729 5:-4.5314698 6:-56.057266 7:-19.829756 8:3.7873559 9:-2.5222533 10:0.025660703 11:-0.16379708 
-0 -0 -1 0 0 1 0 0 0 0 1:-942.53485 2:-673.22491 3:-22.743525 4:-410.27487 5:104.44507 6:-16.519102 7:-48.826458 8:-0.26786026 9:0.14949265 10:1.8303419 11:-0.016698698 
-0 -0 -0 -0 0 0 0 0 6.572680214057787e-10 0 1:-934.52258 2:-673.05023 3:-24.864952 4:-421.02768 5:-239.11511 6:108.11578 7:16.820438 8:7.1930952 9:-0.042645719 10:-0.21851146 11:-0.18940757 
-0 -0.04382678987971431 -0 -0 0 0 0 1.692030504036982e-05 0 9.356861287330427e-07 1:-924.52045 2:-673.03375 3:-19.373856 4:-491.00159 5:-43.637466 6:190.446 7:-96.921646 8:-1.578126 9:-3.2827494 10:-0.32109454 11:-0.44018602 
-2.676284385926847e-07 -1 -0.01418463052051097 -0.0001156194696872955 0.09001893888921529 0.0003550226436746942 4.440669357969886e-05 0 0 0 1:-942.52258 2:-673.04517 3:-19.277229 4:-487.66913 5:-21.13883 6:147.9682 7:-99.963081 8:3.6724293 9:1.4380773 10:1.8662136 11:-0.067966148 
-0 -0 -0 -0 1 0 0 0 0 0 1:-934.52148 2:-673.05792 3:-22.411367 4:-446.43246 5:-132.55013 6:153.93996 7:-59.300072 8:2.1489284 9:-1.636131 10:-0.27690148 11:-0.33159646 
-0 -1 -0 -0 0 0 0 0 0 0 1:-942.4776 2:-540.02863 3:-18.312222 4:-491.35355 5:-40.719082 6:190.54836 7:-98.410461 8:-0.48594335 9:3.5876508 10:2.0987499 11:-0.02579 
-0 -0 -0 -0 1 0 0 0 0 0 1:-934.52118 2:-673.04822 3:-21.531965 4:-459.94611 5:-109.02568 6:163.09763 7:-67.187935 8:1.1992731 9:-2.0984325 10:-0.28880033 11:-0.36210167 
-0 -1 -0 -0 0 0 0 0 0 0 1:-924.521 2:-673.03333 3:-20.673378 4:-476.23959 5:-95.730759 6:168.32925 7:-62.353424 8:0.8391028 9:-2.4710274 10:-0.2928448 11:-0.37094012 
-0 -1 -0 -0 0 0 0 0 0 0 1:-942.5224 2:-673.0437 3:-19.277372 4:-488.02066 5:-22.732576 6:151.6187 7:-99.88356 8:3.7342906 9:1.4431543 10:1.8574888 11:-0.069213785 
-0 -1 -0 -0 0 0 0 0 0 0 1:-924.52063 2:-673.03363 3:-19.756067 4:-486.65982 5:-58.959023 6:183.94107 7:-86.754524 8:-0.86717629 9:-3.0440075 10:-0.3127858 11:-0.41981959 
-0 -0 -0 -0 1 0 0 0 0 0 1:-934.52118 2:-673.03442 3:-21.011721 4:-470.78955 5:-104.58955 6:163.81921 7:-59.320087 8:1.1921217 9:-2.301595 10:-0.29000443 11:-0.36692736 
-0 -0 -0 -0 1 0 0 0 0 0 1:-934.52264 2:-673.06598 3:-25.415838 4:-409.13141 5:-242.43393 6:108.03454 7:6.666656 8:7.1200166 9:0.16225506 10:-0.2180849 11:-0.18622006 
-0 -0 -0 -0 0.06590351478057309 0 0 0 0 0 1:-924.52246 2:-673.03235 3:-24.132401 4:-436.94666 5:-234.39084 6:109.45969 7:29.659058 8:7.2731972 9:-0.31041431 10:-0.21765068 11:-0.18662381 
-0 -0 -0 -0 1 0 0 0 0 0 1:-934.52081 2:-673.07477 3:-21.353205 4:-452.55011 5:-70.592125 6:182.73744 7:-113.78722 8:-0.9703185 9:-2.4435835 10:-0.31317177 11:-0.41617826 
-0 -1 -0 -0 0 0 0 6.39682088821912e-08 0 0 1:-924.52197 2:-673.03345 3:-22.699032 4:-453.05249 5:-176.13805 6:132.02766 7:-8.5073671 8:4.5758786 9:-1.2103237 10:-0.2507031 11:-0.26042837 
-0 -0.1685828152561601 -0 -0 0 0 0 0 0 0 1:-934.52258 2:-673.06464 3:-25.381443 4:-409.9628 5:-242.62494 6:108.95225 7:7.3211474 8:7.140049 9:0.15077342 10:-0.21933952 11:-0.18670559 
-0 -0 -0 -0 1 0 0 0 0 0 1:-934.52264 2:-673.06403 3:-25.346977 4:-410.61844 5:-242.01909 6:108.04469 7:7.9358788 8:7.1291513 9:0.13664247 10:-0.21813822 11:-0.18661851 
-0 -0 -0.001136489039330093 -0 0.5068993220906938 0 0 0 0 0 1:-934.52081 2:-673.07611 3:-21.3876 4:-451.71872 5:-70.401115 6:181.81973 7:-114.44171 8:-0.99036831 9:-2.4322073 10:-0.3121492 11:-0.41558623 
-0 -1 -0 -0 0 0 0 0 0 0 1:-924.52112 2:-673.03326 3:-20.902704 4:-473.63455 5:-104.92369 6:164.4263 7:-56.253151 8:1.2656726 9:-2.3277822 10:-0.28785956 11:-0.35872024 
-0 -1 -0 -0 0 0 0 3.03474173444298e-06 0 0 1:-924.52246 2:-673.03235 3:-24.15151 4:-436.72958 5:-235.15692 6:109.13445 7:30.167414 8:7.3087444 9:-0.29847723 10:-0.21723524 11:-0.1856055 
-0 -1 -0 -0 0 0 0 0 0 0 1:-924.52124 2:-673.03357 3:-21.074665 4:-471.59286 5:-111.41988 6:160.58623 7:-51.697769 8:1.5698122 9:-2.2236252 10:-0.28718522 11:-0.34729868 
-0 -1 -0 -0 0 0 0 0 0 0 1:-924.521 2:-673.03333 3:-20.673378 4:-476.23959 5:-95.730759 6:168.32925 7:-62.353424 8:0.8391028 9:-2.4710274 10:-0.2928448 11:-0.37094012 
-0 -0 -0 -0 0.7358553579496317 0 0 0 0 0 1:-934.52258 2:-673.07446 3:-25.725746 4:-402.52762 5:-244.6992 6:108.90147 7:0.97503382 8:7.0943751 9:0.27883643 10:-0.21907292 11:-0.18471341 
-0 -0 -0 -0 1 0 0 0 0 0 1:-934.52075 2:-673.07416 3:-21.204077 4:-454.50827 5:-65.389801 6:183.78137 7:-116.22263 8:-1.1944966 9:-2.5293105 10:-0.31440508 11:-0.42222774 
-0 -1 -0 -0 0 0 0 0 0 0 1:-924.52246 2:-673.03235 3:-24.15151 4:-436.72958 5:-235.15692 6:109.13445 7:30.167414 8:7.3087444 9:-0.29847723 10:-0.21723524 11:-0.1856055 
-0 -0 -0 -0 1 0 0 0 0 0 1:-934.5213 2:-673.0639 3:-22.235737 4:-446.31311 5:-118.47313 6:160.41441 7:-73.274864 8:1.4105744 9:-1.798035 10:-0.28505027 11:-0.35076758 
-0 -0 -0 -0 0.6811329676472708 0 0 0 0 0 1:-934.52252 2:-673.05579 3:-25.071569 4:-416.65445 5:-240.7581 6:108.99795 7:13.03265 8:7.1811557 9:0.035516731 10:-0.21957947 11:-0.18849856 
-0 -0 -0 -0 0.02629058545707872 0 0 0 0 0 1:-934.52264 2:-673.06696 3:-25.450268 4:-408.38788 5:-242.64136 6:108.02946 7:6.0320449 8:7.1154494 9:0.17506136 10:-0.21805824 11:-0.18602085 
-0 -0 -0.001976252899703662 -0 0 0 0 0 0 0 1:-934.5213 2:-673.08038 3:-22.687315 4:-435.28082 5:-117.03528 6:163.51744 7:-87.601875 8:1.0995654 9:-1.6625365 10:-0.28867504 11:-0.35482207 
-0 -1 -0 -0 0 0 0 0 0 0 1:-942.52081 2:-673.03107 3:-19.297773 4:-490.96719 5:-37.842781 6:184.1483 7:-98.659767 8:4.3269911 9:1.5011582 10:1.8142684 11:-0.083894774 
-0 -1 -0 -0 0 0 0 0 0 0 1:-924.52148 2:-673.03339 3:-21.686205 4:-464.64603 5:-135.93436 6:150.17834 7:-35.43037 8:2.7073271 9:-1.8416647 10:-0.27394924 11:-0.31468576 
-0 -0 -0 -0 0.8906875219289963 0 0 0 0 0 1:-934.52264 2:-673.07941 3:-25.897898 4:-398.81003 5:-245.73634 6:108.87608 7:-2.1980231 8:7.071538 9:0.34286791 10:-0.21893962 11:-0.18371731 
-0 -1 -0 -0 0 0 0 0 0 0 1:-924.52246 2:-673.03235 3:-24.15151 4:-436.72958 5:-235.15692 6:109.13445 7:30.167414 8:7.3087444 9:-0.29847723 10:-0.21723524 11:-0.1856055 
-0 -1 -0 -0 0 0 0 0 0 0 1:-942.52252 2:-673.0448 3:-19.296375 4:-487.53995 5:-22.303429 6:148.55595 7:-99.434898 8:3.7238696 9:1.4553068 10:1.8940796 11:-0.0692821 
-0 -0 -0 -0 0.00321179125653999 0 0 0 0 0 1:-924.52246 2:-673.03235 3:-24.132401 4:-436.94666 5:-234.39084 6:109.45969 7:29.659058 8:7.2731972 9:-0.31041431 10:-0.21765068 11:-0.18662381 
-5.979823206865562e-06 -0.7139158526109129 -0 -0 0 0 0 0 0 0 1:-924.52252 2:-673.03265 3:-24.151474 4:-436.64166 5:-234.75839 6:108.22158 7:30.147587 8:7.2929525 9:-0.30178031 10:-0.22035785 11:-0.18332219 
-0 -0 -0 -0 -0 0.1685003973385723 0.001266831976519349 0 0 0 1:-942.53186 2:-673.11768 3:-19.269867 4:-469.58755 5:61.035397 6:-40.006042 7:-104.02171 8:0.68450612 9:6.3214507 10:0.0095786946 11:0.10625864 
-0 -0 -0 -0.0001557990325382726 -1 2.760112264563856e-05 0 3.553041311014679e-06 0 0 1:-934.52094 2:-673.07642 3:-21.521339 4:-450.11121 5:-75.365196 6:178.63031 7:-110.90308 8:-0.75710559 9:-2.3506055 10:-0.30940536 11:-0.40753263 
-0 -0 -0 -0 -1 0 0 0 0 0 1:-934.5213 2:-673.07935 3:-22.767548 4:-434.7218 5:-121.42429 6:161.57097 7:-83.917107 8:1.3173087 9:-1.6043798 10:-0.28765929 11:-0.34824568 
-0 -0.8490941765715967 -0.007268824349307728 -0 -1 1.618308197009773e-05 0 0 0 0 1:-934.52087 2:-673.04883 3:-20.691063 4:-469.4101 5:-74.919792 6:176.49576 7:-89.57547 8:-0.38038582 9:-2.6256223 10:-0.30724376 11:-0.40598249 
-0 -0 -0 -0 -0 0 2.933447757962026e-05 0 0 0 1:-942.53186 2:-673.11768 3:-19.269867 4:-469.58755 5:61.035397 6:-40.006042 7:-104.02171 8:0.68450612 9:6.3214507 10:0.0095786946 11:0.10625864 
-0 -1 -0.01937286062245828 -0 -1 0 0 0 0 0 1:-934.52264 2:-673.03906 3:-24.451715 4:-429.77414 5:-235.82909 6:106.35139 7:24.396032 8:7.2168651 9:-0.19963011 10:-0.21782564 11:-0.19055992 
-0 -0 -0 -0 -1 0 0 0 0 0 1:-934.52087 2:-673.06287 3:-21.188478 4:-458.65018 5:-78.061989 6:178.5701 7:-99.56324 8:-0.45351014 9:-2.4427891 10:-0.30965725 11:-0.40461177 
-0 -0 -0 -0 -1 0 0 0 0 0 1:-934.52191 2:-673.06311 3:-23.745512 4:-429.25104 5:-179.39168 6:135.63251 7:-33.094826 8:4.2341814 9:-0.8543399 10:-0.25490889 11:-0.26994076 
-1.630763478803413e-05 -1 -0 -0.0001154628276836127 -0 3.510519870529426e-05 0.0002069492061662823 4.361624579798785e-05 6.621827015067104e-10 1.237946218804234e-06 1:-727.5285 2:-673.14954 3:-21.963652 4:-450.10925 5:-78.583702 6:8.9088268 7:-36.024742 8:6.4952574 9:-2.1108925 10:-0.079544194 11:-0.20418529 
-0 -0 -0 -0 -1 0 0 0 0 0 1:-934.52264 2:-673.05847 3:-25.14036 4:-414.99164 5:-240.37605 6:107.16245 7:11.723685 8:7.1409822 9:0.057820536 10:-0.2185204 11:-0.18686186 
-0 -0 -0 -0 -1 0 3.134091323739595e-05 0 0 0 1:-934.52264 2:-673.07526 3:-25.57279 4:-404.08853 5:-237.7737 6:109.6781 7:-3.1315577 8:6.7789564 9:0.18003091 10:-0.22139068 11:-0.19162172 
-0 -0 -0 -0 -1 0 0 0 0 0 1:-934.5213 2:-673.07837 3:-22.656675 4:-436.33368 5:-118.15255 6:162.87703 7:-85.315918 8:1.1796861 9:-1.6649345 10:-0.28934768 11:-0.35251817 
-0 -0 -0 -0 -1 0 0 0 0 0 1:-934.52234 2:-673.06226 3:-24.571024 4:-420.13773 5:-213.25932 6:120.08888 7:-9.6040621 8:5.8229203 9:-0.33130187 10:-0.2350129 11:-0.2240292 
-0 -0.8195752535242101 -0.1793392824881024 -0.01948587822831564 -0 0 0 0 0 0 1:-942.53186 2:-673.11768 3:-19.269869 4:-469.58759 5:61.035328 6:-40.006081 7:-104.02164 8:0.68435782 9:6.3195033 10:0.017055426 11:0.10758293 
-0 -0 -0 -0 -1 0 0 0 0 0 1:-934.52142 2:-673.04962 3:-22.193293 4:-451.81723 5:-133.58736 6:153.91739 7:-52.678215 8:2.3074703 9:-1.7020787 10:-0.27848861 11:-0.32978249 
-0 -0 -0 -0 -0 -0 0 0 6.570796261076049e-10 8.832749737183453e-07 1:-942.53186 2:-673.11761 3:-19.270157 4:-469.58148 5:60.920567 6:-40.01403 7:-104.00526 8:-1.4024359 9:4.083497 10:2.532516 11:0.085878395 
-0 -0.05422394772609571 -0 -0 -0.0003550226436746942 -0 0 1.587695684984932e-05 0 0 1:-942.526 2:-673.07153 3:-19.274563 4:-481.09076 5:8.7964115 6:79.537163 7:-101.43263 8:2.6191709 9:4.1990323 10:2.0366609 11:0.069090307 
-0 -0 -1 -0 -0 -0 0 0 0 0 1:-942.53192 2:-673.11884 3:-19.306421 4:-468.94012 5:61.398022 6:-39.784042 7:-103.47858 8:0.48223197 9:1.1494472 10:2.189101 11:-0.03705252 
-0 -0 -1 -0 -0 -0 0 0 0 0 1:-942.53668 2:-673.32526 3:-25.01619 4:-354.35706 5:143.83868 6:4.9558911 7:2.2455666 8:-0.78678346 9:3.2074969 10:1.0094663 11:0.10433435 
-0 -0 -1 -0.981119078257522 -0 -0 0 0 0 0 1:-942.53577 2:-673.25769 3:-23.803911 4:-392.17487 5:117.72439 6:-9.3406506 7:-31.968008 8:-0.49755028 9:-0.17349632 10:2.0803757 11:-0.016534641 
-0 -0 -0.02263288028509559 -0 -0 -0 0 0 0 0 1:-942.53186 2:-673.11768 3:-19.269894 4:-469.57816 5:60.99144 6:-40.016949 7:-104.03661 8:0.59326708 9:4.0290294 10:2.1579413 11:0.10935228 
-0 -0 -1 -0 -0 -0 0.0005947051894259803 0 0 0 1:-942.53186 2:-673.11768 3:-19.269863 4:-469.56384 5:60.938267 6:-40.031906 7:-104.06099 8:0.48919514 9:1.1420276 10:2.1730106 11:-0.032598898 
-0 -0 -1 -0 -0 -0 0 0 0 0 1:-942.54071 2:-673.43933 3:-29.647671 4:-292.22556 5:192.4814 6:30.228355 7:60.341545 8:40.152554 9:-3.5539312 10:2.1584041 11:0.047552887 
-0 -0 -1 -0.005381629881641273 -0 -0 0 0 0 0 1:-942.54089 2:-673.44281 3:-29.80047 4:-289.81931 5:192.82414 6:31.251471 7:63.374935 8:-1.807425 9:-2.0488591 10:2.1030796 11:-0.029614931 
-0 -0 -1 -0.00196578653001493 -0 -0 0 0 0 0 1:-942.53247 2:-673.13916 3:-19.964695 4:-457.7128 5:69.665466 6:-35.325638 7:-93.001503 8:0.39118978 9:2.2614119 10:-0.095549129 11:-0.015766883 
-0 -0 -0 -0 -0 -0.0001583653422279275 0 0 0 0 1:-942.53186 2:-673.11761 3:-19.270163 4:-469.58148 5:60.92054 6:-40.014038 7:-104.00523 8:-1.4022601 9:4.0857186 10:2.5302341 11:0.086797811 
-0 -0 -1 -0 -0 -0 0 0 0 0 1:-942.53436 2:-673.20825 3:-22.193523 4:-419.61469 5:97.930199 6:-20.239136 7:-57.716274 8:9.8367319 9:-0.038193338 10:2.0768154 11:0.0062595434 
-0 -0 -1 -0 -0 -0 0 0 0 0 1:-942.53192 2:-673.11884 3:-19.306421 4:-468.94012 5:61.398022 6:-39.784042 7:-103.47858 8:0.48223197 9:1.1494472 10:2.189101 11:-0.03705252 
-0 -0 -0 -4.354779230079356e-06 -0 -0 0 0 0 0 1:-937.81158 2:-673.06299 3:3866.0149 4:-263.16782 5:40.694794 6:-29.606888 7:-67.99044 8:-1.085815 9:5.0687132 10:2.4391658 11:0.12208126 
-0 -0 -1 -0.1295144586808002 -0 -3.279750201232849e-05 0 0 0 0 1:-942.53589 2:-673.26318 3:-24.003757 4:-388.72324 5:118.60646 6:-8.6768341 7:-29.75951 8:-0.44663256 9:1.0749687 10:-0.11804466 11:-0.025053009 
-0 -0 -0 -0 -0 -0.1683881238976531 0 0 0 0 1:-942.53186 2:-673.11768 3:-19.26984 4:-469.57718 5:60.991493 6:-40.015594 7:-104.03901 8:0.59396243 9:4.0074744 10:2.5373611 11:0.088643171 
-0 -0.0009144743314904787 -1 -0.1589984060473616 -0 -0 0 0 0 2.964626240439606e-08 1:-942.54156 2:-673.46765 3:-30.604891 4:-276.08878 5:202.89851 6:36.69669 7:76.165031 8:-1.9832386 9:-2.2980528 10:2.0983257 11:-0.029403361 
-0 -0 -0 -0.02979017811163914 -0 -0 0 0 0 0 1:-942.53192 2:-673.11884 3:-19.306421 4:-468.94012 5:61.398022 6:-39.784042 7:-103.47858 8:0.48223197 9:1.1494472 10:2.189101 11:-0.03705252 
-9.494123174119841e-07 -0 -1 -0 -0 -0 0 0 0 0 1:-942.53186 2:-673.11768 3:-19.269863 4:-469.56384 5:60.938267 6:-40.031906 7:-104.06099 8:0.48919514 9:1.1420276 10:2.1730106 11:-0.032598898 
-0 -0 -1 -0 -0 -0 0 0 0 0 1:-942.53192 2:-673.11884 3:-19.306421 4:-468.94012 5:61.398022 6:-39.784042 7:-103.47858 8:0.48223197 9:1.1494472 10:2.189101 11:-0.03705252 
-0 -0 -0 -0.006575599267924131 -0 -0 0 0 0 0 1:-942.53046 2:-673.20557 3:-18.144676 4:-420.35068 5:95.261345 6:-21.27702 7:-59.359619 8:0.013276999 9:3.2489212 10:2.4352214 11:0.10818952 
-0 -0 -0.02527937811679715 -0 -0 -0 0 0 0 0 1:-942.53192 2:-673.11884 3:-19.306452 4:-468.94058 5:61.397968 6:-39.784676 7:-103.47744 8:0.48210055 9:1.1617635 10:2.0118601 11:-0.026524505 
-0 -0 -0 -0 -0 -0 0 0 0 9.889872110752589e-11 1:-937.90717 2:-673.06445 3:3766.1594 4:-268.43198 5:41.201347 6:-29.876488 7:-68.904327 8:-1.0933166 9:5.0443101 10:2.4409792 11:0.12142026 
-4.991838754947448e-06 -0 -0 -0.0006830440457095167 -0 -0 0.0004354402213782349 0 0 0 1:-942.52997 2:-673.18634 3:-17.523081 4:-430.96072 5:87.476639 6:-25.484745 7:-69.242676 8:0.14903039 9:3.4442329 10:2.4362187 11:0.1101401 
-0 -0 -1 -0 -0 -0 0 0 0 0 1:-942.53192 2:-673.11884 3:-19.306421 4:-468.94012 5:61.398022 6:-39.784042 7:-103.47858 8:0.48223197 9:1.1494472 10:2.189101 11:-0.03705252 
-7.965018548640426e-06 -0 -0 -0 -0 -0 -0 0 6.577449648517929e-10 0 1:-914.53516 2:-673.24823 3:-26.434048 4:-355.91605 5:-45.665665 6:-77.392151 7:-26.868534 8:5.2158613 9:-1.811087 10:0.1315562 11:-0.13190113 
-0 -1 -0.001675825019327008 -0.0004890721775488016 -0 -0.000461898766576108 -0 8.459391490554728e-06 0 0 1:-914.53259 2:-673.13452 3:-20.9377 4:-448.65549 5:7.4569068 6:-62.187408 7:-68.219879 8:2.8019125 9:-2.9223673 10:0.0029853892 11:-0.22054406 
-0 -0.0067286174146807 -0.0006868925967314306 -0.002242035118055765 -4.440669357969887e-05 -0.00107255780692654 -0.001030145410804216 4.453224797471775e-06 0 9.483481589689474e-07 1:-914.53296 2:-673.17822 3:-21.495947 4:-430.88242 5:48.931656 6:-41.804176 7:-92.595505 8:0.87201345 9:-3.4400384 10:0.25495496 11:-0.25214091 
-2.739529419298069e-07 -1 -0 -0 -0 -0 -0 -0 5.702773114267736e-08 0 1:280.24313 2:1777.5093 3:-20.407782 4:-461.2493 5:14.811847 6:-13.64637 7:-83.283264 8:-2.6848149 9:-4.1378551 10:-0.78642005 11:27.697821 
-0 -1 -0 -0 -9.035601172532414e-06 -0 -0 -0 0 0 1:-608.52087 2:-673.13336 3:-20.324551 4:-483.61902 5:-69.426147 6:179.3714 7:-79.742149 8:6.5751152 9:-3.0291078 10:-0.37044346 11:-0.26467097 
-0 -1 -0 -0 -0 -0 -0 -0 0 0 1:-608.52069 2:-673.13354 3:-19.789454 4:-489.69748 5:-47.975983 6:188.47833 7:-93.976135 8:5.5798383 9:-3.3630297 10:-0.3813796 11:-0.29350352 
-0 -1 -0 -0 -0 -0 -0 -0 0 0 1:6102.4873 2:-675.25281 3:-14.791295 4:-482.12192 5:-67.103287 6:179.12498 7:-80.651039 8:6.468318 9:-3.0424528 10:-0.37898812 11:-0.26879519 
-0 -1 -1.337413860206236e-05 -1.052258933456733e-05 -0 -0 -1.289390666593861e-05 -0 0 0.0746710159033336 1:-608.52075 2:-673.13678 3:-19.726566 4:-489.58582 5:-41.167603 6:188.25954 7:-97.647491 8:5.2719336 9:-3.4498029 10:-0.38235059 11:-0.2988463 
-3.268265170703005e-05 -1 -4.49248820513945e-06 -4.033504121664264e-06 -1.098341381116258e-05 -4.716928710900253e-05 -2.983050183910699e-06 -1.29126162880265e-05 0 0 1:-608.5213 2:-673.13794 3:-20.54818 4:-479.89951 5:-72.515221 6:170.62347 7:-75.867699 8:6.7386723 9:-2.9414637 10:-0.35882083 11:-0.25425941 
-4.436390433266642e-09 -0.03135133471823837 -0 -0 -0 -0 -0 -0 1.61633535324892e-13 1.66810591781072e-05 1:5130483.5 2:-2291.7571 3:110.34029 4:-336.41867 5:63.81987 6:-14.244741 7:20.626005 8:0.10549389 9:0.78197742 10:0.084509194 11:0.81395847 
-0 -0 -0 -0 -0 -0 -0 -0 5.982162978746428e-10 0 1:5134737.5 2:-2293.0964 3:118.45004 4:-338.62622 5:68.888344 6:-1.3527415 7:14.246511 8:-0.17549603 9:0.74385595 10:0.10151507 11:-1.2006838 
-0 -1 -0 -0 -0 -0 -0 -0 0 0 1:-608.52063 2:-673.13361 3:-19.674789 4:-491.00003 5:-43.379555 6:190.42992 7:-97.026291 8:5.3666973 9:-3.4337816 10:-0.38195798 11:-0.30049214 
-0 -1 -0 -0 -0 -0 -0 -0 -0 6.933499991746362e-10 1:53600.062 2:7623.666 3:-77.093422 4:-402.13715 5:-128.46077 6:-124.90423 7:25.926765 8:-2.6946766 9:-0.31200099 10:-0.029591395 11:2.0199761 
-0 -1 -0 -0 -0 -0 -0 -0 -0 0 1:53600.07 2:7623.7275 3:-73.717155 4:-456.11707 5:-63.387989 6:94.199112 7:-60.533592 8:-6.2491498 9:-2.188544 10:-0.33409566 11:1.788525 
-0 -1 -0 -0 -0 -0 -0 -0 -1.427411912987089e-09 0 1:53600.062 2:7623.6641 3:-77.162277 4:-400.6503 5:-128.87569 6:-124.91374 7:24.657579 8:-2.7068572 9:-0.27976209 10:0.17870009 11:2.0194826 
-0 -1 -0 -6.570240900142766e-10 -0 -0 -0 -0 -4.2334754440398e-09 0 1:53600.07 2:7623.7236 3:-73.819405 4:-453.97781 5:-60.957569 6:99.883453 7:-62.012051 8:-6.3622684 9:-2.2207782 10:-0.13193275 11:1.7878718 
-0 -0.1608814035301203 -0 -0 -0 -0 -0 -0 -0 0 1:53600.062 2:7623.665 3:-77.127846 4:-401.3938 5:-128.66824 6:-124.90879 7:25.292177 8:-2.7018609 9:-0.29334226 10:0.11443006 11:2.0181813 
-0 -1 -0 -0 -0 -0 -0 -0 -0 0 1:53600.07 2:7623.7393 3:-73.068611 4:-466.48608 5:-50.888088 6:136.28679 7:-77.141792 8:-6.9318242 9:-2.5466189 10:-0.38833463 11:1.7440521 
-0 -1 -0 -0 -0 -0 -0 -0 -0 0 1:53600.059 2:7623.6616 3:-77.235405 4:-399.40189 5:-127.95974 6:-124.41932 7:25.820297 8:-2.7198002 9:-0.30772051 10:-0.0070647378 11:2.0210176 
-0 -1 -0 -0 -0 -5.103130663566108e-12 -0 -0 -0 0 1:53600.059 2:7623.6621 3:-77.233269 4:-399.28262 5:-128.62517 6:-124.67143 7:24.604332 8:-2.7188082 9:-0.27943674 10:0.13992356 11:2.0199521 
-0 -1 -0 -0 -0 -0 -0 -0 -0 0 1:53600.059 2:7623.6616 3:-77.235413 4:-399.40189 5:-127.9597 6:-124.41933 7:25.820312 8:-2.7196918 9:-0.30560526 10:-0.020925237 11:2.0207341 
-0 -1 -6.570764207842544e-10 -0 -6.572680214057787e-10 -6.570795708431443e-10 -6.570796261076049e-10 -0 -3.451268236891163e-08 0 1:53600.07 2:7623.7246 3:-73.826302 4:-454.1395 5:-63.872776 6:91.965797 7:-59.609882 8:-6.2215443 9:-2.1658466 10:-0.33098948 11:1.7913419 
-0 -1 -0 -0 -0 -0 -0 -0 -1.134473409776695e-08 0 1:53600.062 2:7623.666 3:-77.093422 4:-402.13715 5:-128.46077 6:-124.90423 7:25.926765 8:-2.6946766 9:-0.31200099 10:-0.029591395 11:2.0199761 
-0 -1 -0 -0 -0 -0 -0 -0 -2.844562769116722e-09 0 1:53600.07 2:7623.7378 3:-73.099327 4:-465.60919 5:-50.567226 6:138.75264 7:-79.387802 8:-6.9818158 9:-2.5152955 10:-0.46968457 11:1.7360812 
-0 -0 -0 -0 -0 -0 -0 -6.577449648517929e-10 -3.202261503319363e-09 0 1:53600.062 2:7623.6699 3:-76.734154 4:-407.18341 5:-116.67995 6:-87.040718 7:11.112766 8:-3.3348372 9:-0.62417579 10:-0.048918162 11:1.9822954 
-0 -0 -0 -0 -0 -0 -0 -0 -5.361074219099408e-11 0 1:53600.074 2:7623.7446 3:-72.763412 4:-471.36557 5:-45.005939 6:156.09271 7:-84.957527 8:-7.253305 9:-2.7229447 10:-0.41694799 11:1.7224102 
-6.819569340158984e-10 -0 -0 -0 -0 -0 -0 -0 -0 0 1:53600.059 2:7623.6553 3:-77.448395 4:-395.29898 5:-127.20825 6:-123.69204 7:25.660563 8:-2.7574775 9:-0.30374789 10:-0.015235895 11:2.0214319 
-0 -1 -0 -0 -0 -0 -0 -0 -7.370235754862441e-12 0 1:53600.059 2:7623.6616 3:-77.235405 4:-399.40201 5:-127.9595 6:-124.41898 7:25.820467 8:-2.7197728 9:-0.29400772 10:0.1858812 11:2.0268126 
-9.964909020949603e-06 -1 -9.129641654016425e-07 -6.096968827069392e-07 -0 -7.740459321584084e-07 -9.129212361227414e-07 -9.483481589689474e-07 -0.00093561623711896 -6.933499991746362e-10 1:537.46692 2:-673.60559 3:-21.58675 4:-453.72995 5:55.627785 6:-40.947407 7:-99.486832 8:-2.425703 9:-3.6068554 10:-0.035214156 11:-0.32554355 
-0 -1 -0 -3.097149051575392e-07 -9.356861287330427e-07 -4.639002866458257e-07 -9.889872110752589e-11 -0 -0.07375208072539349 -0 1:537.47882 2:-673.49506 3:-20.694824 4:-491.89743 5:-40.422577 6:191.68785 7:-98.990089 8:1.2723005 9:-3.4446328 10:-0.32447749 11:-0.4372268 
