svm_type c_svc
kernel_type linear
nr_class 11
total_sv 282
rho 2683.89 -2.50785 -2.49708 -2.44212 -3.33374 -2.26358 -2.61991 -0.613817 -0.999317 -1.40051 -1268.91 -84.4896 -490.165 -459.994 -26.4333 -370.279 -3668.79 -4799.7 -29.5735 1027.18 -41.4879 97.484 -381.757 62.964 4.48313 -0.962553 0.275442 -6.10314 -22.6339 -127.515 68.2299 2.91777 -0.962481 0.245374 38.5688 3.89895 2.74209 4.87188 -0.962813 0.263718 -77.9933 18.5808 2.88935 -0.970136 0.13533 37.8024 3.83522 -0.962536 0.277699 2.58599 -0.963548 0.248823 -1.60166 -81.2657 1.01587 
label 4 0 3 13 9 14 8 6 20 11 5 
nr_sv 12 83 53 20 35 20 29 3 9 16 2 
SV 
0 0 0 0 0 0 0 0 6.819569340158984e-10 2.033887826255868e-08 1:89.448006 2:-674.51996 3:-61.31889 4:283.06866 5:-6.0624886 6:0.92614269 7:-2.0757596 8:-0.031613342 9:0.0032641345 
1 0 0 0 0 0 0 0 0 0 1:89.464249 2:-673.60974 3:-27.375696 4:-344.3732 5:20.038364 6:-46.644211 7:-68.089188 8:-0.83912092 9:-2.69171 
1 0 0 0 0 0 0 2.7641698173878e-05 0 9.925790426280432e-06 1:89.467216 2:-673.46216 3:-21.068295 4:-455.30426 5:56.129845 6:-40.847286 7:-99.946655 8:-2.4482043 9:-3.6189399 
1 0 0 0 0 0 0 0 0 0 1:89.463356 2:-673.57703 3:-29.655176 4:-326.89578 5:-117.78535 6:-107.19865 7:21.670671 8:5.5699387 9:-0.65350509 
0 0 8.646327307856594e-07 0 0 0 3.096657556957744e-07 0 0 0 1:-422.54788 2:-674.20673 3:-55.519516 4:182.60497 5:-12.199779 6:20.601233 7:-12.679725 8:0.22814967 9:-0.40342683 
1 6.7673109230538e-06 6.166986400549602e-06 6.248485060163494e-06 1.630763478803413e-05 5.94134399686628e-06 7.655352792944652e-06 0 0 0 1:-422.53577 2:-673.37744 3:-27.887724 4:-351.50128 5:-122.30978 6:-111.54267 7:22.623613 8:5.7966776 9:-0.68027931 
1 0 0 0 0 0 0 4.994418003055019e-06 0 1.877972004200951e-08 1:89.465492 2:-673.44592 3:-25.253494 4:-411.68903 5:-133.31633 6:-122.22945 7:24.971746 8:6.3486295 9:-0.74480486 
1 0 0 0 0 0 0 0 0 0 1:89.462807 2:-673.61084 3:-30.791094 4:-305.01364 5:-113.77735 6:-103.31974 7:20.818783 8:5.3689861 9:-0.62994385 
1 0 0 0 0 0 0 0 0 0 1:89.463051 2:-673.59607 3:-30.29413 4:-314.58707 5:-115.53085 6:-105.01676 7:21.191484 8:5.456903 9:-0.64025193 
0 0 0 0 0 0 0 3.289047886626338e-07 0 0 1:89.451775 2:-674.50378 3:-57.613132 4:236.64578 5:123.03591 6:108.74244 7:-99.721611 8:-6.1698747 9:-2.2182243 
0.325707233842879 0 0 0 0 0 0 0 0 0 1:89.462433 2:-673.63409 3:-31.572037 4:-289.96967 5:-111.02185 6:-100.65298 7:20.233109 8:5.2308311 9:-0.61374551 
1 0 0 0 0 0 0 0 0 0 1:89.462669 2:-673.61932 3:-31.075073 4:-299.54312 5:-112.77535 6:-102.35001 7:20.60581 8:5.318748 9:-0.6240536 
-0 0 0 0 0 0 0.1422809322384692 0 0 0 1:-912.53394 2:-673.12769 3:-24.224913 4:-413.03983 5:-133.70341 6:-122.43085 7:25.064917 8:3.3676343 9:-0.63609922 
-1 0 0 0 0 0 0 0 0 0.006229381995197845 1:-426.54834 2:-670.22614 3:-56.423981 4:198.2926 5:-21.57053 6:-14.084814 7:1.2072873 8:1.7330166 9:-0.035557233 
-0 0 0 0 0 0 0 0 0 0.6837160110412522 1:-906.52124 2:-673.06146 3:-20.125814 4:-476.82828 5:-41.767368 6:182.79106 7:-94.966064 8:-5.6592612 9:-2.9871192 
-0 0 0 1 0 0 0 0 0 0.2943734096732837 1:-909.52057 2:-673.04041 3:-19.346565 4:-490.87628 5:-39.722733 6:189.00746 7:-99.576584 8:-5.782886 9:-3.0795925 
-0 0 0 0 0.437011169312377 0 0.03613725546074339 0 0 0 1:-911.53223 2:-673.13684 3:-20.333567 4:-454.31082 5:30.839323 6:-51.816391 7:-91.976639 8:-8.4223804 9:-2.8432229 
-0 0 0 0.1164558137481656 0 0 0 0 0 0 1:-942.52246 2:-673.02649 3:-24.135029 4:-436.77072 5:-235.27689 6:109.17131 7:30.31468 8:1.4663185 9:4.964694 
-0 0 0 0 0 0 0 1 0 0 1:-846.4942 2:-644.05872 3:-1.4393312 4:-490.28311 5:-41.524448 6:189.31917 7:-97.740479 8:-5.6853552 9:-3.0700619 
-0 0 0 0 0.3863620482163256 0 0 0 0 0 1:-942.52643 2:-673.06689 3:-23.306194 4:-435.50891 5:-156.5049 6:38.178219 7:-2.8701849 8:-1.9844737 9:4.2673144 
-0 0 0 0 1 0 0 0 0 0 1:-942.52063 2:-673.0296 3:-19.355682 4:-490.67081 5:-41.808636 6:186.82387 7:-97.020256 8:2.4983821 9:1.6265376 
-0.2767388778526647 0 0 0 0 0 0 0 0 0 1:-837.53387 2:-673.14941 3:-24.052647 4:-416.35434 5:-126.84223 6:-119.75351 7:20.449537 8:9.0343857 9:-0.85055435 
-0 0 0 0 0 0 0 0 0.5751483297920283 0 1:-732.22369 2:310.81451 3:-24.486433 4:-411.62173 5:-133.45894 6:-122.47649 7:25.200939 8:-2.661783 9:-0.27815279 
-0 0 0 0 0 0 0 1 0 0 1:-388.52078 2:-673.20544 3:-19.898767 4:-490.20099 5:-40.425758 6:190.72751 7:-98.624443 8:5.2445745 9:-3.5556469 
-0 0 0 1 0 0 0 0 0 0 1:-942.51953 2:-669.03107 3:-19.410238 4:-489.68408 5:-42.291393 6:183.0643 7:-95.929443 8:22.350428 9:-3.9424922 
-0 0 0 0 0 0 7.090717839721043e-08 0 0 0 1:-912.53394 2:-673.12769 3:-24.224913 4:-413.03983 5:-133.70341 6:-122.43085 7:25.064917 8:3.3676343 9:-0.63609922 
-0 0 0 1 0 0 0 0 0 0 1:-930.52246 2:-673.04321 3:-20.665197 4:-473.33224 5:-82.330917 6:138.20863 7:-63.116104 8:7.2737861 9:-2.633909 
-0.6987821128923155 0 0.001747967960255865 0 0 0 0.532441247357345 0 0 0 1:-912.53198 2:-673.12811 3:-19.412758 4:-468.0578 5:58.028919 6:-41.113976 7:-101.38713 8:-5.5131669 9:-3.5754764 
-0 0 0 0 0 0 0 0 0 0.1105947833183537 1:-795.53204 2:-673.16852 3:-19.55715 4:-467.0498 5:62.614079 6:-39.07642 7:-101.74064 8:-1.6965953 9:-3.7281189 
-0 0 0 0 0 0 0 0 0.2186794611230773 0 1:10389.907 2:715.30536 3:-25.982899 4:-435.58258 5:-46.536922 6:-81.78418 7:-35.366539 8:-5.7407136 9:-1.6521704 
-0.04594504161873093 0 0 0 0 0 0 0 0 0 1:-837.53387 2:-673.14941 3:-24.052647 4:-416.35434 5:-126.84223 6:-119.75351 7:20.449537 8:9.0343857 9:-0.85055435 
-0 0 0 0.05400974165765952 0 0 0 0 0 0 1:-912.521 2:-673.04108 3:-19.499168 4:-488.81403 5:-44.142754 6:179.36511 7:-94.120674 8:1.4749187 9:-3.3377073 
-1 0 0 0 0 0 0 0 0 0 1:-837.53369 2:-673.14954 3:-23.593985 4:-421.56451 5:-108.45609 6:-111.94755 7:8.2488899 8:8.1815004 9:-1.1355501 
-0 0 0 0 0 0 0 0 1 0 1:87439.43 2:-700.95551 3:-106.76438 4:-448.05994 5:-95.09623 6:115.00668 7:-46.9356 8:7.9058471 9:-2.2408051 
-0.03542527683671595 0 0 0 0 0 0 0.5611643797067193 1 0.01587108677548041 1:174394.38 2:-728.43066 3:-188.95634 4:-450.32458 5:-14.478048 6:-75.527245 7:-49.843452 8:4.7942562 9:-2.4663889 
-0 0 0 0 0.9877338538175318 0 0 0 0 0 1:-741.5246 2:-673.13513 3:-21.429678 4:-456.82922 5:-68.321686 6:97.959579 7:-74.777786 8:6.5149598 9:-2.4895427 
-0 0 0 0 1 0 0 0 0 0 1:-942.52557 2:-673.05768 3:-24.373596 4:-425.50336 5:-209.23671 6:46.163372 7:24.503073 8:0.36373881 9:4.9621234 
-0 0.03805823415924028 0.001272968881850141 0 0 0.007552212319995845 0 0 0 0 1:-941.52472 2:-673.10547 3:-21.022167 4:-456.03162 5:6.0482874 6:142.85947 7:-75.308662 8:54.868332 9:-5.8309216 
-0 0 0 1 0 0 0 0 0 0 1:-942.52246 2:-673.02649 3:-24.135029 4:-436.77072 5:-235.27689 6:109.17134 7:30.314672 8:1.4663664 9:4.9649839 
-0 0 0 0 0 0 0.04935980266010786 0 0 0 1:-912.5321 2:-673.13068 3:-19.915812 4:-461.15997 5:40.510757 6:-48.208107 7:-93.760864 8:-8.7869244 9:-3.0519245 
-0 0 0 0 0 0 0 0.04332222088512497 1 0 1:160823.53 2:53599.852 3:-179.47307 4:-401.7735 5:-5.9001365 6:100.82436 7:-80.272369 8:-6.5706224 9:-0.31126255 
-0 0 0 1 0 0 0 0 0 0 1:-942.52246 2:-673.02649 3:-24.135029 4:-436.77072 5:-235.27689 6:109.17133 7:30.314674 8:1.4663577 9:4.9649315 
-0 0 0 1 0 0 0 0 0 0 1:-907.52081 2:-673.04016 3:-20.055628 4:-483.01935 5:-68.865196 6:178.79865 7:-80.728233 8:-4.4378467 9:-2.6596196 
-0 0 0 0.7048272291633774 0 0 0 0 0 0 1:-942.52246 2:-673.02649 3:-24.135029 4:-436.77072 5:-235.27689 6:109.17131 7:30.314671 8:1.4663361 9:4.9643526 
-0.4941209499758881 0 0 0 0 0 0 0 0 0 1:-829.53326 2:-673.21973 3:-22.208244 4:-419.79547 5:45.253941 6:-42.386005 7:-89.375473 8:-0.96510386 9:-3.2998545 
-0 0 0.002858072156077609 0 0 0 0 0 0 0 1:-933.52063 2:-637.12024 3:-19.455267 4:-467.55551 5:53.648476 6:-42.984852 7:-99.366394 8:-8.3660727 9:-3.3023155 
-0 0 0 0 0 0 0 1 0 0 1:-761.52057 2:-673.08679 3:-19.488913 4:-491.15186 5:-39.5308 6:191.07207 7:-98.475952 8:3.2472565 9:-3.5309236 
-0 0 0 1 0 0 0 0 0 0 1:-942.52246 2:-673.02649 3:-24.135029 4:-436.77072 5:-235.27689 6:109.17133 7:30.314674 8:1.4663577 9:4.9649315 
-0 0.1634173092468298 0 0 0 0 0 0 0 0 1:-942.53021 2:-673.12518 3:-24.030891 4:-412.75662 5:-107.478 6:-19.108135 7:-10.642619 8:-3.9660387 9:3.8916152 
-0.08122018801261618 0 0 0 0 0 0 0 0 0 1:-864.53247 2:-673.15912 3:-20.122673 4:-457.57413 5:58.491009 6:-40.256538 7:-89.264236 8:-0.34630057 9:-3.779458 
-0.754720011876897 0 0 0 0 0 0 0 0 0 1:-845.53387 2:-673.14764 3:-24.061874 4:-415.84927 5:-126.63876 6:-119.42477 7:19.474794 8:-0.99260259 9:-0.49164936 
-0 0 0 0 0.007413402231951776 0 0 0 0 0 1:-899.52063 2:-630.21051 3:-26.977106 4:-353.72549 5:-149.65131 6:-122.51094 7:-26.136971 8:-1.0418969 9:0.63887203 
-0 0 0 0 0 0 0 0 0 0.0002756705650847254 1:-897.52472 2:-628.52863 3:-36.558216 4:-160.73473 5:-69.174347 6:-67.932358 7:-62.591568 8:-4.9158559 9:0.19494046 
-0 0 0 0 0 0 0 0 1 0 1:-609.61505 2:24434.75 3:-26.697151 4:-377.62265 5:-122.65106 6:-123.81276 7:25.75256 8:-2.509809 9:-0.21843456 
-0 0.05654537271925306 0.000416699819172612 0 0 0.05998843913411595 0 0 0 0 1:-942.52734 2:-673.08191 3:-19.293818 4:-478.2265 5:19.633606 6:51.804523 7:-101.44435 8:-4.9926724 9:-1.0402189 
-0 0 0 0 0 0 0 0 0 0.1017967221878793 1:-851.52661 2:-673.11707 3:-19.893604 4:-470.72162 5:10.696862 6:71.644852 7:-99.854362 8:57.28688 9:-5.6349592 
-0 0 0 3.023659397228222e-05 0 0 0 0 0 0 1:-764.88385 2:-567.68097 3:32997.699 4:1272.7916 5:-107.18127 6:48.987659 7:198.56943 8:0.85086906 9:4.5392327 
-0 0.2951791290078086 0 0 0 0 0 0 0 0 1:-942.52399 2:-673.08392 3:-23.126429 4:-433.38629 5:-116.63873 6:117.90754 7:-36.123962 8:-3.9358866 9:3.438432 
-0 0 0 0 0 6.178164040274288e-07 0 0 0 0 1:-894.37701 2:-178.17879 3:-20.821661 4:-443.83466 5:79.713013 6:-30.193138 7:-80.978897 8:8.9707737 9:-4.460084 
-0 0 0 0 0 0 0.001591404565891694 0 0 0 1:-930.53149 2:-673.11292 3:-20.77281 4:-454.62842 5:-8.0379477 6:-44.442726 7:-64.002441 8:4.425077 9:-2.8310366 
-1 0 0 0 0 0 0 0 0 0 1:-837.53369 2:-673.14954 3:-23.593985 4:-421.56451 5:-108.45609 6:-111.94755 7:8.2488899 8:8.1815004 9:-1.1355501 
-0 0 0 0 0 0 0.006476177176789779 0 0 0 1:-912.53394 2:-673.12769 3:-24.224913 4:-413.03983 5:-133.70341 6:-122.43085 7:25.064917 8:3.3676343 9:-0.63609922 
-0 0 0 1 0 0 0 0 0 0 1:-912.52112 2:-673.04211 3:-19.556393 4:-487.89911 5:-45.245682 6:175.6515 7:-92.655243 8:1.5351664 9:-3.3058701 
-0 0 0 0.3396658065147239 0 0 0 0 0 0 1:-911.52063 2:-673.039 3:-19.746033 4:-486.49265 5:-56.608078 6:184.00275 7:-88.861977 8:-5.0065837 9:-2.8505096 
-0 0 0 0 0 0 0 0 1 0 1:87439.422 2:-701.00464 3:-106.01932 4:-444.28336 5:-10.759558 6:-6.1829486 7:-67.556763 8:4.4319735 9:-2.8364127 
-0 0 0 0.4639380582959818 0 0 0 0 0 0 1:-932.51105 2:-636.04993 3:-19.404598 4:-485.94397 5:-23.341709 6:145.06496 7:-97.27037 8:-5.3958025 9:-3.0851972 
-0 0 0 0 0.3027785365403483 0 0.1259102057013373 0 0 0 1:-906.53235 2:-673.12988 3:-20.4818 4:-455.97198 5:15.085865 6:-60.269688 7:-73.411987 8:51.460999 9:-4.9280691 
-0 0 0 0 0.43710684804929 0 0 0 0 0 1:-913.52686 2:-673.10376 3:-20.722765 4:-457.31433 5:-19.645906 6:58.415527 7:-92.467957 8:-6.5313911 9:-2.5652468 
-0 0 0 0 0 0 0 0 1 0 1:-709.42963 2:-342.18982 3:-24.378643 4:-413.9473 5:-134.00798 6:-122.69032 7:25.240969 8:-2.6530311 9:-0.28126806 
-0 0 0 0 0 0 0 0 1 0 1:-632.41046 2:-281.21631 3:-24.528751 4:-412.49203 5:-133.7272 6:-122.45361 7:25.1898 8:-2.665338 9:-0.27960062 
-0 0 0 1 0 0 0 0 0 0 1:-942.52246 2:-673.02649 3:-24.135029 4:-436.77072 5:-235.27689 6:109.17133 7:30.314674 8:1.4663533 9:4.9649053 
-0 0 0 1 0 0 0 0 0 0 1:-942.51971 2:-669.03247 3:-19.486538 4:-488.46426 5:-43.761936 6:178.11279 7:-93.975426 8:22.430656 9:-3.8990109 
-0 0 0 0 0.2889195335631023 0 0 0 0 0 1:-942.52075 2:-673.03027 3:-19.393833 4:-490.06097 5:-42.54388 6:184.34807 7:-96.043137 8:2.538394 9:1.6493099 
-0.9999642360784854 0 0 0 0 0 0 0 0 0 1:-837.53387 2:-673.14941 3:-24.052647 4:-416.35434 5:-126.84223 6:-119.75351 7:20.449537 8:9.0343857 9:-0.85055435 
-0 0 0 0 0 0 0.09455866697795673 0 0 0 1:-942.53339 2:-673.11633 3:-22.864655 4:-428.77771 5:-83.511848 6:-101.17018 7:-8.2839079 8:-4.8097763 9:3.8641844 
-0 0 0 1 0 0 0 0 0 0 1:-932.50958 2:-635.03961 3:-19.445496 4:-487.98221 5:-37.222576 6:167.24428 7:-95.303955 8:-4.8284721 9:-2.94385 
-0 0 0 0 0 0 0 0.01600336246405016 0 0 1:-788.18512 2:-567.93945 3:9696.5098 4:22.511274 5:-80.498932 6:196.9767 7:-10.551098 8:2.63924 9:-0.99661636 
-0 0 0 0 0 0 0 0 1 0 1:-773.43341 2:-354.16962 3:-24.31637 4:-413.96341 5:-134.01541 6:-122.6873 7:25.240042 8:-2.653017 9:-0.28133193 
-0 0 0 1 0 0 0 0 0 0 1:-909.52106 2:-673.04285 3:-20.313549 4:-479.0105 5:-75.34597 6:171.88539 7:-76.992653 8:-4.1511555 9:-2.489423 
-0 0 0 0.5807351285139757 0 0 0 0 0 0 1:-942.52057 2:-673.02783 3:-19.663143 4:-487.56934 5:-56.014702 6:185.27901 7:-88.640701 8:-6.8516831 9:2.1720748 
-0 0 0 0.4773743666541704 0 0 0 0 0 0 1:-934.47748 2:-535.03412 3:-19.60581 4:-487.32703 5:-48.848022 6:177.41394 7:-90.973793 8:-3.3284898 9:-2.8674605 
-1 0 0 0 0 0 0 0 0 0 1:-840.53387 2:-673.15021 3:-24.062864 4:-415.54004 5:-125.31387 6:-118.77953 7:17.823458 8:-1.0681922 9:-0.50306439 
-0 0 0 0.3847705073557339 0 0 0 0.9254189944746826 0 0 1:-906.52051 2:-673.04181 3:-19.405256 4:-490.20914 5:-40.830227 6:190.75458 7:-98.447929 8:-5.7194452 9:-3.0837991 
-0 0 0 0 0 0 0 0 0 0.7871429344434721 1:-797.53192 2:-673.16333 3:-19.408987 4:-469.54572 5:60.779694 6:-40.066895 7:-104.06733 8:-1.6675529 9:-3.7235851 
-0 1 0 0 0 0 0 0 0 0 1:-942.52814 2:-673.08282 3:-20.803982 4:-460.75452 5:-39.352711 6:22.490263 7:-61.261105 8:-6.0802035 9:4.5412226 
-0.04102315044423451 0 0 0 0 0 0 0 0 0 1:14933.458 2:-678.16119 3:-38.370216 4:-415.83176 5:-43.166611 6:-82.739929 7:-32.661957 8:6.1101894 9:-2.0732477 
-0.897767388254433 0 0 0 0 0 0 0 0 0 1:-837.53387 2:-673.14941 3:-24.052647 4:-416.35434 5:-126.84223 6:-119.75351 7:20.449537 8:9.0343857 9:-0.85055435 
-0 0 0 0 0 0 0 0.1279131775456286 1 0 1:59984.602 2:-200.25864 3:-82.088966 4:-438.62463 5:-207.12918 6:84.328491 7:21.154459 8:1.0759692 9:-0.2062306 
-0 0 0 0 0 0 0 1 1 0 1:58333.445 2:-691.75586 3:-77.668556 4:-466.53656 5:-75.079933 6:89.643967 7:-55.883305 8:7.0607228 9:-2.4855895 
-0 0 0 1 0 0 0 0 0 0 1:-913.52185 2:-673.04633 3:-20.182875 4:-479.47885 5:-65.063072 6:155.53162 7:-77.626221 8:-4.5427647 9:-2.5704355 
-0 0 0 0 0.2872914576079792 0 0 0 0 0 1:-942.52148 2:-673.02856 3:-21.704161 4:-463.94449 5:-136.26193 6:150.21039 7:-35.916588 8:-3.1446528 9:3.4388933 
-0 0 0 0 0 0 0 0 0.774794399295566 0 1:-622.78406 2:23898.754 3:-26.6709 4:-377.66479 5:-123.10492 6:-123.79276 7:25.106577 8:-2.521524 9:-0.21744522 
-0 0 0 1 0 0 0 1 0 0 1:-942.51923 2:-669.02899 3:-19.295784 4:-491.5134 5:-40.085785 6:190.49182 7:-98.861343 8:22.230904 9:-4.0159674 
-0 0.01889718287557604 0.0002921032475621689 0 0 0 0.01124423695418325 0 0 0 1:-899.5304 2:-630.74384 3:-44.77676 4:-17.336824 5:-60.204819 6:-51.794296 7:9.8260775 8:-4.3141594 9:0.028927598 
-0 0 0 0 0 0 0 0 0.5922592132492391 0 1:41815.578 2:-296.53693 3:-61.463657 4:-449.85144 5:-146.6532 6:84.011192 7:-14.214175 8:-1.677148 9:-1.0430199 
-0 -0 0 0 0 0 0 0 6.570764207842544e-10 6.668398182006904e-08 1:-942.53577 2:-673.25769 3:-23.803984 4:-392.18143 5:117.75062 6:-9.3369331 7:-31.956581 8:-0.44147739 9:1.2209877 
-0 -0 0 0 0 1 0 0 0 0 1:-942.53345 2:-673.17523 3:-21.134773 4:-437.74182 5:84.321976 6:-27.405163 7:-74.396477 8:0.1417904 9:2.04638 
-5.4155035549954e-06 -1 0.01933028900943453 0 0 0 2.106317260840055e-05 0 0 0 1:-942.52887 2:-673.10876 3:-22.814251 4:-430.74258 5:-81.633438 6:9.5824795 7:-34.137917 8:-4.1848183 9:4.6908827 
-0 -0 0 0 0 1 0 0 0 0 1:-942.53503 2:-673.23059 3:-22.926435 4:-407.16019 5:106.76038 6:-15.277176 7:-45.90942 8:-0.24963111 9:1.4934231 
-0 -0 0 0 0 0.5325891785288416 0 0 0 0 1:-942.54071 2:-673.43719 3:-29.617741 4:-292.94711 5:190.56096 6:30.017166 7:60.480972 8:-1.712209 9:-0.58080918 
-0 -0 0 0 0 1 0 0 0 0 1:-942.53516 2:-673.23511 3:-23.072693 4:-404.66373 5:108.59209 6:-14.287132 7:-43.583946 8:-0.28167009 9:1.4472361 
-0 -0 0 0 0 0.5210836778674042 0 0 0 0 1:-942.53656 2:-673.28699 3:-24.754608 4:-375.94852 5:129.63065 6:-2.9057529 7:-16.851101 8:-0.70560902 9:-0.44151345 
-0 -0 1 0 0 0 0 0 0 0 1:-942.54004 2:-673.40985 3:-28.910006 4:-305.84674 5:171.98445 6:20.893011 7:49.877304 8:-1.2534631 9:-1.545405 
-0 -0 0 0 0 1 0 0 0 0 1:-942.53827 2:-673.34796 3:-26.729145 4:-342.2522 5:154.38475 6:10.463872 7:14.55289 8:-1.0807871 9:0.31511018 
-0 -0 0 0 0 0.1213494442900239 0 0 0 0 1:-942.53571 2:-673.25598 3:-23.727352 4:-393.38541 5:117.62417 6:-9.842473 7:-33.48563 8:21.550058 9:0.97081375 
-0 -0 0 0 0 0.4065739297593454 0 0 0 0 1:-942.53815 2:-673.3446 3:-26.61945 4:-344.12454 5:153.01099 6:9.7213459 7:12.808776 8:-1.0568899 9:0.34812996 
-0 -0 0 0 0 1 0 0 0 0 1:-942.53571 2:-673.25543 3:-23.730854 4:-393.42966 5:116.83476 6:-9.8319521 7:-33.119324 8:-0.42551512 9:1.2433774 
-0 -0 1 0 0 0 0 0 0 0 1:-942.53961 2:-673.39764 3:-28.337931 4:-314.78525 5:174.50746 6:21.350231 7:40.122993 8:-1.4887505 9:-1.5511011 
-0 -0.5263588240080499 0 0 0 0 0 0 0 0 1:-942.52496 2:-673.06964 3:-20.0627 4:-473.05478 5:-19.59082 6:103.81763 7:-84.434433 8:-4.1184988 9:3.3077908 
-0 -0 0 0 0 0.02747119839899981 0 0 0 0 1:-942.5351 2:-673.23285 3:-22.999565 4:-405.91196 5:107.67623 6:-14.782155 7:-44.746677 8:-0.26562864 9:1.4706073 
-0 -0 0 0 0 1 0 0 0 1.128938896198415e-07 1:-942.53192 2:-673.11981 3:-19.360037 4:-467.98041 5:60.423004 6:-40.115574 7:-103.60276 8:0.51169002 9:1.2074404 
-0 -0 0 0 0 1 0 0 0 0 1:-942.53503 2:-673.23059 3:-22.926435 4:-407.16019 5:106.76038 6:-15.277173 7:-45.909424 8:-0.24968833 9:1.4927194 
-0 -0 0 0 0 0.1820744235947711 0 0 0 0 1:-942.5351 2:-673.23383 3:-23.053104 4:-404.95132 5:106.70267 6:-15.112485 7:-44.872948 8:-0.23480311 9:1.4935313 
-0 -0 0 0 0 0 0 0 0 5.377606192134443e-09 1:-942.54047 2:-673.44147 3:-30.281136 4:-280.50238 5:159.4115 6:17.881617 7:47.56757 8:-0.83344829 9:0.19897944 
-0 -0 0 0 0 0.002689090950124701 0 0 0 0 1:-942.5412 2:-673.4707 3:-30.74939 4:-270.82611 5:193.23805 6:33.390877 7:57.197033 8:-1.9065728 9:-0.5127216 
-0 -0 0.7348419183710183 0 0 0 0 0 0 0 1:-942.53784 2:-673.33215 3:-26.21719 4:-350.98392 5:147.94769 6:6.9946446 7:6.4036274 8:-1.0252455 9:-0.89428788 
-0 -0 0 0 0 0.9752602839562871 0 0 0 0 1:-942.53503 2:-673.23364 3:-23.010571 4:-405.48792 5:107.56583 6:-15.394011 7:-46.104904 8:37.651882 9:-1.263762 
-0 -0 0 0 0 1 0 0 0 0 1:-942.53204 2:-673.12469 3:-19.506763 4:-465.58621 5:63.338871 6:-38.877052 7:-100.23519 8:11.517115 9:2.1493192 
-0 -0 0 0 0 0.2851586080501819 0 0 0 0 1:-942.53491 2:-673.22717 3:-22.816742 4:-409.03253 5:105.3866 6:-16.019703 7:-47.653522 8:-0.22570324 9:1.5268497 
-0 -0 1 0 0 0 0 0 0 0 1:-942.53979 2:-673.40887 3:-28.875956 4:-305.228 5:168.09296 6:19.450127 7:40.857044 8:-1.2651657 9:-1.3902292 
-0 -0 0 0 0 0.2641375106352551 0 0 0 0 1:-942.53198 2:-673.12109 3:-19.379356 4:-467.69498 5:62.411968 6:-39.287235 7:-102.33599 8:2.5197132 9:2.4878061 
-0 -0 0.5590252996268236 0 0 0 0 0 0 0 1:-942.54077 2:-673.43365 3:-29.871155 4:-290.6947 5:174.63144 6:23.094913 7:68.395721 8:-1.0130563 9:-0.32133162 
-0 -0 0 0 0 1 0 0 0 5.561566616323429e-07 1:-942.53192 2:-673.11884 3:-19.30654 4:-468.94733 5:61.424438 6:-39.780804 7:-103.46539 8:0.53798908 9:2.5680332 
-0 -0 1 0 0 0 0 0 0 0 1:-942.54126 2:-673.46179 3:-30.611465 4:-275.55807 5:188.1841 6:30.505266 7:67.473747 8:-1.6017411 9:-1.8857391 
-0 -0 0 0 0 0.1531421862458347 0 0 0 0 1:-942.53223 2:-673.13013 3:-19.67219 4:-462.70639 5:66.004776 6:-37.305576 7:-97.651268 8:0.46099824 9:2.4934907 
-0 -0 0 0 0 0.0005658832039192886 0 0 0 0 1:-942.53992 2:-673.40784 3:-28.667011 4:-309.16821 5:178.6288 6:23.577822 7:45.355312 8:-1.5606929 9:-1.6532531 
-0 -0 0.3931993743795308 0 0 0 0 0 0 0 1:-942.53833 2:-673.35187 3:-26.911173 4:-339.10263 5:152.90207 6:10.303603 7:15.655278 8:-13.070655 9:-0.5837751 
-0 -0 1 0 0 0 0 0 0 0 1:-942.53998 2:-673.41089 3:-28.810659 4:-306.62286 5:177.13966 6:23.164673 7:45.684162 8:-1.5067869 9:-1.6157895 
-1.351807368058401e-06 -0 0 0 0 0 0 0 0 0 1:-942.53491 2:-673.22528 3:-24.035702 4:-392.24362 5:44.20776 6:-41.388168 7:-37.657913 8:3.1029913 9:2.682529 
-0 -0 1 0 0 0 0 0 0 0 1:-942.53998 2:-673.41089 3:-28.810659 4:-306.62286 5:177.13965 6:23.164673 7:45.68417 8:-1.5067782 9:-1.6156602 
-0 -0 1 0 0 0 0 0 0 0 1:-942.54041 2:-673.42389 3:-29.587027 4:-294.86761 5:166.84906 6:19.522552 7:58.16312 8:-0.95278639 9:-1.466063 
-0 -0 0 0 0 1 0 0 0 0 1:-942.53192 2:-673.11993 3:-19.343105 4:-468.3233 5:61.882797 6:-39.533245 7:-102.88386 8:0.531192 9:2.5724638 
-0 -0 0 0.002047859655484402 0 0.04760765002188759 0 0 0 0 1:-942.53186 2:-673.11823 3:-19.266554 4:-469.52377 5:61.744617 6:-40.045994 7:-104.41862 8:22.507269 9:1.7487966 
-0 -0 0 0.01599621802544 0.02806911375438375 0 0 1.78666666849261e-05 0 0 1:-942.52148 2:-673.05585 3:-20.30913 4:-472.89877 5:-42.513744 6:178.3576 7:-93.115204 8:-2.3960319 9:3.2572315 
-0 -0 0 0 0 0.9725288016010002 0 0 0 0 1:-942.53503 2:-673.23059 3:-22.926435 4:-407.16019 5:106.76038 6:-15.277173 7:-45.909424 8:-0.24968833 9:1.4927194 
-0 -0 0.5157086618891543 0 0 0 0 0 0 0 1:-942.54047 2:-673.43524 3:-29.838387 4:-288.56674 5:171.92598 6:22.501186 7:51.271759 8:-1.2621911 9:-1.4826909 
-0 -0 0 0 0 0.2359063180570729 0 0 0 0 1:-942.53668 2:-673.29041 3:-24.864304 4:-374.07617 5:131.00443 6:-2.1632261 7:-15.106997 8:-0.72953689 9:-0.47494015 
-0 -0 0 0 0 1 0 0 0 0 1:-942.53192 2:-673.11993 3:-19.343103 4:-468.32333 5:61.882893 6:-39.533207 7:-102.88377 8:0.53075403 9:2.5675662 
-0 -0.04573840400066197 0 0 0.07087026005507492 0 0.001154183402622917 0 0 1.718517423627102e-07 1:-942.53229 2:-673.11743 3:-20.301817 4:-457.84595 5:19.631245 6:-57.592876 7:-76.613167 8:3.4622481 9:3.1654959 
-0 -0 0 0 0 0 9.698661412982894e-05 0 0 0 1:-942.53247 2:-673.14362 3:-20.207216 4:-453.12051 5:64.186539 6:-37.830971 7:-95.527802 8:36.53561 9:1.223007 
-0 -0 0 0 0.1083820069310923 0 0 0 0 0 1:-942.53198 2:-673.11761 3:-19.46109 4:-467.40012 5:53.303783 6:-43.281151 7:-98.964195 8:0.90031409 9:2.6793203 
-0 -0 1 0 0 0 0 0 0 0 1:-942.53998 2:-673.41382 3:-28.971283 4:-303.74103 5:174.21909 6:22.173691 7:45.305397 8:-1.4139134 9:-1.542268 
-0 -0 0 0 0 0.005372735189051056 0 0 0 0 1:-942.53986 2:-673.40558 3:-28.593935 4:-310.42233 5:177.739 6:23.086884 7:44.202671 8:-1.4883856 9:-0.26290965 
-0 -0 0 0 0 0.0003167173394573978 0 0 0 0 1:-942.53375 2:-673.31042 3:-26.581484 4:-353.11884 5:115.40221 6:97.061485 7:13.613326 8:31.382652 9:-0.65814215 
-0 -0 1 0 0 0 0 0 0 0 1:-942.53979 2:-673.40704 3:-28.751896 4:-307.48572 5:171.47153 6:20.688631 7:41.817188 8:-1.3659606 9:-1.4742657 
-0 -0 0 0 0 0.0001755420231946592 0 0 0 0 1:-942.52362 2:-673.14246 3:-22.989027 4:-428.42664 5:4.953239 6:215.28253 7:-41.016468 8:3.6362195 9:0.45740151 
-0 -0 0 0 0 0 0.001091465781665204 0 0 0 1:-942.53314 2:-673.15607 3:-21.746664 4:-432.22574 5:21.721512 6:-54.309006 7:-66.073196 8:-4.4841485 9:3.4687276 
-0 -0 0 0 0 1 0 0 0 0 1:-942.53503 2:-673.23059 3:-22.926435 4:-407.16019 5:106.76038 6:-15.277173 7:-45.909424 8:-0.24968833 9:1.4927194 
-0 -0 -0 0 0 0 0 0 6.570240900142766e-10 0 1:-942.54779 2:-673.69336 3:-37.918083 4:-151.27151 5:294.414 6:86.199615 7:192.47513 8:-5.5821609 9:-4.4791718 
-0 -0 -1 0 0 0 0 0 0 0 1:-942.53986 2:-673.40668 3:-28.630388 4:-309.79251 5:178.17174 6:23.330391 7:44.773911 8:-1.555095 9:-1.6672481 
-0 -0 -1 0 0 1 0 0 0 0 1:-942.53644 2:-673.28247 3:-24.608307 4:-378.44504 5:127.79939 6:-3.8959522 7:-19.176683 8:-0.67585701 9:-0.43021891 
-0 -0 -0 0 0 0.01850907214438257 0 0 0 0 1:-936.54266 2:-669.69458 3:-33.890362 4:-151.61429 5:294.55508 6:85.918091 7:191.55782 8:14.202337 9:-10.076287 
-0 -0 -0 0 0 0.04656407544009961 0 0 0 0 1:-942.54639 2:-673.64148 3:-36.235828 4:-179.98172 5:273.44235 6:74.817329 7:165.70723 8:-3.1720469 9:-2.8641133 
-0 -0 -1 0 0 0 0 0 0 0 1:-942.54028 2:-673.42133 3:-29.105728 4:-301.67902 5:184.12479 6:26.548019 7:52.331696 8:-1.6589926 9:-1.8145865 
-0 -0 -0 0 0 0.01311396559041216 0 0 0 0 1:-941.53278 2:-673.1604 3:-21.134703 4:-437.43219 5:49.568302 6:-42.189671 7:-91.04113 8:0.88761467 9:-3.5017042 
-0 -0 -1 0 0 0.7652920108005588 0 0 0 0 1:-942.53937 2:-673.38861 3:-28.045361 4:-319.77832 5:170.84489 6:19.370186 7:35.472027 8:-1.4270511 9:-1.4846201 
-0 -0 -0.9859073220740646 0 0 0.2973309377172024 0 0 0 0 1:-942.54779 2:-673.69336 3:-37.91811 4:-151.27678 5:294.43637 6:86.20433 7:192.48399 8:-5.5354538 9:-3.2957006 
-0 -0 -1 0 0 0 0 0 0 0 1:-942.54175 2:-673.47437 3:-30.824572 4:-272.34991 5:205.57652 6:38.182617 7:79.689766 8:-4.0310369 9:-2.268126 
-0 -0.003001069012095711 -0.02174214846116277 0.0001156194696874626 0.000474386349376728 0.0002548948770099484 2.044207554741959e-05 1.455672754312194e-05 0 9.194138911604492e-07 1:-936.5213 2:-647.14441 3:-21.072104 4:-446.59726 5:48.921093 6:51.505543 7:-73.883308 8:5.5263324 9:3.4201291 
-0 -0 -1 0 0 0 0 0 0 0 1:-942.53857 2:-673.35925 3:-27.094685 4:-336.00525 5:158.93845 6:12.934935 7:20.356365 8:-1.2198733 9:-1.2041752 
-0 -0 -0.5969681893015929 0 0 0 0 0 0 0 1:-942.54779 2:-673.69336 3:-37.91811 4:-151.27678 5:294.43637 6:86.20433 7:192.48399 8:-5.5355082 9:-3.296756 
-0 -0.002814042794518834 -0 0 0 0 0.002670384359328325 0 0 0 1:-941.53284 2:-673.15924 3:-21.251028 4:-436.31949 5:42.981468 6:-45.039192 7:-87.55574 8:1.1798259 9:-3.3994365 
-0 -0 -1 0 0 0 0 0 0 0 1:-942.53943 2:-673.39087 3:-28.118488 4:-318.53009 5:171.76076 6:19.865208 7:36.634758 8:-1.4430573 9:-1.5075651 
-0 -0.0007727002583038504 -0 0 0.01930854581189902 0 0 0 0 0 1:-941.53192 2:-673.12006 3:-19.361101 4:-467.9538 5:60.330997 6:-40.145676 7:-103.64654 8:0.35146606 9:-3.7677419 
-0 -0 -1 0 0 1 0 0 0 0 1:-942.53845 2:-673.35474 3:-26.948429 4:-338.50171 5:157.10672 6:11.944879 7:18.030893 8:-1.187858 9:-1.1587282 
-0 -0 -1.74060964774888e-08 0 0 0 0 0 0 0 1:-942.54779 2:-673.69336 3:-37.918106 4:-151.27676 5:294.43634 6:86.204338 7:192.48398 8:-5.5355611 9:-3.2977643 
-7.03161913133526e-06 -0 -0.6174878660330787 0 0 0.004166479126173122 4.035288592995676e-05 0 0 0 1:-941.53656 2:-673.31122 3:-28.239069 4:-319.53729 5:-4.5314698 6:-56.057266 7:-19.829756 8:3.7873559 9:-2.5222533 
-0 -0 -1 0 0 1 0 0 0 0 1:-942.53485 2:-673.22491 3:-22.743525 4:-410.27487 5:104.44507 6:-16.519102 7:-48.826458 8:-0.26786026 9:0.14949265 
-0 -0 -0 -0 0 0 0 0 6.572680214057787e-10 0 1:-934.52258 2:-673.05023 3:-24.864952 4:-421.02768 5:-239.11511 6:108.11578 7:16.820438 8:7.1930952 9:-0.042645719 
-0 -0.932598358784149 -0 -0 0 0 0 1.691977877060162e-05 0 9.356861634155037e-07 1:-924.52045 2:-673.03375 3:-19.373856 4:-491.00159 5:-43.637466 6:190.446 7:-96.921646 8:-1.578126 9:-3.2827494 
-2.621956543199917e-07 -1 -0.01484416482156459 -0.0001156194696874626 0.09952126362657207 0.0003550287406872608 4.44094429465064e-05 0 0 0 1:-942.52258 2:-673.04517 3:-19.277229 4:-487.66913 5:-21.13883 6:147.9682 7:-99.963081 8:3.6724293 9:1.4380773 
-0 -1 -0 -0 0 0 0 0 0 0 1:-942.4776 2:-540.02863 3:-18.312222 4:-491.35355 5:-40.719082 6:190.54836 7:-98.410461 8:-0.48594335 9:3.5876508 
-0 -0 -0 -0 0.370922656674044 0 0 0 0 0 1:-934.52118 2:-673.04822 3:-21.531965 4:-459.94611 5:-109.02568 6:163.09763 7:-67.187935 8:1.1992731 9:-2.0984325 
-0 -1 -0 -0 0 0 0 0 0 0 1:-924.521 2:-673.03333 3:-20.673378 4:-476.23959 5:-95.730759 6:168.32925 7:-62.353424 8:0.8391028 9:-2.4710274 
-0 -1 -0 -0 0 0 0 0 0 0 1:-942.5224 2:-673.0437 3:-19.277372 4:-488.02066 5:-22.732576 6:151.6187 7:-99.88356 8:3.7342906 9:1.4431543 
-0 -0 -0 -0 0.6171916465988343 0 0 0 0 0 1:-934.52063 2:-673.03088 3:-19.612696 4:-488.09131 5:-53.198288 6:185.3054 7:-90.33297 8:-1.1316787 9:-3.1302161 
-0 -1 -0 -0 0 0 0 0 0 0 1:-924.52063 2:-673.03363 3:-19.756067 4:-486.65982 5:-58.959023 6:183.94107 7:-86.754524 8:-0.86717629 9:-3.0440075 
-0 -0 -0 -0 1 0 0 0 0 0 1:-934.52118 2:-673.03442 3:-21.011721 4:-470.78955 5:-104.58955 6:163.81921 7:-59.320087 8:1.1921217 9:-2.301595 
-0 -0 -0 -0 0.3398001794978773 0 0 0 0 0 1:-934.52264 2:-673.06598 3:-25.415838 4:-409.13141 5:-242.43393 6:108.03454 7:6.666656 8:7.1200166 9:0.16225506 
-0 -0 -0 -0 1 0 0 0 0 0 1:-934.52081 2:-673.07477 3:-21.353205 4:-452.55011 5:-70.592125 6:182.73744 7:-113.78722 8:-0.9703185 9:-2.4435835 
-0 -1 -0 -0 0 0 0 6.373441462422248e-08 0 0 1:-924.52197 2:-673.03345 3:-22.699032 4:-453.05249 5:-176.13805 6:132.02766 7:-8.5073671 8:4.5758786 9:-1.2103237 
-0 -0.1892085297136127 -0 -0 0.6761223373913904 0 0 0 0 0 1:-934.52264 2:-673.06403 3:-25.346977 4:-410.61844 5:-242.01909 6:108.04469 7:7.9358788 8:7.1291513 9:0.13664247 
-0 -0 -0.001115373519468718 -0 0 0 0 0 0 0 1:-934.52081 2:-673.07611 3:-21.3876 4:-451.71872 5:-70.401115 6:181.81973 7:-114.44171 8:-0.99036831 9:-2.4322073 
-0 -1 -0 -0 0 0 0 0 0 0 1:-924.52112 2:-673.03326 3:-20.902704 4:-473.63455 5:-104.92369 6:164.4263 7:-56.253151 8:1.2656726 9:-2.3277822 
-0 -1 -0 -0 0 0 0 3.035509207758032e-06 0 0 1:-924.52246 2:-673.03235 3:-24.15151 4:-436.72958 5:-235.15692 6:109.13445 7:30.167414 8:7.3087444 9:-0.29847723 
-0 -1 -0 -0 0 0 0 0 0 0 1:-924.52094 2:-673.03339 3:-20.463161 4:-478.62756 5:-87.303902 6:171.90697 7:-67.945343 8:0.44808051 9:-2.6023352 
-0 -1 -0 -0 0 0 0 0 0 0 1:-924.521 2:-673.03333 3:-20.673378 4:-476.23959 5:-95.730759 6:168.32925 7:-62.353424 8:0.8391028 9:-2.4710274 
-0 -0 -0 -0 1 0 0 0 0 0 1:-934.52075 2:-673.07416 3:-21.204077 4:-454.50827 5:-65.389801 6:183.78137 7:-116.22263 8:-1.1944966 9:-2.5293105 
-0 -1 -0 -0 0 0 0 0 0 0 1:-924.52246 2:-673.03235 3:-24.15151 4:-436.72958 5:-235.15692 6:109.13445 7:30.167414 8:7.3087444 9:-0.29847723 
-0 -0 -0 -0 1 0 0 0 0 0 1:-934.5213 2:-673.0639 3:-22.235737 4:-446.31311 5:-118.47313 6:160.41441 7:-73.274864 8:1.4105744 9:-1.798035 
-0 -0 -0 -0 0.8173846317160931 0 0 0 0 0 1:-934.52252 2:-673.05579 3:-25.071569 4:-416.65445 5:-240.7581 6:108.99795 7:13.03265 8:7.1811557 9:0.035516731 
-0 -0 -0 -0 1 0 0 0 0 0 1:-934.52258 2:-673.06659 3:-25.450304 4:-408.47577 5:-243.03979 6:108.94209 7:6.0519247 8:7.1309142 9:0.17638603 
-0 -0 -0.002084539339891097 -0 0 0 0 0 0 0 1:-934.5213 2:-673.08038 3:-22.687315 4:-435.28082 5:-117.03528 6:163.51744 7:-87.601875 8:1.0995654 9:-1.6625365 
-0 -1 -0 -0 0 0 0 0 0 0 1:-942.52081 2:-673.03107 3:-19.297773 4:-490.96719 5:-37.842781 6:184.1483 7:-98.659767 8:4.3269911 9:1.5011582 
-0 -1 -0 -0 0 0 0 0 0 0 1:-924.52148 2:-673.03339 3:-21.686205 4:-464.64603 5:-135.93436 6:150.17834 7:-35.43037 8:2.7073271 9:-1.8416647 
-0 -0 -0 -0 1 0 0 0 0 0 1:-934.52264 2:-673.07941 3:-25.897898 4:-398.81003 5:-245.73634 6:108.87608 7:-2.1980231 8:7.071538 9:0.34286791 
-0 -1 -0 -0 0 0 0 0 0 0 1:-924.52246 2:-673.03235 3:-24.15151 4:-436.72958 5:-235.15692 6:109.13445 7:30.167414 8:7.3087444 9:-0.29847723 
-0 -0 -0 -0 1 0 0 0 0 0 1:-934.52264 2:-673.07483 3:-25.725712 4:-402.43973 5:-244.30078 6:107.98884 7:0.95515406 8:7.0789099 9:0.27751175 
-0 -1 -0 -0 0 0 0 0 0 0 1:-942.52252 2:-673.0448 3:-19.296375 4:-487.53995 5:-22.303429 6:148.55595 7:-99.434898 8:3.7238696 9:1.4553068 
-0 -0 -0 -0 0.07905728449518319 0 0 0 0 0 1:-924.52081 2:-673.03387 3:-20.100023 4:-482.66434 5:-72.349907 6:177.17378 7:-77.62394 8:-0.24310073 9:-2.8323638 
-0 -1 -0 -0 0 0 0 0 0 0 1:-924.52094 2:-673.03339 3:-20.463161 4:-478.62756 5:-87.303902 6:171.90697 7:-67.945343 8:0.44808051 9:-2.6023352 
-0 -0 -0 -0 1 0 0 0 0 0 1:-934.52106 2:-673.07007 3:-21.754337 4:-449.66718 5:-92.138885 6:172.0928 7:-95.383362 8:0.1034606 9:-2.1509326 
-5.986289405843503e-06 -0 -0 -0 0 0 0 0 0 0 1:-924.52252 2:-673.03265 3:-24.151474 4:-436.64166 5:-234.75839 6:108.22158 7:30.147587 8:7.2929525 9:-0.30178031 
-0 -0.04025435010154237 -0 -0 -0 0.3729301314366845 0.001266876033000241 0 0 0 1:-942.53186 2:-673.11768 3:-19.269867 4:-469.58755 5:61.035397 6:-40.006042 7:-104.02171 8:0.68450612 9:6.3214507 
-0 -0 -0 -0.0001562895757933596 -1 0 0 3.556918612688397e-06 0 0 1:-934.52094 2:-673.07642 3:-21.521339 4:-450.11121 5:-75.365196 6:178.63031 7:-110.90308 8:-0.75710559 9:-2.3506055 
-0 -0 -0 -0 -1 0 0 0 0 0 1:-934.5213 2:-673.07935 3:-22.767548 4:-434.7218 5:-121.42429 6:161.57097 7:-83.917107 8:1.3173087 9:-1.6043798 
-0 -1 -0.007392481365972267 -0 -1 0.004222611652958851 0 0 0 0 1:-934.52087 2:-673.04883 3:-20.691063 4:-469.4101 5:-74.919792 6:176.49576 7:-89.57547 8:-0.38038582 9:-2.6256223 
-0 -0 -0 -0 -0 0 2.941827248721849e-05 0 0 0 1:-942.53186 2:-673.11768 3:-19.269867 4:-469.58755 5:61.035397 6:-40.006042 7:-104.02171 8:0.68450612 9:6.3214507 
-0 -0 -0.08443898111693451 -0 -0 0 0 0 0 0 1:-942.53186 2:-673.11768 3:-19.269867 4:-469.58755 5:61.035397 6:-40.006042 7:-104.02171 8:0.68450612 9:6.3214507 
-0 -1 -0.01957980988705256 -0 -1 0 0 0 0 0 1:-934.52264 2:-673.03906 3:-24.451715 4:-429.77414 5:-235.82909 6:106.35139 7:24.396032 8:7.2168651 9:-0.19963011 
-0 -0 -0 -0 -1 0 0 0 0 0 1:-934.52087 2:-673.06287 3:-21.188478 4:-458.65018 5:-78.061989 6:178.5701 7:-99.56324 8:-0.45351014 9:-2.4427891 
-0 -0 -0 -0 -1 0 0 0 0 0 1:-934.52191 2:-673.06311 3:-23.745512 4:-429.25104 5:-179.39168 6:135.63251 7:-33.094826 8:4.2341814 9:-0.8543399 
-1.630763478803413e-05 -1 -0 -0.000115625374475664 -0 0 0.0002069641569664891 4.360502526102915e-05 6.621827015067104e-10 1.237946200389832e-06 1:-727.5285 2:-673.14954 3:-21.963652 4:-450.10925 5:-78.583702 6:8.9088268 7:-36.024742 8:6.4952574 9:-2.1108925 
-0 -0 -0 -0 -1 0 0 0 0 0 1:-934.52264 2:-673.05847 3:-25.14036 4:-414.99164 5:-240.37605 6:107.16245 7:11.723685 8:7.1409822 9:0.057820536 
-0 -0 -0 -0 -0 0.0003037382139603936 0 0 0 0 1:-942.53186 2:-673.11768 3:-19.269867 4:-469.58755 5:61.035397 6:-40.006042 7:-104.02171 8:0.68450612 9:6.3214507 
-0 -1 -0 -0 -0 0 0 0 0 0 1:-942.52704 2:-673.08002 3:-19.273691 4:-478.99109 5:18.402685 6:57.644844 7:-101.89445 8:2.3389883 9:6.4598703 
-0 -0 -0 -0 -1 0 3.133445676951341e-05 0 0 0 1:-934.52264 2:-673.07526 3:-25.57279 4:-404.08853 5:-237.7737 6:109.6781 7:-3.1315577 8:6.7789564 9:0.18003091 
-0 -0 -0 -0 -1 0 0 0 0 0 1:-934.5213 2:-673.07837 3:-22.656675 4:-436.33368 5:-118.15255 6:162.87703 7:-85.315918 8:1.1796861 9:-1.6649345 
-0 -0 -0 -0 -1 0 0 0 0 0 1:-934.52234 2:-673.06226 3:-24.571024 4:-420.13773 5:-213.25932 6:120.08888 7:-9.6040621 8:5.8229203 9:-0.33130187 
-0 -0 -0 -0.01951101721100678 -0 0 0 0 0 0 1:-942.53186 2:-673.11768 3:-19.269869 4:-469.58759 5:61.035328 6:-40.006081 7:-104.02164 8:0.68435782 9:6.3195033 
-0 -0.4717425552759242 -0 -0 -0 0 0 0 0 0 1:-942.53186 2:-673.11768 3:-19.269867 4:-469.58755 5:61.035397 6:-40.006042 7:-104.02171 8:0.68450612 9:6.3214507 
-0 -0.00167359724744926 -0.09591010837059198 -0 -0 0.0131499207096655 0 0 0 0 1:-942.53186 2:-673.11768 3:-19.269867 4:-469.58755 5:61.035397 6:-40.006042 7:-104.02171 8:0.68450612 9:6.3214507 
-0 -0.6209463467139884 -0 -0 -1 0 0 0 0 0 1:-934.52142 2:-673.04962 3:-22.193293 4:-451.81723 5:-133.58736 6:153.91739 7:-52.678215 8:2.3074703 9:-1.7020787 
-0 -0 -0 -0 -0 -0 0 0 6.570796261076049e-10 8.832878110008247e-07 1:-942.53186 2:-673.11761 3:-19.270157 4:-469.58148 5:60.920567 6:-40.01403 7:-104.00526 8:-1.4024359 9:4.083497 
-0 -0.05708433335534444 -0 -0 -0.0003550287406872608 -0.008111380050017566 0 1.588166330719549e-05 0 0 1:-942.526 2:-673.07153 3:-19.274563 4:-481.09076 5:8.7964115 6:79.537163 7:-101.43263 8:2.6191709 9:4.1990323 
-0 -0 -1 -0 -0 -3.76310165256151e-05 0 0 0 0 1:-942.53668 2:-673.32526 3:-25.01619 4:-354.35706 5:143.83868 6:4.9558911 7:2.2455666 8:-0.78678346 9:3.2074969 
-0 -0 -0.1080898483146776 -0 -0 -0 0 0 0 0 1:-942.53186 2:-673.11768 3:-19.269827 4:-469.57721 5:60.991566 6:-40.015572 7:-104.03909 8:0.59347892 9:4.0013657 
-0 -0 -1 -1 -0 -0 0 0 0 0 1:-942.53577 2:-673.25769 3:-23.803911 4:-392.17487 5:117.72439 6:-9.3406506 7:-31.968008 8:-0.49755028 9:-0.17349632 
-0 -0 -0.49812910241516 -0 -0 -0 0 0 0 0 1:-942.53186 2:-673.11768 3:-19.269894 4:-469.57816 5:60.99144 6:-40.016949 7:-104.03661 8:0.59326708 9:4.0290294 
-0 -0 -0.8112211872992796 -0 -0 -0 0 0 0 0 1:-942.53192 2:-673.11884 3:-19.306421 4:-468.94012 5:61.398022 6:-39.784042 7:-103.47858 8:0.48223197 9:1.1494472 
-0 -0 -1 -0 -0 -0 0.000595895033577327 0 0 0 1:-942.53186 2:-673.11768 3:-19.269863 4:-469.56384 5:60.938267 6:-40.031906 7:-104.06099 8:0.48919514 9:1.1420276 
-0 -0 -0.5563175120160526 -0 -0 -0 0 0 0 0 1:-942.53186 2:-673.11768 3:-19.269838 4:-469.57718 5:60.991508 6:-40.015591 7:-104.03902 8:0.59387451 9:4.0063639 
-0 -0 -1 -0 -0 -0 0 0 0 0 1:-942.54071 2:-673.43933 3:-29.647671 4:-292.22556 5:192.4814 6:30.228355 7:60.341545 8:40.152554 9:-3.5539312 
-0 -0.001180045520846939 -1 -1 -0 -0 0 0 0 0 1:-942.54089 2:-673.44281 3:-29.80047 4:-289.81931 5:192.82414 6:31.251471 7:63.374935 8:-1.807425 9:-2.0488591 
-0 -0 -0.167828545644573 -0 -0 -0 0 0 0 0 1:-942.53247 2:-673.13916 3:-19.964695 4:-457.7128 5:69.665466 6:-35.325638 7:-93.001503 8:0.39118978 9:2.2614119 
-0 -0 -0 -0 -0 -1.507122418987196e-05 0 0 0 0 1:-942.52423 2:-673.11755 3:-11.281702 4:-469.16037 5:60.880138 6:-39.992428 7:-103.93227 8:-1.4024916 9:4.0771642 
-0 -0 -1 -0 -0 -0 0 0 0 0 1:-942.53186 2:-673.11768 3:-19.269836 4:-469.57733 5:60.991547 6:-40.015751 7:-104.03879 8:0.59345686 9:4.0045977 
-0 -0 -1 -0 -0 -0 0 0 0 0 1:-942.53436 2:-673.20825 3:-22.193523 4:-419.61469 5:97.930199 6:-20.239136 7:-57.716274 8:9.8367319 9:-0.038193338 
-0 -0 -0 -1.217401431325642e-05 -0 -0 0 0 0 0 1:-937.81158 2:-673.06299 3:3866.0149 4:-263.16782 5:40.694794 6:-29.606888 7:-67.99044 8:-1.085815 9:5.0687132 
-0 -0 -0.4962199877305504 -0 -0 -0 0 0 0 0 1:-942.53192 2:-673.11884 3:-19.30645 4:-468.94052 5:61.397972 6:-39.784615 7:-103.47755 8:0.48213106 9:1.1607854 
-0 -0 -1 -0.7475495421434178 -0 -0 0 0 0 0 1:-942.53589 2:-673.26318 3:-24.003757 4:-388.72324 5:118.60646 6:-8.6768341 7:-29.75951 8:-0.44663256 9:1.0749687 
-0 -0 -0 -0 -0 -0.01134182414305147 0 0 0 0 1:-942.53186 2:-673.11761 3:-19.27014 4:-469.58151 5:60.920666 6:-40.013996 7:-104.00538 8:-1.4030952 9:4.0751672 
-0 -0 -1 -0 -0 -0.3711004955794841 0 0 0 0 1:-942.53186 2:-673.11768 3:-19.26984 4:-469.57718 5:60.991493 6:-40.015594 7:-104.03901 8:0.59396243 9:4.0074744 
-0 -0 -1 -1 -0 -0 0 0 0 2.96363421193788e-08 1:-942.54156 2:-673.46765 3:-30.604891 4:-276.08878 5:202.89851 6:36.69669 7:76.165031 8:-1.9832386 9:-2.2980528 
-9.485108317671947e-07 -0.009276890394324505 -0.09619699629237305 -0 -0 -0 0 0 0 0 1:-942.53186 2:-673.11768 3:-19.269863 4:-469.56384 5:60.938267 6:-40.031906 7:-104.06099 8:0.48919514 9:1.1420276 
-0 -0 -1 -0.3976684494998677 -0 -0 0 0 0 0 1:-942.53192 2:-673.11884 3:-19.306456 4:-468.94064 5:61.397995 6:-39.784763 7:-103.47727 8:0.482097 9:1.1643691 
-0 -0 -1 -0 -0 -0 0 0 0 0 1:-942.53192 2:-673.11884 3:-19.306452 4:-468.94058 5:61.397968 6:-39.784676 7:-103.47744 8:0.48210055 9:1.1617635 
-0 -0 -1 -0 -0 -0 0 0 0 0 1:-942.53186 2:-673.11768 3:-19.269838 4:-469.57718 5:60.991508 6:-40.015591 7:-104.03902 8:0.59387451 9:4.0063639 
-0 -0 -0 -0 -0 -0 0 0 0 9.8910025125709e-11 1:-937.90717 2:-673.06445 3:3766.1594 4:-268.43198 5:41.201347 6:-29.876488 7:-68.904327 8:-1.0933166 9:5.0443101 
-0 -0 -0 -1.270038237980804e-06 -0 -0 0 0 0 0 1:-925.1579 2:-672.8689 3:17080.887 4:433.49277 5:-26.343113 6:6.0715308 7:52.954487 8:-0.087349273 9:8.3703461 
-4.992833165099084e-06 -0 -0 -0 -0 -0 0.0004368550044367016 0 0 0 1:-942.52997 2:-673.18634 3:-17.523081 4:-430.96072 5:87.476639 6:-25.484745 7:-69.242676 8:0.14903039 9:3.4442329 
-0 -0 -1 -0 -0 -0 0 0 0 0 1:-942.53186 2:-673.11768 3:-19.269833 4:-469.57727 5:60.991554 6:-40.015671 7:-104.03893 8:0.59346753 9:4.0030279 
-7.965018548640426e-06 -0 -0 -0 -0 -0 -0 0 6.577449648517929e-10 0 1:-914.53516 2:-673.24823 3:-26.434048 4:-355.91605 5:-45.665665 6:-77.392151 7:-26.868534 8:5.2158613 9:-1.811087 
-0 -1 -0.001676219097659232 -0.0004891493525544579 -0 -0.0004618103915310343 -0 8.452726746271991e-06 0 0 1:-914.53259 2:-673.13452 3:-20.9377 4:-448.65549 5:7.4569068 6:-62.187408 7:-68.219879 8:2.8019125 9:-2.9223673 
-0 -0 -0.0006874798733671196 -0.002242029968251244 -4.44094429465064e-05 -0.001072782527692428 -0.001032750038014029 4.450334453473835e-06 0 9.483482713894962e-07 1:-914.53296 2:-673.17822 3:-21.495947 4:-430.88242 5:48.931656 6:-41.804176 7:-92.595505 8:0.87201345 9:-3.4400384 
-2.739543432143192e-07 -1 -0 -0 -0 -0 -0 -0 5.702879557306029e-08 0 1:280.24313 2:1777.5093 3:-20.407782 4:-461.2493 5:14.811847 6:-13.64637 7:-83.283264 8:-2.6848149 9:-4.1378551 
-0 -1 -0 -0 -9.015982206139302e-06 -0 -0 -0 0 0 1:-608.52087 2:-673.13336 3:-20.324551 4:-483.61902 5:-69.426147 6:179.3714 7:-79.742149 8:6.5751152 9:-3.0291078 
-0 -1 -0 -0 -0 -0 -0 -0 0 0 1:-608.52069 2:-673.13354 3:-19.789454 4:-489.69748 5:-47.975983 6:188.47833 7:-93.976135 8:5.5798383 9:-3.3630297 
-0 -1 -0 -0 -0 -0 -0 -0 0 0 1:6102.4873 2:-675.25281 3:-14.791295 4:-482.12192 5:-67.103287 6:179.12498 7:-80.651039 8:6.468318 9:-3.0424528 
-0 -1 -1.337416845265565e-05 -1.052278484165389e-05 -0 -0 -1.289450811715985e-05 -0 0 0.07484365342244642 1:-608.52075 2:-673.13678 3:-19.726566 4:-489.58582 5:-41.167603 6:188.25954 7:-97.647491 8:5.2719336 9:-3.4498029 
-3.268662969079677e-05 -1 -4.492498232270446e-06 -4.03394270146805e-06 -1.100304018684458e-05 -4.716194387371755e-05 -2.987155190035637e-06 -1.290306119974583e-05 0 0 1:-608.5213 2:-673.13794 3:-20.54818 4:-479.89951 5:-72.515221 6:170.62347 7:-75.867699 8:6.7386723 9:-2.9414637 
-4.436931584603191e-09 -0.03186616487126183 -0 -0 -0 -0 -0 -0 1.564626219037496e-13 1.671962536924881e-05 1:5130483.5 2:-2291.7571 3:110.34029 4:-336.41867 5:63.81987 6:-14.244741 7:20.626005 8:0.10549389 9:0.78197742 
-0 -0 -0 -0 -0 -0 -0 -0 5.982326317013514e-10 0 1:5134737.5 2:-2293.0964 3:118.45004 4:-338.62622 5:68.888344 6:-1.3527415 7:14.246511 8:-0.17549603 9:0.74385595 
-0 -0.6419559702051132 -0 -0 -0 -0 -0 -0 0 0 1:-608.52063 2:-673.13361 3:-19.674789 4:-491.00003 5:-43.379555 6:190.42992 7:-97.026291 8:5.3666973 9:-3.4337816 
-0 -1 -0 -0 -0 -0 -0 -0 -0 6.933499991746362e-10 1:53600.062 2:7623.666 3:-77.093422 4:-402.13715 5:-128.46077 6:-124.90423 7:25.926765 8:-2.6946766 9:-0.31200099 
-0 -1 -0 -0 -0 -0 -0 -0 -0 0 1:53600.07 2:7623.7275 3:-73.717155 4:-456.11707 5:-63.387989 6:94.199112 7:-60.533592 8:-6.2491498 9:-2.188544 
-0 -1 -0 -0 -0 -0 -0 -0 -1.422160608534913e-09 0 1:53600.062 2:7623.6641 3:-77.162277 4:-400.6503 5:-128.87569 6:-124.91374 7:24.657579 8:-2.7068572 9:-0.27976209 
-0 -1 -0 -6.570240900142766e-10 -0 -0 -0 -0 -4.239017553270363e-09 0 1:53600.07 2:7623.7236 3:-73.819405 4:-453.97781 5:-60.957569 6:99.883453 7:-62.012051 8:-6.3622684 9:-2.2207782 
-0 -0.160881403460162 -0 -0 -0 -0 -0 -0 -0 0 1:53600.062 2:7623.665 3:-77.127846 4:-401.3938 5:-128.66824 6:-124.90879 7:25.292177 8:-2.7018609 9:-0.29334226 
-0 -1 -0 -0 -0 -0 -0 -0 -0 0 1:53600.07 2:7623.7393 3:-73.068611 4:-466.48608 5:-50.888088 6:136.28679 7:-77.141792 8:-6.9318242 9:-2.5466189 
-0 -1 -0 -0 -0 -0 -0 -0 -0 0 1:53600.059 2:7623.6616 3:-77.235405 4:-399.40189 5:-127.95974 6:-124.41932 7:25.820297 8:-2.7198002 9:-0.30772051 
-0 -1 -0 -0 -0 -5.103130663566108e-12 -0 -0 -0 0 1:53600.059 2:7623.6621 3:-77.233269 4:-399.28262 5:-128.62517 6:-124.67143 7:24.604332 8:-2.7188082 9:-0.27943674 
-0 -1 -0 -0 -0 -0 -0 -0 -0 0 1:53600.059 2:7623.6616 3:-77.235413 4:-399.40189 5:-127.9597 6:-124.41933 7:25.820312 8:-2.7196918 9:-0.30560526 
-0 -1 -6.570764207842544e-10 -0 -6.572680214057787e-10 -6.570795708431443e-10 -6.570796261076049e-10 -0 -3.449892416045851e-08 0 1:53600.07 2:7623.7246 3:-73.826302 4:-454.1395 5:-63.872776 6:91.965797 7:-59.609882 8:-6.2215443 9:-2.1658466 
-0 -1 -0 -0 -0 -0 -0 -0 -1.134757138038492e-08 0 1:53600.062 2:7623.666 3:-77.093422 4:-402.13715 5:-128.46077 6:-124.90423 7:25.926765 8:-2.6946766 9:-0.31200099 
-0 -1 -0 -0 -0 -0 -0 -0 -2.85626197510229e-09 0 1:53600.07 2:7623.7378 3:-73.099327 4:-465.60919 5:-50.567226 6:138.75264 7:-79.387802 8:-6.9818158 9:-2.5152955 
-0 -0 -0 -0 -0 -0 -0 -6.577449648517929e-10 -3.202267899305553e-09 0 1:53600.062 2:7623.6699 3:-76.734154 4:-407.18341 5:-116.67995 6:-87.040718 7:11.112766 8:-3.3348372 9:-0.62417579 
-0 -0 -0 -0 -0 -0 -0 -0 -5.361085262551745e-11 0 1:53600.074 2:7623.7446 3:-72.763412 4:-471.36557 5:-45.005939 6:156.09271 7:-84.957527 8:-7.253305 9:-2.7229447 
-6.819569340158984e-10 -0 -0 -0 -0 -0 -0 -0 -0 0 1:53600.059 2:7623.6553 3:-77.448395 4:-395.29898 5:-127.20825 6:-123.69204 7:25.660563 8:-2.7574775 9:-0.30374789 
-0 -1 -0 -0 -0 -0 -0 -0 -7.370237701491829e-12 0 1:53600.059 2:7623.6616 3:-77.235405 4:-399.40201 5:-127.9595 6:-124.41898 7:25.820467 8:-2.7197728 9:-0.29400772 
-9.964909024585001e-06 -1 -9.12963881627098e-07 -6.096874172141685e-07 -0 -7.740456800322641e-07 -9.129241531202035e-07 -9.483482713894962e-07 -0.000937745607953916 -6.933499991746362e-10 1:537.46692 2:-673.60559 3:-21.58675 4:-453.72995 5:55.627785 6:-40.947407 7:-99.486832 8:-2.425703 9:-3.6068554 
-0 -1 -0 -3.097264739462805e-07 -9.356861634155037e-07 -4.639005203575683e-07 -9.8910025125709e-11 -0 -0.07392262743986125 -0 1:537.47882 2:-673.49506 3:-20.694824 4:-491.89743 5:-40.422577 6:191.68785 7:-98.990089 8:1.2723005 9:-3.4446328 
