svm_type c_svc
kernel_type linear
nr_class 11
total_sv 489
rho 740.392 -2.62496 -2.62424 -2.68069 -3.76289 -2.62511 -2.71656 82.0747 -0.999448 -1.40015 -6985.17 -308.876 170.414 -463.85 -363.24 -2.74314 -733.958 -1527.04 -9.75464 1830.02 795.798 1170.07 76.3684 66.2745 4.64597 -0.962551 0.273526 489.741 1218.73 -2203.01 63.4329 4.62066 -0.962548 0.26644 -594.328 -475.796 182.554 4.84981 -0.962833 0.264342 -498.965 -612.538 11.2303 -0.97013 0.149873 66.4243 4.64332 -0.962551 0.273349 4.97979 -0.963534 0.259568 -1.60273 -102.426 1.0159 
label 4 0 3 13 9 14 8 6 20 11 5 
nr_sv 11 172 127 31 37 22 56 6 9 16 2 
SV 
0 0 0 0 0 0 0 0 6.820711285162567e-10 7.565551462733903e-08 1:89.448006 2:-674.51996 3:-61.31889 
0 1.014394010591946e-06 0 0 0 0 0 0 0 0 1:-422.54922 2:-674.2041 3:-55.646717 
0 1.564687263089109e-08 0 0 0 0 0 0 0 0 1:-422.54971 2:-674.2337 3:-56.640648 
0 0 1.301081047070863e-08 0 0 0 0 0 0 0 1:-422.55084 2:-674.30347 3:-58.983479 
0 0 1.687568294277497e-06 0 0 7.978127584777013e-07 0 0 0 0 1:-422.54907 2:-674.19568 3:-55.36274 
0 0 0 0 0 1.64068959277723e-08 0 0 0 0 1:-422.54916 2:-674.19989 3:-55.50473 
1 0 0 0 0 0 0 1 0 9.810633623492153e-06 1:89.467216 2:-673.46216 3:-21.068295 
0.2229746516518598 0 0 0 0 0 0 0 0 0 1:-422.53714 2:-673.46204 3:-30.727518 
1 6.366279391943675e-06 5.868987512323549e-06 7.936362264311437e-06 2.149247813313525e-05 6.582580146695687e-06 8.262226546120786e-06 0 0 0 1:-422.53577 2:-673.37744 3:-27.887724 
0.7133404248268491 0 0 0 0 0 0 0 0 0 1:89.465492 2:-673.44592 3:-25.253494 
0 0 0 0 0 0 0 0 0 7.817025864249225e-08 1:89.451775 2:-674.50378 3:-57.613132 
-0 0 0 0 0 0 9.973377465129681e-09 0 0 0 1:13246.461 2:-677.59802 3:-33.131428 
-0 0 0 0 0 1 0 0 0 0 1:-942.52252 2:-673.02686 3:-24.135 
-0 0 0.0004457048888421909 0 0 0 0 0 0 0 1:-837.53265 2:-673.15027 3:-21.128675 
-0 1 0 0 1 0 0 0 0 0 1:-942.52142 2:-673.03455 3:-19.662477 
-0 1 0 0 0 0 0 0 0 0 1:-942.52179 2:-673.0285 3:-22.109169 
-0 1 0 0 0 0 0.002555249606637155 0 0 0 1:-942.53363 2:-673.11615 3:-23.399759 
-0 1 0 0 0 0 0 0 0 0 1:-942.52252 2:-673.02783 3:-24.169432 
-0.2707858777898756 0 0.0004425115781907327 0.0003442035060217122 0 0 0 0 0.2030759790162786 0 1:-426.54834 2:-670.22614 3:-56.423981 
-0 1 0 0 0 0 0 0 0 0 1:-942.52905 2:-673.08142 3:-24.271893 
-0 0 0 0 0.7734550276278701 0 0 0 0 0 1:-760.5321 2:-673.1792 3:-19.79652 
-0 0 0 3.29528040598159e-05 0 0 0 0 0 0 1:-896.49719 2:-540.51392 3:-37.159454 
-0 0 0 0.0008245106930445425 0.002583812102373017 0.0006093697687589062 2.301273278833749e-07 0 0 0 1:-780.78949 2:-567.93848 3:15342.345 
-0 1 0 0 0 0 0 0 0 0 1:-942.52271 2:-673.02924 3:-24.169292 
-0 1 0 0 0 1 0 0 0 0 1:-942.52045 2:-673.02795 3:-19.280931 
-0 0 0 0 0.0002469241341587715 0 0 0 0 0 1:-837.53387 2:-673.14941 3:-24.014425 
-0 0 0 1 0 0 0 0 0 0 1:-942.5213 2:-673.03351 3:-19.56702 
-0 0 0 0.00374488034222457 0 0 0 0 0 0 1:-837.53387 2:-673.15155 3:-24.008976 
-0 1 0 0 0 0 0 0 0 0 1:-942.52271 2:-673.02924 3:-24.169294 
-0 0 0 1 0 0 0 0 0 0 1:-942.52301 2:-673.03247 3:-23.920536 
-0 0 0 1 0 0 0 0 0 0 1:-942.52362 2:-673.03564 3:-24.134117 
-0 0 0.002343763805222237 0 0 0 0 0 0 0 1:-879.52362 2:-673.06818 3:-20.636633 
-0 0 0 0 0 1 0 0 0 0 1:-942.52618 2:-673.05536 3:-24.132114 
-0 0 0 0.003017820790957276 0 0 0 0 0 0 1:-770.5321 2:-673.17615 3:-19.729153 
-0 0 0.0006739595514479132 0.002105069354164308 0.001704784980196237 0 3.417739064545793e-05 0 1 0 1:15844.465 2:-678.38654 3:-36.513165 
-0 1 0 0 0 0 0 0 0 0 1:-942.52271 2:-673.02942 3:-23.905426 
-0 1 0 0 0 0 0 0 0 0 1:-942.52246 2:-673.02747 3:-24.169462 
-0 0 0 0 0 1 0 0 0 0 1:-942.52344 2:-673.03387 3:-24.134291 
-0 1 0 0 0 0 0 0 0 0 1:-942.52466 2:-673.04376 3:-24.133291 
-0 0 0 0 0 0 8.536294578960323e-06 0 1 0 1:15844.464 2:-678.38818 3:-38.008823 
-0 1 0 0 0 0 0 0 0 0 1:-942.52417 2:-673.03986 3:-24.133684 
-0 1 0 0 0 0 0 0 0 0 1:-942.52417 2:-673.03986 3:-24.133684 
-0 0 1 0 0 0 0 0 0 0 1:-942.52246 2:-673.02917 3:-23.370365 
-0 0 0 0 0.01784992632256546 0 0 0 0 0 1:-911.53223 2:-673.13684 3:-20.333567 
-0 0 0 0 0.007069931457180338 0 0 0 0 0 1:-912.52411 2:-673.06146 3:-20.625057 
-0 0 0 0.5785724514746465 0 0 0 0 0 0 1:-942.52533 2:-673.04968 3:-24.167231 
-0 0 1 0 0 0 0 0 0 0 1:-942.52069 2:-673.02966 3:-19.433647 
-0 1 0 0 0 0 0 0 0 0 1:-942.52429 2:-673.04095 3:-24.133577 
-0 1 0 0 0 0 0 0 0 0 1:-942.52325 2:-673.03442 3:-23.637379 
-0 1 0 0 0 0 0 0 0 0 1:-942.52264 2:-673.02887 3:-24.169327 
-0 0 0 0 0 1 0 0 0 0 1:-942.52618 2:-673.05829 3:-23.707718 
-0 1 0 0 0 0 0 0 0 0 1:-942.52252 2:-673.02783 3:-24.169432 
-0 1 0 0 0 0 0 0 0 0 1:-942.52252 2:-673.02783 3:-24.169432 
-0 0 0 0 0 0 0 1 0 0 1:14434.46 2:-677.96808 3:-35.878292 
-0 1 0 0 0 0 0 0 0 0 1:-942.5213 2:-673.03229 3:-20.025793 
-0 1 0 0 0 0 0 0 0 0 1:-942.52258 2:-673.02856 3:-24.169365 
-0 0 1 0 1 0 0 0 0 0 1:-942.52295 2:-673.03003 3:-24.134684 
-0 1 0 0 0 0 0 0 0 0 1:-942.52258 2:-673.02869 3:-23.829056 
-0 0 0 0 0 0 0 0 1 0 1:87439.43 2:-700.96881 3:-107.10176 
-0 0 0 0 0 0 0.005114940919322044 0 0 0 1:-942.52356 2:-673.03595 3:-24.168615 
-0 1 0 0 0 0 0 0 0 0 1:-942.52264 2:-673.02887 3:-24.169327 
-0 1 0 0 0 0 0 0 0 0 1:-942.52313 2:-673.04559 3:-20.253769 
-0 1 0 0 0 0 0 0 0 0 1:-942.52081 2:-673.0304 3:-19.414467 
-0 0 1 0 1 0 0 0 0 0 1:-942.52283 2:-673.0293 3:-24.134754 
-0 0 0.3542787921068544 0 0 0 0 0 0 0 1:-942.52295 2:-673.03577 3:-22.64352 
-0 0 1 0 0 0 0 0 0 0 1:-942.5213 2:-673.02771 3:-21.287518 
-0 0 1 0 1 0 0 0 0 0 1:-942.52283 2:-673.0293 3:-24.134754 
-0 1 0 0 0 0 0 0 0 0 1:-942.52258 2:-673.02832 3:-23.905533 
-0.5937049141092494 0 0 0 0 0 0 0 0 0 1:-301.5238 2:-673.25403 3:-19.965872 
-0 0 1 0 0 0 0 0 0 0 1:-942.52051 2:-673.02826 3:-19.300013 
-0 0 1 0 0 0 0 0 0 0 1:-942.52209 2:-673.02789 3:-22.950073 
-0 1 0 0 0 0 0 0 0 0 1:-942.52246 2:-673.02747 3:-24.169466 
-0 1 0 0 0 0 0 0 0 0 1:-942.52094 2:-673.02948 3:-20.006966 
-0 1 0 0 0 0 0 0 0 0 1:-942.52087 2:-673.02765 3:-20.351128 
-0 1 0 0 0 0 0 0 0 0 1:-942.52252 2:-673.02783 3:-24.169432 
-0 0 0 0 0 0 0 0 1 0 1:87439.43 2:-700.95551 3:-106.76438 
-0 0 0 0 0 0 0 1 1 0.01180927427082476 1:174394.38 2:-728.43066 3:-188.95634 
-0 0 0 0 2.825068060870213e-07 0 0 0 0 0 1:12040.469 2:-677.1524 3:-33.136765 
-0 0 1 0 0 0 0 0 0 0 1:-941.52472 2:-673.10547 3:-21.022167 
-0 1 0 0 0 0 0 0 0 0 1:-942.52545 2:-673.0686 3:-20.017262 
-0 1 0 0 0 0 0 0 0 0 1:-942.52252 2:-673.02783 3:-24.169432 
-0 0 1 0 1 0 0 0 0 0 1:-942.52441 2:-673.05084 3:-21.552715 
-0 0 0 0 0 0 0 0 1 0 1:15844.459 2:-678.41614 3:-37.067993 
-0 1 0 0 0 0 0 0 0 0 1:-942.52258 2:-673.0282 3:-24.169397 
-0 1 0 0 0 0 0 0 0 0 1:-942.52081 2:-673.02881 3:-19.892374 
-0 1 0 0 0 0 0 0 0 0 1:-942.52258 2:-673.0282 3:-24.169399 
-0 1 0 0 0 0 0 0 0 0 1:-942.52264 2:-673.02887 3:-24.169327 
-0 1 0 0 0 0 0 0 0 0 1:-942.52246 2:-673.02747 3:-24.16946 
-0 1 0 0 0 0 0 0 0 0 1:-942.52295 2:-673.03101 3:-24.169115 
-0 1 0 0 0 0 0 0 0 0 1:-942.52045 2:-673.02795 3:-19.280931 
-0 0 0 0 0 0 0 0.03604749849392085 1 0 1:160823.53 2:53599.852 3:-179.47307 
-0 0 0 0 0 0 0 0 1 0 1:44244.789 2:47926.66 3:-66.842377 
-0 0 1 0 0 0 0 0 0 0 1:-942.52979 2:-673.08453 3:-24.163698 
-0 1 0 0 0 0 0 0 0 0 1:-942.52051 2:-673.02863 3:-19.31909 
-0 0 0 1 1 0 0 0 0 0 1:-942.52289 2:-673.03082 3:-23.790621 
-0.4062950858907507 0 0 0 0 0 0 0 0 0 1:-301.52274 2:-673.25812 3:-21.926853 
-0 1 0 0 0 0 0 0 0 0 1:-942.521 2:-673.02905 3:-20.25544 
-0 1 0 0 0 0 0 0 0 0 1:-942.52264 2:-673.02991 3:-24.184647 
-0 0 0 0 0 0 0 1 1 0 1:14434.462 2:-677.95752 3:-36.292747 
-0 1 0 0 0 0 0 0 0 0 1:-942.52277 2:-673.0296 3:-24.169256 
-0 1 0 0 0 0 0 0 0 0 1:-942.52252 2:-673.02783 3:-24.169432 
-0 1 0 0 0 0 0 0 0 0 1:-942.52246 2:-673.02747 3:-24.169464 
-0.2013577766006797 0 0 0 0 0 0 0 0 0 1:-837.534 2:-673.15149 3:-24.219196 
-0 0 1 0 1 0 0 0 0 0 1:-942.52295 2:-673.03003 3:-24.134684 
-0 1 0 0 0 0 0 0 0 0 1:-942.52252 2:-673.02783 3:-24.169432 
-0 0 0 0 0 0 0 0 0 0.05387934870094226 1:14933.466 2:-678.09637 3:-38.368141 
-0 1 0 0 0 0 0 0 0 0 1:-942.52167 2:-673.03516 3:-19.949064 
-0 1 0 0 0 0 0 0 0 0 1:-942.52429 2:-673.04095 3:-24.133577 
-0 0 0 0 0 0 0 0 0.3167717183912438 0 1:11343.472 2:-676.91565 3:-33.722866 
-0 0 1 0 1 0 0 0 0 0 1:-942.52283 2:-673.0293 3:-24.134766 
-0 0 0.03950109386872662 0 0 0 0 0 0 0 1:-912.53009 2:-673.10059 3:-22.780523 
-0 0 0 0 0 0 0 0 0.000427007872577295 0 1:-289.05807 2:409727.22 3:-23.126453 
-0 0 0 0 0 0 0 0 0 0.6355702818819225 1:-942.52081 2:-673.02881 3:-19.854153 
-0 1 0 0 0 0 0 0 0 0 1:-942.52252 2:-673.02783 3:-24.169432 
-0 1 0 0 0 0 0 0 0 0 1:-942.52264 2:-673.02887 3:-24.169331 
-0 0 0 0.0009734537715461426 0 0 0 0 0 0 1:-897.52667 2:-628.55731 3:-38.513851 
-0 1 0 0 0 0 0 0 0 0 1:-942.52094 2:-673.02954 3:-19.911413 
-0 4.680272346077035e-05 0.0003962087868521126 0 2.38447838795406e-05 6.579475856069939e-05 0 0.01134489383083386 0 5.846571317336653e-05 1:-764.88385 2:-567.68097 3:32997.699 
-0 1 0 0 0 0 0 0 0 0 1:-942.52045 2:-673.02795 3:-19.280931 
-0 1 0 0 0 0 0 0 0 0 1:-942.52466 2:-673.04376 3:-24.133291 
-0 1 0 0 0 0 0 0 0 0 1:-942.52411 2:-673.03955 3:-24.13372 
-0 1 0 0 0 0 0 0 0 0 1:-942.52246 2:-673.02747 3:-24.169462 
-0.7133404248268491 0 0 0 0 0 0 0 0 0 1:87.476868 2:-673.38611 3:-22.873095 
-0 0 1 0 0 0 0 0 0 0 1:-942.5213 2:-673.03217 3:-20.251438 
-0 1 0 0 0 0 0 0 0 0 1:-942.52136 2:-673.02942 3:-21.226326 
-0 1 0 0 0 0 0 0 0 0 1:-942.52411 2:-673.03918 3:-24.133755 
-0 1 0 0 0 0 0 0 0 0 1:-942.52246 2:-673.02747 3:-24.16946 
-0 0 0 0 0 0 0 0 0 0.2986826294332082 1:-942.52875 2:-673.08112 3:-24.34314 
-0 1 0 0 0 0 0 0 0 0 1:-942.52264 2:-673.02887 3:-24.169327 
-0 1 0 0 0 0 0 0 0 0 1:-942.526 2:-673.05396 3:-24.132257 
-0 0 0 0 0 0 0 1 0 0 1:14933.459 2:-678.15521 3:-36.819485 
-0 0 0 0 0 0 0 0.02155330906818003 0 0 1:15172.461 2:-678.20386 3:-36.727642 
-0 0 0 1 0 0 0 0 0 0 1:-942.52216 2:-673.02673 3:-23.370604 
-0 1 0 0 0 1 0 0 0 0 1:-942.52423 2:-673.04791 3:-21.935213 
-0.003144759780172049 0 0 0 0 0 0 0 0 0 1:-447.52896 2:-673.24268 3:-21.523582 
-0 1 0 0 0 0 0 0 0 0 1:-942.52313 2:-673.03278 3:-24.168936 
-0 1 0 0 0 0 0 0 0 0 1:-942.52167 2:-673.03625 3:-19.681395 
-0 1 0 0 0 0 0 0 0 0 1:-942.521 2:-673.02832 3:-20.446617 
-0 0 0 0 0 0 0 0 0 1 1:-908.53046 2:-673.12299 3:-20.022593 
-0 0 0 0 0 0 0 0 0.01585688111066837 0 1:5843.1294 2:1586720 3:-168.77783 
-0 1 0 0 0 0 0 0 0 0 1:-942.52258 2:-673.0282 3:-24.169397 
-0 1 0 0 0 0 0 0 0 0 1:-942.52258 2:-673.0282 3:-24.169397 
-0 1 0 0 0 0 0 0 0 0 1:-942.52484 2:-673.0567 3:-20.864162 
-0 1 0 0 0 0 0 0 0 0 1:-942.52075 2:-673.03027 3:-19.393833 
-0 0 0 1 0 0 0 0 0 0 1:-942.52222 2:-673.02747 3:-23.31321 
-0 0 0 0 0 0 0 1 0 0 1:14434.47 2:-677.88855 3:-37.065952 
-0 1 0 0 0 0 0 0 0 0 1:-942.52277 2:-673.02997 3:-24.169222 
-0 1 0 0 0 0 0 0 0 0 1:-942.52258 2:-673.0282 3:-24.169403 
-0 0 0 1 0 0 0 0 0 0 1:-942.52283 2:-673.03046 3:-23.790655 
-0 1 0 0 0 0 0 0 0 0 1:-942.52295 2:-673.03137 3:-24.169079 
-0 0 0 0 0 0 0 0 1 0 1:12296.463 2:-677.2843 3:-34.465378 
-0 0 0 0 0 0 0.01023484596616977 0 0 0 1:-942.52399 2:-673.03815 3:-24.133863 
-0 0 0 1 0 0 0 0 0 0 1:-942.52295 2:-673.03137 3:-24.054415 
-0 1 0 0 0 0 0 0 0 0 1:-942.52258 2:-673.0282 3:-24.169397 
-0 1 0 0 0 0 0 0 0 0 1:-942.52252 2:-673.02899 3:-24.205986 
-0.068875498599101 0 0.6401855200601692 0 0 0 0.007670400033519779 0 0 0 1:-942.52429 2:-673.08929 3:-25.484798 
-0 1 0 0 0 0 0 0 0 0 1:-942.52258 2:-673.0282 3:-24.169397 
-0 1 0 0 0 0 0 0 0 0 1:-942.52405 2:-673.03882 3:-24.133793 
-0 1 0 0 0 0 0 0 0 0 1:-942.52051 2:-673.02863 3:-19.31909 
-0 0 0 0 0 0.15724054494996 0 0 0 0 1:-942.52252 2:-673.02686 3:-24.135 
-0 1 0 0 0 0 0 0 0 0 1:-942.52277 2:-673.0296 3:-24.169256 
-0 1 0 0 0 0 0 0 0 0 1:-942.52246 2:-673.02747 3:-24.169462 
-0 0 0 0 0 1 0 0 0 0 1:-942.521 2:-673.03174 3:-19.490767 
-0 0 0 0 0 0 0 0 1 0 1:14933.458 2:-678.16119 3:-38.370216 
-0.2970216444064595 0 0 0 0 0 0 0 0 0 1:87.46743 2:-673.44891 3:-20.639627 
-0 0 0 0 0 0 0 1 1 0 1:59984.602 2:-200.25864 3:-82.088966 
-0 0 0 0 0 0 0 1 1 0 1:58333.445 2:-691.75586 3:-77.668556 
-0 1 0 0 0 0 0 0 0 0 1:-942.52332 2:-673.03418 3:-24.168795 
-0 0 0 0.02777632321106763 0 0 0 0 0 0 1:-913.52185 2:-673.04633 3:-20.182875 
-0 0 1 0 1 0 0 0 0 0 1:-942.52283 2:-673.0293 3:-24.134754 
-0 0 1 0 0 0 0 0 0 0 1:-942.52612 2:-673.05603 3:-24.166586 
-0.3477069570873089 0 0 0 0 0 0 0 0 0 1:630.46869 2:-673.59796 3:-22.266094 
-0 0 0 0 0 1 0 0 0 0 1:-942.5249 2:-673.04828 3:-24.238579 
-0.03408213738825033 0 0 0 0 0 0 0 0 0 1:-559.53278 2:-673.24689 3:-21.532143 
-0 0 0.4132664146869875 0 0.4499345455319654 0 0 0 0 0 1:-942.52295 2:-673.0304 3:-24.134647 
-0 0 0 3.131554519448372e-05 0 0 0 0 0 0 1:-899.5304 2:-630.74384 3:-44.77676 
-0 1 0 0 0 0 0 0 0 0 1:-942.52924 2:-673.08032 3:-24.164118 
-0 0 0 0 0 0 0 0 1 0 1:41815.578 2:-296.53693 3:-61.463657 
-0 0 1 0 1 0 0 0 0 0 1:-942.52283 2:-673.0293 3:-24.134756 
-0 0 0 0 0 0 0 0 1 0 1:25465.455 2:-681.45416 3:-46.407352 
-0 0 0 0 0 0.5235450675462903 0 0 0 0 1:-942.52258 2:-673.02795 3:-23.982014 
-0 1 0 0 0 0 0 0 0 0 1:-942.52429 2:-673.04095 3:-24.133577 
-0 1 0 0 0 0 0 0 0 0 1:-942.52057 2:-673.02783 3:-19.644033 
-0 -0 1 0 0 0 0 1.792492146643782e-05 6.570871421608557e-10 9.130698183401943e-07 1:-942.53577 2:-673.25769 3:-23.803984 
-0 -0 0 0 0 1 0 0 0 0 1:-942.54114 2:-673.46088 3:-30.713375 
-0 -1 0 0 0 0 0 0 0 0 1:-942.53534 2:-673.24658 3:-23.576712 
-0 -0 0 0 0 0.7764510572794708 0 0 0 0 1:-942.54034 2:-673.43085 3:-29.675203 
-0 -0 0 0 0 1 0 0 0 0 1:-942.53558 2:-673.26453 3:-24.083597 
-0 -1 1 1 0 1 0 0 0 0 1:-942.53204 2:-673.1261 3:-19.630404 
-0 -1 0 0 0 0 0 0 0 0 1:-942.53534 2:-673.24841 3:-23.700823 
-0 -1 0 0 0 0 0 0 0 0 1:-942.53589 2:-673.26416 3:-24.057272 
-0 -1 0 0 0 0 0 0 0 0 1:-942.53534 2:-673.24658 3:-23.576714 
-0 -0 0 0.06839694707779233 0 0 0 0 0 0 1:-942.53235 2:-673.13641 3:-19.99984 
-0 -1 0 0 0 0 0 0 0 0 1:-942.53625 2:-673.28119 3:-24.703861 
-0 -0 0 0 0 1 0 0 0 0 1:-942.52496 2:-673.06964 3:-20.0627 
-0 -0 1 0 1 1 0 0 0 0 1:-942.53192 2:-673.11981 3:-19.360037 
-0 -0 0 0 0 0 0.0001701118600039833 0 0 0 1:-942.52869 2:-673.2666 3:-26.507509 
-0 -1 0 0 0 0 0 0 0 0 1:-942.53607 2:-673.27863 3:-24.56913 
-0 -0 0.7866002039300966 0 0 0 0 0 0 0 1:-942.54138 2:-673.47437 3:-31.32453 
-0 -0 0.8311424074669336 0 1 1 0 0 0 0 1:-942.53204 2:-673.12628 3:-19.613424 
-0 -0 0 0 0 0 0.0006028258279186159 0 0 0 1:-942.54132 2:-673.47314 3:-31.244858 
-0 -0 0 0 0 1 0 0 0 0 1:-942.53204 2:-673.12469 3:-19.506763 
-0 -6.511627172052026e-06 0 0 0 0 0 0 0 0 1:-942.53259 2:-673.15253 3:-20.748238 
-0 -1 0 0 0 0 0 0 0 0 1:-942.53571 2:-673.26404 3:-24.186129 
-0 -1 0 0 0 1 0 0 0 0 1:-942.53229 2:-673.13403 3:-19.905466 
-0 -1 0 0 0 0 0 0 0 0 1:-942.53552 2:-673.2597 3:-24.146784 
-0 -0 0 1 1 1 0 0 0 0 1:-942.53198 2:-673.12109 3:-19.379356 
-0 -1.15325905880225e-05 0 0 0 0 0 0 0 0 1:-942.53516 2:-673.24622 3:-23.783045 
-0 -1 0 0 0 0 0 0 0 0 1:-942.53534 2:-673.24731 3:-23.664259 
-0 -0 0 0 1 1 0 0 0 0 1:-942.5321 2:-673.1264 3:-19.596447 
-0 -1 0 0 0 0 0 0 0 0 1:-942.53571 2:-673.26166 3:-24.1735 
-0 -1 0 0 0 0 0 0 0 0 1:-942.53241 2:-673.1405 3:-20.139696 
-0 -1 0 0 0 0 0 0 0 0 1:-942.53412 2:-673.20343 3:-22.183043 
-0 -0 0 0 0 1 0 0 0 0 1:-942.53192 2:-673.11884 3:-19.30654 
-0 -0 0 0 1 1 0 0 0 0 1:-942.53217 2:-673.13062 3:-19.814882 
-0 -0 0 0 0 1 0 0 0 0 1:-942.53223 2:-673.13013 3:-19.67219 
-0 -1 0 0 0 0 0 0 0 0 1:-942.53302 2:-673.16571 3:-21.065565 
-0 -1 0 0 0 0 0 0 0 0 1:-942.53564 2:-673.25525 3:-23.747831 
-0 -1 0 0 0 0 0 0 0 0 1:-942.52856 2:-673.09747 3:-20.531796 
-0 -1 0 0 0 0 0 0 0 0 1:-942.5354 2:-673.25336 3:-23.892086 
-0 -1 0 0 0 0 0 0 0 0 1:-942.53265 2:-673.13617 3:-20.633728 
-0 -0 0 0 0 1 0 0 0 0 1:-942.5321 2:-673.12738 3:-19.64999 
-0 -1 0 0 0 0 0 0 0 0 1:-942.53284 2:-673.15155 3:-20.366917 
-0 -1 0 0 0 0 0 0 0 0 1:-942.53235 2:-673.13397 3:-20.115686 
-0 -0 0 0 0 1 0 0 0 0 1:-942.53198 2:-673.12091 3:-19.415758 
-0 -1 0 0 0 1 0 0 0 0 1:-942.53235 2:-673.13708 3:-20.030003 
-0 -0 0 0 0 1 0 0 0 0 1:-942.54138 2:-673.47424 3:-31.341507 
-0 -1 0 0 0 0 0 0 0 0 1:-942.53577 2:-673.26062 3:-23.964556 
-0 -0 0 0 1 1 0 0 0 0 1:-942.53198 2:-673.11993 3:-19.457769 
-0 -1 0 0 0 0 0 0 0 0 1:-942.53613 2:-673.27649 3:-24.631912 
-0 -0 0 0 0 1 0 0 0 0 1:-942.53253 2:-673.14648 3:-20.352579 
-0 -0 0 0 0 1 0 0 0 0 1:-942.53235 2:-673.13708 3:-20.030003 
-0 -1 0 0 0 0 0 0 0 0 1:-942.53595 2:-673.27002 3:-24.378572 
-0 -1 0 0 0 0 0 0 0 0 1:-942.53259 2:-673.14911 3:-20.483143 
-0 -1 0 0 0.9841568426305175 1 0 0 0 0 1:-942.53192 2:-673.11993 3:-19.343105 
-0 -0 0 1 0 1 0 0 0 0 1:-942.53217 2:-673.12964 3:-19.742229 
-0 -1 0 0 0 0 0 0 0 0 1:-942.53546 2:-673.24622 3:-23.550869 
-0 -0 0 0 1.447861877717503 1 0 0 0 0 1:-942.53186 2:-673.11823 3:-19.266554 
-0 -1 0 0 0 0 0 0 0 0 1:-942.53546 2:-673.25476 3:-23.99025 
-0 -0 0 0 0 0.4721702768238831 0 0 0 0 1:-942.54138 2:-673.47424 3:-31.341507 
-0 -1 0 0 0 0 0 0 0 0 1:-942.53613 2:-673.27222 3:-24.296247 
-0 -1 0 0 0 0 0 0 0 0 1:-942.53564 2:-673.25842 3:-24.046829 
-0 -1 0 0 0 0 0 0 0 0 1:-942.53534 2:-673.24658 3:-23.576712 
-0 -1 0 0 0 0 0 0 0 0 1:-942.53534 2:-673.25385 3:-24.072948 
-0 -1 0 0 0 0 0 0 0 0 1:-942.53589 2:-673.27136 3:-24.553562 
-0 -1 0 0 0 0 0 0 0 0 1:-942.53296 2:-673.1618 3:-20.851398 
-0 -0 0 0 0 0 0.001776456830879185 0 0 0 1:-942.52148 2:-673.05585 3:-20.30913 
-0 -1 0 0 0 0 0 0 0 0 1:-942.53577 2:-673.26489 3:-24.30022 
-0 -1 0 0 0 0 0 0 0 0 1:-942.53601 2:-673.26752 3:-24.167017 
-0 -1 0 0 0 0 0 0 0 0 1:-942.53583 2:-673.26965 3:-24.584904 
-0 -1 0 0 0 0 0 0 0 0 1:-942.53607 2:-673.2688 3:-24.186605 
-0 -1 0 0 0 0 0 0 0 0 1:-942.53516 2:-673.23785 3:-23.250294 
-0 -1 0 0 0 1 0 0 0 0 1:-942.53204 2:-673.12531 3:-19.559885 
-0 -0 0 0 0 1 0 0 0 0 1:-942.53198 2:-673.12219 3:-19.416235 
-0 -0 0 0 1 1 0 0 0 0 1:-942.5321 2:-673.1264 3:-19.596447 
-0 -1 0 0 0 0 0 0 0 0 1:-942.53577 2:-673.25934 3:-23.945019 
-0 -1 0 0 0 0 0 0 0 0 1:-942.53534 2:-673.24548 3:-23.540199 
-0 -1 0 0 0 1 0 0 0 0 1:-942.53198 2:-673.12091 3:-19.396646 
-0 -0 0 0 1 1 0 0 0 0 1:-942.53192 2:-673.11993 3:-19.343103 
-0 -1 0 0 0 0 0 0 0 0 1:-942.53516 2:-673.24329 3:-23.622419 
-0 -0 0.8157894736842105 0 0 0 0 0 0 0 1:-942.54132 2:-673.47162 3:-31.070484 
-0 -1 0 0 0 0 0 0 0 0 1:-942.53613 2:-673.27863 3:-24.626463 
-0 -0 0 0 0 1 0 0 0 0 1:-942.5321 2:-673.12836 3:-19.703531 
-0 -0 0 0 0 1 0 0 0 0 1:-942.53198 2:-673.11761 3:-19.46109 
-0 -1 0 0 0 0 0 0 0 0 1:-942.53552 2:-673.25671 3:-24.078222 
-0 -1 0 0 0 0 0 0 0 0 1:-942.53564 2:-673.2558 3:-23.852303 
-0 -0 0 0 0 1 0 0 0 0 1:-942.53204 2:-673.12531 3:-19.559883 
-0 -0 0 0 0 1 0 0 0 0 1:-942.53229 2:-673.13403 3:-19.886356 
-0 -1 0 0 0 0 0 0 0 0 1:-942.53052 2:-673.21765 3:-23.997322 
-0 -1 0 0 0 0 0 0 0 0 1:-942.53564 2:-673.26135 3:-24.207502 
-0 -1 0 0 0 1 0 0 0 0 1:-942.53229 2:-673.13495 3:-20.01634 
-0 -1 0 0 0 0 0 0 0 0 1:-942.53534 2:-673.24658 3:-23.576712 
-0 -1 0 0 0 0 0 0 0 0 1:-942.53418 2:-673.20844 3:-22.438076 
-0 -1 0 0 0 0 0 0 0 0 1:-942.53534 2:-673.24658 3:-23.576714 
-0 -1 0 0 0 0 0 0 0 0 1:-942.53528 2:-673.23895 3:-23.535299 
-0 -1 0 0 0 0 0 0 0 0 1:-942.53223 2:-673.13177 3:-19.832336 
-0 -1 0 0 0 0 0 0 0 0 1:-942.53253 2:-673.14215 3:-20.092625 
-0 -0 1 0 0 0 0 0 0 0 1:-942.54132 2:-673.47198 3:-31.268377 
-0 -0 0 0 0 1 0 0 0 0 1:-942.5329 2:-673.15515 3:-20.7297 
-0 -1 0 0 0 0 0 0 0 0 1:-942.53589 2:-673.27435 3:-24.523075 
-0 -1 0 0 0 0 0 0 0 0 1:-942.53583 2:-673.25745 3:-24.088512 
-0 -1 0 0 0 1 0 0 0 0 1:-942.53198 2:-673.11987 3:-19.495991 
-0 -1 0 0 0 0 0 0 0 0 1:-942.53564 2:-673.25708 3:-23.871891 
-0 -1 0 0 0 0 0 0 0 0 1:-942.53583 2:-673.26703 3:-24.409437 
-0 -1 0 0 0 0 0 0 0 0 1:-942.53253 2:-673.14667 3:-20.426991 
-0 -1 0 0 0 0 0 0 0 0 1:-942.53564 2:-673.25415 3:-23.711216 
-0 -1 0 0 0 0 0 0 0 0 1:-942.53583 2:-673.26648 3:-24.285854 
-0 -0 0 0 0 0 3.95983992047577e-06 0 0 0 1:-942.52362 2:-673.14246 3:-22.989027 
-0 -1 0 1 -0.2888889338387428 1 0 0 0 0 1:-942.53204 2:-673.12317 3:-19.469778 
-0 -1 0 0 0 0 0 0 0 0 1:-942.53571 2:-673.26611 3:-24.492136 
-0 -0 0 0 0 1 0 0 0 0 1:-942.53229 2:-673.13202 3:-19.893936 
-0 -0 0 0 0 1 0 0 0 0 1:-942.53223 2:-673.1308 3:-19.778793 
-0 -1 0 0 0 0 0 0 0 0 1:-942.53571 2:-673.26013 3:-24.015488 
-0 -1 0 0 0 0 0 0 0 0 1:-942.53516 2:-673.24084 3:-23.410917 
-0 -2.874857164769651e-05 0 0 0 0 0 0 0 0 1:-942.53522 2:-673.2467 3:-23.732113 
-1.564687263089109e-08 -0 0 0 0 0 0 0 0 0 1:-942.53265 2:-673.15118 3:-20.573248 
-0 -1 0 0 0 0 0 0 0 0 1:-942.53247 2:-673.14539 3:-20.407402 
-0 -9.934052987920748e-09 0 0 0 0 0 0 0 0 1:-942.53253 2:-673.12354 3:-20.710066 
-7.380673402535621e-06 -0 0 0 0 0 0 0 0 0 1:-942.54144 2:-673.4776 3:-31.4512 
-0 -1 0 0 0 0 0 0 0 0 1:-942.53583 2:-673.26898 3:-24.497408 
-0 -1 0 0 0 0 0 0 0 0 1:-942.53577 2:-673.26489 3:-24.30022 
-0 -1 0 0 0 0 0 0 0 0 1:-942.53601 2:-673.26947 3:-24.274099 
-0 -1 0 0 0 0 0 0 0 0 1:-942.53558 2:-673.25537 3:-23.903233 
-0 -1 0 0 0 0 0 0 0 0 1:-942.53546 2:-673.25085 3:-23.756975 
-0 -1 0 0 0 0 0 0 0 0 1:-942.53595 2:-673.2674 3:-24.183994 
-0 -1 0 0 0 0 0 0 0 0 1:-942.53247 2:-673.13995 3:-20.092556 
-0 -1 0 0 0 0 0 0 0 0 1:-942.53485 2:-673.22754 3:-22.957302 
-0 -1 0 0 0 0 0 0 0 0 1:-942.53583 2:-673.2652 3:-24.266268 
-0 -1 0 0 0 0 0 0 0 0 1:-942.53613 2:-673.27386 3:-24.399113 
-0 -1 0 0 0 0 0 0 0 0 1:-942.53534 2:-673.25006 3:-23.841806 
-0 -0 -0 0 0 0 0 0 6.570855947240715e-10 0 1:-942.54779 2:-673.69336 3:-37.918083 
-0 -0 -0.6023896776143071 0 0 0 0 0 0 0 1:-942.53986 2:-673.40668 3:-28.630388 
-0 -1 -0 0 1 0 0 0 0 0 1:-941.53235 2:-673.14032 3:-20.19162 
-0 -1 -1 0 0 1 0 0 0 0 1:-942.53644 2:-673.28247 3:-24.608307 
-0 -0 -0 0 0 0.1122026105713922 0 0 0 0 1:-942.54779 2:-673.69226 3:-37.881523 
-0 -0 -0.9978070175438916 0 1 0 0 0 0 0 1:-941.53253 2:-673.14514 3:-20.303959 
-7.569566617071755e-06 -0 -0 0.048875170902622 0 0 0.003208535952526141 1.520971183647109e-05 0 7.759277046883406e-07 1:-936.54266 2:-669.69458 3:-33.890362 
-0 -0 -0 0 0 0.07307430426084552 0 0 0 0 1:-942.54639 2:-673.64148 3:-36.235828 
-0 -0 -1 0 0 0 0 0 0 0 1:-942.54028 2:-673.42133 3:-29.105728 
-0 -1 -0 0 0 0 0 0 0 0 1:-941.53278 2:-673.1604 3:-21.134703 
-0 -0.1140300595960105 -0 1 0 0 0.0003878621579037476 6.834671094723677e-07 0 7.509343917435255e-09 1:-936.53162 2:-658.69531 3:-25.941408 
-0 -0 -0 0 0 0.9695237454624859 0 0 0 0 1:-942.53937 2:-673.38861 3:-28.045361 
-0 -1 -0 0 1 0 0 0 0 0 1:-941.53284 2:-673.15179 3:-20.368265 
-0 -0 -1 0 0 0 0 0 0 0 1:-942.54175 2:-673.47437 3:-30.824572 
-0 -1 -0 0 1 1 0 0 0 0 1:-941.53229 2:-673.13263 3:-19.746344 
-0 -1 -0 0 0.6547391681184088 0 0 0 0 0 1:-941.53278 2:-673.15503 3:-20.666992 
-0 -1 -0 1 1 0.345619604436174 0 0 0 0 1:-941.53223 2:-673.13037 3:-19.673529 
-0 -0.03344805574671579 -0 1 0.02623830526273047 0 0 2.667263289952645e-06 0 1.370182223232303e-07 1:-936.5213 2:-647.14441 3:-21.072104 
-0 -1 -0 0 0 0.5099934704699889 0 0 0 0 1:-942.53857 2:-673.35925 3:-27.094685 
-0 -1 -0 0 0 0 0 0 0 0 1:-941.53387 2:-673.1958 3:-21.966345 
-0 -1 -0 0.3924585839301662 1 0 0 0 0 0 1:-941.53351 2:-673.18042 3:-21.403509 
-0 -1 -0 1 1 0 0 0 0 0 1:-941.5332 2:-673.16833 3:-20.967348 
-0 -0 -0 0 0 0.8277537154289933 0 0 0 0 1:-942.54779 2:-673.69226 3:-37.881519 
-0 -1 -0 0 0.3352130395530112 0 0 0 0 0 1:-941.53284 2:-673.15924 3:-21.251028 
-0 -1 -0 0 0 0 0 0 0 0 1:-942.53943 2:-673.39087 3:-28.118488 
-0 -1 -1 1 1 0 0 0 0 0 1:-941.53241 2:-673.13715 3:-19.89258 
-0 -0.3040558539905665 -0 1 1 1 3.698929875499873e-05 0 0 0 1:-941.53192 2:-673.12006 3:-19.361101 
-0 -1 -0 0 0 1 0 0 0 0 1:-942.53845 2:-673.35474 3:-26.948429 
-0 -1 -0 0 0 0 0 0 0 0 1:-941.53339 2:-673.16229 3:-21.661495 
-0 -1 -0.833335389923042 0 0 1 0 0 0 0 1:-942.53485 2:-673.22491 3:-22.743525 
-0 -1 -0 0 1 0 0 0 0 0 1:-941.53308 2:-673.16193 3:-20.697351 
-0 -0 -0 -0 0 0.03076923076923077 0 0 6.572767030176089e-10 0 1:-934.52258 2:-673.05023 3:-24.864952 
-0 -4.471483507477342e-05 -0 -0 1 0 0 1.881544983624679e-05 0 9.230353509847691e-07 1:-924.52045 2:-673.03375 3:-19.373856 
-0 -1 -1 -1 1 1 0 0 0 0 1:-942.52258 2:-673.04517 3:-19.277229 
-0 -0.001166168793383853 -0 -0.3008692755575061 0 0 0 0 0 0 1:-942.4776 2:-540.02863 3:-18.312222 
-0 -0 -0 -0 0.79967114216119 0 0 0 0 0 1:-924.521 2:-673.03333 3:-20.673378 
-0 -1 -1 -1 1 1 0 0 0 0 1:-942.5224 2:-673.0437 3:-19.277372 
-0 -0 -0 -0 0.1830659571877767 0 0 0 0 0 1:-934.52252 2:-673.039 3:-24.486254 
-0 -0 -0 -0 1 0 0 0 0 0 1:-924.52063 2:-673.03363 3:-19.756067 
-0 -0 -0 -0 0 0 0.007465069147674886 0 0 0 1:-924.52246 2:-673.03235 3:-24.132401 
-0 -0.5791064290449975 -0 -0 0 0 0 0 0 0 1:-934.52252 2:-673.0459 3:-24.727266 
-0 -0.9477115618609445 -0 -0 0 0 0 0 0 0 1:-934.52264 2:-673.06403 3:-25.346977 
-0 -0 -0 -0 1 0 0 0 0 0 1:-934.52057 2:-673.04138 3:-19.876804 
-7.90661790165409e-06 -0 -0 -0 0 0 0 0 0 1.267882537655801e-08 1:-924.52246 2:-673.03235 3:-24.15151 
-0 -0.02867801333135885 -0 -0 1 0 0 0 0 0 1:-924.52124 2:-673.03357 3:-21.074665 
-0 -0 -0 -0 1 0 0 0 0 0 1:-924.52094 2:-673.03339 3:-20.463161 
-0 -0 -0 -1 0 0 0 0 0 0 1:-934.52258 2:-673.07446 3:-25.725746 
-0 -9.959322144632462e-09 -0 -0 0 0 0.000259080650674548 0 0 0 1:-924.52246 2:-673.03235 3:-24.132401 
-0 -0.006425256394377435 -0 -0 1 0 0 0 0 0 1:-924.52069 2:-673.03357 3:-19.966284 
-0 -1 -0 -0.1404644792752815 1 0 0 0 0 0 1:-934.52258 2:-673.06067 3:-25.243721 
-0 -0 -0 -0 1 0 0 0 0 0 1:-934.52112 2:-673.07495 3:-22.002932 
-0 -0 -0 -0 1 0 0 0 0 0 1:-934.52057 2:-673.07098 3:-20.77594 
-0 -1 -0 -0 1 0 0 0 0 0 1:-934.52106 2:-673.05389 3:-21.413704 
-0 -0 -0 -0 0 0 0 1.214087235747249e-06 0 0 1:-924.52246 2:-673.03235 3:-24.15151 
-0 -0 -0 -0 1 0 0 0 0 0 1:-934.5213 2:-673.0639 3:-22.235737 
-0 -1 -0 -0 0.7668932755666813 0 0 0 0 0 1:-934.52252 2:-673.03644 3:-24.382927 
-0 -1 -1 -1 0.4628849665589702 1 0 0 0 0 1:-942.52081 2:-673.03107 3:-19.297773 
-0 -0.001674468876515802 -0 -0 1 0 0 0 0 0 1:-924.52148 2:-673.03339 3:-21.686205 
-2.974436265734703e-08 -0 -0 -0 0 0 0 0 0 0 1:-924.52246 2:-673.03235 3:-24.15151 
-0 -0 -0 -0 0 0 0.003303339091984642 0 0 0 1:-924.521 2:-673.03339 3:-20.596935 
-0 -0 -0.06839694707779233 -0 1 0 0 0 0 0 1:-934.52264 2:-673.07483 3:-25.725712 
-0 -1 -1 -1 1 1 0 0 0 0 1:-942.52252 2:-673.0448 3:-19.296375 
-0 -0 -0 -0 0.438685376738716 0 0 0 0 0 1:-924.52081 2:-673.03387 3:-20.100023 
-0 -0 -0 -0 1 0 0 0 0 0 1:-924.52094 2:-673.03339 3:-20.463161 
-0 -0 -0 -1 1 0 0 0 0 0 1:-934.52252 2:-673.04889 3:-24.830557 
-0 -0.0002340839178104384 -0 -0 0 0 0 0 0 0 1:-924.52057 2:-673.03363 3:-19.641405 
-0 -0.05216387097585581 -0 -0 1 0 0 0 0 0 1:-934.52106 2:-673.07007 3:-21.754337 
-0 -0.0002184035032856081 -0 -0 0 0 0.009045192462035598 0 0 0 1:-924.52081 2:-673.03345 3:-20.272055 
-0 -1 -1 -1 -1 1 0 0 0 0 1:-942.53186 2:-673.11768 3:-19.269867 
-0 -0 -0 -0 -1 0 0 0 0 0 1:-934.52094 2:-673.07642 3:-21.521339 
-0 -0 -0 -0 -1 0 0.04781873982876611 0 0 0 1:-934.5213 2:-673.07935 3:-22.767548 
-0 -1.310063806470938e-07 -0 -0 -1 0 0 0 0 0 1:-934.52087 2:-673.04883 3:-20.691063 
-0 -1 -1 -1 -1 1 0.3588958516662956 0 0 0 1:-942.53186 2:-673.11768 3:-19.269867 
-0 -1 -1 -1 -1 1 0 0 0 0 1:-942.53186 2:-673.11768 3:-19.269867 
-0 -0.0001249037123826921 -0 -0 -1 0.06150557936272202 1 0 0 0 1:-934.52264 2:-673.03906 3:-24.451715 
-0 -0 -0 -0 -1 0 0 0 0 0 1:-934.52087 2:-673.06287 3:-21.188478 
-0 -0 -0 -0 -1 0 0 0 0 0 1:-934.52191 2:-673.06311 3:-23.745512 
-2.149247813313525e-05 -0.7761133043158784 -0 -0 -0.6512007182133329 0 0.5932848577998936 0.0001411951724842944 6.621799865188097e-10 1.249832985540877e-06 1:-727.5285 2:-673.14954 3:-21.963652 
-0 -0 -0 -0.5678990075659996 -1 0 1 0 0 0 1:-934.52264 2:-673.05847 3:-25.14036 
-0 -1 -1 -0.9999372810357628 -1 1 0 0 0 0 1:-942.53186 2:-673.11768 3:-19.269867 
-0 -1 -1 -1 -1 1 0 0 0 0 1:-942.52704 2:-673.08002 3:-19.273691 
-0 -0 -0.1431297865264949 -1 -1 0 1 0 0 0 1:-934.52264 2:-673.07526 3:-25.57279 
-0 -0 -0 -0 -1 0 0 0 0 0 1:-934.5213 2:-673.07837 3:-22.656675 
-0 -1 -1 -0.4484735852259072 -1 1 0 0 0 0 1:-942.53186 2:-673.11768 3:-19.269867 
-0 -0 -0 -0 -1 0 1 0 0 0 1:-934.52234 2:-673.06226 3:-24.571024 
-0 -1 -1 -0.9998806391064804 -1 1 0 0 0 0 1:-942.53186 2:-673.11768 3:-19.269869 
-0 -1 -1 -1 -1 1 5.507050458032649e-07 0 0 0 1:-942.53186 2:-673.11768 3:-19.269867 
-0 -1 -1 -1 -1 1 0 0 0 0 1:-942.53186 2:-673.11768 3:-19.269867 
-0 -1 -1 -1 -1 1 0 0 0 0 1:-942.53186 2:-673.11768 3:-19.269867 
-0 -0.4766307404123535 -0 -0 -1 0 1 0 0 0 1:-934.52142 2:-673.04962 3:-22.193293 
-0 -0 -0 -0 -0 -0 0 1.792699009197666e-05 6.570875842869899e-10 9.130744036939339e-07 1:-942.53186 2:-673.11761 3:-19.270157 
-0 -1 -0 -0 -0 -0 0.001664490688531242 0 0 0 1:-942.526 2:-673.07153 3:-19.274563 
-0 -0 -1 -0 -0 -0 0 0 0 0 1:-942.53192 2:-673.11884 3:-19.306421 
-0 -0 -1 -0 -0 -0 0 0 0 0 1:-942.53192 2:-673.11884 3:-19.306421 
-0 -1 -1 -1 -0 -0 0 0 0 0 1:-942.53668 2:-673.32526 3:-25.01619 
-0 -0 -1 -0 -0 -0 0 0 0 0 1:-942.53186 2:-673.11761 3:-19.27014 
-0 -1 -1 -0.4844441680055 -0 -0 0 0 0 0 1:-942.53577 2:-673.25769 3:-23.803911 
-0 -0 -1 -0 -0 -0 0 0 0 0 1:-942.53186 2:-673.11761 3:-19.27014 
-0 -0 -1 -0 -0 -0 0 0 0 0 1:-942.53186 2:-673.11761 3:-19.27014 
-0 -0 -1 -0 -0 -0 0 0 0 0 1:-942.53186 2:-673.11761 3:-19.270155 
-0 -0 -1 -0 -0 -0 0 0 0 0 1:-942.53192 2:-673.11884 3:-19.306421 
-0 -0 -1 -0 -0 -0 0 0 0 0 1:-942.53186 2:-673.11768 3:-19.269863 
-0 -1 -1 -0 -0 -0 0 0 0 0 1:-942.53186 2:-673.11768 3:-19.269838 
-0 -0 -1 -1 -0 -0 0 0 0 0 1:-942.54071 2:-673.43933 3:-29.647671 
-0 -0 -1 -0 -0 -0 0 0 0 0 1:-942.53192 2:-673.11884 3:-19.306421 
-0 -0 -1 -1 -0 -0 0.0008864181940000283 0 0 0 1:-942.54089 2:-673.44281 3:-29.80047 
-0 -0 -1 -0 -0 -0 0 0 0 0 1:-942.53186 2:-673.11761 3:-19.270159 
-0 -0 -0.248621334103354 -0 -0 -0 0 0 0 0 1:-942.53186 2:-673.11768 3:-19.269854 
-0 -1 -1 -0 -0 -0 0 0 0 0 1:-942.53247 2:-673.13916 3:-19.964695 
-0 -0 -1 -0 -0 -0 0 0 0 0 1:-942.53192 2:-673.11884 3:-19.306421 
-0 -0 -1 -0 -0 -0 0 0 0 0 1:-942.53186 2:-673.11768 3:-19.269857 
-0 -0 -1 -0 -0 -0 0 0 0 0 1:-942.53186 2:-673.11768 3:-19.269836 
-0 -1 -1 -1 -0 -0 0 0 0 0 1:-942.53436 2:-673.20825 3:-22.193523 
-0 -0.5242179408098857 -1 -0 -0 -0 0 0 0 0 1:-942.53186 2:-673.11768 3:-19.269827 
-0 -0 -1 -0 -0 -0 0 0 0 0 1:-942.53192 2:-673.11884 3:-19.30645 
-0 -0 -1 -0 -0 -0 0 0 0 0 1:-942.53186 2:-673.11768 3:-19.269827 
-0 -0 -1 -0 -0 -0 0 0 0 0 1:-942.53186 2:-673.11768 3:-19.269827 
-0 -0 -1 -0 -0 -0 0 0 0 0 1:-942.53082 2:-673.10925 3:-19.270739 
-0 -0 -1 -0 -1 -0.02675654461368726 0 0 0 0 1:-942.53186 2:-673.11768 3:-19.269842 
-1.64068959277723e-08 -0 -0 -0 -0 -0 0 0 0 0 1:-942.508 2:-673.11731 3:5.6940389 
-0 -0 -1 -0 -0 -0 0 0 0 0 1:-942.53192 2:-673.11884 3:-19.306444 
-0 -0 -0 -0 -0 -1 0 0 0 0 1:-942.53186 2:-673.11768 3:-19.26985 
-0 -1 -1 -1 -0.03076923076923077 -0.03474903474903475 0 0 0 0 1:-942.53589 2:-673.26318 3:-24.003757 
-0 -0.1572428362136838 -0 -0 -0 -0 0 0 0 0 1:-942.53186 2:-673.11768 3:-19.269827 
-0 -0 -1 -0 -1 -0 0 0 0 0 1:-942.53186 2:-673.11761 3:-19.27014 
-0 -0 -1 -0 -0 -1 0 0 0 0 1:-942.53186 2:-673.11761 3:-19.27014 
-0 -0 -0 -0 -0 -1 0 0 0 0 1:-942.53186 2:-673.11768 3:-19.26984 
-0 -0 -1 -0.8035931513397019 -0 -0 0 0 0 0 1:-942.53186 2:-673.11768 3:-19.269827 
-0 -0 -0 -0 -0 -1 0 0 0 0 1:-942.53186 2:-673.11768 3:-19.269827 
-0 -0 -0 -0 -0 -1 0 0 0 0 1:-942.53186 2:-673.11761 3:-19.270155 
-7.379920619728834e-06 -0 -1 -1 -0 -0 0 0 0 0 1:-942.54156 2:-673.46765 3:-30.604891 
-0 -0 -0 -0 -0 -1 0 0 0 0 1:-942.53192 2:-673.11884 3:-19.306421 
-0 -0 -0 -0 -0 -1 0 0 0 0 1:-942.53186 2:-673.11761 3:-19.270163 
-0 -0 -1 -0 -0 -0 0 0 0 0 1:-942.53192 2:-673.11884 3:-19.306421 
-0 -1 -0 -0 -0 -0 0 0 0 0 1:-942.53192 2:-673.11884 3:-19.306456 
-0 -0 -1 -0 -0 -0 0 0 0 0 1:-942.53192 2:-673.11884 3:-19.306452 
-0 -0 -0 -0 -1 -1 0 0 0 0 1:-942.53186 2:-673.11761 3:-19.27014 
-0 -0 -1 -0 -0 -0 0 0 0 0 1:-942.53186 2:-673.11768 3:-19.269838 
-0 -0 -1 -0 -0 -0 0 0 0 0 1:-942.53186 2:-673.11768 3:-19.269827 
-0 -0 -0 -0 -0 -1 0 0 0 0 1:-942.53186 2:-673.11761 3:-19.270157 
-0 -0 -1 -0 -0 -0 0 0 0 0 1:-942.53192 2:-673.11884 3:-19.306421 
-4.722854445548711e-10 -0 -0 -0 -0 -0 1.069135828851387e-06 0 0 0 1:-937.90717 2:-673.06445 3:3766.1594 
-0 -0 -0 -0.5501301312846779 -0 -0 0 0 0 0 1:-942.53186 2:-673.11768 3:-19.269857 
-0 -0 -1 -0 -0 -0 0 0 0 0 1:-942.53186 2:-673.11768 3:-19.269827 
-0 -0 -0 -0 -1 -0 0 0 0 0 1:-942.53186 2:-673.11761 3:-19.270155 
-0 -0 -1 -0 -0 -1 0 0 0 0 1:-942.53192 2:-673.11884 3:-19.306421 
-8.262226546120786e-06 -1.708834899628321e-05 -0 -0.003633387409184887 -0 -1 -0 2.134950202286532e-05 6.577471245400506e-10 9.486164133169144e-07 1:-914.53516 2:-673.24823 3:-26.434048 
-0 -0.01790031570827982 -0 -0 -0 -1 -0 0 0 0 1:-914.53448 2:-673.25513 3:-24.793301 
-0 -0.007679556760645588 -0.002549394518801784 -0 -0.007355215383047693 -1 -0.0004665354754331165 0 0 0 1:-914.53381 2:-673.22137 3:-23.351608 
-0 -2.141952027935199e-05 -3.95983992047577e-06 -0 -0.01271746596932198 -1 -0.002085442542927004 0 0 0 1:-914.53259 2:-673.13452 3:-20.9377 
-0 -0 -0 -0 -0 -1 -0 0 0 0 1:-914.53296 2:-673.17822 3:-21.495947 
-0 -9.973377465129681e-09 -0 -0 -0 -1 -0 0 0 0 1:-914.5351 2:-673.28461 3:-26.054781 
-0 -1 -0 -0 -0 -0 -0 -0 5.704858378797886e-08 0 1:280.24313 2:1777.5093 3:-20.407782 
-0 -1 -0 -0 -0 -0 -0 -0 0 0.9995533138180231 1:-608.52087 2:-673.13336 3:-20.324551 
-0 -1 -0 -0 -0 -0 -0 -0 0 0 1:-608.52069 2:-673.13354 3:-19.789454 
-0 -1 -0 -0 -0 -0 -0 -0 0 0 1:6102.4873 2:-675.25281 3:-14.791295 
-0 -1 -0 -0 -0 -0 -1.792699009197666e-05 -0 0 0 1:-608.52075 2:-673.13678 3:-19.726566 
-0.9998639688095147 -1 -1.792492146643782e-05 -1.85604422358961e-05 -1.881544983624679e-05 -0.0001411951724842944 -0 -2.134950202286532e-05 0 1 1:-608.5213 2:-673.13794 3:-20.54818 
-0.0001360311904839779 -0.06894570139316618 -0 -0 -0 -0 -0 -0 0 0.0004466861819519647 1:5130483.5 2:-2291.7571 3:110.34029 
-0 -0 -0 -0 -0 -0 -0 -0 5.98596509863769e-10 0 1:5134737.5 2:-2293.0964 3:118.45004 
-0 -1 -0 -0 -1.214087235747249e-06 -0 -0 -0 0 0 1:-608.52063 2:-673.13361 3:-19.674789 
-0 -1 -0 -0 -0 -0 -0 -0 -0 6.933649522543347e-10 1:53600.062 2:7623.666 3:-77.093422 
-0 -1 -0 -0 -0 -0 -0 -0 -0 0 1:53600.07 2:7623.7275 3:-73.717155 
-0 -1 -0 -0 -0 -0 -0 -0 -0 0 1:53600.062 2:7623.6641 3:-77.162277 
-0 -1 -0 -0 -0 -0 -0 -0 -0 0 1:53600.062 2:7623.6738 3:-76.611244 
-0 -0.5361315863908892 -0 -0 -0 -0 -0 -0 -0 0 1:53600.07 2:7623.7236 3:-73.819405 
-0 -1 -0 -0 -0 -0 -0 -0 -0 0 1:53600.062 2:7623.665 3:-77.127846 
-0 -1 -0 -0 -0 -0 -0 -0 -0 0 1:53600.059 2:7623.6616 3:-77.235405 
-0 -1 -0 -0 -0 -0 -0 -0 -0 0 1:53600.059 2:7623.6621 3:-77.233269 
-0 -1 -0 -0 -0 -0 -0 -0 -0 0 1:53600.062 2:7623.667 3:-77.056854 
-0 -1 -0 -0 -0 -0 -0 -6.577471245400506e-10 -0 0 1:53600.059 2:7623.6616 3:-77.235413 
-0 -1 -0 -0 -0 -0 -0 -0 -0 0 1:53600.07 2:7623.7246 3:-73.826302 
-0 -1 -0 -0 -0 -0 -0 -0 -5.687534167617457e-08 0 1:53600.062 2:7623.666 3:-77.093422 
-0 -1 -0 -0 -0 -0 -0 -0 -0 0 1:53600.059 2:7623.6641 3:-77.164413 
-0 -1 -0 -0 -0 -0 -0 -0 -6.934409147834523e-11 0 1:53600.062 2:7623.6699 3:-76.734154 
-0 -1 -0 -6.570855947240715e-10 -6.572767030176089e-10 -5.092402231819838e-12 -0 -0 -0 0 1:53600.059 2:7623.6553 3:-77.448395 
-6.820711285162567e-10 -1 -6.570871421608557e-10 -0 -0 -6.570875842869899e-10 -6.570875842869899e-10 -0 -7.024945301895997e-10 0 1:53600.059 2:7623.6616 3:-77.235405 
-9.964459396761985e-06 -1 -9.130698183401943e-07 -9.204552709290061e-07 -9.357141763613271e-07 -1.249832985540877e-06 -9.130744036939339e-07 -9.486164133169144e-07 -1 -0 1:537.46692 2:-673.60559 3:-21.58675 
-0 -1 -0 -0 -0 -0 -0 -0 -1 -6.933649522543347e-10 1:537.47882 2:-673.49506 3:-20.694824 
