svm_type c_svc
kernel_type linear
nr_class 11
total_sv 259
rho 2501.46 -2.50783 -2.49707 -2.44212 -3.33371 -2.26355 -2.6199 -0.613728 -0.999317 -1.40036 -894.51 -84.3703 -93.2307 -295.586 -22.4734 -356.323 -2916.75 -4799.58 -60.9328 438.962 -38.9519 86.7915 -100.612 62.9146 4.48309 -0.962553 0.275441 -6.10289 -22.5425 -129.847 68.2403 2.91767 -0.962481 0.245375 36.255 3.89877 2.74198 4.87161 -0.962813 0.263719 -34.6714 18.5531 2.8891 -0.970136 0.135329 37.7113 3.83506 -0.962536 0.277698 2.58596 -0.963548 0.248822 -1.60161 -68.7889 1.01587 
label 4 0 3 13 9 14 8 6 20 11 5 
nr_sv 11 83 39 18 39 18 21 3 9 16 2 
SV 
0 0 0 0 0 0 0 0 6.819569340158984e-10 2.100045308766965e-08 1:89.448006 2:-674.51996 3:-61.31889 4:283.06866 5:-6.0624886 6:0.92614269 7:-2.0757596 8:-0.031613342 9:0.0032641345 10:0.00072091195 11:0.00082528219 12:0.011236969 13:-0.0010318365 14:0.001095303 
1 0 0 0 0 0 0 0 0 0 1:89.464249 2:-673.60974 3:-27.375696 4:-344.3732 5:20.038364 6:-46.644211 7:-68.089188 8:-0.83912092 9:-2.69171 10:-0.011933462 11:-0.24775492 12:-1.1337847 13:0.029461395 14:0.19554211 
1 0 0 0 0 0 0 2.763558198473192e-05 0 9.91156159263312e-06 1:89.467216 2:-673.46216 3:-21.068295 4:-455.30426 5:56.129845 6:-40.847286 7:-99.946655 8:-2.4482043 9:-3.6189399 10:-0.035559099 11:-0.32599875 12:-1.2143699 13:0.0028457385 14:0.32660541 
1 0 0 0 0 0 0 0 0 0 1:89.463356 2:-673.57703 3:-29.655176 4:-326.89578 5:-117.78535 6:-107.19865 7:21.670671 8:5.5699387 9:-0.65350509 10:0.081277207 11:-0.091792181 12:-1.6379877 13:0.16913247 14:-0.23066247 
0 0 8.646588011090723e-07 0 0 0 3.097016882990083e-07 0 0 0 1:-422.54788 2:-674.20673 3:-55.519516 4:182.60497 5:-12.199779 6:20.601233 7:-12.679725 8:0.22814967 9:-0.40342683 10:-0.034899369 11:-0.050727341 12:-0.21155402 13:0.0061854357 14:-0.0039719283 
1 6.767257251935301e-06 6.166939529662606e-06 6.24848648649489e-06 1.630755939334755e-05 5.941197573349125e-06 7.655286908035457e-06 0 0 0 1:-422.53577 2:-673.37744 3:-27.887724 4:-351.50128 5:-122.30978 6:-111.54267 7:22.623613 8:5.7966776 9:-0.68027931 10:0.084465273 11:-0.095335364 12:-1.7044692 13:0.17598718 14:-0.24003293 
0.6445494801714522 0 0 0 0 0 0 0 0 0 1:89.463058 2:-673.66876 3:-29.898657 4:-300.00076 5:5.6017632 6:-48.962982 7:-55.346199 8:-0.19548817 9:-2.3209026 10:-0.0024299584 11:-0.21651348 12:-1.1021261 13:0.040245395 14:0.14219049 
1 0 0 0 0 0 0 4.993920181249216e-06 0 2.804540239365218e-08 1:89.465492 2:-673.44592 3:-25.253494 4:-411.68903 5:-133.31633 6:-122.22945 7:24.971746 8:6.3486295 9:-0.74480486 10:0.092475615 11:-0.10466725 12:-1.8672521 13:0.1927876 14:-0.26287991 
1 0 0 0 0 0 0 0 0 0 1:89.463051 2:-673.59607 3:-30.29413 4:-314.58707 5:-115.53085 6:-105.01676 7:21.191484 8:5.456903 9:-0.64025193 10:0.079651631 11:-0.089923218 12:-1.6047074 13:0.16569866 14:-0.22598574 
0 0 0 0 0 0 0 3.291117243272171e-07 0 0 1:89.451775 2:-674.50378 3:-57.613132 4:236.64578 5:123.03591 6:108.74244 7:-99.721611 8:-6.1698747 9:-2.2182243 10:-0.1583956 11:-0.19123362 12:0.46241686 13:-0.15195712 14:0.45982948 
1 0 0 0 0 0 0 0 0 0 1:89.462669 2:-673.61932 3:-31.075073 4:-299.54312 5:-112.77535 6:-102.35001 7:20.60581 8:5.318748 9:-0.6240536 10:0.077664815 11:-0.087638929 12:-1.5640315 13:0.16150178 14:-0.22026974 
-0 0 0 1 0 0 0 0 0 0 1:-942.52246 2:-673.02649 3:-24.135029 4:-436.77072 5:-235.2769 6:109.17137 7:30.314667 8:1.4664057 9:4.9652214 10:1.927109 11:0.13891226 12:-0.81279159 13:0.18316151 14:-0.46609679 
-1 0 0 0 0 0 0 0 0 0 1:-912.53394 2:-673.12769 3:-24.224913 4:-413.03983 5:-133.70341 6:-122.43085 7:25.064917 8:3.3676343 9:-0.63609922 10:0.088688292 11:-0.1100201 12:-1.9332002 13:0.20634717 14:-0.25813723 
-0.9281806778165883 0 0 0 0 0 0 0 0 0.02197372649218277 1:-426.54834 2:-670.22614 3:-56.423981 4:198.2926 5:-21.57053 6:-14.084814 7:1.2072873 8:1.7330166 9:-0.035557233 10:0.015034489 11:0.035856567 12:0.55041873 13:-0.045185629 14:-0.12901917 
-0 0 0 0.003201292418376113 0 0 0 0 0 0 1:-932.44995 2:-446.03949 3:-19.481497 4:-487.57379 5:-38.264908 6:167.82239 7:-94.788734 8:-3.7779534 9:-2.9664125 10:-0.31404078 11:-0.3137618 12:-0.015857028 13:-0.12515619 14:0.18414311 
-0 0 0 0.02308621092593566 0 0.001432066476051109 0 0.06843419791350605 0 0 1:-942.52045 2:-673.02795 3:-19.280931 4:-491.91107 5:-40.693108 6:191.78381 7:-98.8078 8:-7.562777 9:1.9324626 10:1.8199637 11:-0.11899603 12:-0.43419296 13:0.055079535 14:-0.3121222 
-0 0 0 0.0004024488171501757 0 0 0 0 0 0 1:-942.53296 2:-673.11206 3:-23.075306 4:-427.44431 5:-96.720139 6:-93.796371 7:-2.4533231 8:-4.2334104 9:4.0116115 10:2.1073794 11:0.17640272 12:-0.33066425 13:0.11277553 14:-0.037015114 
-0 0 0 1.164648188176447e-06 0 0 0 0 0 0 1:-782.98669 2:51791.766 3:-29.26992 4:-332.03845 5:-109.11812 6:-124.07141 7:26.101439 8:-2.4015419 9:-0.1433163 10:0.028003518 11:0.023591334 12:0.22472844 13:-0.034035265 14:-0.13760114 
-0 0 0 0.000461914323979365 0 0 0 0 0 0 1:-912.51508 2:-643.05298 3:-23.935207 4:-435.08389 5:-206.96545 6:69.233276 7:23.185373 8:2.1333904 9:-0.27059308 10:-0.17222881 11:-0.14295533 12:-1.3749897 13:0.1270189 14:-0.25378171 
-0 0 0 0.1358237094342994 0 0 0 0 0 0 1:-911.53223 2:-673.13684 3:-20.333567 4:-454.31082 5:30.839323 6:-51.816391 7:-91.976639 8:-8.4223804 9:-2.8432229 10:-0.028179258 11:-0.27229881 12:-0.68647653 13:-0.019409873 14:0.23866996 
-0 0 0 0 0 0 0 0.9629032922332318 0 0 1:-846.4942 2:-644.05872 3:-1.4393312 4:-490.28311 5:-41.524448 6:189.31917 7:-97.740479 8:-5.6853552 9:-3.0700619 10:-0.32889989 11:-0.40036035 12:-1.0553458 13:0.0015787244 14:-0.088500462 
-0 0 0 0.286636676500087 0 0 0 0 0 0 1:-942.52246 2:-673.02649 3:-24.135029 4:-436.77072 5:-235.2769 6:109.17136 7:30.314671 8:1.4663795 9:4.9650631 10:1.9267609 11:0.13907202 12:-0.80985135 13:0.18271844 14:-0.46606138 
-0 0 0 0 0 0.002043106579518957 0 0 0 0 1:-942.52063 2:-673.0296 3:-19.355682 4:-490.67081 5:-41.808636 6:186.82387 7:-97.020256 8:2.4983821 9:1.6265376 10:1.8202605 11:-0.075363934 12:-0.032009616 13:-0.046086688 14:0.082998432 
-0.4223490767944224 0 0 0 0 0 0 0 0 0 1:-837.53387 2:-673.14941 3:-24.052647 4:-416.35434 5:-126.84223 6:-119.75351 7:20.449537 8:9.0343857 9:-0.85055435 10:0.071032673 11:-0.037501618 12:-0.80358917 13:0.038287416 14:0.1553074 
-0 0 0 0 0 0 0 0 0.5751364504806603 0 1:-732.22369 2:310.81451 3:-24.486433 4:-411.62173 5:-133.45894 6:-122.47649 7:25.200939 8:-2.661783 9:-0.27815279 10:-0.0096652145 11:0.029577157 12:0.27461916 13:-0.0020470154 14:-0.088357553 
-0 0 0 0 0 0 0 0.4866143233671262 0 0 1:-388.52078 2:-673.20544 3:-19.898767 4:-490.20099 5:-40.425758 6:190.72751 7:-98.624443 8:5.2445745 9:-3.5556469 10:-0.40340218 11:-0.33310336 12:1.0547428 13:5.7959929 14:-0.29053229 
-0 0 0 0.01667166836045741 0 0 0 0 0 0 1:-942.51953 2:-669.03107 3:-19.410238 4:-489.68408 5:-42.291393 6:183.0643 7:-95.929443 8:22.350428 9:-3.9424922 10:-0.30350894 11:-0.2745187 12:0.48677769 13:-0.24748129 14:0.2188371 
-1 0 0 0 0 0 0.09364026004285173 0 0 0 1:-912.53394 2:-673.12769 3:-24.224913 4:-413.03983 5:-133.70341 6:-122.43085 7:25.064917 8:3.3676343 9:-0.63609922 10:0.088688292 11:-0.1100201 12:-1.9332002 13:0.20634717 14:-0.25813723 
-0.1917204732713981 0 0.001748089530980718 0 0 0 0.1138532627711026 0 0 0 1:-912.53198 2:-673.12811 3:-19.412758 4:-468.0578 5:58.028919 6:-41.113976 7:-101.38713 8:-5.5131669 9:-3.5754764 10:-0.022558179 11:-0.34413126 12:-1.3169185 13:0.0020753676 14:0.26067904 
-0 0 0 0 0 0 0.2949563960617988 0 0 0 1:-912.53223 2:-673.13019 3:-19.94455 4:-461.59891 5:40.55896 6:-48.424526 7:-88.024666 8:-4.6733265 9:-3.3000205 10:-0.013707502 11:-0.33034718 12:-1.43529 13:0.034128264 14:0.1220399 
-0.8807305906326193 0 0 0 0 0 0 0 0 0 1:-760.53229 2:-673.17908 3:-20.197849 4:-459.86041 5:36.80146 6:-49.993706 7:-87.924698 8:0.45503563 9:-3.4329948 10:-0.019693268 11:-0.30293339 12:-1.2617837 13:0.015597619 14:0.25694248 
-0 0 0 0 0 0 0 0 0.2186941569689122 0 1:10389.907 2:715.30536 3:-25.982899 4:-435.58258 5:-46.536922 6:-81.78418 7:-35.366539 8:-5.7407136 9:-1.6521704 10:-0.060838047 11:-0.10002451 12:0.45066375 13:-0.088905573 14:0.18041815 
-0 0 0 0.8828586197398615 0 0 0 0 0 0.1434439978421468 1:-912.521 2:-673.04108 3:-19.499168 4:-488.81403 5:-44.142754 6:179.36511 7:-94.120674 8:1.4749187 9:-3.3377073 10:-0.30827704 11:-0.42302874 12:-1.6651297 13:0.039278526 14:-0.013512483 
-0 0 0 0.07879035138668089 0 0 0 0 0 0 1:-942.52087 2:-673.02765 3:-20.351128 4:-479.75418 5:-83.593391 6:173.57005 7:-70.339828 8:-5.5718622 9:2.6054156 10:1.816005 11:-0.062780507 12:-0.52083904 13:0.083827794 14:-0.34668198 
-0 0 0 0 0 0 0.0959305204607042 0 0 0 1:-942.53363 2:-673.11615 3:-23.38065 4:-422.91626 5:-104.19624 6:-109.95182 7:5.4418626 8:-3.8503189 9:4.1868758 10:2.1402836 11:0.19634683 12:-0.34731403 13:0.1223028 14:-0.049002316 
-0 0 0 0 0 0 0 0 1 0 1:87439.43 2:-700.95551 3:-106.76438 4:-448.05994 5:-95.09623 6:115.00668 7:-46.9356 8:7.9058471 9:-2.2408051 10:-0.28873596 11:-0.21288271 12:0.59073597 13:0.88374561 14:-0.33352423 
-1 0 0 0 0 0 0 0 0 0 1:-912.53394 2:-673.12769 3:-24.224913 4:-413.03983 5:-133.70341 6:-122.43085 7:25.064917 8:3.3676343 9:-0.63609922 10:0.088688292 11:-0.1100201 12:-1.9332002 13:0.20634717 14:-0.25813723 
-0 0 0 0.005198506551907799 0 0 0 0 0 0 1:-912.52252 2:-673.04761 3:-21.027771 4:-469.69577 5:-97.566666 6:135.09538 7:-53.799229 8:1.0147052 9:-2.2976341 10:-0.25235498 11:-0.34226859 12:-1.8475488 13:0.097402886 14:-0.065278374 
-0.02980748370918612 0 0 0 0.0005845650533616157 0 0 0.5590958251722236 1 0.01485013078623889 1:174394.38 2:-728.43066 3:-188.95634 4:-450.32458 5:-14.478048 6:-75.527245 7:-49.843452 8:4.7942562 9:-2.4663889 10:-0.03203563 11:-0.17710447 12:0.65184176 13:-0.094798438 14:-0.27057815 
-0 0 0 0 0.392909029905621 0 0 0 0 0 1:-741.5246 2:-673.13513 3:-21.429678 4:-456.82922 5:-68.321686 6:97.959579 7:-74.777786 8:6.5149598 9:-2.4895427 10:-0.27364269 11:-0.19196469 12:0.66765404 13:-0.14405319 14:-0.19949925 
-0 0 0 0 0.1512122616605094 0 0 0 0 0 1:-942.52557 2:-673.05768 3:-24.373596 4:-425.50336 5:-209.23671 6:46.163372 7:24.503073 8:0.36373881 9:4.9621234 10:1.647688 11:0.17239633 12:-0.51366049 13:0.10976634 14:0.050654721 
-0 0.03139285932152423 0.001263957328666115 0.001595460252477271 0 0.006330322316693742 0 0 0 0 1:-941.52472 2:-673.10547 3:-21.022167 4:-456.03162 5:6.0482874 6:142.85947 7:-75.308662 8:54.868332 9:-5.8309216 10:-0.20811851 11:-0.24527581 12:0.55924863 13:-0.35914823 14:0.31674758 
-0 0 0 0 0.04423404071098221 0 0 0 0 0 1:-942.52246 2:-673.03046 3:-24.272757 4:-433.7966 5:-236.10715 6:109.15082 7:27.775908 8:1.4456444 9:4.9936357 10:1.680349 11:0.12699667 12:-0.82307947 13:0.16731729 14:-0.35086995 
-0 0 0 0 0 0 0.2596856580721618 0 0 0 1:-912.5321 2:-673.13068 3:-19.915812 4:-461.15997 5:40.510757 6:-48.208107 7:-93.760864 8:-8.7869244 9:-3.0519245 10:-0.032309085 11:-0.28510022 12:-0.68968987 13:-0.031703327 14:0.33232537 
-0 0 0 0 0 0.002967344384706745 0 0.08938793360324176 0 0 1:-942.52045 2:-673.02795 3:-19.280931 4:-491.91107 5:-40.693108 6:191.78381 7:-98.8078 8:-7.562777 9:1.9324626 10:1.8199637 11:-0.11899603 12:-0.43419296 13:0.055079535 14:-0.3121222 
-0 0 0 0 0 0 0 0.02891874880992227 1 0 1:160823.53 2:53599.852 3:-179.47307 4:-401.7735 5:-5.9001365 6:100.82436 7:-80.272369 8:-6.5706224 9:-0.31126255 10:-0.27029753 11:-0.23857871 12:0.309259 13:-0.088701852 14:-0.3323251 
-0 0 0.002842481016039615 0 0 0 0 0 0 0 1:-933.52063 2:-637.12024 3:-19.455267 4:-467.55551 5:53.648476 6:-42.984852 7:-99.366394 8:-8.3660727 9:-3.3023155 10:-0.1099437 11:-0.21179681 12:0.72374314 13:-0.12976007 14:-0.011215838 
-0 0 0 0 0 0 0 1 0 0.01495392522290154 1:-761.52057 2:-673.08679 3:-19.488913 4:-491.15186 5:-39.5308 6:191.07207 7:-98.475952 8:3.2472565 9:-3.5309236 10:-0.27766621 11:-0.4465757 12:-1.6540951 13:0.026751135 14:-0.42822874 
-0 0.08782853382221188 0 0 0 0 0 0 0 0 1:-942.53021 2:-673.12518 3:-24.030891 4:-412.75662 5:-107.478 6:-19.108135 7:-10.642619 8:-3.9660387 9:3.8916152 10:1.395574 11:0.12466796 12:-0.32619774 13:0.090799451 14:-0.031055529 
-1 0 0 0 0 0 0 0 0 0 1:-760.53223 2:-673.18127 3:-20.077736 4:-460.66376 5:44.712891 6:-46.498817 7:-93.061432 8:0.087012082 9:-3.5491972 10:-0.025093207 11:-0.31178671 12:-1.2322088 13:0.00750012 14:0.28204346 
-0 0 0 1 0 0 0 0 0 0 1:-942.52246 2:-673.02649 3:-24.135029 4:-436.77072 5:-235.2769 6:109.17136 7:30.314667 8:1.4663969 9:4.965169 10:1.926993 11:0.13896552 12:-0.81181151 13:0.18301383 14:-0.46608499 
-0 0 0 0 0.004640901013402604 0 0 0 0 0 1:-899.52063 2:-630.21051 3:-26.977106 4:-353.72549 5:-149.65131 6:-122.51094 7:-26.136971 8:-1.0418969 9:0.63887203 10:0.063863464 11:-0.0321775 12:-0.6561327 13:0.038206123 14:0.22996669 
-0 0 0 0 0.183392716744632 0 0 0 0 0 1:-942.52283 2:-673.0293 3:-24.134766 4:-436.06851 5:-232.08969 6:101.86837 7:30.157484 8:1.3404514 9:4.9355698 10:1.2048208 11:0.14462881 12:-0.62127811 13:0.1189625 14:-0.072368167 
-0 0 0 0 0.6641605357687863 0 0 0 0 0 1:-912.53009 2:-673.10059 3:-22.780523 4:-436.36542 5:-107.48364 6:-33.546497 7:-10.052149 8:1.9342519 9:-1.4016669 10:-0.029456139 11:-0.20416039 12:-1.8751187 13:0.16121323 14:-0.18475655 
-0 0 0 0 0 0 0 0 1 0 1:-609.61505 2:24434.75 3:-26.697151 4:-377.62265 5:-122.65106 6:-123.81276 7:25.75256 8:-2.509809 9:-0.21843456 10:0.0084389281 11:0.026216924 12:0.24232152 13:-0.016115127 14:-0.11267838 
-0 0.2044981076230255 0.0004121918764747632 0 0 0.04214343234108173 0 0 0 0 1:-942.52734 2:-673.08191 3:-19.293818 4:-478.2265 5:19.633606 6:51.804523 7:-101.44435 8:-4.9926724 9:-1.0402189 10:-0.69602698 11:-0.21066809 12:0.0083702179 13:-0.069326833 14:0.11785872 
-0 0 0 0 0 0 0 0 0 0.02028561144155921 1:-851.52661 2:-673.11707 3:-19.893604 4:-470.72162 5:10.696862 6:71.644852 7:-99.854362 8:57.28688 9:-5.6349592 10:-0.070883758 11:-0.25684533 12:-0.086276188 13:-0.26835698 14:0.27529773 
-0 0 0 1.239342268202138e-05 0 0 0 0 0 0 1:-764.88385 2:-567.68097 3:32997.699 4:1272.7916 5:-107.18127 6:48.987659 7:198.56943 8:0.85086906 9:4.5392327 10:-0.78372967 11:-0.022622043 12:1.1269457 13:-0.063990213 14:0.60948086 
-0 0 0 0.5643232526766181 0 0 0 0.002438987514596382 0 0 1:-942.52045 2:-673.02795 3:-19.280931 4:-491.91107 5:-40.693108 6:191.78381 7:-98.8078 8:-7.562777 9:1.9324626 10:1.8199637 11:-0.11899603 12:-0.43419296 13:0.055079535 14:-0.3121222 
-0 0 0 0 0.2916706050999454 0 0 0 0 0 1:-942.52356 2:-673.03882 3:-24.276211 4:-432.0242 5:-225.57947 6:88.673721 7:29.768555 8:1.1364286 9:6.7208109 10:0.83386844 11:0.24681488 12:-0.095728539 13:0.13519543 14:-0.38661933 
-0 0 0 0 0 0 0 0 0 0.2585677941150947 1:-795.53192 2:-673.164 3:-19.410892 4:-469.54568 5:60.779755 6:-40.066921 7:-104.06749 8:-1.6676697 9:-3.7279279 10:0.0052564214 11:-0.31895977 12:-0.72887528 13:0.014682391 14:-0.47526032 
-0 0 0 0 0 9.422686656162045e-07 0 0 0 0 1:-894.37701 2:-178.17879 3:-20.821661 4:-443.83466 5:79.713013 6:-30.193138 7:-80.978897 8:8.9707737 9:-4.460084 10:-0.1039992 11:-0.19111976 12:1.1323155 13:-0.24810414 14:0.10059306 
-0 0 0 0 0 0 0.003265645044131812 0 0 0 1:-930.53149 2:-673.11292 3:-20.77281 4:-454.62842 5:-8.0379477 6:-44.442726 7:-64.002441 8:4.425077 9:-2.8310366 10:-0.087791465 11:-0.13910934 12:0.7231589 13:-0.11900114 14:-0.22072336 
-0 0 0 0 0 0 0 0 0 0.5222411686481696 1:-912.53192 2:-673.12695 3:-19.337978 4:-469.11581 5:59.10141 6:-40.711407 7:-102.98601 8:-5.5775003 9:-3.6042829 10:-0.04165484 11:-0.33943444 12:-1.2930634 13:0.014468414 14:0.34367913 
-0 0 0 0.02997549230840336 0 0 0 0 0 0 1:-912.52356 2:-673.05798 3:-20.434307 4:-473.87689 5:-62.263596 6:118.71175 7:-70.134758 8:-0.5358988 9:-2.706996 10:-0.23159476 11:-0.36462864 12:-1.7695792 13:0.083457634 14:-0.058510162 
-1 0 0 0 0 0 0 0 0 0 1:-912.53394 2:-673.12769 3:-24.224913 4:-413.03983 5:-133.70341 6:-122.43085 7:25.064917 8:3.3676343 9:-0.63609922 10:0.088688292 11:-0.1100201 12:-1.9332002 13:0.20634717 14:-0.25813723 
-0 0 0 1 0 0 0 0 0 0 1:-912.52112 2:-673.04211 3:-19.556393 4:-487.89911 5:-45.245682 6:175.6515 7:-92.655243 8:1.5351664 9:-3.3058701 10:-0.30334684 11:-0.41911486 12:-1.6677039 13:0.041175004 14:-0.016591663 
-0 0 0 0 0 0 0 0.01774987484873428 0 0 1:-796.38715 2:-250.09518 3:-20.181736 4:-475.6579 5:-44.943913 6:191.62254 7:-112.16071 8:-7.8474412 9:-2.7353783 10:-0.40293813 11:-0.32444379 12:0.33285084 13:-0.10443968 14:-0.29229516 
-0 0 0 0 0 0 0 0 0 1 1:-878.52234 2:-673.06311 3:-19.339361 4:-488.1756 5:-23.727314 6:153.41206 7:-99.83844 8:0.62458843 9:-3.4604015 10:-0.29665634 11:-0.39760292 12:-1.3557768 13:-0.0270536 14:0.40086728 
-0 0 0 0 0 0 0 0 1 0 1:87439.422 2:-701.00464 3:-106.01932 4:-444.28336 5:-10.759558 6:-6.1829486 7:-67.556763 8:4.4319735 9:-2.8364127 10:-0.13331357 11:-0.19617347 12:0.83192903 13:0.85987103 14:-0.18489686 
-0.1189969733220858 0 0 0.06828795846632886 0.1483348280568106 0 0.1399637117521027 0 0 0 1:-906.53235 2:-673.12988 3:-20.4818 4:-455.97198 5:15.085865 6:-60.269688 7:-73.411987 8:51.460999 9:-4.9280691 10:0.060475893 11:-0.18373536 12:-0.30299586 13:-0.18164957 14:0.097184613 
-0 0 0 0 0.535499939028878 0 0 0 0 0 1:-912.52582 2:-673.07263 3:-21.234987 4:-461.06165 5:-77.598236 6:66.718773 7:-49.669312 8:3.3024287 9:-2.3719761 10:-0.15872733 11:-0.30430833 12:-1.7432119 13:0.096805029 14:-0.10691428 
-0 0 0 0 0 0 0 0 1 0 1:-709.42963 2:-342.18982 3:-24.378643 4:-413.9473 5:-134.00798 6:-122.69032 7:25.240969 8:-2.6530311 9:-0.28126806 10:-0.0099665402 11:0.029444896 12:0.27169147 13:-0.0012736928 14:-0.088232063 
-0 0 0 0 0 0 0 0 1 0 1:-632.41046 2:-281.21631 3:-24.528751 4:-412.49203 5:-133.7272 6:-122.45361 7:25.1898 8:-2.665338 9:-0.27960062 10:-0.010092387 11:0.029615412 12:0.27530509 13:-0.001689831 14:-0.08777006 
-0 0 0 0.003193705823125414 0 0 0 0 0 0 1:-912.52136 2:-673.04382 3:-19.651768 4:-486.37427 5:-47.083893 6:169.46214 7:-90.21286 8:1.635579 9:-3.2528079 10:-0.29512981 11:-0.41259176 12:-1.6719941 13:0.044335801 14:-0.02172363 
-0 0 0 0.1550340017866409 0 0 0 0 0 0 1:-942.51971 2:-669.03247 3:-19.486538 4:-488.46426 5:-43.761936 6:178.11279 7:-93.975426 8:22.430656 9:-3.8990109 10:-0.29788992 11:-0.26830059 12:0.4932254 13:-0.24793684 14:0.23557544 
-0 0 0 0 0 0 0 0.01220569185571187 0 0 1:-788.18512 2:-567.93945 3:9696.5098 4:22.511274 5:-80.498932 6:196.9767 7:-10.551098 8:2.63924 9:-0.99661636 10:-0.50736201 11:-0.2998341 12:-0.32795897 13:-0.037278742 14:-0.098725326 
-0 0 0 0 0 0 0 0 1 0 1:-773.43341 2:-354.16962 3:-24.31637 4:-413.96341 5:-134.01541 6:-122.6873 7:25.240042 8:-2.653017 9:-0.28133193 10:-0.0099833347 11:0.029470785 12:0.27171558 13:-0.001268117 14:-0.088222347 
-0 0 0 0.0004371899931954245 0 0 0 0 0 0 1:-912.52319 2:-673.0556 3:-20.300316 4:-476.00525 5:-59.583744 6:127.3745 7:-73.60466 8:2.3183849 9:-2.8919852 10:-0.2392541 11:-0.36823469 12:-1.7011676 13:0.065829217 14:-0.056621004 
-0 0 0 0 0 0 0 1 0 0 1:-705.24249 2:102.89565 3:15.354127 4:-488.41974 5:-39.92123 6:188.73651 7:-98.177597 8:-0.77867627 9:-3.3901646 10:-0.48958272 11:3.7285905 12:0.31386238 13:-0.13021523 14:-0.35462365 
-0 0 0 0.350526125268587 0 0 0 0 0 0 1:-934.47748 2:-535.03412 3:-19.60581 4:-487.32703 5:-48.848022 6:177.41394 7:-90.973793 8:-3.3284898 9:-2.8674605 10:-0.3253665 11:-0.31187144 12:-0.049152851 13:-0.11916018 14:0.15639225 
-0 0 0 0 0 0 0 0.1597702290654098 0 0 1:-906.52051 2:-673.04181 3:-19.405256 4:-490.20914 5:-40.830227 6:190.75458 7:-98.447929 8:-5.7194452 9:-3.0837991 10:-0.33032373 11:-0.40159109 12:-1.0517533 13:0.00062299013 14:-0.087509453 
-0 0 0 0.001342671368274084 0 0 0 0 0 0 1:-935.36456 2:-173.04413 3:-19.636457 4:-484.33551 5:-37.526245 6:151.84399 7:-91.522667 8:-3.7596266 9:-2.9009626 10:-0.2950989 11:-0.30136874 12:-0.01311997 13:-0.12296663 14:0.21642712 
-0 0 0 0.003765316987529446 0 0 0 0 0 0 1:-942.521 2:-673.03174 3:-19.490767 4:-488.55768 5:-44.736568 6:178.16655 7:-93.432037 8:-7.3442178 9:2.0729272 10:1.8160857 11:-0.081653684 12:-0.21639371 13:-0.0066031544 14:0.1559974 
-0 0.4703466134934018 0 0 0 0 0 0 0 0 1:-942.52814 2:-673.08282 3:-20.803982 4:-460.75452 5:-39.352711 6:22.490263 7:-61.261105 8:-6.0802035 9:4.5412226 10:1.5578785 11:0.094731286 12:-0.28598097 13:0.090793654 14:-0.13026612 
-0.07276420462516045 0 0 0 0 0 0 0 0 0 1:14933.458 2:-678.16119 3:-38.370216 4:-415.83176 5:-43.166611 6:-82.739929 7:-32.661957 8:6.1101894 9:-2.0732477 10:-0.028504157 11:-0.075912841 12:0.6422388 13:-0.075251862 14:-0.35812324 
-0 0 0 0 0 0 0 0.1287676121199254 1 0 1:59984.602 2:-200.25864 3:-82.088966 4:-438.62463 5:-207.12918 6:84.328491 7:21.154459 8:1.0759692 9:-0.2062306 10:-0.28162757 11:-0.074769191 12:0.17187457 13:-0.041196439 14:0.0009699107 
-0 0 0 0 0 0 0 1 1 0.003683645451676308 1:58333.445 2:-691.75586 3:-77.668556 4:-466.53656 5:-75.079933 6:89.643967 7:-55.883305 8:7.0607228 9:-2.4855895 10:-0.25776684 11:-0.21132621 12:0.51232678 13:-0.14345296 14:-0.043436721 
-0 0 0 0 0 0 0 0 0.7747948102284035 0 1:-622.78406 2:23898.754 3:-26.6709 4:-377.66479 5:-123.10492 6:-123.79276 7:25.106577 8:-2.521524 9:-0.21744522 10:0.007903629 11:0.01688306 12:0.21244317 13:-0.042144839 14:0.11494106 
-0 0 0 1 0 0 0 1 0 0 1:-942.51923 2:-669.02899 3:-19.295784 4:-491.5134 5:-40.085785 6:190.49182 7:-98.861343 8:22.230904 9:-4.0159674 10:-0.30430079 11:-0.29184291 12:0.39806691 13:-0.22292441 14:0.026978325 
-0 0 0 0.07871448188858525 0 0 0 0 0 0 1:-912.52338 2:-673.05658 3:-20.358007 4:-475.09677 5:-60.793026 6:123.66325 7:-72.088669 8:-0.61622888 9:-2.7494457 10:-0.23816837 11:-0.36984712 12:-1.766147 13:0.080928996 14:-0.05440459 
-0 0.01321880100695269 0.0002893157322918373 0 0 0 0.01083966447556333 0 0 0 1:-899.5304 2:-630.74384 3:-44.77676 4:-17.336824 5:-60.204819 6:-51.794296 7:9.8260775 8:-4.3141594 9:0.028927598 10:0.0092825722 11:0.012324166 12:0.046424925 13:-0.024403013 14:0.31972769 
-0 0 0 0 0 0 0 0 0.5922582064589634 0 1:41815.578 2:-296.53693 3:-61.463657 4:-449.85144 5:-146.6532 6:84.011192 7:-14.214175 8:-1.677148 9:-1.0430199 10:-0.28076273 11:-0.13786414 12:0.26469192 13:-0.096118085 14:0.23056675 
-0 0 0 0.3203337250094198 0 0 0 0 0 0 1:-942.52057 2:-673.02783 3:-19.644033 4:-487.78641 5:-55.248615 6:185.60422 7:-89.149048 8:-6.8872657 9:2.1599267 10:1.8293072 11:-0.10031357 12:-0.47373798 13:0.066351913 14:-0.32377517 
-0 -0 0 0 0 0 0 0 6.570764207842544e-10 6.667908852264887e-08 1:-942.53577 2:-673.25769 3:-23.803984 4:-392.18143 5:117.75062 6:-9.3369331 7:-31.956581 8:-0.44147739 9:1.2209877 10:-0.56568581 11:-0.019091552 12:0.0064206184 13:-0.01151158 14:0.027917562 
-5.415693377837091e-06 -0.371523332910621 0 0 0 0 2.104343832253566e-05 0 0 0 1:-942.52887 2:-673.10876 3:-22.814251 4:-430.74258 5:-81.633438 6:9.5824795 7:-34.137917 8:-4.1848183 9:4.6908827 10:-0.42689568 11:0.076459348 12:-0.38217273 13:0.093696848 14:-0.032559585 
-0 -0 0 0 0 1 0 0 0 0 1:-942.53571 2:-673.25598 3:-23.727352 4:-393.38541 5:117.62417 6:-9.842473 7:-33.48563 8:21.550058 9:0.97081375 10:2.3678906 11:0.11987257 12:0.58259284 13:-0.097907819 14:-0.031506956 
-0 -0 1 0 0 0 0 0 0 0 1:-942.53961 2:-673.39764 3:-28.337931 4:-314.78525 5:174.50746 6:21.350231 7:40.122993 8:-1.4887505 9:-1.5511011 10:2.0665267 11:0.0011411572 12:0.077676155 13:-0.021217333 14:0.086484924 
-0 -0 0.7299204345966419 0 0 0 0 0 0 0 1:-942.53815 2:-673.34344 3:-26.582834 4:-344.74277 5:152.52699 6:9.4697485 7:12.217322 8:-1.1051065 9:-1.0068048 10:2.0761909 11:0.00085077249 12:0.12166709 13:-0.031692348 14:0.10095382 
-0 -0.2550754824781475 0 0 0 0 0 0 0 0 1:-942.52496 2:-673.06964 3:-20.0627 4:-473.05478 5:-19.59082 6:103.81763 7:-84.434433 8:-4.1184988 9:3.3077908 10:-0.69226474 11:-0.057707179 12:-0.21395391 13:-0.0022354966 14:0.068974964 
-0 -0.1787027758802784 0 0 0 1 0 0 0 1.12895519156531e-07 1:-942.53192 2:-673.11981 3:-19.360037 4:-467.98041 5:60.423004 6:-40.115574 7:-103.60276 8:0.51169002 9:1.2074404 10:2.1223099 11:0.0045053582 12:0.24892306 13:-0.031009985 14:0.0056111021 
-0 -0 0.1425149305396314 0 0 0 0 0 0 0 1:-942.53815 2:-673.34344 3:-26.582834 4:-344.74277 5:152.52699 6:9.4697485 7:12.217322 8:-1.1051065 9:-1.0068048 10:2.0761909 11:0.00085077249 12:0.12166709 13:-0.031692348 14:0.10095382 
-0 -0 0 0 0 0 0 0 0 5.37771673852173e-09 1:-942.54047 2:-673.44147 3:-30.281136 4:-280.50238 5:159.4115 6:17.881617 7:47.56757 8:-0.83344829 9:0.19897944 10:-0.5844152 11:0.011489567 12:-0.053518202 13:0.019218612 14:-0.0017433349 
-0 -0 1 0 0 0 0 0 0 0 1:-942.53784 2:-673.33215 3:-26.21719 4:-350.98392 5:147.94769 6:6.9946446 7:6.4036274 8:-1.0252455 9:-0.89428788 10:2.0785186 11:0.00077816244 12:0.1298566 13:-0.033377077 14:0.10054535 
-0 -0 0 0 0 0.2327376041007374 0 0 0 0 1:-942.53986 2:-673.40668 3:-28.630447 4:-309.79233 5:178.17088 6:23.330313 7:44.773941 8:-1.5527008 9:-1.6419194 10:2.065062 11:0.0011829055 12:0.070182137 13:-0.019487038 14:0.083539493 
-0 -0 1 0 0 0 0 0 0 0 1:-942.53815 2:-673.34344 3:-26.582834 4:-344.74277 5:152.52699 6:9.4697495 7:12.217325 8:-1.1051197 9:-1.0069532 10:2.0763845 11:0.00082496874 12:0.12140195 13:-0.031675167 14:0.099825554 
-0 -0 0 0 0 1 0 0 0 0 1:-942.53729 2:-673.31409 3:-25.632158 4:-360.96976 5:140.62088 6:3.0344844 7:-2.8982642 8:-0.89737153 9:-0.71294832 10:2.0818353 11:0.00064305827 12:0.14431439 13:-0.036803309 14:0.10417968 
-0 -0 0 0 0 0.5770508682527622 0 0 0 5.56135091209634e-07 1:-942.53192 2:-673.11884 3:-19.30654 4:-468.94733 5:61.424438 6:-39.780804 7:-103.46539 8:0.53798908 9:2.5680332 10:-0.51889122 11:-0.020800784 12:0.063798308 13:-0.014521932 14:-0.12866928 
-0 -0 0 0 0 1 0 0 0 0 1:-942.53827 2:-673.34778 3:-26.730316 4:-342.2724 5:154.11063 6:10.47698 7:14.692237 8:-9.0538626 9:1.1491436 10:2.3123875 11:0.065264389 12:-0.11497429 13:0.051245138 14:0.0043747108 
-0 -0 0.3344343645769324 0 0 0 0 0 0 0 1:-942.53967 2:-673.396 3:-28.60079 4:-311.58356 5:159.82202 6:15.145053 7:44.037525 8:-0.84572852 9:0.088389926 10:-0.58348632 11:-0.0014535086 12:-0.11498265 13:0.020553194 14:-0.0067210612 
-0 -0 0 0 0 1 0 0 0 0 1:-942.53992 2:-673.40784 3:-28.667011 4:-309.16821 5:178.6288 6:23.577822 7:45.355312 8:-1.5606929 9:-1.6532531 10:2.0648549 11:0.0011913496 12:0.069278523 13:-0.019272897 14:0.083312348 
-0 -0 1 0 0 0 0 0 0 0 1:-942.53851 2:-673.35699 3:-27.021608 4:-337.25339 5:158.02211 6:12.43987 7:19.193745 8:-1.2010252 9:-1.1429579 10:2.0738971 11:0.00092629687 12:0.11055862 13:-0.029105492 14:0.097099803 
-0 -0 0.006116136934014989 0 0 0 0 0 0 0 1:-942.53064 2:-673.30457 3:-27.512495 4:-344.30569 5:81.685089 6:173.32149 7:23.60256 8:1.7993639 9:0.57011431 10:-0.73771513 11:-0.061192013 12:-0.16586924 13:-0.014051227 14:0.050750181 
-1.351563874098209e-06 -0 0 0 0 0 0 0 0 0 1:-942.53491 2:-673.22528 3:-24.035702 4:-392.24362 5:44.20776 6:-41.388168 7:-37.657913 8:3.1029913 9:2.682529 10:-0.52734876 11:0.051976588 12:0.042220443 13:0.0031790792 14:0.0055756131 
-0 -0 0.4286441424740146 0 0 0 0 0 0 0 1:-942.54041 2:-673.42389 3:-29.587027 4:-294.86761 5:166.84906 6:19.522552 7:58.16312 8:-0.95278639 9:-1.466063 10:2.0710886 11:0.022609117 12:0.05097498 13:-0.0099808443 14:0.078890771 
-0 -0 0 0 0 1 0 0 0 0 1:-942.53192 2:-673.11993 3:-19.343105 4:-468.3233 5:61.882797 6:-39.533245 7:-102.88386 8:0.531192 9:2.5724638 10:-0.5259608 11:-0.020810448 12:0.080293722 13:-0.021953356 14:-0.072417259 
-0 -0 0 0.001953859136819326 0 0 0 0 0 0 1:-942.53186 2:-673.11823 3:-19.266554 4:-469.52377 5:61.744617 6:-40.045994 7:-104.41862 8:22.507269 9:1.7487966 10:-0.50678867 11:0.024178995 12:0.51978111 13:-0.091303766 14:-0.13203394 
-0 -0 1 0 0 0 0 0 0 0 1:-942.53815 2:-673.34344 3:-26.582834 4:-344.74277 5:152.52699 6:9.4697495 7:12.217319 8:-1.1051284 9:-1.0070825 10:2.0764761 11:0.00073584472 12:0.12104949 13:-0.031496037 14:0.097387932 
-0 -0 0 0.01534293313785233 0.02472528745015419 0 0 1.78665227122508e-05 0 0 1:-942.52148 2:-673.05585 3:-20.30913 4:-472.89877 5:-42.513744 6:178.3576 7:-93.115204 8:-2.3960319 9:3.2572315 10:-0.74680841 11:-0.085681103 12:-0.2498654 13:0.0038078052 14:0.057883777 
-0 -0 0.1033052647201522 0 0 0 0 0 0 0 1:-942.54089 2:-673.44281 3:-29.800564 4:-289.82654 5:192.85059 6:31.254715 7:63.387817 8:-1.7521477 9:-0.63720018 10:-0.59964943 11:-0.017833494 12:-0.14154261 13:0.023346962 14:-0.010220331 
-0 -0 0 0 0 0.3958289548176067 0 0 0 0 1:-942.53668 2:-673.29041 3:-24.864304 4:-374.07617 5:131.00443 6:-2.1632261 7:-15.106997 8:-0.72953689 9:-0.47494015 10:2.0861881 11:0.00046573408 12:0.16329022 13:-0.041300245 14:0.10894974 
-0 -0 0 0 0 1 0 0 0 0 1:-942.53192 2:-673.11993 3:-19.343103 4:-468.32333 5:61.882893 6:-39.533207 7:-102.88377 8:0.53075403 9:2.5675662 10:-0.51957065 11:-0.021661971 12:0.07154426 13:-0.021386458 14:-0.10964983 
-0 -0 0.1578643231508949 0 0 0 0 0 0 0 1:-942.53827 2:-673.34961 3:-26.838043 4:-340.35086 5:151.98622 6:9.8085833 7:14.492542 8:-13.05467 9:-0.56110764 10:2.0614359 11:-0.018919298 12:-0.1271107 13:0.022373922 14:0.11584379 
-0 -0 0.2958160035376901 0 0 0 0 0 0 0 1:-942.53979 2:-673.41315 3:-29.211569 4:-299.07895 5:157.49953 6:15.48714 7:37.39526 8:-0.9546026 9:-1.1247176 10:2.0745869 11:0.021994712 12:0.12607458 13:-0.020645289 14:0.085873865 
-0 -0 0 0 0.06087969614672814 0 0.001154125525653776 0 0 1.7187575283405e-07 1:-942.53229 2:-673.11743 3:-20.301817 4:-457.84595 5:19.631245 6:-57.592876 7:-76.613167 8:3.4622481 9:3.1654959 10:-0.51151526 11:0.040154789 12:-0.0017508136 13:0.02605902 14:-0.10421738 
-0 -0 0 0 0 0 9.603831812424412e-05 0 0 0 1:-942.53247 2:-673.14362 3:-20.207216 4:-453.12051 5:64.186539 6:-37.830971 7:-95.527802 8:36.53561 9:1.223007 10:-0.48641667 11:0.053948171 12:0.83889383 13:-0.1758974 14:-0.10773484 
-0 -0 0 0 0.09556565294829406 0 0 0 0 0 1:-942.53198 2:-673.11761 3:-19.46109 4:-467.40012 5:53.303783 6:-43.281151 7:-98.964195 8:0.90031409 9:2.6793203 10:-0.53071684 11:-0.0062865512 12:0.046145469 13:0.010252203 14:-0.096936993 
-0 -0 0 0 0 0.2132184629272009 0 0 0 0 1:-942.53534 2:-673.2467 3:-23.484522 4:-397.35162 5:109.94991 6:-13.562383 7:-40.394314 8:29.717024 9:0.87230939 10:2.3817945 11:0.13824649 12:0.76614606 13:-0.13458425 14:-0.045073956 
-0 -0 0 0 0 1 0 0 0 0 1:-942.53937 2:-673.38757 3:-28.008204 4:-320.40259 5:170.56346 6:19.130379 7:34.83786 8:2.6458716 9:0.30980244 10:2.3203168 11:0.08769092 12:0.10328543 13:0.0059096483 14:-0.023629526 
-0 -0 1 0 0 0 0 0 0 0 1:-942.53815 2:-673.34344 3:-26.582834 4:-344.74277 5:152.52699 6:9.4697495 7:12.217325 8:-1.1051197 9:-1.0069532 10:2.0763845 11:0.00082496874 12:0.12140195 13:-0.031675167 14:0.099825554 
-0 -0 1 0 0 0 0 0 0 0 1:-942.53979 2:-673.40704 3:-28.751896 4:-307.48572 5:171.47153 6:20.688631 7:41.817188 8:-1.3659606 9:-1.4742657 10:2.0679944 11:0.0073657259 12:0.088259786 13:-0.020273417 14:0.086775832 
-0 -0.001983323998065562 0 0 0 0.3659287379105144 0 0 0 0 1:-942.52362 2:-673.14246 3:-22.989027 4:-428.42664 5:4.953239 6:215.28253 7:-41.016468 8:3.6362195 9:0.45740151 10:1.7996964 11:-0.085915953 12:-0.092564233 13:-0.056535155 14:0.048415765 
-0 -0 0 0 0 0 0.001090896586768753 0 0 0 1:-942.53314 2:-673.15607 3:-21.746664 4:-432.22574 5:21.721512 6:-54.309006 7:-66.073196 8:-4.4841485 9:3.4687276 10:-0.52474231 11:0.034033 12:-0.12279653 13:0.042451423 14:-0.022316948 
-0 -0 -0 0 0 0 0 0 6.570240900142766e-10 0 1:-942.54779 2:-673.69336 3:-37.918083 4:-151.27151 5:294.414 6:86.199615 7:192.47513 8:-5.5821609 9:-4.4791718 10:2.0053289 11:-0.01438211 12:-0.28472176 13:0.063650951 14:-0.40386432 
-0 -0 -1 0 0 0 0 0 0 0 1:-942.53986 2:-673.40668 3:-28.630388 4:-309.79251 5:178.17174 6:23.330391 7:44.773911 8:-1.555095 9:-1.6672481 10:1.9598361 11:-0.015200523 12:-0.018657146 13:5.2142932e-05 14:-0.3535338 
-0 -0 -1 0 0 1 0 0 0 0 1:-942.53644 2:-673.28247 3:-24.608307 4:-378.44504 5:127.79939 6:-3.8959522 7:-19.176683 8:-0.67585701 9:-0.43021891 10:1.9018633 11:-0.015627703 12:0.090654656 13:-0.029340826 14:-0.25562707 
-0 -0 -0 0 0 0.04186007765293422 0 0 0 0 1:-941.53253 2:-673.14514 3:-20.303959 4:-451.57996 5:62.276016 6:-37.919651 7:-94.520844 8:0.40534905 9:-3.7887013 10:-0.00050213141 11:-0.30596745 12:-0.64384526 13:-0.020900045 14:-0.30106184 
-0 -0 -0 0 0 0.004483157793741479 0 0 0 0 1:-936.54266 2:-669.69458 3:-33.890362 4:-151.61429 5:294.55508 6:85.918091 7:191.55782 8:14.202337 9:-10.076287 10:0.47720572 11:-0.16565531 12:0.84044814 13:-0.16514474 14:-0.4110693 
-0 -0 -1 0 0 0 0 0 0 0 1:-942.54028 2:-673.42133 3:-29.105728 4:-301.67902 5:184.12479 6:26.548019 7:52.331696 8:-1.6589926 9:-1.8145865 10:1.9571415 11:-0.015090751 12:-0.030404093 13:0.002835958 14:-0.35648671 
-0 -0 -0 0 0 0.004198554415423932 0 0 0 0 1:-941.53278 2:-673.1604 3:-21.134703 4:-437.43219 5:49.568302 6:-42.189671 7:-91.04113 8:0.88761467 9:-3.5017042 10:0.21477851 11:-0.2682355 12:-0.49189079 13:-0.03920662 14:-0.13537647 
-0 -0 -1 0 0 0.9859386425129606 0 0 0 0 1:-942.53937 2:-673.38861 3:-28.045361 4:-319.77832 5:170.84489 6:19.370186 7:35.472027 8:-1.4270511 9:-1.4846201 10:1.9356941 11:-0.015423588 12:-0.0024690165 13:-0.0045296783 14:-0.33379433 
-0 -0 -0 0 0 0.190549178353831 0 0 0 0 1:-942.54779 2:-673.69336 3:-37.91811 4:-151.27678 5:294.43637 6:86.20433 7:192.48399 8:-5.5354538 9:-3.2957006 10:0.58426052 11:-0.0078640077 12:-0.40658927 13:0.099673703 14:-0.48583579 
-0 -0 -1 0 0 0 0 0 0 0 1:-942.54175 2:-673.47437 3:-30.824572 4:-272.34991 5:205.57652 6:38.182617 7:79.689766 8:-4.0310369 9:-2.268126 10:1.9585081 11:-0.017840357 12:-0.11391624 13:0.021803314 14:-0.36086714 
-0 -0.002977165525908681 -0.01269149241021857 0.0001156161323811501 0.0004737733917769145 0.002611379408888721 2.049005250947428e-05 1.455609099443866e-05 0 9.194098211692092e-07 1:-936.5213 2:-647.14441 3:-21.072104 4:-446.59726 5:48.921093 6:51.505543 7:-73.883308 8:5.5263324 9:3.4201291 10:2.0496204 11:0.1212709 12:0.72124761 13:-0.050071217 14:-0.40902463 
-0 -0 -1 0 0 0 0 0 0 0 1:-942.53857 2:-673.35925 3:-27.094685 4:-336.00525 5:158.93845 6:12.934935 7:20.356365 8:-1.2198733 9:-1.2041752 10:2.0240314 11:-0.013025118 12:0.030036073 13:-0.012040931 14:-0.30033261 
-0 -0.00278847504092736 -0 0 0 0 0.002670716773854148 0 0 0 1:-941.53284 2:-673.15924 3:-21.251028 4:-436.31949 5:42.981468 6:-45.039192 7:-87.55574 8:1.1798259 9:-3.3994365 10:0.21013616 11:-0.26078108 12:-0.51186854 13:-0.032842785 14:-0.14854743 
-0 -0 -1 0 0 0 0 0 0 0 1:-942.53943 2:-673.39087 3:-28.118488 4:-318.53009 5:171.76076 6:19.865208 7:36.634758 8:-1.4430573 9:-1.5075651 10:1.9355648 11:-0.015521628 12:-0.0048938314 13:-0.0039050877 14:-0.33781448 
-0 -0.0007903949176170062 -0 0 0.01914726702999826 0 0 0 0 0 1:-941.53192 2:-673.12006 3:-19.361101 4:-467.9538 5:60.330997 6:-40.145676 7:-103.64654 8:0.35146606 9:-3.7677419 10:0.14108783 11:-0.30027571 12:-0.58742744 13:-0.019801 14:-0.24358393 
-0 -0 -1 0 0 1 0 0 0 0 1:-942.53845 2:-673.35474 3:-26.948429 4:-338.50171 5:157.10672 6:11.944879 7:18.030893 8:-1.187858 9:-1.1587282 10:2.016664 11:-0.013033936 12:0.034474492 13:-0.013376071 14:-0.29296771 
-7.031598330771678e-06 -0 -0.1859241081197503 0 0 0.001104349099523894 4.030867590269369e-05 0 0 0 1:-941.53656 2:-673.31122 3:-28.239069 4:-319.53729 5:-4.5314698 6:-56.057266 7:-19.829756 8:3.7873559 9:-2.5222533 10:0.025660703 11:-0.16379708 12:-0.62007314 13:0.02523692 14:-0.26039869 
-0 -0 -1 0 0 1 0 0 0 0 1:-942.53485 2:-673.22491 3:-22.743525 4:-410.27487 5:104.44507 6:-16.519102 7:-48.826458 8:-0.26786026 9:0.14949265 10:1.8303419 11:-0.016698699 12:0.13989009 13:-0.043396704 14:-0.20711809 
-0 -0 -0 -0 0 0 0 0 6.572680214057787e-10 0 1:-934.52258 2:-673.05023 3:-24.864952 4:-421.02768 5:-239.11511 6:108.11578 7:16.820438 8:7.1930952 9:-0.042645719 10:-0.21851146 11:-0.18940756 12:-2.0462391 13:0.13773829 14:0.089547589 
-0 -0.1017179904808215 -0 -0 0 0 0 1.691984652425636e-05 0 9.356861372116814e-07 1:-924.52045 2:-673.03375 3:-19.373856 4:-491.00159 5:-43.637466 6:190.446 7:-96.921646 8:-1.578126 9:-3.2827494 10:-0.32109454 11:-0.44018602 12:-1.773703 13:0.055528846 14:-0.00096586492 
-2.622851369472698e-07 -0.2150927822100112 -0.01418289190602285 -0.0001156161323811501 0.06844706953622699 0.0003550226437065032 4.440642539009399e-05 0 0 0 1:-942.52258 2:-673.04517 3:-19.277229 4:-487.66913 5:-21.13883 6:147.9682 7:-99.963081 8:3.6724293 9:1.4380773 10:1.8662136 11:-0.067966148 12:0.06183086 13:-0.039408315 14:-0.25891218 
-0 -0 -0 -0 1 0 0 0 0 0 1:-934.52148 2:-673.05792 3:-22.411367 4:-446.43246 5:-132.55013 6:153.93996 7:-59.300072 8:2.1489284 9:-1.636131 10:-0.27690148 11:-0.33159646 12:-1.8114791 13:0.063615739 14:0.18015741 
-0 -0.4099729412029118 -0 -0 0 0 0 0 0 0 1:-942.4776 2:-540.02863 3:-18.312222 4:-491.35355 5:-40.719082 6:190.54836 7:-98.410461 8:-0.48594335 9:3.5876508 10:2.0987499 11:-0.025789995 12:-0.32275376 13:0.064257875 14:-0.55987346 
-0 -0 -0 -0 1 0 0 0 0 0 1:-934.52264 2:-673.06891 3:-25.519129 4:-406.90085 5:-243.05621 6:108.01931 7:4.7628222 8:7.1063147 9:0.20067397 10:-0.21800491 11:-0.18562241 12:-1.958812 13:0.12642048 14:0.10373645 
-0 -0 -0 -0 0.3701811031651276 0 0 0 0 0 1:-934.52118 2:-673.04822 3:-21.531965 4:-459.94611 5:-109.02568 6:163.09763 7:-67.187935 8:1.1992731 9:-2.0984325 10:-0.28880033 11:-0.36210167 12:-1.8172705 13:0.055681132 14:0.18964495 
-0 -0.0008435946682151259 -0 -0 0 0 0 0 0 0 1:-924.521 2:-673.03333 3:-20.673378 4:-476.23959 5:-95.730759 6:168.32925 7:-62.353424 8:0.8391028 9:-2.4710274 10:-0.2928448 11:-0.37094012 12:-1.8713866 13:0.089264967 14:-0.042143166 
-0 -0 -0 -0 0.05359950082604568 0 0 0 0 0 1:-924.52246 2:-673.03235 3:-24.132401 4:-436.94666 5:-234.39084 6:109.45969 7:29.659058 8:7.2731972 9:-0.31041431 10:-0.21765068 11:-0.1866238 12:-2.1313977 13:0.17906259 14:-0.15174745 
-0 -1 -0 -0 0 0 0 0 0 0 1:-942.5224 2:-673.0437 3:-19.277372 4:-488.02066 5:-22.732576 6:151.6187 7:-99.88356 8:3.7342906 9:1.4431543 10:1.8574888 11:-0.069213793 12:0.059311338 13:-0.039995454 14:-0.25756651 
-0 -1 -0 -0 0 0 0 0 0 0 1:-924.52063 2:-673.03363 3:-19.756067 4:-486.65982 5:-58.959023 6:183.94107 7:-86.754524 8:-0.86717629 9:-3.0440075 10:-0.31278577 11:-0.41981956 12:-1.8024335 13:0.065451235 14:-0.013076835 
-0 -0 -0 -0 1 0 0 0 0 0 1:-934.52118 2:-673.03442 3:-21.011721 4:-470.78955 5:-104.58955 6:163.81921 7:-59.320087 8:1.1921217 9:-2.301595 10:-0.29000443 11:-0.36692736 12:-1.8788174 13:0.063028328 14:0.18040109 
-0 -0 -0 -0 1 0 0 0 0 0 1:-934.52258 2:-673.04431 3:-24.658369 4:-425.4888 5:-237.87054 6:108.14625 7:20.628105 8:7.2204995 9:-0.11948352 10:-0.21867143 11:-0.19060287 12:-2.0738475 13:0.14131233 14:0.0850669 
-0 -0 -0 -0 1 0 0 0 0 0 1:-934.52081 2:-673.07477 3:-21.353205 4:-452.55011 5:-70.592125 6:182.73744 7:-113.78722 8:-0.9703185 9:-2.4435835 10:-0.31317177 11:-0.41617826 12:-1.6122522 13:0.010982348 14:0.24532712 
-0 -0.08314377330082068 -0 -0 0 0 0 6.404557468763432e-08 0 0 1:-924.52197 2:-673.03345 3:-22.699032 4:-453.05249 5:-176.13805 6:132.02766 7:-8.5073671 8:4.5758786 9:-1.2103237 10:-0.2507031 11:-0.26042837 12:-1.9857483 13:0.13658738 14:-0.10673026 
-0 -0 -0.001138960136164476 -0 1 0 0 0 0 0 1:-934.52081 2:-673.07611 3:-21.3876 4:-451.71872 5:-70.401115 6:181.81973 7:-114.44171 8:-0.99036831 9:-2.4322073 10:-0.3121492 11:-0.41558623 12:-1.6051122 13:0.010227337 14:0.24567667 
-0 -0.005453360857733816 -0 -0 0 0 0 0 0 0 1:-924.52075 2:-673.03351 3:-20.061838 4:-483.18643 5:-71.21627 6:178.73714 7:-78.620827 8:-0.29841661 9:-2.8530142 10:-0.30613878 11:-0.40352643 12:-1.8254179 13:0.073389143 14:-0.022765612 
-0 -0.004455585466130863 -0 -0 0 0 0 0 0 0 1:-924.52112 2:-673.03326 3:-20.902704 4:-473.63455 5:-104.92369 6:164.4263 7:-56.253151 8:1.2656726 9:-2.3277822 10:-0.28785956 11:-0.35872024 12:-1.888625 13:0.095218398 14:-0.049409747 
-0 -1 -0 -0 0 0 0 3.034087402036851e-06 0 0 1:-924.52246 2:-673.03235 3:-24.15151 4:-436.72958 5:-235.15692 6:109.13445 7:30.167414 8:7.3087444 9:-0.29847723 10:-0.21723524 11:-0.18560547 12:-2.1328342 13:0.17955871 14:-0.152353 
-0 -0.07832059424617205 -0 -0 0 0 0 0 0 0 1:-924.52124 2:-673.03357 3:-21.074665 4:-471.59286 5:-111.41988 6:160.58623 7:-51.697769 8:1.5698122 9:-2.2236252 10:-0.28718522 11:-0.34729868 12:-1.8647121 13:0.094355032 14:-0.054843694 
-0 -0.0004119548661739808 -0 -0 0 0 0 0 0 0 1:-924.521 2:-673.03333 3:-20.673378 4:-476.23959 5:-95.730759 6:168.32925 7:-62.353424 8:0.8391028 9:-2.4710274 10:-0.2928448 11:-0.37094012 12:-1.8713866 13:0.089264967 14:-0.042143166 
-0 -0.0004060345770458501 -0 -0 1 0 0 0 0 0 1:-934.52258 2:-673.07446 3:-25.725746 4:-402.52762 5:-244.6992 6:108.90147 7:0.97503382 8:7.0943751 9:0.27883643 10:-0.21907292 11:-0.18471339 12:-1.931782 13:0.12271041 14:0.10863799 
-0 -0 -0 -0 1 0 0 0 0 0 1:-934.52075 2:-673.07416 3:-21.204077 4:-454.50827 5:-65.389801 6:183.78137 7:-116.22263 8:-1.1944966 9:-2.5293105 10:-0.31440508 11:-0.42222774 12:-1.6081461 13:0.0088111898 14:0.24778688 
-0 -0.2271883759060971 -0 -0 0 0 0 0 0 0 1:-924.52246 2:-673.03235 3:-24.15151 4:-436.72958 5:-235.15692 6:109.13445 7:30.167414 8:7.3087444 9:-0.29847723 10:-0.21723524 11:-0.18560547 12:-2.1328342 13:0.17955871 14:-0.152353 
-0 -0.004451626749338758 -0 -0 1 0 0 0 0 0 1:-934.5213 2:-673.0639 3:-22.235737 4:-446.31311 5:-118.47313 6:160.41441 7:-73.274864 8:1.4105744 9:-1.798035 10:-0.28505027 11:-0.35076758 12:-1.7551399 13:0.050119307 14:0.19674908 
-0 -0 -0 -0 0.2651854815322234 0 0 0 0 0 1:-934.52252 2:-673.05579 3:-25.071569 4:-416.65445 5:-240.7581 6:108.99795 7:13.03265 8:7.1811557 9:0.035516731 10:-0.21957946 11:-0.18849854 12:-2.0192091 13:0.13402821 14:0.094449133 
-0 -0.03473996535960056 -0 -0 0 0 0 0 0 0 1:-934.52264 2:-673.06201 3:-25.278116 4:-412.10547 5:-241.60423 6:108.05486 7:9.205102 8:7.1382866 9:0.11102987 10:-0.21819153 11:-0.18701693 12:-1.991022 13:0.1305902 14:0.098508976 
-0 -0 -0 -0 1 0 0 0 0 0 1:-934.52264 2:-673.06891 3:-25.519129 4:-406.90085 5:-243.05621 6:108.01931 7:4.7628222 8:7.1063147 9:0.20067397 10:-0.21800491 11:-0.18562241 12:-1.958812 13:0.12642048 14:0.10373645 
-0 -0 -0.001974940232484326 -0 0 0 0 0 0 0 1:-934.5213 2:-673.08038 3:-22.687315 4:-435.28082 5:-117.03528 6:163.51744 7:-87.601875 8:1.0995654 9:-1.6625365 10:-0.28867504 11:-0.35482204 12:-1.6679286 13:0.036457818 14:0.21409816 
-0 -1 -0 -0 0 0 0 0 0 0 1:-942.52081 2:-673.03107 3:-19.297773 4:-490.96719 5:-37.842781 6:184.1483 7:-98.659767 8:4.3269911 9:1.5011582 10:1.8142684 11:-0.083894759 12:-0.038267504 13:-0.030900057 14:-0.28597057 
-0 -0.008657998972136944 -0 -0 0 0 0 0 0 0 1:-924.52148 2:-673.03339 3:-21.686205 4:-464.64603 5:-135.93436 6:150.17834 7:-35.43037 8:2.7073271 9:-1.8416647 10:-0.27394924 11:-0.31468576 12:-1.9101909 13:0.11015701 14:-0.074215345 
-0 -1 -0 -0 0 0 0 0 0 0 1:-924.52246 2:-673.03235 3:-24.15151 4:-436.72958 5:-235.15692 6:109.13445 7:30.167414 8:7.3087444 9:-0.29847723 10:-0.21723524 11:-0.18560547 12:-2.1328342 13:0.17955871 14:-0.152353 
-0 -0.000342351716715577 -0 -0 0 0 0 0 0 0 1:-924.521 2:-673.03339 3:-20.596935 4:-477.10794 5:-92.666367 6:169.63 7:-64.386795 8:0.69659001 9:-2.5207276 10:-0.29879913 11:-0.37304303 12:-1.8293774 13:0.081816003 14:-0.039284132 
-0 -0 -0 -0 0.2425868449403747 0 0 0 0 0 1:-934.52264 2:-673.07483 3:-25.725712 4:-402.43973 5:-244.30078 6:107.98884 7:0.95515406 8:7.0789099 9:0.27751175 10:-0.21784495 11:-0.1844271 12:-1.9312035 13:0.12284645 14:0.10821715 
-0 -0.5035661652408679 -0 -0 0 0 0 0 0 0 1:-942.52252 2:-673.0448 3:-19.296375 4:-487.53995 5:-22.303429 6:148.55595 7:-99.434898 8:3.7238696 9:1.4553068 10:1.8940796 11:-0.069282085 12:0.01204528 13:-0.031405918 14:-0.25766087 
-0 -0.0004668353278170806 -0 -0 0 0 0 0 0 0 1:-924.52094 2:-673.03339 3:-20.463161 4:-478.62756 5:-87.303902 6:171.90697 7:-67.945343 8:0.44808051 9:-2.6023352 10:-0.2974146 11:-0.38214165 12:-1.8555849 13:0.083807655 14:-0.035482131 
-0 -0.1366055878837346 -0 -0 0 0 0 0 0 0 1:-924.52057 2:-673.03363 3:-19.641405 4:-487.96237 5:-54.362556 6:185.89255 7:-89.804665 8:-1.0804613 9:-3.1156301 10:-0.31527841 11:-0.42592952 12:-1.7938143 13:0.062474519 14:-0.0094435448 
-5.98620134954762e-06 -0 -0 -0 0 0 0 0 0 0 1:-924.52252 2:-673.03265 3:-24.151474 4:-436.64166 5:-234.75839 6:108.22158 7:30.147587 8:7.2929525 9:-0.30178031 10:-0.22035785 11:-0.18332219 12:-2.0955026 13:0.17415641 14:-0.1523311 
-0 -0.1948368193264445 -0 -0 0 0 0 0 0 0 1:-924.52081 2:-673.03345 3:-20.272055 4:-480.79846 5:-79.643127 6:175.15942 7:-73.028908 8:0.092605688 9:-2.7217062 10:-0.30156898 11:-0.39232486 12:-1.8412197 13:0.078846462 14:-0.029426645 
-0 -0 -0 -0 -0 0 0.001265643852943253 0 0 0 1:-942.53186 2:-673.11768 3:-19.269867 4:-469.58755 5:61.035397 6:-40.006042 7:-104.02171 8:0.68450612 9:6.3214507 10:0.0095786937 11:0.10625863 12:-0.37498662 13:0.19209211 14:-1.1632522 
-0 -0 -0 -0.000156530303958794 -1 0 0 3.556024098256861e-06 0 0 1:-934.52094 2:-673.07642 3:-21.521339 4:-450.11121 5:-75.365196 6:178.63031 7:-110.90308 8:-0.75710559 9:-2.3506055 10:-0.30940536 11:-0.40753263 12:-1.6028284 13:0.012063947 14:0.24115865 
-0 -0 -0 -0 -1 0 0 0 0 0 1:-934.5213 2:-673.07935 3:-22.767548 4:-434.7218 5:-121.42429 6:161.57097 7:-83.917107 8:1.3173087 9:-1.6043798 10:-0.28765929 11:-0.34824568 12:-1.6688981 13:0.038184099 14:0.20986566 
-0 -0 -0.006898464343216579 -0 -1 0.002063345908186034 0 0 0 0 1:-934.52087 2:-673.04883 3:-20.691063 4:-469.4101 5:-74.919792 6:176.49576 7:-89.57547 8:-0.38038582 9:-2.6256223 10:-0.30724376 11:-0.40598249 12:-1.741724 13:0.032215651 14:0.21600991 
-0 -0 -0 -0 -0 0 2.913471803756794e-05 0 0 0 1:-942.53186 2:-673.11768 3:-19.269867 4:-469.58755 5:61.035397 6:-40.006042 7:-104.02171 8:0.68450612 9:6.3214507 10:0.0095786937 11:0.10625863 12:-0.37498662 13:0.19209211 14:-1.1632522 
-0 -0 -0.07291021753443763 -0 -0 0 0 0 0 0 1:-942.53186 2:-673.11768 3:-19.269867 4:-469.58755 5:61.035397 6:-40.006042 7:-104.02171 8:0.68450612 9:6.3214507 10:0.0095786937 11:0.10625863 12:-0.37498662 13:0.19209211 14:-1.1632522 
-0 -1 -0.01685914369929774 -0 -1 0 0 0 0 0 1:-934.52264 2:-673.03906 3:-24.451715 4:-429.77414 5:-235.82909 6:106.35139 7:24.396032 8:7.2168651 9:-0.19963011 10:-0.21782564 11:-0.19055992 12:-2.0880482 13:0.14331235 14:0.079892099 
-0 -0 -0 -0 -1 0 0 0 0 0 1:-934.52087 2:-673.06287 3:-21.188478 4:-458.65018 5:-78.061989 6:178.5701 7:-99.56324 8:-0.45351014 9:-2.4427891 10:-0.30965725 11:-0.40461177 12:-1.6729131 13:0.022586189 14:0.22865298 
-0 -0 -0 -0 -1 0 0 0 0 0 1:-934.52191 2:-673.06311 3:-23.745512 4:-429.25104 5:-179.39168 6:135.63251 7:-33.094826 8:4.2341814 9:-0.8543399 10:-0.25490889 11:-0.26994076 12:-1.8569529 13:0.087330587 14:0.14947917 
-1.630755939334755e-05 -1 -0 -0.0001146551992221018 -0 0 0.0002067443912934393 4.360351033366971e-05 6.621827013163537e-10 1.237945897909171e-06 1:-727.5285 2:-673.14954 3:-21.963652 4:-450.10925 5:-78.583702 6:8.9088268 7:-36.024742 8:6.4952574 9:-2.1108925 10:-0.079544194 11:-0.20418529 12:-0.90171385 13:0.031677477 14:-0.18227412 
-0 -0 -0 -0 -1 0 0 0 0 0 1:-934.52264 2:-673.05847 3:-25.14036 4:-414.99164 5:-240.37605 6:107.16245 7:11.723685 8:7.1409822 9:0.057820536 10:-0.2185204 11:-0.18686186 12:-1.9965981 13:0.13126284 14:0.095248587 
-0 -0 -0 -0 -0 0.1871639489570389 0 0 0 0 1:-942.52704 2:-673.08002 3:-19.273691 4:-478.99109 5:18.402685 6:57.644844 7:-101.89445 8:2.3389883 9:6.4598703 10:-0.10941997 11:0.077839576 12:-0.41981325 13:0.17237259 14:-1.0679679 
-0 -0 -0 -0 -1 0 3.13453815340407e-05 0 0 0 1:-934.52264 2:-673.07526 3:-25.57279 4:-404.08853 5:-237.7737 6:109.6781 7:-3.1315577 8:6.7789564 9:0.18003091 10:-0.22139068 11:-0.19162172 12:-1.9068818 13:0.11716742 14:0.11278827 
-0 -0 -0 -0 -1 0 0 0 0 0 1:-934.5213 2:-673.07837 3:-22.656675 4:-436.33368 5:-118.15255 6:162.87703 7:-85.315918 8:1.1796861 9:-1.6649345 10:-0.28934768 11:-0.35251817 12:-1.6677535 13:0.036795292 14:0.21154107 
-0 -0 -0 -0 -1 0 0 0 0 0 1:-934.52234 2:-673.06226 3:-24.571024 4:-420.13773 5:-213.25932 6:120.08888 7:-9.6040621 8:5.8229203 9:-0.33130187 10:-0.2350129 11:-0.2240292 12:-1.9256195 13:0.11038768 14:0.12106185 
-0 -0.4166394230429222 -0 -0.01934985491859425 -0 0 0 0 0 0 1:-942.53186 2:-673.11768 3:-19.269869 4:-469.58759 5:61.035328 6:-40.006081 7:-104.02164 8:0.68435782 9:6.3195033 10:0.017055424 11:0.10758292 12:-0.36462292 13:0.18906784 14:-1.1341608 
-0 -0 -0.08450281096822426 -0 -0 0 0 0 0 0 1:-942.53186 2:-673.11768 3:-19.269867 4:-469.58755 5:61.035397 6:-40.006042 7:-104.02171 8:0.68450612 9:6.3214507 10:0.0095786937 11:0.10625863 12:-0.37498662 13:0.19209211 14:-1.1632522 
-0 -0 -0 -0 -1 0 0 0 0 0 1:-934.52142 2:-673.04962 3:-22.193293 4:-451.81723 5:-133.58736 6:153.91739 7:-52.678215 8:2.3074703 9:-1.7020787 10:-0.27848861 11:-0.32978249 12:-1.8414174 13:0.067961179 14:0.17292903 
-0 -0 -0 -0 -0 -0 0 0 6.570796261076049e-10 8.832697865459376e-07 1:-942.53186 2:-673.11761 3:-19.270157 4:-469.58148 5:60.920567 6:-40.01403 7:-104.00526 8:-1.4024359 9:4.083497 10:2.532516 11:0.085878387 12:-0.18119651 13:0.13538247 14:-0.90722811 
-0 -0.05399926128809344 -0.7066887126875704 -0.001630729913683705 -0.0003550226437065032 -0.1509472241906868 0 1.588089107425518e-05 0 0 1:-942.526 2:-673.07153 3:-19.274563 4:-481.09076 5:8.7964115 6:79.537163 7:-101.43263 8:2.6191709 9:4.1990323 10:2.0366609 11:0.069090307 12:-0.0074577797 13:0.036902588 14:-0.29923633 
-0 -0 -0.7346267153565393 -0 -0 -0 0 0 0 0 1:-942.53668 2:-673.32526 3:-25.01619 4:-354.35706 5:143.83868 6:4.9558911 7:2.2455666 8:-0.78678346 9:3.2074969 10:1.0094663 11:0.10433434 12:-0.27943143 13:0.12319539 14:-0.63362634 
-0 -0 -1 -1 -0 -0 0 0 0 0 1:-942.53577 2:-673.25769 3:-23.803911 4:-392.17487 5:117.72439 6:-9.3406506 7:-31.968008 8:-0.49755028 9:-0.17349632 10:2.0803757 11:-0.01653464 12:0.041862033 13:-0.0066672703 14:-0.26639575 
-0 -0 -1 -0 -0 -0 0 0 0 0 1:-942.53186 2:-673.11768 3:-19.269894 4:-469.57816 5:60.99144 6:-40.016949 7:-104.03661 8:0.59326708 9:4.0290294 10:2.1579413 11:0.10935228 12:0.097756296 13:0.044970766 14:-0.27021739 
-0 -0 -0 -1.185751928305742e-07 -0 -0 0 0 0 0 1:-903.6427 2:-672.53894 3:39550.363 4:1618.0411 5:-140.25803 6:66.734558 7:258.56564 8:3.6076038 9:13.918838 10:1.5849742 11:0.44607478 12:2.0914819 13:0.030032273 14:0.44153592 
-0 -0 -0 -0 -0 -0 0.0001323132354187077 0 0 0 1:-942.53186 2:-673.11768 3:-19.269863 4:-469.56384 5:60.938267 6:-40.031906 7:-104.06099 8:0.48919514 9:1.1420276 10:2.1730106 11:-0.032598898 12:-0.058599073 13:0.062187191 14:-0.85473925 
-0 -0 -0.3434491999647412 -0 -0 -0 0 0 0 0 1:-942.54071 2:-673.43933 3:-29.647671 4:-292.22556 5:192.4814 6:30.228355 7:60.341545 8:40.152554 9:-3.5539312 10:2.1584041 11:0.047552891 12:0.63218665 13:-0.11430457 14:-0.72685552 
-0 -0 -1 -1 -0 -0 0 0 0 0 1:-942.54089 2:-673.44281 3:-29.80047 4:-289.81931 5:192.82414 6:31.251471 7:63.374935 8:-1.807425 9:-2.0488591 10:2.1030796 11:-0.029614931 12:-0.24395339 13:0.071167506 14:-0.64780337 
-0 -0 -1 -0 -0 -0.0007791727108034074 0 0 0 0 1:-942.53247 2:-673.13916 3:-19.964695 4:-457.7128 5:69.665466 6:-35.325638 7:-93.001503 8:0.39118978 9:2.2614119 10:-0.095549129 11:-0.015766887 12:0.092523947 13:-0.02676874 14:-0.055703893 
-0 -0 -1 -0 -0 -0 0 0 0 0 1:-942.53436 2:-673.20825 3:-22.193523 4:-419.61469 5:97.930199 6:-20.239136 7:-57.716274 8:9.8367319 9:-0.038193338 10:2.0768154 11:0.0062595457 12:0.33589315 13:-0.074747749 14:-0.15619062 
-0 -0 -0 -3.267417956532362e-06 -0 -0 0 0 0 0 1:-937.81158 2:-673.06299 3:3866.0149 4:-263.16782 5:40.694794 6:-29.606888 7:-67.99044 8:-1.085815 9:5.0687132 10:2.4391658 11:0.12208125 12:0.040185269 13:0.12575059 14:-0.77030534 
-0 -0 -0 -0 -0 -0.005248264346441467 0 0 0 0 1:-942.53186 2:-673.11761 3:-19.27014 4:-469.58151 5:60.920658 6:-40.014004 7:-104.00539 8:-1.4030938 9:4.0749459 10:2.5372605 11:0.082328111 12:-0.19992989 13:0.14122884 14:-1.0145423 
-0 -0 -0 -0 -0 -0.03217821031115786 0 0 0 0 1:-942.53082 2:-673.10925 3:-19.270739 4:-471.68719 5:51.429028 6:-18.113676 7:-103.55994 8:0.96443677 9:4.0557418 10:2.2019579 11:0.098270461 12:0.037349388 13:0.057710521 14:-0.39837152 
-0 -0 -0 -0 -0 -7.442330613372212e-05 0 0 0 0 1:-942.51947 2:-673.11749 3:-6.2886171 4:-468.89285 5:60.925716 6:-39.980526 7:-103.92029 8:0.59445983 9:4.0046105 10:2.5433266 11:0.086230561 12:-0.15739353 13:0.13243921 14:-1.0173149 
-0 -0 -1 -0.5113863906316255 -0 -0 0 0 0 0 1:-942.53589 2:-673.26318 3:-24.003757 4:-388.72324 5:118.60646 6:-8.6768341 7:-29.75951 8:-0.44663256 9:1.0749687 10:-0.11804466 11:-0.025053011 12:-0.11469348 13:0.030007629 14:-0.32667974 
-0 -0.0009179530786244808 -1 -1 -0 -0 0 0 0 2.965030361861509e-08 1:-942.54156 2:-673.46765 3:-30.604891 4:-276.08878 5:202.89851 6:36.69669 7:76.165031 8:-1.9832386 9:-2.2980528 10:2.0983257 11:-0.029403359 12:-0.26356769 13:0.075861402 14:-0.6516723 
-9.495482639846063e-07 -0 -0 -0 -0 -0 0.0001723193075037542 0 0 0 1:-942.53186 2:-673.11768 3:-19.269863 4:-469.56384 5:60.938267 6:-40.031906 7:-104.06099 8:0.48919514 9:1.1420276 10:2.1730106 11:-0.032598898 12:-0.058599073 13:0.062187191 14:-0.85473925 
-0 -0 -1 -0.7177248326988482 -0 -0 0.0002948021094613437 0 0 0 1:-942.53192 2:-673.11884 3:-19.306456 4:-468.94064 5:61.397995 6:-39.784763 7:-103.47727 8:0.482097 9:1.1643691 10:1.9832983 11:-0.025218314 12:0.075877324 13:-0.003380561 14:-0.50756454 
-0 -0 -0 -0 -0 -0 0 0 0 9.889926429574004e-11 1:-937.90717 2:-673.06445 3:3766.1594 4:-268.43198 5:41.201347 6:-29.876488 7:-68.904327 8:-1.0933166 9:5.0443101 10:2.4409792 11:0.12142026 12:0.035826113 13:0.12559184 14:-0.76640493 
-4.99164930936452e-06 -0 -0 -0 -0 -0 0.0004305552678488128 0 0 0 1:-942.52997 2:-673.18634 3:-17.523081 4:-430.96072 5:87.476639 6:-25.484745 7:-69.242676 8:0.14903039 9:3.4442329 10:2.4362187 11:0.1101401 12:0.07047414 13:0.029221954 14:-0.24329346 
-7.964988596334468e-06 -0 -0 -0 -0 -0 -0 0 6.577449648517929e-10 0 1:-914.53516 2:-673.24823 3:-26.434048 4:-355.91605 5:-45.665665 6:-77.392151 7:-26.868534 8:5.2158613 9:-1.811087 10:0.1315562 11:-0.1319011 12:-0.63423592 13:0.028129356 14:-0.21598047 
-0 -1 -0.001675979220666144 -0.0004891488281041367 -0 -0.0004616566730977484 -0 8.452482707910118e-06 0 0 1:-914.53259 2:-673.13452 3:-20.9377 4:-448.65549 5:7.4569068 6:-62.187408 7:-68.219879 8:2.8019125 9:-2.9223673 10:0.0029853941 11:-0.22054403 12:-0.59275097 13:-0.026358292 14:0.08584033 
-0 -0.01213511868041656 -0.0006861246482031667 -0.00224236667416218 -4.440642539009398e-05 -0.001071211670710552 -0.001029989920232618 4.450456360721069e-06 0 9.483478633537901e-07 1:-914.53296 2:-673.17822 3:-21.495947 4:-430.88242 5:48.931656 6:-41.804176 7:-92.595505 8:0.87201345 9:-3.4400384 10:0.25495496 11:-0.25214085 12:-0.3859928 13:-0.068035848 14:0.2259943 
-2.740985640054164e-07 -1 -0 -0 -0 -0 -0 -0 5.702772753031824e-08 0 1:280.24313 2:1777.5093 3:-20.407782 4:-461.2493 5:14.811847 6:-13.64637 7:-83.283264 8:-2.6848149 9:-4.1378551 10:-0.78642005 11:27.697821 12:-1.020468 13:0.082360096 14:-1.1062587 
-0 -1 -0 -0 -9.040176274774291e-06 -0 -0 -0 0 0 1:-608.52087 2:-673.13336 3:-20.324551 4:-483.61902 5:-69.426147 6:179.3714 7:-79.742149 8:6.5751152 9:-3.0291078 10:-0.37044346 11:-0.26467097 12:0.45149818 13:-0.12429059 14:-0.39434287 
-0 -1 -0 -0 -0 -0 -0 -0 0 0 1:-608.52069 2:-673.13354 3:-19.789454 4:-489.69748 5:-47.975983 6:188.47833 7:-93.976135 8:5.5798383 9:-3.3630297 10:-0.3813796 11:-0.29350352 12:0.48584038 13:-0.1372958 14:-0.37745833 
-0 -1 -0 -0 -0 -0 -0 -0 0 0 1:6102.4873 2:-675.25281 3:-14.791295 4:-482.12192 5:-67.103287 6:179.12498 7:-80.651039 8:6.468318 9:-3.0424528 10:-0.37898812 11:-0.26879519 12:0.45724994 13:-0.12529285 14:-0.39173818 
-0 -1 -1.337371143929185e-05 -1.052255450918042e-05 -0 -0 -1.289369066486531e-05 -0 0 0.06333423699400691 1:-608.52075 2:-673.13678 3:-19.726566 4:-489.58582 5:-41.167603 6:188.25954 7:-97.647491 8:5.2719336 9:-3.4498029 10:-0.38235059 11:-0.2988463 12:0.51456046 13:-0.14273585 14:-0.37380302 
-3.268007929123733e-05 -1 -4.492811272958955e-06 -4.033536485258232e-06 -1.097780322620656e-05 -4.715953443192658e-05 -2.98720040938987e-06 -1.290293906863119e-05 0 0 1:-608.5213 2:-673.13794 3:-20.54818 4:-479.89951 5:-72.515221 6:170.62347 7:-75.867699 8:6.7386723 9:-2.9414637 10:-0.35882083 11:-0.25425941 12:0.44873324 13:-0.11989858 14:-0.40160173 
-4.436035065821199e-09 -0.03134692505169076 -0 -0 -0 -0 -0 -0 1.616334723252854e-13 1.414849045162284e-05 1:5130483.5 2:-2291.7571 3:110.34029 4:-336.41867 5:63.81987 6:-14.244741 7:20.626005 8:0.10549389 9:0.78197742 10:0.084509194 11:0.81395847 12:-0.24045092 13:0.018533615 14:-0.18033922 
-0 -0 -0 -0 -0 -0 -0 -0 5.982162600389147e-10 0 1:5134737.5 2:-2293.0964 3:118.45004 4:-338.62622 5:68.888344 6:-1.3527415 7:14.246511 8:-0.17549603 9:0.74385595 10:0.10151507 11:-1.2006838 12:-0.13960841 13:-0.030407799 14:0.13647096 
-0 -0.4849397914524386 -0 -0 -0 -0 -0 -0 0 0 1:-608.52063 2:-673.13361 3:-19.674789 4:-491.00003 5:-43.379555 6:190.42992 7:-97.026291 8:5.3666973 9:-3.4337816 10:-0.38195798 11:-0.30049214 12:0.47828814 13:-0.13783565 14:-0.37401986 
-0 -1 -0 -0 -0 -0 -0 -0 -0 6.933499991746362e-10 1:53600.062 2:7623.666 3:-77.093422 4:-402.13715 5:-128.46077 6:-124.90423 7:25.926765 8:-2.6946766 9:-0.31200099 10:-0.029591395 11:2.0199761 12:0.14601153 13:0.082580291 14:0.24693944 
-0 -1 -0 -0 -0 -0 -0 -0 -0 0 1:53600.07 2:7623.7275 3:-73.717155 4:-456.11707 5:-63.387989 6:94.199112 7:-60.533592 8:-6.2491498 9:-2.188544 10:-0.33409566 11:1.788525 12:0.29460132 13:-0.028533313 14:0.42318171 
-0 -1 -0 -0 -0 -0 -0 -0 -1.427411595239665e-09 0 1:53600.062 2:7623.6641 3:-77.162277 4:-400.6503 5:-128.87569 6:-124.91374 7:24.657579 8:-2.7068572 9:-0.27976209 10:0.17870009 11:2.0194826 12:0.13868757 13:0.060477041 14:0.4378024 
-0 -1 -0 -6.570240900142766e-10 -0 -0 -0 -0 -4.23347453966957e-09 0 1:53600.07 2:7623.7236 3:-73.819405 4:-453.97781 5:-60.957569 6:99.883453 7:-62.012051 8:-6.3622684 9:-2.2207782 10:-0.13193275 11:1.7878718 12:0.31479996 13:-0.041010823 14:0.43096244 
-0 -0.1608836241369216 -0 -0 -0 -0 -0 -0 -0 0 1:53600.062 2:7623.665 3:-77.127846 4:-401.3938 5:-128.66824 6:-124.90879 7:25.292177 8:-2.7018609 9:-0.29334226 10:0.11443006 11:2.0181813 12:0.13401251 13:0.063640103 14:0.41398263 
-0 -1 -0 -0 -0 -0 -0 -0 -0 0 1:53600.07 2:7623.7393 3:-73.068611 4:-466.48608 5:-50.888088 6:136.28679 7:-77.141792 8:-6.9318242 9:-2.5466189 10:-0.38833463 11:1.7440521 12:0.32143611 13:-0.049298961 14:0.45408314 
-0 -1 -0 -0 -0 -0 -0 -0 -0 0 1:53600.059 2:7623.6616 3:-77.235405 4:-399.40189 5:-127.95974 6:-124.41932 7:25.820297 8:-2.7198002 9:-0.30772051 10:-0.0070647374 11:2.0210176 12:0.15482545 13:0.081740968 14:0.25012878 
-0 -1 -0 -0 -0 -5.103130473209423e-12 -0 -0 -0 0 1:53600.059 2:7623.6621 3:-77.233269 4:-399.28262 5:-128.62517 6:-124.67143 7:24.604332 8:-2.7188082 9:-0.27943674 10:0.13992356 11:2.0199521 12:0.14587985 13:0.064267717 14:0.40073484 
-0 -1 -0 -0 -0 -0 -0 -0 -0 0 1:53600.059 2:7623.6616 3:-77.235413 4:-399.40189 5:-127.9597 6:-124.41933 7:25.820312 8:-2.7196918 9:-0.30560526 10:-0.020925237 11:2.0207341 12:0.15401113 13:0.081773527 14:0.24991041 
-0 -1 -6.570764207842544e-10 -0 -6.572680214057787e-10 -6.570795708431443e-10 -6.570796261076049e-10 -0 -3.451268088448187e-08 0 1:53600.07 2:7623.7246 3:-73.826302 4:-454.1395 5:-63.872776 6:91.965797 7:-59.609882 8:-6.2215443 9:-2.1658466 10:-0.33098948 11:1.7913419 12:0.29658303 13:-0.027650528 14:0.42164856 
-0 -1 -0 -0 -0 -0 -0 -0 -1.134473343126911e-08 0 1:53600.062 2:7623.666 3:-77.093422 4:-402.13715 5:-128.46077 6:-124.90423 7:25.926765 8:-2.6946766 9:-0.31200099 10:-0.029591395 11:2.0199761 12:0.14601153 13:0.082580291 14:0.24693944 
-0 -1 -0 -0 -0 -0 -0 -0 -2.844562513084185e-09 0 1:53600.07 2:7623.7378 3:-73.099327 4:-465.60919 5:-50.567226 6:138.75264 7:-79.387802 8:-6.9818158 9:-2.5152955 10:-0.46968457 11:1.7360812 12:0.31019714 13:-0.064048216 14:0.57702792 
-0 -0 -0 -0 -0 -0 -0 -6.577449648517929e-10 -3.202261482502281e-09 0 1:53600.062 2:7623.6699 3:-76.734154 4:-407.18341 5:-116.67995 6:-87.040718 7:11.112766 8:-3.3348372 9:-0.62417579 10:-0.048918162 11:1.9822954 12:0.18473738 13:0.062369231 14:0.28215691 
-0 -0 -0 -0 -0 -0 -0 -0 -5.361074182797653e-11 0 1:53600.074 2:7623.7446 3:-72.763412 4:-471.36557 5:-45.005939 6:156.09271 7:-84.957527 8:-7.253305 9:-2.7229447 10:-0.41694799 11:1.7224102 12:0.32996246 13:-0.057884857 14:0.45765343 
-6.819569340158984e-10 -0 -0 -0 -0 -0 -0 -0 -0 0 1:53600.059 2:7623.6553 3:-77.448395 4:-395.29898 5:-127.20825 6:-123.69204 7:25.660563 8:-2.7574775 9:-0.30374789 10:-0.015235894 11:2.0214319 12:0.16544612 13:0.080621779 14:0.25097099 
-0 -1 -0 -0 -0 -0 -0 -0 -7.370235754862441e-12 0 1:53600.059 2:7623.6616 3:-77.235405 4:-399.40201 5:-127.9595 6:-124.41898 7:25.820467 8:-2.7197728 9:-0.29400772 10:0.1858812 11:2.0268126 12:0.16308092 13:0.08041665 14:0.26699191 
-9.960607448114443e-06 -1 -9.129631684613855e-07 -6.09706392258819e-07 -0 -7.740466720286399e-07 -9.129200901645527e-07 -9.483478633537901e-07 -0.0007943878998272685 -6.933499991746362e-10 1:537.46692 2:-673.60559 3:-21.58675 4:-453.72995 5:55.627785 6:-40.947407 7:-99.486832 8:-2.425703 9:-3.6068554 10:-0.035214156 11:-0.32554352 12:-1.2163459 13:0.0024441523 14:0.32933637 
-0 -1 -0 -3.097034289103903e-07 -9.356861372116814e-07 -4.638992258805315e-07 -9.889926429574004e-11 -0 -0.06255399758463233 -0 1:537.47882 2:-673.49506 3:-20.694824 4:-491.89743 5:-40.422577 6:191.68785 7:-98.990089 8:1.2723005 9:-3.4446328 10:-0.32447749 11:-0.4372268 12:-1.6609414 13:0.032466017 14:-0.00039837926 
