svm_type c_svc
kernel_type linear
nr_class 11
total_sv 513
rho 2502.34 -2.72064 -2.52023 -2.91547 -4.01581 -2.62583 -2.64569 -16.8183 -0.999317 -1.40039 -920.996 -232.684 -35.8711 -103.338 -248.984 -373.781 -15580.1 25429.6 -9.78631 9218.44 474.78 2366.03 -127.154 66.357 4.50296 -0.962557 0.268627 -6.14641 -669.786 -1702.31 59.5376 3.66219 -0.962515 0.251273 -24.1252 7.13199 26.2483 4.87646 -0.96281 0.264132 -126.555 93.7044 8.76711 -0.970136 0.127962 68.33 4.45191 -0.962548 0.275312 4.36177 -0.963549 0.250181 -1.60282 -294.727 1.01587 
label 4 0 3 13 9 14 8 6 20 11 5 
nr_sv 11 169 90 35 96 22 56 5 9 18 2 
SV 
0 0 0 0 0 0 0 0 6.819606843227779e-10 7.739183507441495e-09 1:89.448006 2:-674.51996 3:-61.31889 4:283.06866 5:-6.0624886 
1 0 0 0 0 0 0 0 0 0 1:89.464249 2:-673.60974 3:-27.375696 4:-344.3732 5:20.038364 
1 0 0 0 0 0 0 0.0002744508851805276 0 9.909717785872968e-06 1:89.467216 2:-673.46216 3:-21.068295 4:-455.30426 5:56.129845 
1 0 0 0 0 0 0 0 0 0 1:89.463356 2:-673.57703 3:-29.655176 4:-326.89578 5:-117.78535 
0 0 7.1656064278177e-07 0 0 0 1.656159110749713e-07 0 0 0 1:-422.54788 2:-674.20673 3:-55.519516 4:182.60497 5:-12.199779 
1 0 0 0 0 0 0 0 0 0 1:-422.53714 2:-673.46204 3:-30.727518 4:-296.79596 5:-112.2898 
1 7.189404616433898e-06 6.395129510199816e-06 7.555730467000621e-06 1.910380135060084e-05 6.571614002632861e-06 7.901860112705228e-06 0 0 0 1:-422.53577 2:-673.37744 3:-27.887724 4:-351.50128 5:-122.30978 
1 0 0 0 0 0 0 0.0004401706888434272 0 3.070093037651606e-08 1:89.465492 2:-673.44592 3:-25.253494 4:-411.68903 5:-133.31633 
1 0 0 0 0 0 0 0 0 0 1:89.462807 2:-673.61084 3:-30.791094 4:-305.01364 5:-113.77735 
1 0 0 0 0 0 0 0 0 0 1:89.463051 2:-673.59607 3:-30.29413 4:-314.58707 5:-115.53085 
0 0 0 0 0 0 0 0 0 1.377226049510849e-08 1:89.451775 2:-674.50378 3:-57.613132 4:236.64578 5:123.03591 
-0 0 0 1 0 0 0 0 0 0 1:-942.52264 2:-673.02795 3:-24.058455 4:-437.28864 5:-230.61836 
-0 0.2206665293883532 0 1 0 0 0 0 0 0 1:-942.53363 2:-673.11615 3:-23.399759 4:-422.69919 5:-104.96232 
-0 0 0 1 0 0 0 0 0 0 1:-942.52252 2:-673.02783 3:-24.169432 4:-435.94012 5:-235.08597 
-0 0 0 1 0 0 0 0 0 0 1:-942.52588 2:-673.05292 3:-24.132374 4:-430.18045 5:-205.39449 
-0.9309661839448656 0 0 0 0 0 0.05209810824789063 0 0.04273126419457172 0.003511282786785026 1:-426.54834 2:-670.22614 3:-56.423981 4:198.2926 5:-21.57053 
-0 0 0 0.1699231168563046 0 0 0 0 0 0 1:-898.52032 2:-629.14868 3:-24.806526 4:-401.80859 5:-133.14957 
-0.2367592104169745 0 0 0 0 0 0 0 0 0 1:6479.4639 2:-675.47144 3:-27.977186 4:-448.04706 5:15.11022 
-0 0 0 0 1 0 0 0 0 0 1:-942.52905 2:-673.08142 3:-24.271893 4:-421.39041 5:-177.36888 
-0 0 0 1 1 0 0 0 0 0 1:-942.52094 2:-673.03107 3:-19.471727 4:-488.9505 5:-44.767395 
-0 0 0 1 0 0 0 0 0 0 1:-942.52246 2:-673.02655 3:-24.05859 4:-437.63898 5:-232.21281 
-0 0 0 0 0 0 0 1 0 0 1:-942.52045 2:-673.02795 3:-19.280931 4:-491.91107 5:-40.693108 
-0 0 0 0 0 0 0 0 0.5141791058249453 0.01775498045293155 1:9101.4717 2:-676.23242 3:-30.661077 4:-462.57089 5:-63.681023 
-0 0 0 0.8542926359827765 0 0 0 0 0 0 1:-900.52625 2:-631.4718 3:-35.670918 4:-192.80235 5:-93.493279 
-0 0 0 1 0 0 0 0 0 0 1:-942.5213 2:-673.03351 3:-19.56702 4:-487.24997 5:-45.808495 
-0 0 0 0 0.5208773661537967 0 0 0 0 0 1:-942.52979 2:-673.09003 3:-24.374622 4:-417.74478 5:-171.64851 
-0 0 0 1 0 0 0 0 0 0 1:-942.52094 2:-673.02795 3:-20.42754 4:-478.79861 5:-86.259033 
-0 0 0 1 0 0 0 0 0 0 1:-942.52362 2:-673.03564 3:-24.134117 4:-434.48697 5:-224.91722 
-0 0 0 1 0 0 0 0 0 0 1:-942.52246 2:-673.02747 3:-24.169462 4:-436.02728 5:-235.48485 
-0 0 0 0 0 0 0 0 0.4250850292869103 0 1:15844.464 2:-678.38818 3:-38.008823 4:-445.28986 5:-67.735847 
-1 0 0 0 0 0 0 0 0 0 1:-837.53394 2:-673.14935 3:-24.10998 4:-415.70306 5:-129.14052 
-0 0 0 0 1 0 0 0 0 0 1:-911.53223 2:-673.13684 3:-20.333567 4:-454.31082 5:30.839323 
-0 0 0 1 0 0 0 0 0 0 1:-942.52264 2:-673.02887 3:-24.169327 4:-435.67691 5:-233.89047 
-0 0 0 1 0 0 0 0 0 0 1:-942.52643 2:-673.06689 3:-23.306194 4:-435.50891 5:-156.5049 
-0 0 0 0 1 0 0 0 0 0 1:-942.52063 2:-673.0296 3:-19.355682 4:-490.67081 5:-41.808636 
-0 0 0 1 0 0 0 0 0 0 1:-942.52252 2:-673.02783 3:-24.169432 4:-435.94012 5:-235.08597 
-0 0 0 1 0 0 0 0 0 0 1:-933.51654 2:-636.09143 3:-19.400951 4:-475.41174 5:23.275475 
-0 0 0 0 0 0 0 0 0 0.2681080842452038 1:-795.53204 2:-673.16852 3:-19.557167 4:-467.04999 5:62.61409 
-0 0 0 1 0 0 0 0 0 0 1:-942.52252 2:-673.02783 3:-24.169432 4:-435.94012 5:-235.08597 
-0 0 0 1 0 0 0 0 0 0 1:-942.52094 2:-673.03125 3:-19.83111 4:-484.69232 5:-58.795467 
-0 0 0 1 0 0 0 0 0 0 1:-942.52246 2:-673.02692 3:-23.982117 4:-438.42017 5:-228.74963 
-0 0 0 1 0 0 0 0 0 0 1:-838.52106 2:-673.06555 3:-19.62446 4:-487.78522 5:-44.962944 
-0 0 0 1 0 0 0 0 0 0 1:-942.52258 2:-673.02856 3:-24.169365 4:-435.76465 5:-234.28905 
-0 0 0 1 0 0 0 0 0 0 1:-912.53198 2:-673.12689 3:-19.509977 4:-467.1619 5:52.206554 
-0 0 0 1 0 0 0 0 0 0 1:-942.52264 2:-673.02887 3:-24.169327 4:-435.67688 5:-233.89046 
-0 0 0 0 0 0 0.6982031431497622 0 0 0 1:-912.53198 2:-673.12811 3:-19.412758 4:-468.0578 5:58.028919 
-0 0 0 1 0 0 0 0 0 0 1:-795.53204 2:-673.16852 3:-19.55715 4:-467.0498 5:62.614079 
-0 0 0 0 0 0 0 0.05002514000237589 0 0 1:-932.51306 2:-636.065 3:-19.289953 4:-483.39343 5:-2.4089978 
-0 0 0 1 0 0 0 0 0 0 1:-942.52429 2:-673.04364 3:-23.27335 4:-442.32263 5:-181.67784 
-0 0 0 0 0 0 0 0.6074340119030287 0 0 1:-942.52051 2:-673.02826 3:-19.300013 4:-491.60681 5:-41.060421 
-0 0 0 1 0 0 0 0 0 0 1:-942.52246 2:-673.02747 3:-24.169466 4:-436.02719 5:-235.48505 
-0 0 0 0 0 0 0 0 0 0.8090896403039544 1:-942.52094 2:-673.02948 3:-20.006966 4:-483.22348 5:-67.811356 
-0 0 0 1 0.02014188508629115 0 0 0 0 0 1:-942.52087 2:-673.02765 3:-20.351128 4:-479.75418 5:-83.593391 
-0 0 0 1 0 0 0 0 0 0 1:-795.53204 2:-673.16852 3:-19.557146 4:-467.0498 5:62.614105 
-0 0 0 0 1 0 0 0 0 0 1:-942.53363 2:-673.11615 3:-23.38065 4:-422.91626 5:-104.19624 
-0 0 0 0.6076393012867299 0 0 0 0 0 0 1:-942.52362 2:-673.03564 3:-24.134111 4:-434.48709 5:-224.91693 
-0 0 0 1 0 0 0 0 0 0 1:-942.52429 2:-673.04346 3:-23.67099 4:-437.7182 5:-197.63652 
-0 0 0 1 0 0 0 0 0 0 1:-942.52252 2:-673.02783 3:-24.169432 4:-435.94012 5:-235.08597 
-0 0 0 0 0 0 0 0 1 0 1:87439.43 2:-700.95551 3:-106.76438 4:-448.05994 5:-95.09623 
-0 0 0 0 0 0 0 1 0.9999998361289534 0.01489131001576505 1:174394.38 2:-728.43066 3:-188.95634 4:-450.32458 5:-14.478048 
-0 0 0 1 0 0 0 0 0 0 1:-942.52075 2:-673.0285 3:-19.777744 4:-486.09195 5:-59.813835 
-1 0 0 0 0 0 0 0 0 0 1:-837.53394 2:-673.14935 3:-24.167313 4:-415.05179 5:-131.43878 
-0 1 0 0 0 0.2322815460371412 1 0 0 0 1:-941.52472 2:-673.10547 3:-21.022167 4:-456.03162 5:6.0482874 
-0 0 0 1 0 0 0 0 0 0 1:-942.52545 2:-673.0686 3:-20.017262 4:-461.82257 5:-63.793102 
-0 0 0 0 1 0 0 0 0 0 1:-911.53223 2:-673.13104 3:-20.148226 4:-458.67465 5:31.984926 
-0 0 0 1 0 0 0 0 0 0 1:-912.52344 2:-673.05701 3:-20.376616 4:-474.78534 5:-61.054314 
-0 0 0 1 0 0 0 0 0 0 1:-942.52252 2:-673.02783 3:-24.169432 4:-435.94012 5:-235.08597 
-0 0 0 1 1 0 0 0 0 0 1:-942.52441 2:-673.05084 3:-21.552715 4:-460.1908 5:-105.16058 
-0 0 0 1 0 0 0 0 0 0 1:-942.52362 2:-673.03528 3:-24.134148 4:-434.57495 5:-225.31537 
-0 0 0 0 0 0 0 0 0.4159004666444612 0 1:15844.459 2:-678.41614 3:-37.067993 4:-449.22266 5:-3.6585944 
-0 0 0 1 0 0 0 0 0 0 1:-942.52246 2:-673.03046 3:-24.272757 4:-433.7966 5:-236.10715 
-0 0 0 1 0 0 0 0 0 0 1:-942.52258 2:-673.0282 3:-24.169397 4:-435.85245 5:-234.68747 
-0 0 0 1 0 0 0 0 0 0 1:-942.52081 2:-673.02881 3:-19.892374 4:-484.70166 5:-64.011826 
-0 5.113831342025617e-09 0 0 0 0 0 0 0 0 1:134.34653 2:1419235 3:-114.79165 4:1599.2836 5:641.06464 
-0 0 0 1 0 0 0 0 0 0 1:-942.52258 2:-673.0282 3:-24.169399 4:-435.85245 5:-234.6875 
-0 0 0 1 0 0 0 0 0 0 1:-942.52264 2:-673.02887 3:-24.169327 4:-435.67688 5:-233.89047 
-0 0 0 1 0 0 0 0 0 0 1:-942.52246 2:-673.02747 3:-24.16946 4:-436.02731 5:-235.48474 
-0 0 0 0 0 0 0.0721561795258587 0 0 0 1:-912.5321 2:-673.13068 3:-19.915812 4:-461.15997 5:40.510757 
-0 0 0 0 0 0 0 0 0.7267000054353429 0 1:-942.52258 2:-673.02722 3:-24.134966 4:-436.59589 5:-234.47958 
-0 0 0 0 0 0 0 0 1 0 1:-942.52295 2:-673.03101 3:-24.169115 4:-435.14975 5:-231.49979 
-0 0 0 0 0 0 0 1 0 0 1:-942.52045 2:-673.02795 3:-19.280931 4:-491.91107 5:-40.693108 
-0 0 0 0 0 0 0 0.04211147726934307 1 0 1:160823.53 2:53599.852 3:-179.47307 4:-401.7735 5:-5.9001365 
-0.5446590608747661 0 0 0 0 0 0 0 0 0 1:6997.4668 2:-675.60748 3:-29.201389 4:-446.57639 5:-44.665279 
-0 0 0 0 1 0 0 0 0 0 1:-912.53192 2:-673.12695 3:-19.433533 4:-468.0303 5:55.270939 
-0.2000432088712125 0 0 0 0 0 0 0 0 0 1:-829.53326 2:-673.21973 3:-22.208244 4:-419.79547 5:45.253941 
-0 0 0 1 0 0 0 0 3.490385707446578e-05 0 1:-942.52277 2:-673.0296 3:-24.169256 4:-435.50122 5:-233.09355 
-0 0 0 1 0 0 0 0 0 0 1:-942.52252 2:-673.02783 3:-24.169432 4:-435.94012 5:-235.08598 
-0 0 0 0 0 0 0 0 0.2616452095278204 0 1:8094.5864 2:-308.89813 3:-32.585316 4:-433.57306 5:-202.96886 
-0 0 0.02644226973662858 0 0 0.0003514674272669121 0 0 0 0 1:-933.52063 2:-637.12024 3:-19.455267 4:-467.55551 5:53.648476 
-0 0 0 1 0 0 0 0 0 0 1:-942.52246 2:-673.02747 3:-24.169464 4:-436.02722 5:-235.48494 
-0 0 0 1 0 0 0 0 0 0 1:-942.52252 2:-673.02783 3:-24.169432 4:-435.94009 5:-235.08603 
-0 0 0 0 1 0 0 0 0 0 1:-906.52319 2:-673.05737 3:-20.307083 4:-476.02322 5:-59.830502 
-0 0 0 1 0 0 0 0 0 0 1:-797.52448 2:-673.10492 3:-19.453129 4:-483.7001 5:-6.8927679 
-0 0 0 1 1 0 0 0 0 0 1:-942.52588 2:-673.05292 3:-24.132364 4:-430.18085 5:-205.3936 
-0 0 0 1 0 0 0 0 0 0 1:-942.52209 2:-673.03406 3:-21.191326 4:-468.53381 5:-109.73003 
-0 0 0 0 0 0 0 0 0.06488475928575488 0 1:-896.48627 2:-541.2713 3:-30.394707 4:-293.70862 5:-193.16234 
-0 0 0 1 0 0 0 0 0 0 1:-942.52277 2:-673.03015 3:-23.790691 4:-439.80075 5:-217.50253 
-0 0.438304607038653 0 0 0 0 0 0 0 0 1:-942.52057 2:-673.03137 3:-19.558323 4:-487.75903 5:-47.146282 
-0 0 0 0 0 0 0 0 1.385298799587225e-06 0 1:-653.2486 2:22389.855 3:-26.480961 4:-402.85373 5:-224.39389 
-0.08743227548524611 0 0 0 0 0 0 0 0 0 1:-837.53394 2:-673.15149 3:-24.180975 4:-414.33539 5:-128.89003 
-0 0 0 1 0 0 0 0 0 0 1:-942.52191 2:-673.02765 3:-22.606115 4:-453.96292 5:-173.19336 
-0 0 0 0 0 0 0 0 0.02272591345269593 0 1:-289.05807 2:409727.22 3:-23.126453 4:147.90137 5:187.33772 
-0 0 0 1 0 0 0 0 0 0 1:-942.52081 2:-673.02881 3:-19.854153 4:-485.13583 5:-62.479679 
-1 0 0 0 0 0 0 0 0 0 1:-837.53394 2:-673.15149 3:-24.161863 4:-414.55249 5:-128.12392 
-0 0 0 0 1 0 0 0 0 0 1:-942.53052 2:-673.08954 3:-24.12866 4:-421.04071 5:-163.95697 
-0 0 0 0.4127500155227672 0 0 0 0 0 0 1:-795.53204 2:-673.16852 3:-19.557137 4:-467.04974 5:62.614124 
-0 0 0 0 0.9306118779458215 0 0 0 0 0 1:-883.53241 2:-673.15796 3:-21.969727 4:-433.54205 5:-10.78564 
-0 0 0 1 0 0 0 0 0 0 1:-760.53229 2:-673.18237 3:-20.114298 4:-460.03979 5:45.171547 
-0 1 0.004062162412239305 0 0 1 0 0 0 0 1:-942.52734 2:-673.08191 3:-19.293818 4:-478.2265 5:19.633606 
-0 0 0 1 0 0 0 0 0 0 1:-942.52252 2:-673.02783 3:-24.169432 4:-435.94012 5:-235.08597 
-0 0 0 1 0 0 0 0 0 0 1:-942.52264 2:-673.02887 3:-24.169331 4:-435.67682 5:-233.89066 
-0 0 0 1 1 0 0 0 0 0 1:-942.52094 2:-673.02954 3:-19.911413 4:-484.30893 5:-63.98098 
-1.109685224325212e-06 7.68749156235438e-07 0 0.000241643904171097 5.52013750426657e-05 0 1.472053175755543e-05 0 0 0 1:-764.88385 2:-567.68097 3:32997.699 4:1272.7916 5:-107.18127 
-0 0 0 0 0 0 0 1 0 0 1:-942.52045 2:-673.02795 3:-19.280931 4:-491.91107 5:-40.693108 
-0 0 0 1 0 0 0 0 0 0 1:-942.52246 2:-673.02747 3:-24.169462 4:-436.02728 5:-235.48483 
-1 0 0 0 0 0 0 0 0 0 1:-829.53259 2:-673.18604 3:-20.76655 4:-445.15118 5:53.503574 
-0 0 0 1 0 0 0 0 0 0 1:-913.52222 2:-673.04956 3:-19.991451 4:-480.85876 5:-53.816429 
-0 0 0 0 0 0 0 0 0.3252277162259073 0 1:-897.5025 2:-538.81323 3:-47.09322 4:27.305798 5:-52.354042 
-0.0001389507217994565 0 0 0 0 0 0 0 0 0 1:-837.53394 2:-673.15149 3:-24.180975 4:-414.33539 5:-128.89003 
-1 0 0 0 0 0 0 0 0 0 1:-837.53394 2:-673.14935 3:-24.10998 4:-415.70306 5:-129.14052 
-0 0 0 1 0 0 0 0 0 0 1:-942.52246 2:-673.02747 3:-24.16946 4:-436.02731 5:-235.48474 
-0 0 0.003451582421777402 0 1 0 0 0 0 0 1:-912.53192 2:-673.12695 3:-19.337978 4:-469.11581 5:59.10141 
-0 0 0 1 0 0 0 0 0 0 1:-942.52264 2:-673.02887 3:-24.169327 4:-435.67688 5:-233.89046 
-0 0 0 1 0 0 0 0 0 0 1:-942.52338 2:-673.03583 3:-23.541685 4:-441.21677 5:-201.16862 
-1 0 0 0 0 0 0 0 0 0 1:-837.53394 2:-673.14935 3:-24.167313 4:-415.05179 5:-131.43878 
-0 0 0 0 0 0 0 0 0.2630471703009523 0 1:-898.49664 2:-547.35486 3:-31.411856 4:-265.1637 5:-116.49135 
-0 0 0 0 1 0 0 0 0 0 1:-942.53131 2:-673.10089 3:-22.656015 4:-435.03247 5:-92.616409 
-0 0 0 0 0 0 0 1 0 0 1:-878.52234 2:-673.06311 3:-19.339361 4:-488.1756 5:-23.727314 
-0 0 0 1 1 0 0 0 0 0 1:-912.53192 2:-673.12695 3:-19.3762 4:-468.68149 5:57.569157 
-0 0 0 0 0 0 0 0 0.9815342915264013 0 1:87439.422 2:-701.00464 3:-106.01932 4:-444.28336 5:-10.759558 
-0 0 0 1 0 0 0 0 0 0 1:-942.52399 2:-673.05115 3:-20.558964 4:-471.47937 5:-65.324509 
-0 0 0 0.968427933182839 0 0 0 0 0 0 1:-942.52313 2:-673.03278 3:-24.168936 4:-434.71036 5:-229.50758 
-0 0 0 1 0 0 0 0 0 0 1:-942.52368 2:-673.03601 3:-24.134077 4:-434.3992 5:-224.51849 
-0 0 0 1 1 0 0 0 0 0 1:-942.52783 2:-673.07568 3:-22.123508 4:-447.43811 5:-99.854713 
-0 0 0 1 0 0 0 0 0 0 1:-942.52264 2:-673.02795 3:-24.058453 4:-437.28864 5:-230.61832 
-0 0 0 0 0 0 0 0 0.02759964103261804 0 1:5843.1294 2:1586720 3:-168.77783 4:1864.3771 5:764.51031 
-0 0 0 1 0 0 0 0 0 0 1:-942.52258 2:-673.0282 3:-24.169397 4:-435.85248 5:-234.68742 
-0 0 0 1 0 0 0 0 0 0 1:-942.52258 2:-673.0282 3:-24.169397 4:-435.85248 5:-234.68741 
-0 0.481221429779666 0 0 0 0 0 0 0 0 1:-942.52075 2:-673.03027 3:-19.393833 4:-490.06097 5:-42.54388 
-0 0 0 1 0 0 0 0 0 0 1:-942.52209 2:-673.02832 3:-22.835373 4:-451.18228 5:-181.58934 
-0 1 0 0 1 0 0 0 0 0 1:-942.53339 2:-673.11633 3:-22.864655 4:-428.77771 5:-83.511848 
-0 0 0 1 0 0 0 0 0 0 1:-942.52264 2:-673.02832 3:-24.039307 4:-437.41791 5:-229.45381 
-0 0 0 1 0 0 0 0 0 0 1:-942.52277 2:-673.02997 3:-24.169222 4:-435.41336 5:-232.6951 
-0 0 0 1 0 0 0 0 0 0 1:-942.52649 2:-673.06287 3:-22.698107 4:-444.08951 5:-137.18022 
-0 0 0 0 0 0 0 0.02670551448449338 0 0 1:-788.18512 2:-567.93945 3:9696.5098 4:22.511274 5:-80.498932 
-0 0 0 1 0 0 0 0 0.1717871521571391 0 1:-942.52258 2:-673.0282 3:-24.169403 4:-435.85229 5:-234.68785 
-0 0 0 1 0 0 0 0 0 0 1:-942.52283 2:-673.03046 3:-23.790655 4:-439.71286 5:-217.1041 
-0 0 0 1 0 0 0 0 1 0 1:-942.52295 2:-673.03137 3:-24.169079 4:-435.06189 5:-231.10133 
-0 0 0 1 0 0 0 0 0 0 1:-942.52209 2:-673.0285 3:-23.04187 4:-448.66068 5:-189.48885 
-0 0 0 1 0 0 0 0 0 0 1:-942.52399 2:-673.03815 3:-24.133863 4:-433.87192 5:-222.12788 
-0 0 0 1 0 0 0 0 0 0 1:-942.52258 2:-673.0282 3:-24.169397 4:-435.85248 5:-234.68742 
-0 0 0 1 0 0 0 0 0 0 1:-908.5174 2:-639.0929 3:-21.558445 4:-452.41592 5:-68.679024 
-0 0 0 1 0 0 0 0 0 0 1:-942.52448 2:-673.04199 3:-24.133471 4:-432.90521 5:-217.74509 
-0 0 0 0 1 0 0 0 0 0 1:-942.52429 2:-673.08929 3:-25.484798 4:-404.85065 5:-200.87471 
-0 0 0 1 0 0 0 0 0 0 1:-942.52399 2:-673.03845 3:-24.133827 4:-433.78403 5:-221.72945 
-0 0 0 1 0 0 0 0 0 0 1:-942.52258 2:-673.0282 3:-24.169397 4:-435.85248 5:-234.68742 
-0 0 0 1 1 0 0 0 0 0 1:-912.53192 2:-673.12695 3:-19.3762 4:-468.68143 5:57.56913 
-0 0 0 1 0 0 0 0 0 0 1:-942.52405 2:-673.03882 3:-24.133793 4:-433.69611 5:-221.33118 
-0 0 0 0 0 0 0 0 0 0.886644702195137 1:-796.53198 2:-673.16595 3:-19.483059 4:-468.29791 5:61.697845 
-0 0 0 1 0 0 0 0 0 0 1:-942.52368 2:-673.03601 3:-24.134081 4:-434.39902 5:-224.51892 
-0 0 0 1 0 0 0 0 0 0 1:-942.52277 2:-673.0296 3:-24.169256 4:-435.50122 5:-233.09355 
-0 0 0 1 0 0 0 0 0 0 1:-942.52246 2:-673.02747 3:-24.169462 4:-436.02731 5:-235.48479 
-0 0 0 0 0.5245005909814768 0 0 0 0 0 1:-942.521 2:-673.03174 3:-19.490767 4:-488.55768 5:-44.736568 
-0 1 0 0 0 0 0 0 0 0 1:-942.52814 2:-673.08282 3:-20.803982 4:-460.75452 5:-39.352711 
-0 0 0 0 0 0 0 0.3226802091361745 1 0 1:59984.602 2:-200.25864 3:-82.088966 4:-438.62463 5:-207.12918 
-0 0 0 0 0 0 0 1 1 0 1:58333.445 2:-691.75586 3:-77.668556 4:-466.53656 5:-75.079933 
-0 0 0 0.5106525617206765 0 0 0 0 0 0 1:-928.51514 2:-636.08209 3:-19.292168 4:-479.43881 5:15.520694 
-0 0 0 1 0 0 0 0 0 0 1:-942.52246 2:-673.02692 3:-23.943895 4:-438.85437 5:-227.21744 
-0 0 0 1 0 0 0 0 0 0 1:-942.5213 2:-673.0285 3:-21.019899 4:-471.89346 5:-109.2104 
-0 0 0 1 0 0 0 0 0 0 1:-912.52454 2:-673.06879 3:-19.515871 4:-481.66251 5:-13.535534 
-0 0 0 1 0 0 0 0 0 0 1:-942.52246 2:-673.02655 3:-24.058586 4:-437.6391 5:-232.21259 
-0 0 0.001653389431852064 0 0.00381307845759013 0 0.006417594619283773 0 0.00166205691329208 0 1:-899.5304 2:-630.74384 3:-44.77676 4:-17.336824 5:-60.204819 
-0 0 0 1 0 0 0 0 0 0 1:-942.52924 2:-673.08032 3:-24.164118 4:-422.84619 5:-175.7188 
-0 0 0 1 0 0 0 0 0 0 1:-942.52209 2:-673.03503 3:-21.206648 4:-468.00751 5:-109.17176 
-0 0 0 0 0 0 0 0 0.1685064232770807 0 1:-942.52405 2:-673.03918 3:-24.057314 4:-434.47662 5:-217.86827 
-0 0 0 0 1 0 0 0 0 0 1:-912.53192 2:-673.12695 3:-19.395309 4:-468.46445 5:56.803101 
-0 0 0 1 0 0 0 0 0 0 1:-942.52399 2:-673.03845 3:-24.133827 4:-433.78403 5:-221.72948 
-0 0 0 0 0 0 0 0 0.8647209419792224 0 1:41815.578 2:-296.53693 3:-61.463657 4:-449.85144 5:-146.6532 
-0 0 0 0 0 0 0 0 0.7691081721685729 0 1:25465.455 2:-681.45416 3:-46.407352 4:-446.95749 5:-1.5302154 
-0 0 0 0.4760727915437337 0 0 0 0 0 0 1:-942.52258 2:-673.02795 3:-23.982014 4:-438.15695 5:-227.55415 
-0 -0 0 0 0 0 0 0 6.570794603142509e-10 2.933651842579208e-07 1:-942.53577 2:-673.25769 3:-23.803984 4:-392.18143 5:117.75062 
-6.955036534463305e-06 -1 0 0 0 0 0.0006306820450802723 0 0 0 1:-942.52887 2:-673.10876 3:-22.814251 4:-430.74258 5:-81.633438 
-0 -0 1 0 0 0 0 0 0 0 1:-942.54059 2:-673.43561 3:-29.593885 4:-292.99591 5:187.34082 
-0 -0 1 0 0 0 0 0 0 0 1:-942.53827 2:-673.34991 3:-26.836174 4:-340.32507 5:152.41164 
-0 -0 0 0 0 1 0 0 0 0 1:-942.53235 2:-673.13641 3:-19.99984 4:-457.30084 5:62.159157 
-0 -0 0.8200558830476954 0 0 0 0 0 0 0 1:-942.54126 2:-673.46625 3:-30.930151 4:-269.75143 5:179.04816 
-0 -1 0 0 1 0 0 0 0 2.720077971453897e-08 1:-942.52496 2:-673.06964 3:-20.0627 4:-473.05478 5:-19.59082 
-0 -0 0 0 0 1 0 0 0 0 1:-942.53314 2:-673.16498 3:-20.82267 4:-443.02234 5:78.769081 
-0 -0 0 0 1 1 0 0 0 0 1:-942.53192 2:-673.11981 3:-19.360037 4:-467.98041 5:60.423004 
-0 -0 0 0 0 0 0 0 0 2.825084340550304e-09 1:-942.53912 2:-673.38171 3:-27.80224 4:-323.84769 5:168.35202 
-0 -0 0.9195669724957936 0 0 0 0 0 0 0 1:-942.53894 2:-673.37445 3:-27.674601 4:-325.92743 5:159.64914 
-0 -0 0 0 0 0 0.0002737073827391011 0 0 0 1:-942.5412 2:-673.4707 3:-30.74939 4:-270.82611 5:193.23805 
-0 -0 0 0 1 0 0 0 0 0 1:-942.53204 2:-673.12628 3:-19.613424 4:-463.56888 5:60.3349 
-0 -0 0 0 0 1 0 0 0 0 1:-942.53204 2:-673.12469 3:-19.506763 4:-465.58621 5:63.338871 
-0 -0 1 0 0 0 0 0 0 0 1:-942.53979 2:-673.40314 3:-28.537783 4:-311.33405 5:175.39166 
-0 -0 0 0 0 1 0 0 0 0 1:-942.53564 2:-673.25427 3:-23.694239 4:-394.04785 5:116.35078 
-0 -1 0 0 0 0 0 0 0 0 1:-942.52551 2:-673.08423 3:-20.460238 4:-465.33344 5:-13.059616 
-0 -0 0 0 0 0.9553759747663542 0 0 0 0 1:-942.53564 2:-673.25525 3:-23.72872 4:-393.31024 5:116.16938 
-0 -0 1 0 0 0 0 0 0 0 1:-942.539 2:-673.37939 3:-27.942253 4:-321.1185 5:154.75545 
-0 -0 0 0 1 1 0 0 0 0 1:-942.53198 2:-673.12109 3:-19.379356 4:-467.69498 5:62.411968 
-0 -0 0 0 1 1 0 0 0 0 1:-942.5321 2:-673.1264 3:-19.596447 4:-463.90555 5:61.767128 
-0 -0 1 0 0 0 0 0 0 0 1:-942.54065 2:-673.44019 3:-29.933765 4:-287.08566 5:178.07809 
-0 -0 0 0 1 1 0 0 0 0 1:-942.53192 2:-673.11884 3:-19.30654 4:-468.94733 5:61.424438 
-0 -0 0 0 0 0 0.0002215507538983488 0 0 0 1:-942.53534 2:-673.2514 3:-23.74678 4:-391.94241 5:103.33778 
-0 -0 0 0 0 1 0 0 0 0 1:-942.53223 2:-673.13013 3:-19.67219 4:-462.70639 5:66.004776 
-0 -0 0 0 0 1 0 0 0 0 1:-942.53503 2:-673.23248 3:-22.95817 4:-406.46945 5:108.31731 
-0 -0 1 0 0 0 0 0 0 0 1:-942.54047 2:-673.43378 3:-29.620499 4:-292.37589 5:180.62048 
-0 -0 1 0 0 0 0 0 0 0 1:-942.54065 2:-673.43573 3:-29.653351 4:-292.46405 5:185.70792 
-0 -0 1 0 0 0 0 0 0 0 1:-942.53827 2:-673.34991 3:-26.836176 4:-340.32507 5:152.41162 
-0 -1 0 0 0 0 0 0 0 0 1:-942.52856 2:-673.09747 3:-20.531796 4:-460.43164 5:-7.4046683 
-0 -0 1 0 0 0 0 0 0 0 1:-942.54053 2:-673.43555 3:-29.804487 4:-289.24564 5:174.81493 
-0 -0 0 0 0 1 0 0 0 0 1:-942.5321 2:-673.12738 3:-19.64999 4:-462.94482 5:60.793118 
-0 -0 0 0 0 1 0 0 0 0 1:-942.53381 2:-673.18866 3:-21.590473 4:-429.91003 5:88.35952 
-0 -0 0 0 0 1 0 0 0 0 1:-942.53284 2:-673.15155 3:-20.366917 4:-450.84824 5:74.705505 
-0 -0 0.1523439030684282 0 0 0 0 0 0 0 1:-942.54138 2:-673.47388 3:-31.176172 4:-265.23276 5:180.59901 
-0 -0 0 0 0 1 0 0 0 0 1:-942.53198 2:-673.12091 3:-19.415758 4:-467.14536 5:60.142136 
-0 -0 0 0 0 1 0 0 0 0 1:-942.53235 2:-673.13708 3:-20.030003 4:-456.31833 5:60.620163 
-0 -0 0.3536285552426106 0 0 0 0 0 0 0 1:-942.54126 2:-673.46625 3:-30.930153 4:-269.75143 5:179.04816 
-0 -0 0 0 1 1 0 0 0 0 1:-942.53198 2:-673.11993 3:-19.457769 4:-467.02078 5:57.286335 
-0 -0 0 0 0 1 0 0 0 0 1:-942.53583 2:-673.26105 3:-23.913677 4:-390.30905 5:119.12438 
-0 -0 0 0 0 1 0 0 0 0 1:-942.53564 2:-673.25427 3:-23.694239 4:-394.04785 5:116.35078 
-0 -0 1 0 0 0 0 0 0 0 1:-942.53827 2:-673.34991 3:-26.836176 4:-340.32507 5:152.41162 
-0 -0 0 0 0 1 0 0 0 0 1:-942.53235 2:-673.13708 3:-20.030003 4:-456.31833 5:60.620163 
-0 -0 1 0 0 0 0 0 0 0 1:-942.54126 2:-673.46625 3:-30.930151 4:-269.75143 5:179.04816 
-0 -0 1 0 0 0 0 0 0 0 1:-942.54047 2:-673.42896 3:-29.414854 4:-296.42581 5:183.72643 
-0 -0 0 0 0 1 0 0 0 0 1:-942.53192 2:-673.11993 3:-19.343105 4:-468.3233 5:61.882797 
-0 -0 0 0 1 1 0 0 0 3.029229530204801e-07 1:-942.53186 2:-673.11823 3:-19.266554 4:-469.52377 5:61.744617 
-0 -0 1 0 0 0 0 0 0 0 1:-942.53827 2:-673.34991 3:-26.836174 4:-340.32507 5:152.41164 
-0 -1 0 0.2512867747972526 0.185654346047595 0 0.001097101149681715 1.78900520016026e-05 0 2.86404145550152e-07 1:-942.52148 2:-673.05585 3:-20.30913 4:-472.89877 5:-42.513744 
-0 -0 0 0 0 1 0 0 0 0 1:-942.53308 2:-673.16058 3:-20.659435 4:-445.85532 5:78.368904 
-0 -0 0.3002122134549859 0 0 0 0 0 0 0 1:-942.54126 2:-673.46625 3:-30.930151 4:-269.75143 5:179.04816 
-0 -0 1 0 0 0 0 0 0 0 1:-942.54132 2:-673.47394 3:-30.89517 4:-268.40018 5:192.41426 
-2.343680819705921e-07 -0 0 0 0 0 0 0 0 0 1:-942.5415 2:-673.47876 3:-31.487764 4:-259.90659 5:174.5231 
-0 -0 0 0 0 1 0 0 0 0 1:-942.53271 2:-673.14917 3:-20.310766 4:-451.75995 5:72.358047 
-0 -0 1 0 0 0 0 0 0 0 1:-942.54047 2:-673.42896 3:-29.395742 4:-296.64291 5:184.49254 
-0 -0 0 0 0 1 0 0 0 0 1:-942.53345 2:-673.17554 3:-21.133059 4:-437.7182 5:84.711945 
-0 -0 0 0 0 1 0 0 0 0 1:-942.53204 2:-673.12531 3:-19.559885 4:-464.5296 5:61.308907 
-0 -0 1 0 0 0 0 0 0 0 1:-942.53827 2:-673.34991 3:-26.836174 4:-340.32507 5:152.41164 
-0 -0 0 0 0 1 0 0 0 0 1:-942.53198 2:-673.12219 3:-19.416235 4:-467.07516 5:62.799026 
-0 -0 1 0 0 0 0 0 0 0 1:-942.54126 2:-673.46625 3:-30.930151 4:-269.75143 5:179.04817 
-0 -0 1 0 0 0 0 0 0 0 1:-942.54047 2:-673.42896 3:-29.395742 4:-296.64291 5:184.49254 
-0 -0 0 0 1 1 0 0 0 0 1:-942.5321 2:-673.1264 3:-19.596447 4:-463.90555 5:61.767124 
-0 -0 0 0 0 1 0 0 0 0 1:-942.53387 2:-673.18994 3:-21.610062 4:-429.62244 5:90.24894 
-0 -0 0 0 0 0 0.0002562940845915502 0 0 0 1:-942.53247 2:-673.14258 3:-20.229801 4:-452.8613 5:61.478546 
-0 -0 0 0 0 1 0 0 0 0 1:-942.53198 2:-673.12091 3:-19.396646 4:-467.36246 5:60.908211 
-0 -0 0 0 0 1 2.475947742121913e-05 0 0 0 1:-942.53192 2:-673.11993 3:-19.343103 4:-468.32333 5:61.882893 
-0 -0 0 0 0 1 0 0 0 0 1:-942.53552 2:-673.24963 3:-23.56501 4:-396.21371 5:113.11363 
-0 -0 0 0 0 0.1695795325057349 0 0 0 0 1:-942.53583 2:-673.26105 3:-23.913677 4:-390.30908 5:119.1244 
-0 -0 1 0 0 0 0 0 0 0 1:-942.53979 2:-673.40332 3:-28.520803 4:-311.67056 5:176.82317 
-0 -0 1 0 0 0 0 0 0 0 1:-942.54053 2:-673.43518 3:-29.606592 4:-292.42059 5:184.57863 
-0 -0.1401933400696646 0 0 0 0 0 0 0 0 1:-942.53229 2:-673.11743 3:-20.301817 4:-457.84595 5:19.631245 
-0 -0 0 0 0 1 0 0 0 0 1:-942.53259 2:-673.14233 3:-20.206045 4:-454.20209 5:65.013908 
-0 -0 0 0 0 1 0 0 0 0 1:-942.53552 2:-673.24963 3:-23.565008 4:-396.21371 5:113.11364 
-0 -0 1 0 0 0 0 0 0 0 1:-942.54126 2:-673.46625 3:-30.930151 4:-269.75143 5:179.04817 
-0 -0 1 0 0 0 0 0 0 0 1:-942.53827 2:-673.34991 3:-26.836176 4:-340.32507 5:152.41162 
-0 -0 0 0 0 1 0 0 0 0 1:-942.53204 2:-673.12531 3:-19.559883 4:-464.5296 5:61.308956 
-0 -0 0 0 0 1 0 0 0 0 1:-942.53229 2:-673.13495 3:-20.01634 4:-457.0347 5:58.071503 
-0 -0 1 0 0 0 0 0 0 0 1:-942.54065 2:-673.44019 3:-29.933765 4:-287.08566 5:178.07809 
-0 -0 0 0 0 1 0 0 0 0 1:-942.53259 2:-673.14117 3:-20.188591 4:-454.6091 5:63.78986 
-0 -0 0 0 0 0.04832952274908149 0 0 0 0 1:-942.53491 2:-673.22913 3:-22.923824 4:-407.1113 5:103.43951 
-0 -0 0 0 0.2408373359541992 0 0 0 0 0 1:-942.53198 2:-673.11987 3:-19.495991 4:-466.58658 5:55.754147 
-0 -0 1 0 0 0 0 0 0 0 1:-942.54132 2:-673.47211 3:-30.790224 4:-270.44083 5:195.02669 
-0 -0 1 0 0 0 0 0 0 0 1:-942.54126 2:-673.4646 3:-30.789116 4:-272.34564 5:183.85811 
-0 -0 0 0 0 1 0 0 0 0 1:-942.53204 2:-673.12317 3:-19.469778 4:-466.11438 5:61.824818 
-0 -0 0 0 0 0 8.864889130415436e-06 0 0 0 1:-942.53314 2:-673.15607 3:-21.746664 4:-432.22574 5:21.721512 
-0 -0 1 0 0 0 0 0 0 0 1:-942.54059 2:-673.43152 3:-29.434917 4:-296.06769 5:188.27132 
-0 -0 1 0 0 0 0 0 0 0 1:-942.53979 2:-673.40332 3:-28.520805 4:-311.67056 5:176.82317 
-0 -0 0 0 0 1 0 0 0 0 1:-942.53296 2:-673.15704 3:-20.566717 4:-447.39114 5:75.563576 
-0 -0 1 0 0 0 0 0 0 0 1:-942.54126 2:-673.46625 3:-30.930151 4:-269.75143 5:179.04817 
-0 -0 0 0 0 0 3.886851238426442e-05 0 0 0 1:-942.53528 2:-673.24622 3:-23.532139 4:-395.85541 5:104.57648 
-0 -0 -0 0 0 0 0 0 6.570381251155336e-10 0 1:-942.54779 2:-673.69336 3:-37.918083 4:-151.27151 5:294.414 
-0 -0 -1 0 0 0 0 0 0 0 1:-942.53986 2:-673.40668 3:-28.630388 4:-309.79251 5:178.17174 
-0 -0 -1 0 0 0 0 0 0 0 1:-942.54773 2:-673.6911 3:-37.844982 4:-152.5251 5:293.52106 
-0 -0 -0.8782601988046381 0 0 0 0 0 0 0 1:-941.53235 2:-673.14032 3:-20.19162 4:-453.40475 5:57.581646 
-0 -0 -1 0 0 0.5636809178171146 0 0 0 0 1:-942.53644 2:-673.28247 3:-24.608307 4:-378.44504 5:127.79939 
-0 -0 -0 0 0 0 0.0001130624090336387 0 0 7.1248734395359e-10 1:-936.54266 2:-669.69458 3:-33.890362 4:-151.61429 5:294.55508 
-0 -0 -1 0 0 0 0 0 0 0 1:-942.54028 2:-673.42133 3:-29.105728 4:-301.67902 5:184.12479 
-0 -0 -1 0 0 0.02331430110667293 0 0 0 0 1:-941.53278 2:-673.1604 3:-21.134703 4:-437.43219 5:49.568302 
-0 -0 -1 0 0 0 0 0 0 0 1:-942.54773 2:-673.6911 3:-37.844959 4:-152.51984 5:293.49869 
-0 -0 -1 0 0 0 0 0 0 0 1:-942.53937 2:-673.38861 3:-28.045361 4:-319.77832 5:170.84489 
-0 -0 -1 0 0 0.02822220957491751 0 0 0 0 1:-942.54773 2:-673.6911 3:-37.844982 4:-152.52505 5:293.52084 
-0 -0 -1 0 0 0 0 0 0 0 1:-941.53284 2:-673.15179 3:-20.368265 4:-450.82016 5:74.516518 
-0 -0 -1 0 0 0 0 0 0 0 1:-942.54175 2:-673.47437 3:-30.824572 4:-272.34991 5:205.57652 
-0 -0 -0 0 0 0.5016827246859118 0 0 0 0 1:-941.53229 2:-673.13263 3:-19.746344 4:-461.42508 5:66.8022 
-0 -0 -1 0 0 0 0 0 0 0 1:-941.53278 2:-673.15503 3:-20.666992 4:-445.2905 5:63.53516 
-0 -0 -1 0 0 1 0 0 0 0 1:-941.53223 2:-673.13037 3:-19.673529 4:-462.67758 5:65.815346 
-0 -0 -1 0 0 0 0 0 0 0 1:-942.54486 2:-673.58728 3:-34.481022 4:-209.9384 5:251.36917 
-0 -0.03560940400249733 -0 0 0 0 0.0005285028321085073 1.691677289920359e-05 0 9.196087934605871e-07 1:-936.5213 2:-647.14441 3:-21.072104 4:-446.59726 5:48.921093 
-0 -0 -1 0 0 0 0 0 0 0 1:-942.54773 2:-673.6911 3:-37.844963 4:-152.5199 5:293.49905 
-0 -0 -1 0 0 0 0 0 0 0 1:-942.53857 2:-673.35925 3:-27.094685 4:-336.00525 5:158.93845 
-0 -0 -1 0 0 0 0 0 0 0 1:-942.54779 2:-673.69342 3:-37.917774 4:-151.26729 5:294.48526 
-0 -0 -1 0 0 0 0 0 0 0 1:-941.53351 2:-673.18042 3:-21.403509 4:-432.90588 5:79.335739 
-0 -0 -0.6675473285049128 0 0 0 0 0 0 0 1:-942.54779 2:-673.69226 3:-37.881527 4:-151.8958 5:293.95697 
-0 -0 -1 0 0 0 0 0 0 0 1:-942.54779 2:-673.69226 3:-37.881527 4:-151.89578 5:293.95691 
-0 -0 -1 0 0 0 0 0 0 0 1:-942.54572 2:-673.61774 3:-35.468262 4:-193.08727 5:263.73312 
-0 -0 -1 0 0 0 0 0 0 0 1:-942.54773 2:-673.69116 3:-37.844643 4:-152.51544 5:293.569 
-0 -0 -1 0 0 0 0 0 0 0 1:-941.53284 2:-673.15924 3:-21.251028 4:-436.31949 5:42.981468 
-0 -0 -1 0 0 0 0 0 0 0 1:-942.53943 2:-673.39087 3:-28.118488 4:-318.53009 5:171.76076 
-0 -0 -1 0 0 0 0 0 0 0 1:-942.54773 2:-673.6911 3:-37.844959 4:-152.51987 5:293.49881 
-0 -0 -1 0.0001128179628652877 0.9147065802328348 0.166319786857527 0 0 0 0 1:-941.53192 2:-673.12006 3:-19.361101 4:-467.9538 5:60.330997 
-0 -0 -1 0 0 0 0 0 0 0 1:-942.54773 2:-673.6911 3:-37.844982 4:-152.52507 5:293.52094 
-0 -0 -1 0 0 0 0 0 0 0 1:-942.53845 2:-673.35474 3:-26.948429 4:-338.50171 5:157.10672 
-0 -0 -1 0.0002022709884217302 0 0 0.0003619359223323441 0 0 0 1:-941.53339 2:-673.16229 3:-21.661495 4:-433.45877 5:38.965931 
-7.111690152981585e-06 -0 -1 0 0 0 0.001876493486977744 0 0 0 1:-941.53656 2:-673.31122 3:-28.239069 4:-319.53729 5:-4.5314698 
-0 -0 -1 0 0 0 0 0 0 0 1:-942.53485 2:-673.22491 3:-22.743525 4:-410.27487 5:104.44507 
-0 -1 -0 -0 0 0 0 0 6.572738828510367e-10 0 1:-934.52258 2:-673.05023 3:-24.864952 4:-421.02768 5:-239.11511 
-0 -1 -0 -0 0 0 0 1.664371128498711e-05 0 9.356922530726928e-07 1:-924.52045 2:-673.03375 3:-19.373856 4:-491.00159 5:-43.637466 
-0 -1 -0.1703002725496125 -0.0003150889512870178 0 0.002128791910590687 0.0005093837582322032 0 0 0 1:-942.52258 2:-673.04517 3:-19.277229 4:-487.66913 5:-21.13883 
-0 -1 -0 -0 0 0 0 0 0 0 1:-924.52246 2:-673.03235 3:-24.132401 4:-436.94666 5:-234.39084 
-0 -1 -0 -0 0 0 0 0 0 0 1:-934.52094 2:-673.03949 3:-20.686996 4:-472.71625 5:-85.708656 
-0 -1 -0 -0 0 0 0 0 0 0 1:-934.52148 2:-673.05792 3:-22.411367 4:-446.43246 5:-132.55013 
-0 -1 -0 -0 0 0 0 0 0 0 1:-934.52258 2:-673.04626 3:-24.72723 4:-424.00177 5:-238.2854 
-0 -1 -0 -0 0 0 0 0 0 0 1:-934.52252 2:-673.04132 3:-24.555079 4:-427.71936 5:-237.24826 
-0 -1 -0 -0 0 0 0 0 0 0 1:-942.4776 2:-540.02863 3:-18.312222 4:-491.35355 5:-40.719082 
-0 -1 -0 -0 0 0 0 0 0 0 1:-934.52252 2:-673.03149 3:-24.210775 4:-435.15454 5:-235.174 
-0 -1 -0 -0 1 0 0 0 0 0 1:-934.52264 2:-673.06891 3:-25.519129 4:-406.90085 5:-243.05621 
-0 -1 -0 -0 0 0 0 0 0 0 1:-934.52118 2:-673.04822 3:-21.531965 4:-459.94611 5:-109.02568 
-0 -1 -0 -0 0 0 0 0 0 0 1:-924.521 2:-673.03333 3:-20.673378 4:-476.23959 5:-95.730759 
-0 -1 -0 -0 0 0 0 0 0 0 1:-924.52246 2:-673.03235 3:-24.132401 4:-436.94666 5:-234.39084 
-0 -1 -0 -0 0 0 0 0 0 0 1:-942.5224 2:-673.0437 3:-19.277372 4:-488.02066 5:-22.732576 
-0 -1 -0 -0 0 0 0 0 0 0 1:-934.52252 2:-673.039 3:-24.486254 4:-429.29425 5:-237.23184 
-0 -1 -0 -0 0 0 0 0 0 0 1:-934.52063 2:-673.03088 3:-19.612696 4:-488.09131 5:-53.198288 
-0 -1 -0 -0 0 0 0 0 0 0 1:-924.52063 2:-673.03363 3:-19.756067 4:-486.65982 5:-58.959023 
-0 -1 -0 -0 0 0 0 0 0 0 1:-934.52118 2:-673.03442 3:-21.011721 4:-470.78955 5:-104.58955 
-0 -1 -0 -0 0 0 0 0 0 0 1:-934.52264 2:-673.06598 3:-25.415838 4:-409.13141 5:-242.43393 
-0 -1 -0 -0 0 0 0 0 0 0 1:-934.52258 2:-673.05316 3:-24.968243 4:-418.79712 5:-239.73738 
-0 -1 -0 -0 0 0 0 0 0 0 1:-934.52258 2:-673.04431 3:-24.658369 4:-425.4888 5:-237.87054 
-0 -1 -0 -0 0 0 0 0 0 0 1:-924.52246 2:-673.03235 3:-24.132401 4:-436.94666 5:-234.39084 
-0 -1 -0 -0 1 0 0 0 0 0 1:-934.52081 2:-673.07477 3:-21.353205 4:-452.55011 5:-70.592125 
-0 -1 -0 -0 0 0 0 0 0 0 1:-924.52246 2:-673.03235 3:-24.132401 4:-436.94666 5:-234.39084 
-0 -1 -0 -0 0 0 0 0 0 0 1:-924.52246 2:-673.03235 3:-24.132401 4:-436.94666 5:-234.39084 
-1.701243778484449e-06 -1 -0 -0 0 0 0 9.109038599906438e-07 0 0 1:-924.52197 2:-673.03345 3:-22.699032 4:-453.05249 5:-176.13805 
-0 -1 -0 -0 0 0 0 0 0 0 1:-934.52258 2:-673.06464 3:-25.381443 4:-409.9628 5:-242.62494 
-0 -1 -0 -0 0 0 0 0 0 0 1:-924.52081 2:-673.03345 3:-20.252945 4:-481.01553 5:-78.877045 
-0 -1 -0 -0 0 0 0 0 0 0 1:-934.52252 2:-673.0459 3:-24.727266 4:-424.08963 5:-238.68384 
-0 -1 -0 -0 0 0 0 0 0 0 1:-934.52264 2:-673.06403 3:-25.346977 4:-410.61844 5:-242.01909 
-0 -1 -0.04922491383548307 -0 1 0 0 0 0 0 1:-934.52081 2:-673.07611 3:-21.3876 4:-451.71872 5:-70.401115 
-0 -1 -0 -0 0 0 0 0 0 0 1:-924.52075 2:-673.03351 3:-20.061838 4:-483.18643 5:-71.21627 
-0 -1 -0 -0 0 0 0 0 0 0 1:-924.52075 2:-673.03351 3:-20.061838 4:-483.18643 5:-71.21627 
-0 -1 -0 -0 0 0 0 0 0 0 1:-934.52057 2:-673.04138 3:-19.876804 4:-481.30313 5:-51.282379 
-0 -1 -0 -0 0 0 0 0 0 0 1:-924.52112 2:-673.03326 3:-20.902704 4:-473.63455 5:-104.92369 
-0 -1 -0 -0 0 0 0 2.47328859736442e-06 0 0 1:-924.52246 2:-673.03235 3:-24.15151 4:-436.72958 5:-235.15692 
-0 -1 -0 -0 0 0 0 0 0 0 1:-924.52124 2:-673.03357 3:-21.074665 4:-471.59286 5:-111.41988 
-0 -1 -0 -0 0 0 0 0 0 0 1:-934.52258 2:-673.07153 3:-25.622456 4:-404.75818 5:-244.07693 
-0 -1 -0 -0 0 0 0 0 0 0 1:-924.52057 2:-673.03369 3:-19.584072 4:-488.61362 5:-52.064323 
-0 -1 -0 -0 0 0 0 0 0 0 1:-924.52094 2:-673.03339 3:-20.463161 4:-478.62756 5:-87.303902 
-0 -1 -0 -0 0 0 0 0 0 0 1:-924.521 2:-673.03333 3:-20.673378 4:-476.23959 5:-95.730759 
-0 -1 -0 -0 0 0 0 0 0 0 1:-934.52069 2:-673.04816 3:-20.423586 4:-472.62509 5:-64.991608 
-0 -1 -0 -0 0 0 0 0 0 0 1:-934.52252 2:-673.04132 3:-24.555079 4:-427.71936 5:-237.24826 
-0 -1 -0 -0 0 0 0 0 0 0 1:-934.52258 2:-673.07446 3:-25.725746 4:-402.52762 5:-244.6992 
-0 -1 -0 -0 0 0 0 0 0 0 1:-934.52258 2:-673.06366 3:-25.347013 4:-410.7063 5:-242.41751 
-0 -1 -0 -0 1 0 0 0 0 0 1:-934.52075 2:-673.07416 3:-21.204077 4:-454.50827 5:-65.389801 
-0 -1 -0 -0 0 0 0 0 0 0 1:-924.52246 2:-673.03235 3:-24.132401 4:-436.94666 5:-234.39084 
-0 -1 -0 -0 0 0 0 0 0 0 1:-934.52258 2:-673.05872 3:-25.174862 4:-414.42389 5:-241.38039 
-0 -1 -0 -0 0 0 0 0 0 0 1:-924.52069 2:-673.03357 3:-19.966284 4:-484.27185 5:-67.38588 
-0 -1 -0 -0 0 0 0 0 0 0 1:-934.52258 2:-673.06067 3:-25.243721 4:-412.93686 5:-241.79524 
-0 -1 -0 -0 0 0 0 0 0 0 1:-934.52252 2:-673.04102 3:-24.555115 4:-427.80722 5:-237.6467 
-0 -1 -0 -0 1 0 0 0 0 0 1:-934.52112 2:-673.07495 3:-22.002932 4:-445.08124 5:-96.240334 
-0 -1 -0 -0 0 0 0 0 0 0 1:-934.52258 2:-673.05023 3:-24.864952 4:-421.02768 5:-239.11511 
-0 -1 -0 -0 1 0 0.0001492957520952023 0 0 0 1:-934.52057 2:-673.07098 3:-20.77594 4:-460.51721 5:-52.142639 
-0 -1 -0 -0 0.705424574759014 0 0 0 0 0 1:-934.52106 2:-673.05389 3:-21.413704 4:-459.2634 5:-97.645355 
-0 -1 -0 -0 0 0 0 0 0 0 1:-924.52246 2:-673.03235 3:-24.15151 4:-436.72958 5:-235.15692 
-0 -1 -0 -0 1 0 0 0 0 0 1:-934.5213 2:-673.0639 3:-22.235737 4:-446.31311 5:-118.47313 
-0 -1 -0 -0 0 0 0 0 0 0 1:-934.52252 2:-673.05579 3:-25.071569 4:-416.65445 5:-240.7581 
-0 -1 -0 -0 0 0 0 0 0 0 1:-934.52258 2:-673.07153 3:-25.622456 4:-404.75818 5:-244.07693 
-0 -1 -0 -0 0 0 0 0 0 0 1:-934.52252 2:-673.03644 3:-24.382927 4:-431.43695 5:-236.21114 
-0 -1 -0 -0 0 0 0 0 0 0 1:-934.52258 2:-673.07056 3:-25.588026 4:-405.50168 5:-243.86951 
-0 -1 -0 -0 1 0 0 0 0 0 1:-934.52106 2:-673.06116 3:-21.540016 4:-455.27341 5:-94.10244 
-0 -1 -0 -0 0 0 0 0 0 0 1:-934.52264 2:-673.06696 3:-25.450268 4:-408.38788 5:-242.64136 
-0 -1 -0 -0 0 0 0 0 0 0 1:-934.52264 2:-673.06201 3:-25.278116 4:-412.10547 5:-241.60423 
-0 -1 -0 -0 0 0 0 0 0 0 1:-924.52246 2:-673.03235 3:-24.132401 4:-436.94666 5:-234.39084 
-0 -1 -0 -0 0 0 0 0 0 0 1:-934.52258 2:-673.06659 3:-25.450304 4:-408.47577 5:-243.03979 
-0 -1 -0 -0 0 0 0 0 0 0 1:-924.52075 2:-673.03351 3:-20.080948 4:-482.96933 5:-71.982346 
-0 -1 -0 -0 1 0 0 0 0 0 1:-934.52264 2:-673.06891 3:-25.519129 4:-406.90085 5:-243.05621 
-0 -1 -0.03176158841215684 -0 1 0 0 0 0 0 1:-934.5213 2:-673.08038 3:-22.687315 4:-435.28082 5:-117.03528 
-0 -1 -0 -0 0 0 0 0 0 0 1:-942.52081 2:-673.03107 3:-19.297773 4:-490.96719 5:-37.842781 
-5.194122086220165e-06 -1 -0 -0 0 0 0 0 0 0 1:-924.52148 2:-673.03339 3:-21.686205 4:-464.64603 5:-135.93436 
-0 -1 -0 -0 0 0 0 0 0 0 1:-934.52087 2:-673.0451 3:-20.75984 4:-469.86264 5:-81.989113 
-0 -1 -0 -0 0 0 0 0 0 0 1:-934.52264 2:-673.07941 3:-25.897898 4:-398.81003 5:-245.73634 
-0 -1 -0 -0 0 0 0 0 0 0 1:-924.52246 2:-673.03235 3:-24.15151 4:-436.72958 5:-235.15692 
-0 -1 -0 -0 0 0 0 0 0 0 1:-924.521 2:-673.03339 3:-20.596935 4:-477.10794 5:-92.666367 
-0 -1 -0 -0 1 0 0 0 0 0 1:-934.52264 2:-673.07483 3:-25.725712 4:-402.43973 5:-244.30078 
-0 -1 -0 -0 0.9572790621392168 0 0 0 0 0 1:-942.52252 2:-673.0448 3:-19.296375 4:-487.53995 5:-22.303429 
-0 -1 -0 -0 0 0 0 0 0 0 1:-934.52258 2:-673.0755 3:-25.721956 4:-402.21826 5:-243.37448 
-0 -1 -0 -0 0 0 0 0 0 0 1:-934.52258 2:-673.04529 3:-24.692801 4:-424.74527 5:-238.07797 
-0 -1 -0 -0 0 0 0 0 0 0 1:-934.52258 2:-673.06171 3:-25.278152 4:-412.19336 5:-242.00267 
-2.812591649743239e-08 -1 -0 -0 0 0 0 0 0 0 1:-924.52081 2:-673.03387 3:-20.100023 4:-482.66434 5:-72.349907 
-0 -1 -0 -0 0 0 0 0 0 0 1:-934.52069 2:-673.04425 3:-20.228533 4:-476.25046 5:-61.863667 
-0 -1 -0 -0 0 0 0 0 0 0 1:-934.52069 2:-673.03571 3:-19.975956 4:-482.20297 5:-61.896622 
-0 -1 -0 -0 0 0 0 0 0 0 1:-924.52094 2:-673.03339 3:-20.463161 4:-478.62756 5:-87.303902 
-0 -1 -0 -0 0 0 0 0 0 0 1:-934.52246 2:-673.03705 3:-24.417393 4:-430.78131 5:-236.817 
-0 -1 -0 -0 0 0 0 0 0 0 1:-934.52252 2:-673.04889 3:-24.830557 4:-421.85907 5:-239.30612 
-0 -1 -0 -0 0 0 0 0 0 0 1:-924.52246 2:-673.03235 3:-24.132401 4:-436.94666 5:-234.39084 
-0 -1 -0 -0 0 0 0 0 0 0 1:-934.52069 2:-673.05017 3:-20.511557 4:-470.92099 5:-66.172531 
-0 -1 -0 -0 0 0 0 0 0 0 1:-924.52057 2:-673.03363 3:-19.641405 4:-487.96237 5:-54.362556 
-0 -1 -0 -0 0 0 0 0 0 0 1:-924.52246 2:-673.03235 3:-24.132401 4:-436.94666 5:-234.39084 
-0 -1 -0 -0 1 0 0 0 0 0 1:-934.52106 2:-673.07007 3:-21.754337 4:-449.66718 5:-92.138885 
-6.322386857985747e-07 -1 -0 -0 0 0 0 0 0 0 1:-924.52252 2:-673.03265 3:-24.151474 4:-436.64166 5:-234.75839 
-0 -1 -0 -0 0 0 0 0 0 0 1:-924.52081 2:-673.03345 3:-20.272055 4:-480.79846 5:-79.643127 
-0 -1 -0 -0 0 0 0 0 0 0 1:-934.52258 2:-673.06171 3:-25.278152 4:-412.19336 5:-242.00267 
-0 -1 -0 -0 0 0 0 0 0 0 1:-934.52252 2:-673.0423 3:-24.58951 4:-426.97583 5:-237.45569 
-0 -1 -1 -0 -0 1 0.009875031839227683 0 0 0 1:-942.53186 2:-673.11768 3:-19.269867 4:-469.58755 5:61.035397 
-0 -1 -0 -0 -1 0.01834897061778499 0 0 0 0 1:-934.52094 2:-673.07642 3:-21.521339 4:-450.11121 5:-75.365196 
-0 -1 -0 -0 -1 0 0 0 0 0 1:-934.5213 2:-673.07935 3:-22.767548 4:-434.7218 5:-121.42429 
-0 -1 -0 -0 -1 0 0 0 0 0 1:-934.52087 2:-673.04883 3:-20.691063 4:-469.4101 5:-74.919792 
-0 -1 -1 -0 -0 1 0.004096938610192381 0 0 0 1:-942.53186 2:-673.11768 3:-19.269867 4:-469.58755 5:61.035397 
-0 -1 -1 -0 -0 1 0 0 0 0 1:-942.53186 2:-673.11768 3:-19.269867 4:-469.58755 5:61.035397 
-0 -1 -0 -0 -1 0 0 0 0 0 1:-934.52264 2:-673.03906 3:-24.451715 4:-429.77414 5:-235.82909 
-0 -1 -0 -0 -1 0 0 0 0 0 1:-934.52087 2:-673.06287 3:-21.188478 4:-458.65018 5:-78.061989 
-0 -1 -0 -0 -1 0 0 0 0 0 1:-934.52191 2:-673.06311 3:-23.745512 4:-429.25104 5:-179.39168 
-1.910380135060084e-05 -1 -0 -0.00387805645374522 -0.06359764877405119 0 0.002297311375928132 0.0001325468809817713 6.621803404005387e-10 1.247312285594531e-06 1:-727.5285 2:-673.14954 3:-21.963652 4:-450.10925 5:-78.583702 
-0 -1 -0 -0 -1 0 0 0 0 0 1:-934.52264 2:-673.05847 3:-25.14036 4:-414.99164 5:-240.37605 
-0 -1 -1 -0 -0 1 0 0 0 0 1:-942.53186 2:-673.11768 3:-19.269867 4:-469.58755 5:61.035397 
-0 -1 -0.09837284994728543 -0 -1 1 0 0 0 0 1:-942.52704 2:-673.08002 3:-19.273691 4:-478.99109 5:18.402685 
-0 -1 -0.3281188320545123 -0.00133125972230235 -1 0 0.00241668512610481 0 0 0 1:-934.52264 2:-673.07526 3:-25.57279 4:-404.08853 5:-237.7737 
-0 -1 -0 -0 -1 0 0 0 0 0 1:-934.5213 2:-673.07837 3:-22.656675 4:-436.33368 5:-118.15255 
-0 -1 -1 -0 -0 1 0 0 0 0 1:-942.53186 2:-673.11768 3:-19.269867 4:-469.58755 5:61.035397 
-0 -1 -0 -0 -1 0 0 0 0 0 1:-934.52234 2:-673.06226 3:-24.571024 4:-420.13773 5:-213.25932 
-0 -1 -1 -0.9094972640567871 -1 1 0 0 0 0 1:-942.53186 2:-673.11768 3:-19.269869 4:-469.58759 5:61.035328 
-0 -1 -1 -0 -0 1 0 0 0 0 1:-942.53186 2:-673.11768 3:-19.269867 4:-469.58755 5:61.035397 
-0 -1 -1 -0 -0.5991059881241713 1 0 0 0 0 1:-942.53186 2:-673.11768 3:-19.269867 4:-469.58755 5:61.035397 
-0 -1 -1 -0 -0 1 0 0 0 0 1:-942.53186 2:-673.11768 3:-19.269867 4:-469.58755 5:61.035397 
-0 -1 -0 -0 -1 0 0 0 0 0 1:-934.52142 2:-673.04962 3:-22.193293 4:-451.81723 5:-133.58736 
-0 -0 -0 -0 -0 -0 0 0 6.570846552124371e-10 6.92627587464984e-07 1:-942.53186 2:-673.11761 3:-19.270157 4:-469.58148 5:60.920567 
-0 -0 -1 -0 -0 -0 0 0 0 0 1:-942.53192 2:-673.11884 3:-19.306421 4:-468.94012 5:61.398022 
-6.472190982102362e-06 -1 -1 -0 -0.002128791910590687 -0.1172798530916173 0.001902600999863525 1.752414498601356e-05 0 1.571989798596948e-07 1:-942.526 2:-673.07153 3:-19.274563 4:-481.09076 5:8.7964115 
-0 -0 -1 -0 -0 -0 0 0 0 0 1:-942.53192 2:-673.11884 3:-19.306421 4:-468.94012 5:61.398022 
-0 -0 -1 -0 -0 -0 0 0 0 0 1:-942.53192 2:-673.11884 3:-19.306421 4:-468.94012 5:61.398022 
-0 -0 -1 -0 -0 -0 0 0 0 0 1:-942.53668 2:-673.32526 3:-25.01619 4:-354.35706 5:143.83868 
-0 -0 -1 -0 -0 -0 0 0 0 0 1:-942.53192 2:-673.11884 3:-19.306421 4:-468.94012 5:61.398022 
-0 -0 -0.3228664821108725 -0 -0 -0 0 0 0 0 1:-942.53186 2:-673.11768 3:-19.269827 4:-469.57721 5:60.991566 
-0 -0 -1 -0 -0 -0 0 0 0 0 1:-942.53577 2:-673.25769 3:-23.803911 4:-392.17487 5:117.72439 
-0 -0 -1 -0 -0 -0 0 0 0 0 1:-942.53186 2:-673.11768 3:-19.269894 4:-469.57816 5:60.99144 
-0 -0 -1 -0 -0 -0 0 0 0 0 1:-942.53192 2:-673.11884 3:-19.306421 4:-468.94012 5:61.398022 
-0 -0 -0 -0 -0 -0.9743762681934621 0 0 0 0 1:-942.53186 2:-673.11761 3:-19.27014 4:-469.58151 5:60.920666 
-0 -0 -1 -0 -0 -0 0 0 0 0 1:-942.53192 2:-673.11884 3:-19.306421 4:-468.94012 5:61.398022 
-0 -0 -1 -0 -0 -0.352853785424592 0 0 0 0 1:-942.53186 2:-673.11768 3:-19.269863 4:-469.56384 5:60.938267 
-0 -0 -1 -0 -0 -0 0 0 0 0 1:-942.53192 2:-673.11884 3:-19.306421 4:-468.94012 5:61.398022 
-0 -0 -1 -0 -0 -0 0 0 0 0 1:-942.54071 2:-673.43933 3:-29.647671 4:-292.22556 5:192.4814 
-0 -0.1932574450832084 -1 -0 -0 -1 0 0 0 0 1:-942.52753 2:-673.08356 3:-19.273336 4:-478.10254 5:22.343233 
-0 -0 -1 -0 -0 -0 0 0 0 0 1:-942.53076 2:-673.10889 3:-19.270773 4:-471.77509 5:51.030586 
-0 -0 -1 -0 -0 -0 0 0 0 0 1:-942.53192 2:-673.11884 3:-19.306421 4:-468.94012 5:61.398022 
-0 -0 -1 -0 -0 -0 0 0 0 0 1:-942.54089 2:-673.44281 3:-29.80047 4:-289.81931 5:192.82414 
-0 -0 -0 -0 -0 -0.9982724927458609 0 0 0 0 1:-942.53186 2:-673.11761 3:-19.27014 4:-469.58151 5:60.920666 
-0 -0 -0.3147748962682133 -0 -0 -0 0 0 0 0 1:-942.53186 2:-673.11761 3:-19.27014 4:-469.58151 5:60.920666 
-0 -0 -1 -0 -0 -0 0 0 0 0 1:-942.53192 2:-673.11884 3:-19.306421 4:-468.94012 5:61.398022 
-0 -0 -0 -0 -0 -0.01276038923053103 0 0 0 0 1:-942.52423 2:-673.11755 3:-11.281702 4:-469.16037 5:60.880138 
-0 -0 -0 -0 -0 -1 0 0 0 0 1:-942.53186 2:-673.11768 3:-19.269857 4:-469.57715 5:60.991405 
-0 -0 -1 -0 -0 -0 0 0 0 0 1:-942.53192 2:-673.11884 3:-19.306442 4:-468.94043 5:61.397984 
-0 -0 -1 -0 -0 -0 0 0 0 0 1:-942.53186 2:-673.11768 3:-19.269836 4:-469.57733 5:60.991547 
-0 -0 -0 -0 -0 -0 3.492374625951189e-08 0 0 0 1:-901.99139 2:-672.51361 3:41274.867 4:1708.9529 5:-149.00627 
-0 -0 -1 -0.1024951920881005 -0 -0 0 0 0 0 1:-942.53436 2:-673.20825 3:-22.193523 4:-419.61469 5:97.930199 
-0 -0 -1 -0 -0 -0 0 0 0 0 1:-942.53192 2:-673.11884 3:-19.306421 4:-468.94012 5:61.398022 
-0 -0 -1 -0 -0 -0 0 0 0 0 1:-942.53192 2:-673.11884 3:-19.306421 4:-468.94012 5:61.398022 
-0 -0 -0 -0.4536968246687871 -0 -0 0 0 0 0 1:-942.53186 2:-673.11768 3:-19.269827 4:-469.57721 5:60.991566 
-0 -0 -1 -0 -0 -0 0 0 0 0 1:-942.53192 2:-673.11884 3:-19.30645 4:-468.94052 5:61.397972 
-0 -0 -1 -0 -0 -0 0 0 0 0 1:-942.53082 2:-673.10925 3:-19.270739 4:-471.68719 5:51.429028 
-0 -0 -1 -0 -0 -0 0 0 0 0 1:-942.53192 2:-673.11884 3:-19.306421 4:-468.94012 5:61.398022 
-0 -0 -1 -0 -0 -0.1658294539847787 0 0 0 0 1:-942.53192 2:-673.11884 3:-19.306444 4:-468.94049 5:61.397984 
-0 -5.763015486651516e-07 -0 -0 -0 -0 0 0 0 0 1:-903.08331 2:-672.53033 3:40134.52 4:1648.8364 5:-143.22139 
-0 -0 -1 -0.6348710033325888 -0 -0 0 0 0 0 1:-942.53589 2:-673.26318 3:-24.003757 4:-388.72324 5:118.60646 
-0 -0 -0 -0 -0 -0.6088442312684594 0 0 0 0 1:-942.53186 2:-673.11761 3:-19.27014 4:-469.58151 5:60.920666 
-0 -0 -0 -0 -0 -1 0 0 0 0 1:-942.53186 2:-673.11761 3:-19.27014 4:-469.58151 5:60.920666 
-9.942302053050004e-08 -0.03937499207965164 -1 -0.0672188241518341 -0 -0 0.0005582270272323801 0 0 6.304547575189936e-08 1:-942.54156 2:-673.46765 3:-30.604891 4:-276.08878 5:202.89851 
-0 -0 -1 -0.9737313242918579 -0 -0 0 0 0 0 1:-942.53192 2:-673.11884 3:-19.306421 4:-468.94012 5:61.398022 
-0 -0 -1 -0 -0 -0.9388232132669118 0 0 0 0 1:-942.53186 2:-673.11768 3:-19.269863 4:-469.56384 5:60.938267 
-0 -0 -1 -0 -0 -0 0 0 0 0 1:-942.53192 2:-673.11884 3:-19.306421 4:-468.94012 5:61.398022 
-0 -0 -0.5356436516420762 -0 -0 -0 0 0 0 0 1:-942.53046 2:-673.20557 3:-18.144676 4:-420.35068 5:95.261345 
-0 -0 -1 -0 -0 -0 0 0 0 0 1:-942.53192 2:-673.11884 3:-19.306421 4:-468.94012 5:61.398022 
-0 -0 -0 -0 -0 -1 0 0 0 0 1:-942.53192 2:-673.11884 3:-19.306456 4:-468.94064 5:61.397995 
-0 -0 -1 -0 -0 -0 0 0 0 0 1:-942.53192 2:-673.11884 3:-19.306452 4:-468.94058 5:61.397968 
-0 -0 -0 -0 -0 -0.8493092834115714 0 0 0 0 1:-942.53186 2:-673.11761 3:-19.27014 4:-469.58151 5:60.920666 
-0 -0 -1 -0 -0 -0 0 0 0 0 1:-942.53192 2:-673.11884 3:-19.306421 4:-468.94012 5:61.398022 
-0 -0 -1 -0 -0 -0 0 0 0 0 1:-942.53192 2:-673.11884 3:-19.306421 4:-468.94012 5:61.398022 
-0 -0 -0 -0 -0 -0 0 0 0 8.765118837516295e-11 1:-937.90717 2:-673.06445 3:3766.1594 4:-268.43198 5:41.201347 
-0 -0 -0 -0 -0 -1 0 0 0 0 1:-942.53186 2:-673.11768 3:-19.269857 4:-469.57715 5:60.991405 
-0 -0 -0 -0.05120677150897522 -0 -0 0 0 0 0 1:-942.52997 2:-673.18634 3:-17.523081 4:-430.96072 5:87.476639 
-0 -0 -1 -0 -0 -0 0 0 0 0 1:-942.53186 2:-673.11768 3:-19.269833 4:-469.57727 5:60.991554 
-0 -0 -1 -0 -0 -0 0 0 0 0 1:-942.53192 2:-673.11884 3:-19.306421 4:-468.94012 5:61.398022 
-8.067476023780201e-06 -0 -0.0004570383536397251 -0 -0 -0 -0 0 6.577454078636126e-10 0 1:-914.53516 2:-673.24823 3:-26.434048 4:-355.91605 5:-45.665665 
-0 -0 -6.255191988836763e-05 -0 -0 -0 -0 0 0 0 1:-914.53381 2:-673.22137 3:-23.351608 4:-398.22702 5:37.645794 
-0 -1 -0.001970500135237048 -0 -0.0006586795103274056 -0.01868596695145297 -0 2.047407725893053e-05 0 9.483980260641171e-07 1:-914.53259 2:-673.13452 3:-20.9377 4:-448.65549 5:7.4569068 
-0 -0.8288897460745493 -6.173788616174967e-05 -0 -0 -0 -0.002460862950842164 0 0 0 1:-914.53296 2:-673.17822 3:-21.495947 4:-430.88242 5:48.931656 
-0 -0 -0 -0.00287999465045224 -0 -0 -0 0 0 0 1:-914.5351 2:-673.28461 3:-26.054781 4:-350.68512 5:22.177998 
-2.103481483083344e-07 -1 -0 -0 -0 -0 -0 -0 5.704081922606441e-08 8.422621801716741e-07 1:280.24313 2:1777.5093 3:-20.407782 4:-461.2493 5:14.811847 
-0 -1 -0 -0 -9.410582674435123e-08 -0 -0 -0 0 0 1:-608.52087 2:-673.13336 3:-20.324551 4:-483.61902 5:-69.426147 
-0 -1 -0 -0 -0 -0 -0 -0 0 0 1:-608.52069 2:-673.13354 3:-19.789454 4:-489.69748 5:-47.975983 
-0 -1 -0 -0 -0 -0 -0 -0 0 0 1:6102.4873 2:-675.25281 3:-14.791295 4:-482.12192 5:-67.103287 
-0 -1 -1.412315562537758e-05 -1.691677289920359e-05 -0 -0 -1.752414498601356e-05 -2.047407725893053e-05 0 0.2364089995466497 1:-608.52075 2:-673.13678 3:-19.726566 4:-489.58582 5:-41.167603 
-0.000714314131867739 -1 -3.766896376225021e-06 -0 -1.993379791559782e-05 -0.0001325468809817713 -0 -0 0 0 1:-608.5213 2:-673.13794 3:-20.54818 4:-479.89951 5:-72.515221 
-0 -0.04895635279541796 -0 -0 -0 -0 -0 -0 5.990166593909358e-10 6.763191081312801e-05 1:5130483.5 2:-2291.7571 3:110.34029 4:-336.41867 5:63.81987 
-9.709400791386036e-08 -0 -0 -0 -0 -0 -0 -0 0 0 1:5134737.5 2:-2293.0964 3:118.45004 4:-338.62622 5:68.888344 
-0 -1 -0 -0 -0 -0 -0 -0 0 0.06633793682090594 1:-608.52063 2:-673.13361 3:-19.674789 4:-491.00003 5:-43.379555 
-0 -1 -0 -0 -0 -0 -0 -0 -0 6.933611370039894e-10 1:53600.062 2:7623.666 3:-77.093422 4:-402.13715 5:-128.46077 
-0 -1 -0 -0 -0 -0 -0 -0 -0 0 1:53600.07 2:7623.7275 3:-73.717155 4:-456.11707 5:-63.387989 
-0 -1 -0 -0 -0 -0 -0 -0 -0 0 1:53600.062 2:7623.6641 3:-77.162277 4:-400.6503 5:-128.87569 
-0 -1 -0 -0 -0 -0 -0 -0 -0 0 1:53600.07 2:7623.7236 3:-73.819405 4:-453.97781 5:-60.957569 
-0 -1 -0 -0 -0 -0 -0 -0 -0 0 1:53600.062 2:7623.665 3:-77.127846 4:-401.3938 5:-128.66824 
-0 -0 -0 -0 -0 -0 -0 -0 -9.253114195525953e-10 0 1:53600.07 2:7623.7393 3:-73.068611 4:-466.48608 5:-50.888088 
-0 -1 -0 -0 -0 -0 -0 -0 -0 0 1:53600.059 2:7623.6616 3:-77.235405 4:-399.40189 5:-127.95974 
-0 -1 -0 -0 -0 -0 -0 -0 -0 0 1:53600.059 2:7623.6621 3:-77.233269 4:-399.28262 5:-128.62517 
-0 -0.04708144451855753 -0 -0 -0 -0 -0 -0 -0 0 1:53600.062 2:7623.667 3:-77.056854 4:-402.76151 5:-128.91882 
-0 -1 -0 -0 -0 -0 -0 -0 -0 0 1:53600.059 2:7623.6616 3:-77.235413 4:-399.40189 5:-127.9597 
-0 -1 -0 -0 -0 -0 -0 -0 -0 0 1:53600.07 2:7623.7246 3:-73.826302 4:-454.1395 5:-63.872776 
-0 -1 -0 -0 -0 -0 -0 -0 -0 0 1:53600.062 2:7623.666 3:-77.093422 4:-402.13715 5:-128.46077 
-0 -1 -0 -0 -0 -0 -0 -0 -0 0 1:53600.059 2:7623.6641 3:-77.164413 4:-400.76953 5:-128.21021 
-0 -1 -6.570794603142509e-10 -6.570381251155336e-10 -0 -0 -0 -0 -3.455314827062445e-08 0 1:53600.07 2:7623.7378 3:-73.099327 4:-465.60919 5:-50.567226 
-0 -0 -0 -0 -0 -0 -0 -6.577454078636126e-10 -0 0 1:53600.062 2:7623.6699 3:-76.734154 4:-407.18341 5:-116.67995 
-0 -0 -0 -0 -0 -6.570846552124371e-10 -6.570846552124371e-10 -0 -2.216137619527815e-08 0 1:53600.074 2:7623.7446 3:-72.763412 4:-471.36557 5:-45.005939 
-6.819606843227779e-10 -0 -0 -0 -0 -5.095685188101598e-12 -0 -0 -0 0 1:53600.059 2:7623.6553 3:-77.448395 4:-395.29898 5:-127.20825 
-0 -1 -0 -0 -6.572738828510367e-10 -0 -0 -0 -0 0 1:53600.059 2:7623.6616 3:-77.235405 4:-399.40201 5:-127.9595 
-9.961930160252034e-06 -1 -8.552712713493415e-07 -9.160916263141617e-07 -0 -0 -9.129596942649533e-07 -5.569962813211896e-07 -0 -0 1:537.46692 2:-673.60559 3:-21.58675 4:-453.72995 5:55.627785 
-0 -1 -5.74468755343007e-08 -4.229654490378934e-09 -9.356922530726928e-07 -1.247312285594531e-06 -0 -3.914017447429276e-07 -0.3028154105405481 -6.933611370039894e-10 1:537.47882 2:-673.49506 3:-20.694824 4:-491.89743 5:-40.422577 
