svm_type c_svc
kernel_type linear
nr_class 11
total_sv 450
rho 2685.74 -2.53917 -2.50502 -2.44161 -3.42331 -2.42615 -2.63403 -0.619549 -0.999317 -1.40047 -907.67 -131.118 -57.5389 -615.7 -430.619 -354.643 -2258.25 -5120.55 -6.76601 13172.6 381.065 1909.7 -676.631 66.3718 4.48871 -0.962552 0.273454 -6.08449 -627.326 -1325.6 67.72 2.92254 -0.962513 0.247485 84.1512 3.96087 2.71157 4.87139 -0.962815 0.26391 18.2643 20.3011 2.85252 -0.970135 0.140993 38.2002 3.83937 -0.962529 0.277516 2.58562 -0.963549 0.249517 -1.60178 -222.544 1.01588 
label 4 0 3 13 9 14 8 6 20 11 5 
nr_sv 12 120 94 47 69 22 54 4 9 17 2 
SV 
0 0 0 0 0 0 0 0 6.819570530726257e-10 2.171571317858914e-08 1:89.448006 2:-674.51996 3:-61.31889 4:283.06866 5:-6.0624886 6:0.92614269 
1 0 0 0 0 0 0 0 0 0 1:89.464249 2:-673.60974 3:-27.375696 4:-344.3732 5:20.038364 6:-46.644211 
1 0 0 0 0 0 0 2.819983231118799e-05 0 9.943195059957645e-06 1:89.467216 2:-673.46216 3:-21.068295 4:-455.30426 5:56.129845 6:-40.847286 
1 0 0 0 0 0 0 0 0 0 1:89.463356 2:-673.57703 3:-29.655176 4:-326.89578 5:-117.78535 6:-107.19865 
0 0 8.375574691880576e-07 0 0 0 2.708023082286317e-07 0 0 0 1:-422.54788 2:-674.20673 3:-55.519516 4:182.60497 5:-12.199779 6:20.601233 
1 6.847449628797427e-06 6.232736457858847e-06 6.247594392113796e-06 1.677856550236894e-05 6.189727001432644e-06 7.766348863719684e-06 0 0 0 1:-422.53577 2:-673.37744 3:-27.887724 4:-351.50128 5:-122.30978 6:-111.54267 
0.4511749750854872 0 0 0 0 0 0 0 0 0 1:89.463058 2:-673.66876 3:-29.898657 4:-300.00076 5:5.6017632 6:-48.962982 
1 0 0 0 0 0 0 4.476574544357031e-06 0 0 1:89.465492 2:-673.44592 3:-25.253494 4:-411.68903 5:-133.31633 6:-122.22945 
1 0 0 0 0 0 0 0 0 0 1:89.462807 2:-673.61084 3:-30.791094 4:-305.01364 5:-113.77735 6:-103.31974 
1 0 0 0 0 0 0 0 0 0 1:89.463051 2:-673.59607 3:-30.29413 4:-314.58707 5:-115.53085 6:-105.01676 
0 0 0 0 0 0 0 3.370838250814355e-07 0 0 1:89.451775 2:-674.50378 3:-57.613132 4:236.64578 5:123.03591 6:108.74244 
1 0 0 0 0 0 0 0 0 0 1:89.462669 2:-673.61932 3:-31.075073 4:-299.54312 5:-112.77535 6:-102.35001 
-0 0 0 1 0 0 0 0 0 0 1:-942.52252 2:-673.02783 3:-24.169432 4:-435.94012 5:-235.08597 6:108.25362 
-1 0 0 0.3196805418439826 0.2204308914739029 0 0.01673957827965666 0 0 0 1:-426.54834 2:-670.22614 3:-56.423981 4:198.2926 5:-21.57053 6:-14.084814 
-0 0 0 0 1 0 0 0 0 0 1:-942.52094 2:-673.03107 3:-19.471727 4:-488.9505 5:-44.767395 6:180.31711 
-0 0 0 1 0 0 0 0 0 0 1:-942.52246 2:-673.02655 3:-24.05859 4:-437.63898 5:-232.21281 6:110.47195 
-0 0 0 0.1805454016603577 0 0 0 0 0 0 1:-909.52057 2:-673.04041 3:-19.346565 4:-490.87628 5:-39.722733 6:189.00746 
-0 0 0 1 0 0 0 1 0 0 1:-942.52045 2:-673.02795 3:-19.280931 4:-491.91107 5:-40.693108 6:191.78381 
-0 0 0 0 1 0 0 0 0 0 1:-942.52979 2:-673.09003 3:-24.374622 4:-417.74478 5:-171.64851 6:-36.38076 
-0 0 0 1 0 0 0 0 0 0 1:-942.52094 2:-673.02795 3:-20.42754 4:-478.79861 5:-86.259033 6:171.35612 
-0 0 0 0.9175112320328442 0 0 0 0 0 0 1:-908.49335 2:-586.05273 3:-19.753107 4:-482.08932 5:-41.535065 6:185.88406 
-0 0 0 1 0 0 0 0 0 0 1:-942.52246 2:-673.02747 3:-24.169462 4:-436.02728 5:-235.48485 6:109.16647 
-0 0 0 0.1942207522839928 0 0 0 0 0 0 1:-846.4942 2:-644.05872 3:-1.4393312 4:-490.28311 5:-41.524448 6:189.31917 
-0 0 0 1 0 0 0 0 0 0 1:-942.52264 2:-673.02887 3:-24.169327 4:-435.67691 5:-233.89047 6:105.51556 
-0 0 0 0 1 0 0 0 0 0 1:-942.52063 2:-673.0296 3:-19.355682 4:-490.67081 5:-41.808636 6:186.82387 
-1 0 0 0 0 0 0 0 0 0 1:-837.53387 2:-673.14941 3:-24.052647 4:-416.35434 5:-126.84223 6:-119.75351 
-0 0 0 1 0 0 0 0 0 0 1:-942.52252 2:-673.02783 3:-24.169432 4:-435.94012 5:-235.08597 6:108.25362 
-0 0 0 0 0 0 0 0 0.6045308743794641 0 1:-732.22369 2:310.81451 3:-24.486433 4:-411.62173 5:-133.45894 6:-122.47649 
-0.6640762828288473 0 0 0 0 0 0 0 0 0.8863315682832428 1:-795.53204 2:-673.16852 3:-19.557167 4:-467.04999 5:62.61409 6:-39.076561 
-0 0 0 1 0 0 0 0 0 0 1:-942.52252 2:-673.02783 3:-24.169432 4:-435.94012 5:-235.08597 6:108.25363 
-0 0 0 1 0 0 0 0 0 0 1:-942.52246 2:-673.02692 3:-23.982117 4:-438.42017 5:-228.74963 6:110.8601 
-0 0 0 1 0 0 0 0 0 0 1:-942.52258 2:-673.02856 3:-24.169365 4:-435.76465 5:-234.28905 6:106.42799 
-0 0 0 1 0 0 0 0 0 0 1:-942.52264 2:-673.02887 3:-24.169327 4:-435.67688 5:-233.89046 6:105.51551 
-0 0 0 0 0 0 0.7930570019305424 0 0 0 1:-912.53198 2:-673.12811 3:-19.412758 4:-468.0578 5:58.028919 6:-41.113976 
-0 0 0 0 0 0 0 0 0 0.0001416333994520612 1:-932.51306 2:-636.065 3:-19.289953 4:-483.39343 5:-2.4089978 6:104.13718 
-0 0 0 0 0 0 0 0.2471503816697377 0 0 1:-942.52051 2:-673.02826 3:-19.300013 4:-491.60681 5:-41.060421 6:190.54558 
-0 0 0 1 0 0 0 0 0 0 1:-942.52246 2:-673.02747 3:-24.169466 4:-436.02719 5:-235.48505 6:109.16614 
-1 0 0 0 0 0 0 0 0 0 1:-837.53387 2:-673.14941 3:-24.052647 4:-416.35434 5:-126.84223 6:-119.75351 
-0 0 0 1 0 0 0 0 0 0 1:-942.52087 2:-673.02765 3:-20.351128 4:-479.75418 5:-83.593391 6:173.57005 
-0 0 0 0 0.5350561910193935 0 0 0 0 0 1:-942.53363 2:-673.11615 3:-23.38065 4:-422.91626 5:-104.19624 6:-109.95182 
-0 0 0 1 0 0 0 0 0 0 1:-942.52252 2:-673.02783 3:-24.169432 4:-435.94012 5:-235.08597 6:108.25363 
-0 0 0 0 0 0 0 0 0.2712520189020836 0 1:87439.43 2:-700.95551 3:-106.76438 4:-448.05994 5:-95.09623 6:115.00668 
-0.0254472026952479 0 0 0 0 0 0 0.5732746477430931 1 0.01345355768829357 1:174394.38 2:-728.43066 3:-188.95634 4:-450.32458 5:-14.478048 6:-75.527245 
-0 0 0 0.7038306875962294 0 0 0 0 0 0 1:-942.52106 2:-673.02869 3:-20.38925 4:-479.05737 5:-83.929832 6:170.18115 
-0 0 0 1 1 0 0 0 0 0 1:-942.52075 2:-673.0285 3:-19.777744 4:-486.09195 5:-59.813835 6:181.50171 
-0 1 0.004621860735262932 0 1 0.01549060958985115 0 0 0 0.3156142799409291 1:-941.52472 2:-673.10547 3:-21.022167 4:-456.03162 5:6.0482874 6:142.85947 
-0 0 0 1 0 0 0 0 0 0 1:-733.52112 2:-673.09528 3:-20.472403 4:-480.22583 5:-78.560387 6:171.17238 
-0 0 0 1 0 0 0 0 0 0 1:-942.52252 2:-673.02783 3:-24.169432 4:-435.94012 5:-235.08597 6:108.25364 
-0 0 0 0 1 0 0 0 0 0 1:-942.52441 2:-673.05084 3:-21.552715 4:-460.1908 5:-105.16058 6:91.932892 
-0 0 0 1 0 0 0 0 0 0 1:-942.52246 2:-673.03046 3:-24.272757 4:-433.7966 5:-236.10715 6:109.15082 
-0 0 0 1 0 0 0 0 0 0 1:-942.52258 2:-673.0282 3:-24.169397 4:-435.85245 5:-234.68747 6:107.3408 
-0 0 0 1 0 0 0 0 0 0 1:-942.52081 2:-673.02881 3:-19.892374 4:-484.70166 5:-64.011826 6:178.63759 
-0 0 0 0 0 0 0 0 1 0 1:-714.38867 2:-212.19728 3:-24.695438 4:-407.06497 5:-135.81552 6:-122.74158 
-0 0 0 1 0 0 0 0 0 0 1:-942.52258 2:-673.0282 3:-24.169399 4:-435.85245 5:-234.6875 6:107.34071 
-0 0 0 1 0 0 0 0 0 0 1:-942.52246 2:-673.02747 3:-24.16946 4:-436.02731 5:-235.48474 6:109.16662 
-0 0 0 1 0 0.1801622536931659 0 1 0 0 1:-942.52045 2:-673.02795 3:-19.280931 4:-491.91107 5:-40.693108 6:191.78381 
-0 0 0 0 0 0 0 0.0436500852541082 1 0 1:160823.53 2:53599.852 3:-179.47307 4:-401.7735 5:-5.9001365 6:100.82436 
-0 0 0 1 0 0 0 0 0 0 1:-942.52051 2:-673.02863 3:-19.31909 4:-491.30206 5:-41.427952 6:189.30757 
-0 0 0 0 1 0 0 0 0 0 1:-912.53192 2:-673.12695 3:-19.433533 4:-468.0303 5:55.270939 6:-42.337627 
-1 0 0 0 0 0 0 0 0 0 1:-829.53326 2:-673.21973 3:-22.208244 4:-419.79547 5:45.253941 6:-42.386005 
-0 0 0 1 1 0 0 0 0 0 1:-942.52075 2:-673.02966 3:-20.095108 4:-481.95773 5:-70.985435 6:179.08949 
-0 0 0 1 0 0 0 0 0 0 1:-900.50793 2:-631.06592 3:-20.198294 4:-474.94031 5:-41.900944 6:184.08372 
-0 0 0 1 0 0 0 0 0 0 1:-942.52252 2:-673.02783 3:-24.169432 4:-435.94012 5:-235.08598 6:108.25366 
-0 0 0.006391474994330253 0 0 0 0 0 0 0 1:-933.52063 2:-637.12024 3:-19.455267 4:-467.55551 5:53.648476 6:-42.984852 
-0 0 0 1 0 0 0 1 0 0 1:-761.52057 2:-673.08679 3:-19.488913 4:-491.15186 5:-39.5308 6:191.07207 
-0 0 0 1 0 0 0 0 0 0 1:-942.52246 2:-673.02747 3:-24.169464 4:-436.02722 5:-235.48494 6:109.16629 
-0.7371740472434516 0 0 0 0 0 0 0 0 0 1:-837.53381 2:-673.15161 3:-23.875198 4:-417.80887 5:-116.63257 6:-115.28284 
-0 0 0 1 0 0 0 0 0 0 1:-942.52252 2:-673.02783 3:-24.169432 4:-435.94009 5:-235.08603 6:108.2535 
-0 0 0 0 0.1189997848466167 0 0 0 0 0 1:-906.52319 2:-673.05737 3:-20.307083 4:-476.02322 5:-59.830502 6:127.38067 
-0.00113849108967422 0 0 0 0 0 0 0 0 0 1:-942.52417 2:-673.04089 3:-24.168118 4:-432.68906 5:-220.34364 6:74.485977 
-0 0.9064372165574895 0 0 1 0 0 0 0 0 1:-942.53021 2:-673.12518 3:-24.030891 4:-412.75662 5:-107.478 6:-19.108135 
-0.8701265563829186 0 0 0 0 0 0 0 0 0 1:-837.53381 2:-673.15161 3:-23.875198 4:-417.80887 5:-116.63257 6:-115.28284 
-0 0 0 0 0 0 0 0 0.1367485460779867 0 1:-899.52063 2:-630.21051 3:-26.977106 4:-353.72549 5:-149.65131 6:-122.51094 
-0 1 0 1 1 0 0 0 0 0 1:-942.52057 2:-673.03137 3:-19.558323 4:-487.75903 5:-47.146282 6:188.1813 
-0 0 0 1 1 0 0 0 0 0 1:-942.52191 2:-673.02765 3:-22.606115 4:-453.96292 5:-173.19336 6:133.36531 
-0 0 0 1 0 0 0 0 0 0 1:-942.52081 2:-673.02881 3:-19.854153 4:-485.13583 5:-62.479679 6:179.2881 
-0 0 0 0 1 0 0 0 0 0 1:-942.53052 2:-673.08954 3:-24.12866 4:-421.04071 5:-163.95697 6:-54.19038 
-0 0 0 0 0 0 0 0 1 0 1:-609.61505 2:24434.75 3:-26.697151 4:-377.62265 5:-122.65106 6:-123.81276 
-0 1 0 0 0 1 0 0 0 0 1:-942.52734 2:-673.08191 3:-19.293818 4:-478.2265 5:19.633606 6:51.804523 
-0 0 0 1 0 0 0 0 0 0 1:-942.52252 2:-673.02783 3:-24.169432 4:-435.94012 5:-235.08597 6:108.25362 
-0 0 0 1 0 0 0 0 0 0 1:-942.52264 2:-673.02887 3:-24.169331 4:-435.67682 5:-233.89066 6:105.51523 
-0 0 0 0 1 0 0 0 0 0 1:-942.52094 2:-673.02954 3:-19.911413 4:-484.30893 5:-63.98098 6:176.48703 
-5.376972349970137e-07 4.585791063890954e-06 0 0 9.029328626176144e-05 0.0002522772951346133 6.939242318214999e-08 0 0 3.771554102888004e-06 1:-764.88385 2:-567.68097 3:32997.699 4:1272.7916 5:-107.18127 6:48.987659 
-0 0 0 1 0 0 0 1 0 0 1:-942.52045 2:-673.02795 3:-19.280931 4:-491.91107 5:-40.693108 6:191.78381 
-0 0 0 1 0 0 0 0 0 0 1:-942.52246 2:-673.02747 3:-24.169462 4:-436.02728 5:-235.48483 6:109.16642 
-0 0 0 1 0 0 0 0 0 0 1:-942.52179 2:-673.02698 3:-22.587069 4:-454.35486 5:-173.22458 6:135.51627 
-0 0 0 1 0 0 0 0 0 0 1:-942.52246 2:-673.02747 3:-24.16946 4:-436.02731 5:-235.48474 6:109.16667 
-0 0 0.001396375369203101 0 1 0 0 0 0 0 1:-912.53192 2:-673.12695 3:-19.337978 4:-469.11581 5:59.10141 6:-40.711407 
-0 0 0 1 0 0 0 0 0 0.7000552870619502 1:-911.52063 2:-673.039 3:-19.746033 4:-486.49265 5:-56.608078 6:184.00275 
-0 0 0 1 0 0 0 0 0 0 1:-942.5224 2:-673.02655 3:-23.982143 4:-438.50745 5:-229.14827 6:111.77334 
-0 0 0 0.07743779078040577 0 0 0 0 0 0 1:-426.51978 2:-669.20081 3:-20.133526 4:-485.17941 5:-40.881729 6:187.74324 
-0 0 0 0 1 0 0 0 0 0 1:-942.53131 2:-673.10089 3:-22.656015 4:-435.03247 5:-92.616409 6:-57.436932 
-0 0 0 0 0 0 0 0 0 0.07691185391924722 1:-878.52234 2:-673.06311 3:-19.339361 4:-488.1756 5:-23.727314 6:153.41206 
-0 0 0 0 1 0 4.925399374314145e-06 0 0 0 1:-912.53192 2:-673.12695 3:-19.3762 4:-468.68149 5:57.569157 6:-41.361832 
-0 0 0 0 0 0 0 0 1 0 1:87439.422 2:-701.00464 3:-106.01932 4:-444.28336 5:-10.759558 6:-6.1829486 
-0 0 0 1 0 0 0 0 0 0 1:-942.521 2:-673.02832 3:-20.446617 4:-478.49384 5:-86.626694 6:170.11794 
-0 0 0 0 0 0 0 0 1 0 1:-709.42963 2:-342.18982 3:-24.378643 4:-413.9473 5:-134.00798 6:-122.69032 
-0 0 0 0 0 0 0 0 1 0 1:-632.41046 2:-281.21631 3:-24.528751 4:-412.49203 5:-133.7272 6:-122.45361 
-0 0 0 0.005508258294816385 0 0 0 0 0 0 1:-942.52258 2:-673.0282 3:-24.169397 4:-435.85248 5:-234.68742 6:107.34088 
-0 0 0 1 0 0 0 0 0 0 1:-942.52258 2:-673.0282 3:-24.169397 4:-435.85248 5:-234.68741 6:107.34086 
-0 0 0 0 0.4281438930686986 0 0 0 0 0 1:-942.52448 2:-673.04236 3:-24.056992 4:-433.68567 5:-214.28235 6:69.403404 
-0 0.05549840355575925 0 0 0.4517426559142567 0 0 0 0 0 1:-942.52075 2:-673.03027 3:-19.393833 4:-490.06097 5:-42.54388 6:184.34807 
-0 0 0 0 1 0 0 0 0 0 1:-908.52979 2:-673.11652 3:-19.990866 4:-464.26025 5:21.634438 6:1.3012452 
-0 0 0 1 0 0 0 0 0 0 1:-942.52209 2:-673.02832 3:-22.835373 4:-451.18228 5:-181.58934 6:127.63698 
-1 0 0 0 0 0 0 0 0 0 1:-837.53387 2:-673.14941 3:-24.052647 4:-416.35434 5:-126.84223 6:-119.75351 
-0 0 0 0 0 0 0.3576565451298638 0 0 0 1:-942.53339 2:-673.11633 3:-22.864655 4:-428.77771 5:-83.511848 6:-101.17018 
-0 0 0 1 0 0 0 0 0 0 1:-942.52191 2:-673.02692 3:-22.739954 4:-452.61816 5:-179.3532 6:132.91428 
-0 0 0 0 0 0 0 0.01813360777981434 0 0 1:-788.18512 2:-567.93945 3:9696.5098 4:22.511274 5:-80.498932 6:196.9767 
-0 0 0 1 0 0 0 0 0 0 1:-942.52057 2:-673.02783 3:-19.663143 4:-487.56934 5:-56.014702 6:185.27901 
-0 0 0 1 0 0 0 0 0 0 1:-942.52209 2:-673.0285 3:-23.04187 4:-448.66068 5:-189.48885 6:126.53044 
-0 0 0 0.3144571664466974 0 0 0 0 0 0 1:-942.52258 2:-673.0282 3:-24.169397 4:-435.85248 5:-234.68742 6:107.34087 
-0 0 0 1 0 0 0 0 0 0 1:-906.52051 2:-673.04181 3:-19.405256 4:-490.20914 5:-40.830227 6:190.75458 
-0 0 0 0 1 0 0 0 0 0 1:-942.52429 2:-673.08929 3:-25.484798 4:-404.85065 5:-200.87471 6:100.21629 
-0 0 0 0 1 0 0.09238023850898569 0 0 0 1:-912.53192 2:-673.12695 3:-19.3762 4:-468.68143 5:57.56913 6:-41.361801 
-0 0 0 1 0 0 0 0 0 0 1:-942.52051 2:-673.02863 3:-19.31909 4:-491.30206 5:-41.427952 6:189.30757 
-0 0 0 1 0 0 0 0 0 0 1:-942.52246 2:-673.02747 3:-24.169462 4:-436.02731 5:-235.48479 6:109.16657 
-0 0 0 0 0.2455362903908506 0 0 0 0 0 1:-942.521 2:-673.03174 3:-19.490767 4:-488.55768 5:-44.736568 6:178.16655 
-0 1 0 0 0 0 0 0 0 0 1:-942.52814 2:-673.08282 3:-20.803982 4:-460.75452 5:-39.352711 6:22.490263 
-0.1532118571480189 0 0 0 0 0 0 0 0 0 1:14933.458 2:-678.16119 3:-38.370216 4:-415.83176 5:-43.166611 6:-82.739929 
-1 0 0 0 0 0 0 0 0 0 1:-837.53387 2:-673.14941 3:-24.052647 4:-416.35434 5:-126.84223 6:-119.75351 
-0 0 0 0 0 0 0 0.1501896643195114 1 0 1:59984.602 2:-200.25864 3:-82.088966 4:-438.62463 5:-207.12918 6:84.328491 
-0 0 0 0 0 0 0 1 1 0.007488048152434712 1:58333.445 2:-691.75586 3:-77.668556 4:-466.53656 5:-75.079933 6:89.643967 
-0 0 0 0 0 0 0 0 0.3453149321022332 0 1:-622.78406 2:23898.754 3:-26.6709 4:-377.66479 5:-123.10492 6:-123.79276 
-0 0 0 1 0 0 0 0 0 0 1:-942.52246 2:-673.02692 3:-23.943895 4:-438.85437 5:-227.21744 6:111.51067 
-0 9.496785354752773e-05 0 1 0 0 0 1 0 0 1:-942.51923 2:-669.02899 3:-19.295784 4:-491.5134 5:-40.085785 6:190.49182 
-0 0 0 1 0 0 0 0 0 0 1:-942.5213 2:-673.0285 3:-21.019899 4:-471.89346 5:-109.2104 6:159.44801 
-0 0 0 1 0 0 0 0 0 0 1:-942.52246 2:-673.02655 3:-24.058586 4:-437.6391 5:-232.21259 6:110.47234 
-0 0 0.001723175768706556 0 0 0 0.009315699929510495 0 0 0 1:-899.5304 2:-630.74384 3:-44.77676 4:-17.336824 5:-60.204819 6:-51.794296 
-0 0 0 1 0 0 0 0 0 0 1:-942.5224 2:-673.02655 3:-23.943924 4:-438.94162 5:-227.61612 6:112.42383 
-0 0 0 0 1 0 0 0 0 0 1:-912.53192 2:-673.12695 3:-19.395309 4:-468.46445 5:56.803101 6:-41.687099 
-0 0 0 0 0 0 0 0 0.5147242634575723 0 1:41815.578 2:-296.53693 3:-61.463657 4:-449.85144 5:-146.6532 6:84.011192 
-0 0 0 1 0 0 0 0 0 0 1:-942.52057 2:-673.02783 3:-19.644033 4:-487.78641 5:-55.248615 6:185.60422 
-0 -0 0 0 0 0 0 0 6.570765865760746e-10 1.292281525506955e-07 1:-942.53577 2:-673.25769 3:-23.803984 4:-392.18143 5:117.75062 6:-9.3369331 
-0 -0 0 0 0 0.9759893831874614 0 0 0 0 1:-942.53345 2:-673.17523 3:-21.134773 4:-437.74182 5:84.321976 6:-27.405163 
-5.29497286277282e-06 -1 0 0 0 0 1.242953567592296e-05 0 0 3.382869406506867e-08 1:-942.52887 2:-673.10876 3:-22.814251 4:-430.74258 5:-81.633438 6:9.5824795 
-0 -0 0 0 0 0 9.978629676958957e-05 0 0 0 1:-942.53204 2:-673.1261 3:-19.630404 4:-463.23212 5:58.902313 6:-40.359932 
-0 -0 0 0 0 1 0 0 0 0 1:-942.53571 2:-673.25598 3:-23.727352 4:-393.38541 5:117.62417 6:-9.842473 
-0 -0 1 0 0 0 0 0 0 0 1:-942.54077 2:-673.43939 3:-29.69087 4:-291.69888 5:191.47681 6:30.512184 
-0 -0 1 0 0 0 0 0 0 0 1:-942.54059 2:-673.4353 3:-29.666059 4:-291.88873 5:182.94574 6:26.880463 
-0 -1 0 0.03093765165120207 0.4417391974000642 0 0 0 0 0 1:-942.52496 2:-673.06964 3:-20.0627 4:-473.05478 5:-19.59082 6:103.81763 
-0 -0 1 0 0 0 0 0 0 0 1:-942.54004 2:-673.41479 3:-29.024876 4:-302.78629 5:173.27158 6:21.847439 
-0 -0 0 0 1 1 0 0 0 0 1:-942.53192 2:-673.11981 3:-19.360037 4:-467.98041 5:60.423004 6:-40.115574 
-0 -0 0.2275836709948138 0 0 0 0 0 0 0 1:-942.5415 2:-673.47876 3:-31.487764 4:-259.90659 5:174.5231 6:26.049452 
-0 -0 0 0 0 0 2.768459779616566e-05 0 0 0 1:-942.5354 2:-673.25873 3:-24.340708 4:-381.94543 5:86.658447 6:-21.637236 
-0 -0 0.2507511214141051 0 0 0 0 0 0 0 1:-942.54022 2:-673.42175 3:-29.227234 4:-299.37222 5:177.42456 6:23.906261 
-0 -0 0 0 0 1 0 0 0 0 1:-942.53204 2:-673.12469 3:-19.506763 4:-465.58621 5:63.338871 6:-38.877052 
-0 -0 1 0 0 0 0 0 0 0 1:-942.54089 2:-673.44904 3:-30.300591 4:-281.10498 5:178.01178 6:25.655321 
-0 -0 0 0 0 1 0 0 0 0 1:-942.53564 2:-673.25427 3:-23.694239 4:-394.04785 5:116.35078 6:-10.083547 
-0 -0.86566525875886 0 0 0 0 0 0 0 0 1:-942.52551 2:-673.08423 3:-20.460238 4:-465.33344 5:-13.059616 6:99.645912 
-0 -0 0 0 0 0.5804882652363687 0 0 0 0 1:-942.53638 2:-673.27911 3:-24.498709 4:-380.32321 5:126.45122 6:-4.634243 
-0 -0 1 0 0 0 0 0 0 0 1:-942.54126 2:-673.46112 3:-30.466688 4:-277.84885 5:194.34485 6:32.9711 
-0 -0 1 0 0 0 0 0 0 0 1:-942.53992 2:-673.40894 3:-28.703629 4:-308.54999 5:179.11278 6:23.829412 
-0 -0 1 0 0 0 0 0 0 0 1:-942.54034 2:-673.42938 3:-29.457264 4:-295.20883 5:180.2202 6:24.785271 
-0 -0 0 0 1 1 0 0 0 0 1:-942.53198 2:-673.12109 3:-19.379356 4:-467.69498 5:62.411968 6:-39.287235 
-0 -0 1 0 0 0 0 0 0 0 1:-942.54114 2:-673.45367 3:-30.21714 4:-282.57587 5:193.13545 6:31.996292 
-0 -0 1 0 0 0 0 0 0 0 1:-942.54114 2:-673.45978 3:-30.67676 4:-274.16321 5:179.13747 6:26.790733 
-0 -0 0 0 0 1 0 0 0 0 1:-942.53522 2:-673.23737 3:-23.145821 4:-403.4155 5:109.50794 6:-13.792111 
-0 -0 1 0 0 0 0 0 0 0 1:-942.5412 2:-673.45801 3:-30.342152 4:-280.17709 5:195.06789 6:33.058998 
-0 -0 0 0 1 1 0 0 0 0 1:-942.53192 2:-673.11884 3:-19.30654 4:-468.94733 5:61.424438 6:-39.780804 
-0 -0 0 0 0 1 0 0 0 0 1:-942.53223 2:-673.13013 3:-19.67219 4:-462.70639 5:66.004776 6:-37.305576 
-0 -0 0 0 0 1 0 0 0 0 1:-942.53503 2:-673.23248 3:-22.95817 4:-406.46945 5:108.31731 6:-15.054076 
-0 -0 1 0 0 0 0 0 0 0 1:-942.54083 2:-673.44153 3:-29.780975 4:-290.11414 5:190.96117 6:30.429361 
-0 -0 1 0 0 0 0 0 0 0 1:-942.54004 2:-673.41479 3:-29.024824 4:-302.7804 5:173.24551 6:21.843355 
-0 -0 0 0 0 0 9.614487459463626e-05 0 0 0 1:-942.53418 2:-673.1958 3:-22.818336 4:-412.88931 5:46.842278 6:-41.815666 
-0 -0 1 0 0 0 0 0 0 0 1:-942.54095 2:-673.448 3:-30.034317 4:-285.69644 5:190.84583 6:30.758745 
-0 -0 0 0 0 1 0 0 0 0 1:-942.53522 2:-673.23737 3:-23.145823 4:-403.4155 5:109.50794 6:-13.792113 
-0 -1 0 0 0 0 0 0 0 0 1:-942.52856 2:-673.09747 3:-20.531796 4:-460.43164 5:-7.4046683 6:25.806953 
-0 -0 1 0 0 0 0 0 0 0 1:-942.54053 2:-673.42462 3:-29.578638 4:-295.68762 5:170.96803 6:21.114832 
-0 -0 0 0 0 1 0 0 0 0 1:-942.53284 2:-673.15155 3:-20.366917 4:-450.84824 5:74.705505 6:-32.602875 
-0 -0 0 0 0 1 0 0 0 0 1:-942.53198 2:-673.12091 3:-19.415758 4:-467.14536 5:60.142136 6:-40.188988 
-0 -0 0 0 1 0 0 0 0 0 1:-942.53198 2:-673.11993 3:-19.457769 4:-467.02078 5:57.286335 6:-41.484703 
-0 -0 0 0 0 1 0 0 0 0 1:-942.53583 2:-673.26105 3:-23.913677 4:-390.30905 5:119.12438 6:-8.5944071 
-0 -0 1 0 0 0 0 0 0 0 1:-942.5412 2:-673.46381 3:-30.508377 4:-276.03076 5:194.69011 6:33.42643 
-0 -0 1 0 0 0 0 0 0 0 1:-942.54028 2:-673.4248 3:-29.370932 4:-296.83276 5:175.96149 6:23.497196 
-0 -0 0 0 0 0 0.0009144274219279126 0 0 0 1:-942.53271 2:-673.13324 3:-21.051859 4:-445.52747 5:14.287005 6:-58.7104 
-0 -0 0 0 0 1 0 0 0 0 1:-942.53564 2:-673.25427 3:-23.694239 4:-394.04785 5:116.35078 6:-10.083547 
-0 -0 1 0 0 0 0 0 0 0 1:-942.53998 2:-673.41089 3:-28.810659 4:-306.62286 5:177.13966 6:23.164673 
-0 -0 0 0 0 0 1.840626163059475e-05 0 0 0 1:-942.53491 2:-673.22528 3:-24.035702 4:-392.24362 5:44.20776 6:-41.388168 
-0 -0 1 0 0 0 0 0 0 0 1:-942.53998 2:-673.41089 3:-28.810659 4:-306.62286 5:177.13965 6:23.164673 
-0 -0 0 0 0 1 0 0 0 0 1:-942.53192 2:-673.11993 3:-19.343105 4:-468.3233 5:61.882797 6:-39.533245 
-0 -0 0 0 1 1 0 0 0 5.506757307251101e-07 1:-942.53186 2:-673.11823 3:-19.266554 4:-469.52377 5:61.744617 6:-40.045994 
-0 -0 0 0 0 0 0.000197009675129667 0 0 0 1:-942.54132 2:-673.47388 3:-31.300114 4:-262.96054 5:173.33246 6:24.787487 
-0 -0 1 0 0 0 0 0 0 0 1:-942.54016 2:-673.42334 3:-29.309172 4:-297.66718 5:174.89043 6:22.395987 
-0 -0 1 0 0 0 0 0 0 0 1:-942.54071 2:-673.43372 3:-29.641823 4:-293.2998 5:183.82454 6:26.997896 
-0 -0 1 0 0 0 0 0 0 0 1:-942.54102 2:-673.46277 3:-30.53166 4:-274.76074 5:188.50035 6:31.007803 
-0 -1 0 0.1233725288268179 0 0 0 1.788408389707011e-05 0 0 1:-942.52148 2:-673.05585 3:-20.30913 4:-472.89877 5:-42.513744 6:178.3576 
-0 -0 0 0 0 1 0 0 0 0 1:-942.53308 2:-673.16058 3:-20.659435 4:-445.85532 5:78.368904 6:-30.622797 
-0 -0 0 0 0 0.04128954995808249 0 0 0 0 1:-942.52942 2:-673.17651 3:-22.491766 4:-424.75613 5:55.44519 6:86.704674 
-0 -0 1 0 0 0 0 0 0 0 1:-942.54108 2:-673.45337 3:-30.251093 4:-281.90289 5:190.27257 6:30.840624 
-0 -0 1 0 0 0 0 0 0 0 1:-942.54059 2:-673.4353 3:-29.666059 4:-291.88873 5:182.94574 6:26.880465 
-0 -0 1 0 0 0 0 0 0 0 1:-942.54108 2:-673.45044 3:-30.090467 4:-284.78473 5:193.19315 6:31.831606 
-0 -0 0 0 0 1 0 0 0 0 1:-942.53271 2:-673.14917 3:-20.310766 4:-451.75995 5:72.358047 6:-33.675758 
-0 -0 1 0 0 0 0 0 0 0 1:-942.54065 2:-673.43463 3:-29.578566 4:-293.52234 5:186.78217 6:28.366463 
-0 -0 0 0 0 1 0 0 0 0 1:-942.53345 2:-673.17554 3:-21.133059 4:-437.7182 5:84.711945 6:-27.413824 
-0 -0 0 0 0 1 0 0 0 0 1:-942.53198 2:-673.12219 3:-19.416235 4:-467.07516 5:62.799026 6:-39.038166 
-0 -0 0 0 0 1 0 0 0 0 1:-942.53387 2:-673.18994 3:-21.610062 4:-429.62244 5:90.24894 6:-24.191624 
-0 -0 1 0 0 0 0 0 0 0 1:-942.53992 2:-673.40765 3:-28.68404 4:-308.83759 5:177.22337 6:23.004061 
-0 -0 1 0 0 0 0 0 0 0 1:-942.53992 2:-673.40961 3:-28.791124 4:-306.91635 5:175.27629 6:22.343399 
-0 -0 1 0 0 0 0 0 0 0 1:-942.54095 2:-673.45508 3:-30.528419 4:-276.54617 5:176.66644 6:25.552185 
-0 -0 0 0 0 1 0 0 0 0 1:-942.5351 2:-673.23486 3:-23.030313 4:-405.20245 5:109.41981 6:-14.567866 
-0 -0 0 0 0 1 0 0 0 0 1:-942.53198 2:-673.12091 3:-19.396646 4:-467.36246 5:60.908211 6:-39.863743 
-0 -0 0 0 0 1 0 0 0 0 1:-942.53192 2:-673.11993 3:-19.343103 4:-468.32333 5:61.882893 6:-39.533207 
-0 -0 0 0 0 0.5289251766706379 0 0 0 0 1:-942.53583 2:-673.26105 3:-23.913677 4:-390.30908 5:119.1244 6:-8.5944023 
-0 -0 0.04317991812570898 0 0 0 0 0 0 0 1:-942.54022 2:-673.42603 3:-29.562847 4:-293.22318 5:166.83107 6:19.943262 
-1.896870730721888e-07 -0 0 0 0 0 0 0 0 0 1:-942.53284 2:-673.1377 3:-21.21447 4:-442.68594 5:14.829178 6:-58.301342 
-0 -0.09636991499899976 0 0 1 0 0 0 0 6.757576521009443e-08 1:-942.53229 2:-673.11743 3:-20.301817 4:-457.84595 5:19.631245 6:-57.592876 
-0 -0 0 0 0.5766752399320582 0 0 0 0 0 1:-942.53198 2:-673.11761 3:-19.46109 4:-467.40012 5:53.303783 6:-43.281151 
-0 -0 1 0 0 0 0 0 0 0 1:-942.54053 2:-673.43781 3:-29.820282 4:-288.64868 5:178.02904 6:25.131706 
-0 -0 1 0 0 0 0 0 0 0 1:-942.53992 2:-673.40894 3:-28.703627 4:-308.54999 5:179.11279 6:23.829414 
-0 -0 1 0 0 0 0 0 0 0 1:-942.54108 2:-673.45435 3:-30.304632 4:-280.94226 5:189.29903 6:30.510296 
-0 -0 1 0 0 0 0 0 0 0 1:-942.54077 2:-673.44208 3:-29.885447 4:-288.14404 5:185.6933 6:28.365522 
-1.362789692952417e-06 -0 0 0 0 0 0.0002028767704021107 0 0 0 1:-942.53467 2:-673.21393 3:-23.692547 4:-398.40424 5:39.244064 6:-43.929634 
-0 -0 0 0 0 0 0.0009243909672379989 0 0 0 1:-942.53223 2:-673.13177 3:-19.832336 4:-459.89484 5:60.427486 6:-39.447353 
-0 -0 1 0 0 0 0 0 0 0 1:-942.54059 2:-673.4353 3:-29.666059 4:-291.88873 5:182.94574 6:26.880465 
-0 -0 1 0 0 0 0 0 0 0 1:-942.54108 2:-673.45337 3:-30.251093 4:-281.90289 5:190.27255 6:30.840622 
-0 -0 0 0 0 1 0 0 0 0 1:-942.534 2:-673.19537 3:-21.750401 4:-427.04434 5:93.427826 6:-23.231504 
-0 -0 0 0 0.3124794481652836 0 0 0 0 0 1:-942.53198 2:-673.11987 3:-19.495991 4:-466.58658 5:55.754147 6:-42.135201 
-0 -0 1 0 0 0 0 0 0 0 1:-942.54077 2:-673.44385 3:-30.009506 4:-285.88632 5:182.31477 6:27.127029 
-0 -0 0 0 0 1 0 0 0 0 1:-942.53204 2:-673.12317 3:-19.469778 4:-466.11438 5:61.824818 6:-39.368618 
-0 -0 1 0 0 0 0 0 0 0 1:-942.54071 2:-673.43689 3:-29.651693 4:-292.27411 5:187.69803 6:28.861486 
-0 -0 1 0 0 0 0 0 0 0 1:-942.54071 2:-673.44312 3:-30.094339 4:-284.19794 5:175.13145 6:24.233757 
-0 -0 0 0 0 0 5.896443551467371e-05 0 0 0 1:-942.53314 2:-673.15607 3:-21.746664 4:-432.22574 5:21.721512 6:-54.309006 
-0 -0 1 0 0 0 0 0 0 0 1:-942.53949 2:-673.39697 3:-28.438442 4:-312.75281 5:166.26382 6:17.880192 
-0 -0 0 0 0 0 0 0 0 1.319908629514661e-07 1:-942.53253 2:-673.12354 3:-20.710066 4:-451.71979 5:12.927753 6:-59.854973 
-0 -0 1 0 0 0 0 0 0 0 1:-942.54059 2:-673.43726 3:-29.773142 4:-289.9675 5:180.99867 6:26.219807 
-0 -0 1 0 0 0 0 0 0 0 1:-942.5412 2:-673.45508 3:-30.219749 4:-282.62476 5:196.45628 6:33.399483 
-0 -0 -0 0 0 0 0 0 6.570380698580537e-10 0 1:-942.54779 2:-673.69336 3:-37.918083 4:-151.27151 5:294.414 6:86.199615 
-0 -0 -1 0 0 0.002290385750446589 0 0 0 0 1:-942.53986 2:-673.40668 3:-28.630388 4:-309.79251 5:178.17174 6:23.330391 
-0 -0 -0.3841611417440823 0 0 0 0 0 0 0 1:-942.54779 2:-673.69336 3:-37.918087 4:-151.27159 5:294.41443 6:86.199539 
-0 -0 -1 0 0 0 0 0 0 0 1:-941.53235 2:-673.14032 3:-20.19162 4:-453.40475 5:57.581646 6:-40.065533 
-0 -0 -1 0 0 0 0 0 0 0 1:-942.53644 2:-673.28247 3:-24.608307 4:-378.44504 5:127.79939 6:-3.8959522 
-0 -0 -1 0 0 0 0 0 0 0 1:-941.53253 2:-673.14514 3:-20.303959 4:-451.57996 5:62.276016 6:-37.919651 
-0 -0 -0.07545316281093312 0 0 0 0 0 0 0 1:-942.54779 2:-673.69336 3:-37.918087 4:-151.27159 5:294.41443 6:86.199539 
-0 -0 -0 0 0 0 0.0001123846471464655 0 0 0 1:-936.54266 2:-669.69458 3:-33.890362 4:-151.61429 5:294.55508 6:85.918091 
-0 -0 -1 0 0 0 0 0 0 0 1:-942.54028 2:-673.42133 3:-29.105728 4:-301.67902 5:184.12479 6:26.548019 
-0 -0 -1 0 0 0 0 0 0 0 1:-942.54779 2:-673.69336 3:-37.918087 4:-151.27156 5:294.41428 6:86.19957 
-0 -0 -1 0 0 0 0 0 0 0 1:-941.53278 2:-673.1604 3:-21.134703 4:-437.43219 5:49.568302 6:-42.189671 
-0 -0 -1 0 0 0 0 0 0 0 1:-942.53937 2:-673.38861 3:-28.045361 4:-319.77832 5:170.84489 6:19.370186 
-0 -0 -0.0619004059796019 0 0 0 0 0 0 0 1:-941.53284 2:-673.15179 3:-20.368265 4:-450.82016 5:74.516518 6:-32.635574 
-0 -0 -1 0 0 0.0006123556446649887 0 0 0 0 1:-942.54779 2:-673.69336 3:-37.91811 4:-151.27678 5:294.43637 6:86.20433 
-0 -0 -1 0 0 0 0 0 0 0 1:-942.54779 2:-673.69336 3:-37.918087 4:-151.27156 5:294.41428 6:86.199509 
-0 -0 -1 0 0 0 0 0 0 0 1:-942.54175 2:-673.47437 3:-30.824572 4:-272.34991 5:205.57652 6:38.182617 
-0 -0 -1 0 0 0 0 0 0 0 1:-942.54779 2:-673.69336 3:-37.918087 4:-151.27156 5:294.41425 6:86.19957 
-0 -0 -1 0 0 0.02239281802498622 0 0 0 0 1:-941.53229 2:-673.13263 3:-19.746344 4:-461.42508 5:66.8022 6:-36.844704 
-0 -0 -1 0 0 0 0 0 0 0 1:-941.53278 2:-673.15503 3:-20.666992 4:-445.2905 5:63.53516 6:-36.84779 
-0 -0 -1 0 0 0 0 0 0 0 1:-942.54779 2:-673.69336 3:-37.918087 4:-151.27156 5:294.41418 6:86.199577 
-0 -0 -1 0 0 0 0 0 0 0 1:-942.54779 2:-673.69336 3:-37.918087 4:-151.27156 5:294.41428 6:86.199509 
-0 -0 -1 0 0 0 0 0 0 0 1:-942.54779 2:-673.69336 3:-37.918087 4:-151.27158 5:294.41434 6:86.199539 
-0 -0 -1 0 0 0 0 0 0 0 1:-942.54779 2:-673.69336 3:-37.918087 4:-151.27158 5:294.41431 6:86.199562 
-0 -0 -1 0 0 1 0 0 0 0 1:-941.53223 2:-673.13037 3:-19.673529 4:-462.67758 5:65.815346 6:-37.338181 
-0 -0 -1 0 0 0 0 0 0 0 1:-942.54779 2:-673.69336 3:-37.918087 4:-151.27158 5:294.41437 6:86.199547 
-0 -0.009676011205389211 -0 0.0001204066762734652 0.001233299794436981 0 6.555689061507027e-05 1.460625520992583e-05 0 9.197277498752126e-07 1:-936.5213 2:-647.14441 3:-21.072104 4:-446.59726 5:48.921093 6:51.505543 
-0 -0 -1 0 0 0 0 0 0 0 1:-942.53857 2:-673.35925 3:-27.094685 4:-336.00525 5:158.93845 6:12.934935 
-0 -0 -1 0 0 0 0 0 0 0 1:-942.54779 2:-673.69336 3:-37.918087 4:-151.27158 5:294.41434 6:86.199562 
-0 -0 -1 0 0 0 0 0 0 0 1:-941.53387 2:-673.1958 3:-21.966345 4:-423.15869 5:81.452179 6:-27.359444 
-0 -0 -1 0 0 0 0 0 0 0 1:-942.54779 2:-673.69336 3:-37.91811 4:-151.27678 5:294.43637 6:86.20433 
-0 -0 -1 0 0 0 0 0 0 0 1:-941.5332 2:-673.16833 3:-20.967348 4:-440.44385 5:77.161217 6:-30.657984 
-0 -0 -1 0 0 0 0 0 0 0 1:-942.54779 2:-673.69336 3:-37.918087 4:-151.27158 5:294.41434 6:86.199554 
-0 -0 -1 0 0 0 0 0 0 0 1:-942.54779 2:-673.69336 3:-37.918087 4:-151.27156 5:294.41428 6:86.199509 
-0 -0 -1 0 0 0 0 0 0 0 1:-942.54779 2:-673.69336 3:-37.918087 4:-151.27158 5:294.41431 6:86.199562 
-0 -0 -1 0 0 0 0 0 0 0 1:-942.54779 2:-673.69336 3:-37.918087 4:-151.27158 5:294.41437 6:86.199539 
-0 -0 -1 0 0 0 0 0 0 0 1:-941.53284 2:-673.15924 3:-21.251028 4:-436.31949 5:42.981468 6:-45.039192 
-0 -0 -1 0 0 0 0 0 0 0 1:-942.53943 2:-673.39087 3:-28.118488 4:-318.53009 5:171.76076 6:19.865208 
-0 -0 -1 0 0 0 0 0 0 0 1:-941.53241 2:-673.13715 3:-19.89258 4:-458.92975 5:68.634857 6:-35.854671 
-0 -0 -1 0 0.8298497935089059 0.2071516931173392 0 0 0 0 1:-941.53192 2:-673.12006 3:-19.361101 4:-467.9538 5:60.330997 6:-40.145676 
-0 -0 -0 0 0 0.01082709549685658 0 0 0 0 1:-942.54773 2:-673.6911 3:-37.844982 4:-152.52507 5:293.52094 6:85.709244 
-0 -0 -1 0 0 0 0 0 0 0 1:-942.54779 2:-673.69336 3:-37.918087 4:-151.27159 5:294.41443 6:86.199539 
-0 -0 -1 0 0 0 0 0 0 0 1:-942.53845 2:-673.35474 3:-26.948429 4:-338.50171 5:157.10672 6:11.944879 
-0 -0 -1 0 0 0 0.0008577451429403985 0 0 0 1:-941.53339 2:-673.16229 3:-21.661495 4:-433.45877 5:38.965931 6:-47.109573 
-0 -0 -1 0 0 0 0 0 0 0 1:-942.54779 2:-673.69336 3:-37.918106 4:-151.27676 5:294.43634 6:86.204338 
-7.070293927046905e-06 -0.004456875662113633 -1 0 0 0 0.00176549153516917 0 0 0 1:-941.53656 2:-673.31122 3:-28.239069 4:-319.53729 5:-4.5314698 6:-56.057266 
-0 -0 -1 0 0 0.1359103581764465 0 0 0 0 1:-942.53485 2:-673.22491 3:-22.743525 4:-410.27487 5:104.44507 6:-16.519102 
-0 -0 -1 0 0 0 0 0 0 0 1:-941.53308 2:-673.16193 3:-20.697351 4:-445.2034 5:78.638023 6:-30.408003 
-0 -0 -0 -0 0 0 0 0 6.572692932199254e-10 0 1:-934.52258 2:-673.05023 3:-24.864952 4:-421.02768 5:-239.11511 6:108.11578 
-0 -1 -0 -0 0 0 0 1.667093395609248e-05 0 9.356915963082801e-07 1:-924.52045 2:-673.03375 3:-19.373856 4:-491.00159 5:-43.637466 6:190.446 
-2.361205807903498e-07 -1 -0.09081846164427389 -0.0001204066762734652 1 0.0003557294677397845 4.452138096667944e-05 0 0 0 1:-942.52258 2:-673.04517 3:-19.277229 4:-487.66913 5:-21.13883 6:147.9682 
-0 -1 -0 -0 0 0 0 0 0 0 1:-924.52246 2:-673.03235 3:-24.132401 4:-436.94666 5:-234.39084 6:109.45969 
-0 -1 -0 -0 0 0 0 0 0 0 1:-934.52094 2:-673.03949 3:-20.686996 4:-472.71625 5:-85.708656 6:172.25021 
-0 -1 -0 -0 0 0 0 0 0 0 1:-934.52258 2:-673.04626 3:-24.72723 4:-424.00177 5:-238.2854 6:108.13609 
-0 -1 -0 -0 0 0 0 0 0 0 1:-934.52252 2:-673.04132 3:-24.555079 4:-427.71936 5:-237.24826 6:108.16148 
-0 -1 -0 -0 0 0 0 0 0 0 1:-942.4776 2:-540.02863 3:-18.312222 4:-491.35355 5:-40.719082 6:190.54836 
-0 -1 -0 -0 0 0 0 0 0 0 1:-934.52252 2:-673.03149 3:-24.210775 4:-435.15454 5:-235.174 6:108.21227 
-0 -1 -0 -0 0 0 0 0 0 0 1:-924.521 2:-673.03333 3:-20.673378 4:-476.23959 5:-95.730759 6:168.32925 
-0 -1 -0 -0 0 0 0 0 0 0 1:-924.52246 2:-673.03235 3:-24.132401 4:-436.94666 5:-234.39084 6:109.45969 
-0 -1 -0 -0 0 0 0 0 0 0 1:-942.5224 2:-673.0437 3:-19.277372 4:-488.02066 5:-22.732576 6:151.6187 
-0 -1 -0 -0 0 0 0 0 0 0 1:-934.52252 2:-673.039 3:-24.486254 4:-429.29425 5:-237.23184 6:109.08427 
-0 -1 -0 -0 0 0 0 0 0 0 1:-924.52063 2:-673.03363 3:-19.756067 4:-486.65982 5:-58.959023 6:183.94107 
-0 -0 -0 -0 0.5229597911518373 0 0 0 0 0 1:-934.52264 2:-673.06598 3:-25.415838 4:-409.13141 5:-242.43393 6:108.03454 
-0 -1 -0 -0 0 0 0 0 0 0 1:-934.52258 2:-673.05316 3:-24.968243 4:-418.79712 5:-239.73738 6:108.10055 
-0 -1 -0 -0 0 0 0 0 0 0 1:-934.52258 2:-673.04431 3:-24.658369 4:-425.4888 5:-237.87054 6:108.14625 
-0 -1 -0 -0 0 0 0 0 0 0 1:-924.52246 2:-673.03235 3:-24.132401 4:-436.94666 5:-234.39084 6:109.45969 
-0 -1 -0 -0 0 0 0 0 0 0 1:-924.52246 2:-673.03235 3:-24.132401 4:-436.94666 5:-234.39084 6:109.45969 
-0 -1 -0 -0 0 0 0 0 0 0 1:-924.52246 2:-673.03235 3:-24.132401 4:-436.94666 5:-234.39084 6:109.45969 
-0 -1 -0 -0 0 0 0 1.151133328993034e-06 0 0 1:-924.52197 2:-673.03345 3:-22.699032 4:-453.05249 5:-176.13805 6:132.02766 
-0 -0.7131918309393427 -0 -0 0 0 0 0 0 0 1:-934.52258 2:-673.06464 3:-25.381443 4:-409.9628 5:-242.62494 6:108.95225 
-0 -1 -0 -0 0 0 0 0 0 0 1:-924.52081 2:-673.03345 3:-20.252945 4:-481.01553 5:-78.877045 6:175.48468 
-0 -1 -0 -0 0 0 0 0 0 0 1:-934.52252 2:-673.0459 3:-24.727266 4:-424.08963 5:-238.68384 6:109.04872 
-0 -1 -0 -0 1 0 0 0 0 0 1:-934.52264 2:-673.06403 3:-25.346977 4:-410.61844 5:-242.01909 6:108.04469 
-0 -0 -0.03888357559079281 -0 1 0 0 0 0 0 1:-934.52081 2:-673.07611 3:-21.3876 4:-451.71872 5:-70.401115 6:181.81973 
-0 -1 -0 -0 0 0 0 0 0 0 1:-924.52075 2:-673.03351 3:-20.061838 4:-483.18643 5:-71.21627 6:178.73714 
-0 -1 -0 -0 0 0 0 0 0 0 1:-924.52075 2:-673.03351 3:-20.061838 4:-483.18643 5:-71.21627 6:178.73714 
-0 -1 -0 -0 0 0 0 0 0 0 1:-934.52057 2:-673.04138 3:-19.876804 4:-481.30313 5:-51.282379 6:188.11404 
-0 -1 -0 -0 0 0 0 0 0 0 1:-924.52112 2:-673.03326 3:-20.902704 4:-473.63455 5:-104.92369 6:164.4263 
-0 -1 -0 -0 0 0 0 2.206915960134775e-06 0 0 1:-924.52246 2:-673.03235 3:-24.15151 4:-436.72958 5:-235.15692 6:109.13445 
-0 -1 -0 -0 0 0 0 0 0 0 1:-924.52124 2:-673.03357 3:-21.074665 4:-471.59286 5:-111.41988 6:160.58623 
-0 -1 -0 -0 0 0 0 0 0 0 1:-924.52057 2:-673.03369 3:-19.584072 4:-488.61362 5:-52.064323 6:186.86829 
-0 -1 -0 -0 0 0 0 0 0 0 1:-924.52094 2:-673.03339 3:-20.463161 4:-478.62756 5:-87.303902 6:171.90697 
-0 -1 -0 -0 0 0 0 0 0 0 1:-924.521 2:-673.03333 3:-20.673378 4:-476.23959 5:-95.730759 6:168.32925 
-0 -1 -0 -0 0 0 0 0 0 0 1:-934.52069 2:-673.04816 3:-20.423586 4:-472.62509 5:-64.991608 6:182.87454 
-0 -1 -0 -0 0 0 0 0 0 0 1:-934.52252 2:-673.04132 3:-24.555079 4:-427.71936 5:-237.24826 6:108.16148 
-0 -0 -0 -0 1 0 0 0 0 0 1:-934.52258 2:-673.07446 3:-25.725746 4:-402.52762 5:-244.6992 6:108.90147 
-0 -1 -0 -0 0 0 0 0 0 0 1:-934.52258 2:-673.06366 3:-25.347013 4:-410.7063 5:-242.41751 6:108.95732 
-0 -1 -0 -0 0 0 0 0 0 0 1:-924.52246 2:-673.03235 3:-24.132401 4:-436.94666 5:-234.39084 6:109.45969 
-0 -1 -0 -0 0 0 0 0 0 0 1:-924.52069 2:-673.03357 3:-19.966284 4:-484.27185 5:-67.38588 6:180.36337 
-0 -1 -0 -0 0 0 0 0 0 0 1:-934.52252 2:-673.04102 3:-24.555115 4:-427.80722 5:-237.6467 6:109.07411 
-0 -0 -0 -0 1 0 0 0 0 0 1:-934.52112 2:-673.07495 3:-22.002932 4:-445.08124 5:-96.240334 6:170.76645 
-0 -0 -0.02460814324295321 -0 0 0 0 0 0 0 1:-934.52057 2:-673.07098 3:-20.77594 4:-460.51721 5:-52.142639 6:190.23843 
-0 -1 -0 -0 0 0 0 0 0 0 1:-924.52246 2:-673.03235 3:-24.15151 4:-436.72958 5:-235.15692 6:109.13445 
-0 -0 -0 -0 1 0 0 0 0 0 1:-934.5213 2:-673.0639 3:-22.235737 4:-446.31311 5:-118.47313 6:160.41441 
-0 -1 -0 -0 0 0 0 0 0 0 1:-934.52252 2:-673.03644 3:-24.382927 4:-431.43695 5:-236.21114 6:108.18687 
-0 -1 -0 -0 0 0 0 0 0 0 1:-924.52246 2:-673.03235 3:-24.132401 4:-436.94666 5:-234.39084 6:109.45969 
-0 -1 -0 -0 0 0 0 0 0 0 1:-924.52075 2:-673.03351 3:-20.080948 4:-482.96933 5:-71.982346 6:178.4119 
-0 -0 -0 -0 1 0 0 0 0 0 1:-934.5213 2:-673.08038 3:-22.687315 4:-435.28082 5:-117.03528 6:163.51744 
-0 -1 -0 -0 0 0 0 0 0 0 1:-942.52081 2:-673.03107 3:-19.297773 4:-490.96719 5:-37.842781 6:184.1483 
-0 -1 -0 -0 0.8248203244910558 0 0 0 0 0 1:-924.52148 2:-673.03339 3:-21.686205 4:-464.64603 5:-135.93436 6:150.17834 
-0 -1 -0 -0 0 0 0 0 0 0 1:-924.52246 2:-673.03235 3:-24.15151 4:-436.72958 5:-235.15692 6:109.13445 
-0 -1 -0 -0 0 0 0 0 0 0 1:-924.521 2:-673.03339 3:-20.596935 4:-477.10794 5:-92.666367 6:169.63 
-0 -0 -0 -0 1 0 0 0 0 0 1:-934.52264 2:-673.07483 3:-25.725712 4:-402.43973 5:-244.30078 6:107.98884 
-0 -1 -0 -0 0.4886699277425253 0 0 0 0 0 1:-942.52252 2:-673.0448 3:-19.296375 4:-487.53995 5:-22.303429 6:148.55595 
-0 -1 -0 -0 0 0 0 0 0 0 1:-934.52258 2:-673.06171 3:-25.278152 4:-412.19336 5:-242.00267 6:108.96748 
-0 -1 -0 -0 0 0 0 0 0 0 1:-924.52081 2:-673.03387 3:-20.100023 4:-482.66434 5:-72.349907 6:177.17378 
-0 -1 -0 -0 0 0 0 0 0 0 1:-934.52069 2:-673.03571 3:-19.975956 4:-482.20297 5:-61.896622 6:182.02792 
-0 -1 -0 -0 0 0 0 0 0 0 1:-924.52094 2:-673.03339 3:-20.463161 4:-478.62756 5:-87.303902 6:171.90697 
-0 -1 -0 -0 1 0 0 0 0 0 1:-934.52252 2:-673.04889 3:-24.830557 4:-421.85907 5:-239.30612 6:109.03349 
-0 -1 -0 -0 0 0 0 0 0 0 1:-924.52246 2:-673.03235 3:-24.132401 4:-436.94666 5:-234.39084 6:109.45969 
-0 -1 -0 -0 0 0 0 0 0 0 1:-924.52057 2:-673.03363 3:-19.641405 4:-487.96237 5:-54.362556 6:185.89255 
-0 -1 -0 -0 0 0 0 0 0 0 1:-924.52246 2:-673.03235 3:-24.132401 4:-436.94666 5:-234.39084 6:109.45969 
-0 -0 -0 -0 0.6129279491827743 0 0 0 0 0 1:-934.52106 2:-673.07007 3:-21.754337 4:-449.66718 5:-92.138885 6:172.0928 
-6.011473811323445e-06 -1 -0 -0 0 0 0 0 0 0 1:-924.52252 2:-673.03265 3:-24.151474 4:-436.64166 5:-234.75839 6:108.22158 
-0 -1 -0 -0 0 0 0 0 0 0 1:-924.52081 2:-673.03345 3:-20.272055 4:-480.79846 5:-79.643127 6:175.15942 
-0 -1 -0 -0 0 0 0 0 0 0 1:-934.52258 2:-673.06171 3:-25.278152 4:-412.19336 5:-242.00267 6:108.96748 
-0 -1 -0 -0 0 0 0 0 0 0 1:-934.52252 2:-673.0423 3:-24.58951 4:-426.97583 5:-237.45569 6:108.15641 
-0 -1 -0.04605821690831326 -0 -0 1 0.001392034744968647 0 0 0 1:-942.53186 2:-673.11768 3:-19.269867 4:-469.58755 5:61.035397 6:-40.006042 
-0 -1 -0 -0 -1 0.01206152795415043 0 0 0 0 1:-934.52094 2:-673.07642 3:-21.521339 4:-450.11121 5:-75.365196 6:178.63031 
-0 -1 -0 -0 -1 0 0 0 0 0 1:-934.5213 2:-673.07935 3:-22.767548 4:-434.7218 5:-121.42429 6:161.57097 
-0 -1 -0 -0 -1 0 0 2.102871266155902e-06 0 0 1:-934.52087 2:-673.04883 3:-20.691063 4:-469.4101 5:-74.919792 6:176.49576 
-0 -1 -1 -0 -0 1 6.822694745746427e-05 0 0 0 1:-942.53186 2:-673.11768 3:-19.269867 4:-469.58755 5:61.035397 6:-40.006042 
-0 -1 -1 -0.826664092522671 -0 1 0 0 0 0 1:-942.53186 2:-673.11768 3:-19.269867 4:-469.58755 5:61.035397 6:-40.006042 
-0 -1 -0 -0 -1 0 0 0 0 0 1:-934.52264 2:-673.03906 3:-24.451715 4:-429.77414 5:-235.82909 6:106.35139 
-0 -1 -0 -0 -1 0 0 0 0 0 1:-934.52087 2:-673.06287 3:-21.188478 4:-458.65018 5:-78.061989 6:178.5701 
-0 -1 -0 -0 -1 0 0 0 0 0 1:-934.52191 2:-673.06311 3:-23.745512 4:-429.25104 5:-179.39168 6:135.63251 
-1.677856550236894e-05 -1 -0 -0.00369336097079584 -0 0 0.0002254500408134936 4.654921962929518e-05 6.621824035373851e-10 1.2410660705012e-06 1:-727.5285 2:-673.14954 3:-21.963652 4:-450.10925 5:-78.583702 6:8.9088268 
-0 -1 -0 -0 -1 0 0 0 0 0 1:-934.52264 2:-673.05847 3:-25.14036 4:-414.99164 5:-240.37605 6:107.16245 
-0 -1 -1 -0 -0 1 0 0 0 0 1:-942.53186 2:-673.11768 3:-19.269867 4:-469.58755 5:61.035397 6:-40.006042 
-0 -1 -0 -0 -0.4493779925681899 1 0 0 0 0 1:-942.52704 2:-673.08002 3:-19.273691 4:-478.99109 5:18.402685 6:57.644844 
-0 -1 -0.284835668589094 -0.0007256398098760434 -1 0 3.369014414162703e-05 0 0 0 1:-934.52264 2:-673.07526 3:-25.57279 4:-404.08853 5:-237.7737 6:109.6781 
-0 -1 -0 -0 -1 0 0 0 0 0 1:-934.5213 2:-673.07837 3:-22.656675 4:-436.33368 5:-118.15255 6:162.87703 
-0 -1 -1 -0 -0 1 0 0 0 0 1:-942.53186 2:-673.11768 3:-19.269867 4:-469.58755 5:61.035397 6:-40.006042 
-0 -1 -0 -0 -1 0 0 0 0 0 1:-934.52234 2:-673.06226 3:-24.571024 4:-420.13773 5:-213.25932 6:120.08888 
-0 -1 -0 -0 -0 1 0 0 0 0 1:-942.53186 2:-673.11768 3:-19.269869 4:-469.58759 5:61.035328 6:-40.006081 
-0 -1 -1 -0 -0 1 0 0 0 0 1:-942.53186 2:-673.11768 3:-19.269867 4:-469.58755 5:61.035397 6:-40.006042 
-0 -1 -1 -0 -0 1 0 0 0 0 1:-942.53186 2:-673.11768 3:-19.269867 4:-469.58755 5:61.035397 6:-40.006042 
-0 -1 -1 -0 -0 1 0 0 0 0 1:-942.53186 2:-673.11768 3:-19.269867 4:-469.58755 5:61.035397 6:-40.006042 
-0 -1 -0 -0 -1 0 0 0 0 0 1:-934.52142 2:-673.04962 3:-22.193293 4:-451.81723 5:-133.58736 6:153.91739 
-0 -0 -0 -0 -0 -0 0 0 6.57080123488169e-10 8.805750580932714e-07 1:-942.53186 2:-673.11761 3:-19.270157 4:-469.58148 5:60.920567 6:-40.01403 
-0 -0 -0 -0 -0 -0 0.0005537695152556844 0 0 0 1:-942.53186 2:-673.11761 3:-19.270163 4:-469.58148 5:60.92054 6:-40.014038 
-0 -0 -1 -0 -0 -0 0 0 0 0 1:-942.53192 2:-673.11884 3:-19.306421 4:-468.94012 5:61.398022 6:-39.784042 
-0 -1 -0 -4.264175743482802e-05 -0.0003557294677397845 -0.09822786194741939 5.601995734631047e-07 1.589664438575994e-05 0 0 1:-942.526 2:-673.07153 3:-19.274563 4:-481.09076 5:8.7964115 6:79.537163 
-0 -0 -0.2767195267756669 -0 -0 -0 0 0 0 0 1:-942.53192 2:-673.11884 3:-19.306421 4:-468.94012 5:61.398022 6:-39.784042 
-0 -0 -1 -0 -0 -0 0 0 0 0 1:-942.53192 2:-673.11884 3:-19.306421 4:-468.94012 5:61.398022 6:-39.784042 
-0 -0 -1 -0 -0 -0 0 0 0 0 1:-942.53668 2:-673.32526 3:-25.01619 4:-354.35706 5:143.83868 6:4.9558911 
-0 -0 -1 -0 -0 -0 0 0 0 0 1:-942.53192 2:-673.11884 3:-19.306421 4:-468.94012 5:61.398022 6:-39.784042 
-0 -0 -1 -0 -0 -0 0 0 0 0 1:-942.53577 2:-673.25769 3:-23.803911 4:-392.17487 5:117.72439 6:-9.3406506 
-0 -0 -1 -0.2061091733424007 -0 -0 0 0 0 0 1:-942.53186 2:-673.11768 3:-19.269894 4:-469.57816 5:60.99144 6:-40.016949 
-0 -0 -1 -0 -0 -0 0 0 0 0 1:-942.53192 2:-673.11884 3:-19.306421 4:-468.94012 5:61.398022 6:-39.784042 
-0 -0 -1 -0 -0 -0 0 0 0 0 1:-942.53192 2:-673.11884 3:-19.306421 4:-468.94012 5:61.398022 6:-39.784042 
-2.716833876646684e-06 -0 -0 -0 -0 -0 0 0 0 0 1:-942.53186 2:-673.11768 3:-19.269863 4:-469.56384 5:60.938267 6:-40.031906 
-0 -0 -0 -0 -0 -0.1320735576742853 0 0 0 0 1:-942.53186 2:-673.11768 3:-19.269838 4:-469.57718 5:60.991508 6:-40.015591 
-0 -0 -1 -0 -0 -0 0 0 0 0 1:-942.53192 2:-673.11884 3:-19.306421 4:-468.94012 5:61.398022 6:-39.784042 
-0 -0 -1 -0 -0 -0 0 0 0 0 1:-942.54071 2:-673.43933 3:-29.647671 4:-292.22556 5:192.4814 6:30.228355 
-0 -0.1937631043372933 -0 -0 -0 -1 0 0 0 0 1:-942.52753 2:-673.08356 3:-19.273336 4:-478.10254 5:22.343233 6:48.508156 
-0 -0 -1 -0 -0 -0 0 0 0 0 1:-942.53192 2:-673.11884 3:-19.306421 4:-468.94012 5:61.398022 6:-39.784042 
-0 -0 -1 -0 -0 -0 0 0 0 0 1:-942.54089 2:-673.44281 3:-29.80047 4:-289.81931 5:192.82414 6:31.251471 
-3.472893124785961e-06 -0 -0 -0 -0 -0 1.161966636688757e-06 0 0 0 1:-942.53186 2:-673.11761 3:-19.270163 4:-469.58148 5:60.92054 6:-40.014038 
-0 -0 -0.2080823522856387 -0 -0 -0 0 0 0 0 1:-942.53192 2:-673.11884 3:-19.306421 4:-468.94012 5:61.398022 6:-39.784042 
-0 -0 -0 -0 -0 -0.01689654636791715 0 0 0 0 1:-942.52423 2:-673.11755 3:-11.281702 4:-469.16037 5:60.880138 6:-39.992428 
-0 -0 -0 -0 -0 -0.255206895389534 0 0 0 0 1:-942.53186 2:-673.11761 3:-19.27014 4:-469.58151 5:60.920666 6:-40.013996 
-0 -0 -1 -0 -0 -1 0 0 0 0 1:-942.53192 2:-673.11884 3:-19.306442 4:-468.94043 5:61.397984 6:-39.784489 
-0 -0 -1 -0 -0 -0 0 0 0 0 1:-942.53186 2:-673.11768 3:-19.269836 4:-469.57733 5:60.991547 6:-40.015751 
-0 -0 -1 -0.2493543561961742 -0 -0 0 0 0 0 1:-942.53436 2:-673.20825 3:-22.193523 4:-419.61469 5:97.930199 6:-20.239136 
-0 -0 -0 -0.8405245517595087 -0 -0 0 0 0 0 1:-942.53192 2:-673.11884 3:-19.306421 4:-468.94012 5:61.398022 6:-39.784042 
-0 -0.002142036240860723 -0 -0 -0 -0 0 0 0 0 1:-937.81158 2:-673.06299 3:3866.0149 4:-263.16782 5:40.694794 6:-29.606888 
-0 -0 -1 -0 -0 -0 0 0 0 0 1:-942.53192 2:-673.11884 3:-19.306421 4:-468.94012 5:61.398022 6:-39.784042 
-0 -0 -1 -0 -0 -0 0 0 0 0 1:-942.53192 2:-673.11884 3:-19.30645 4:-468.94052 5:61.397972 6:-39.784615 
-0 -0 -0.1167244431692987 -0.001838530686883987 -0 -0 0 0 0 0 1:-942.53082 2:-673.10925 3:-19.270739 4:-471.68719 5:51.429028 6:-18.113676 
-0 -0 -0 -0 -0 -1 0 0 0 0 1:-942.53186 2:-673.11768 3:-19.269842 4:-469.57718 5:60.991486 6:-40.015598 
-0 -0 -1 -0 -0 -0 0 0 0 0 1:-942.53192 2:-673.11884 3:-19.306421 4:-468.94012 5:61.398022 6:-39.784042 
-0 -0 -0 -0 -0 -1 0 0 0 0 1:-942.53186 2:-673.11768 3:-19.26985 4:-469.57718 5:60.991447 6:-40.015614 
-0 -0 -1 -0.02004723431225087 -0 -0 0 0 0 0 1:-942.53589 2:-673.26318 3:-24.003757 4:-388.72324 5:118.60646 6:-8.6768341 
-0 -0 -0 -0 -0 -0.9998866649025402 0 0 0 0 1:-942.53186 2:-673.11761 3:-19.27014 4:-469.58151 5:60.920666 6:-40.013996 
-0 -0 -0 -0 -0 -0.9999999755499552 0 0 0 0 1:-942.53186 2:-673.11761 3:-19.27014 4:-469.58151 5:60.920666 6:-40.013996 
-0 -0 -0 -0 -0 -0.2327771038403687 0 0 0 0 1:-942.53186 2:-673.11768 3:-19.26984 4:-469.57718 5:60.991493 6:-40.015594 
-0 -0 -0 -0 -0 -1 0 0 0 0 1:-942.53186 2:-673.11768 3:-19.26985 4:-469.57718 5:60.991444 6:-40.015614 
-0 -0 -1 -0.01368719513453333 -0 -0 0 0 0 3.23826418376177e-08 1:-942.54156 2:-673.46765 3:-30.604891 4:-276.08878 5:202.89851 6:36.69669 
-0 -0 -1 -0 -0 -0 0 0 0 0 1:-942.53192 2:-673.11884 3:-19.306421 4:-468.94012 5:61.398022 6:-39.784042 
-0 -0 -0.333383557949105 -0 -0 -0 0 0 0 0 1:-942.53186 2:-673.11768 3:-19.269863 4:-469.56384 5:60.938267 6:-40.031906 
-0 -0 -0 -0 -0 -0.325300133619442 0 0 0 0 1:-942.53186 2:-673.11768 3:-19.269827 4:-469.57721 5:60.991566 6:-40.015572 
-0 -0 -1 -0 -0 -0 0 0 0 0 1:-942.53192 2:-673.11884 3:-19.306421 4:-468.94012 5:61.398022 6:-39.784042 
-0 -0 -0.1917824948728165 -0 -0 -0 0 0 0 0 1:-942.53046 2:-673.20557 3:-18.144676 4:-420.35068 5:95.261345 6:-21.27702 
-0 -0 -1 -0 -0 -0 0 0 0 0 1:-942.53192 2:-673.11884 3:-19.306421 4:-468.94012 5:61.398022 6:-39.784042 
-0 -0 -1 -0 -0 -0 0 0 0 0 1:-942.53192 2:-673.11884 3:-19.306452 4:-468.94058 5:61.397968 6:-39.784676 
-0 -0 -0 -0 -0 -0.9516927886626889 0 0 0 0 1:-942.53186 2:-673.11761 3:-19.27014 4:-469.58151 5:60.920666 6:-40.013996 
-0 -0 -1 -0 -0 -0 0 0 0 0 1:-942.53192 2:-673.11884 3:-19.306421 4:-468.94012 5:61.398022 6:-39.784042 
-0 -0 -0 -0 -0 -1 0 0 0 0 1:-942.53186 2:-673.11768 3:-19.269838 4:-469.57718 5:60.991508 6:-40.015591 
-0 -0 -1 -0 -0 -0 0 0 0 0 1:-942.53192 2:-673.11884 3:-19.306421 4:-468.94012 5:61.398022 6:-39.784042 
-0 -0 -0 -0 -0 -0 0 0 0 8.789825381743736e-11 1:-937.90717 2:-673.06445 3:3766.1594 4:-268.43198 5:41.201347 6:-29.876488 
-0 -0 -0 -0.04758102302155354 -0 -0 0.0005037046599482553 0 0 0 1:-942.52997 2:-673.18634 3:-17.523081 4:-430.96072 5:87.476639 6:-25.484745 
-0 -0 -1 -0 -0 -0 0 0 0 0 1:-942.53186 2:-673.11768 3:-19.269833 4:-469.57727 5:60.991554 6:-40.015671 
-8.037151171948318e-06 -0 -0 -0 -0 -0 -0 0 6.577453524871026e-10 0 1:-914.53516 2:-673.24823 3:-26.434048 4:-355.91605 5:-45.665665 6:-77.392151 
-0 -1 -0 -0 -8.801113252064945e-07 -0.0006266082426845864 -0 8.237181618207945e-06 0 9.222195161186083e-09 1:-914.53259 2:-673.13452 3:-20.9377 4:-448.65549 5:7.4569068 6:-62.187408 
-0 -0.2691540585703605 -0.002552120836679276 -0 -4.364126964147293e-05 -0.001092793634696646 -0.001059196341414092 4.674399524717803e-06 0 9.391921233713381e-07 1:-914.53296 2:-673.17822 3:-21.495947 4:-430.88242 5:48.931656 6:-41.804176 
-0 -0 -0 -0.002801178215871102 -0 -0 -0 0 0 0 1:-914.5351 2:-673.28461 3:-26.054781 4:-350.68512 5:22.177998 6:-46.2757 
-2.738669969147575e-07 -1 -0 -0 -0 -0 -0 -0 5.703134428646362e-08 0 1:280.24313 2:1777.5093 3:-20.407782 4:-461.2493 5:14.811847 6:-13.64637 
-0 -1 -0 -0 -1.066619035236789e-05 -0 -0 -0 0 0 1:-608.52087 2:-673.13336 3:-20.324551 4:-483.61902 5:-69.426147 6:179.3714 
-0 -1 -0 -0 -0 -0 -0 -0 0 0 1:-608.52069 2:-673.13354 3:-19.789454 4:-489.69748 5:-47.975983 6:188.47833 
-0 -1 -0 -0 -0 -0 -0 -0 0 0 1:6102.4873 2:-675.25281 3:-14.791295 4:-482.12192 5:-67.103287 6:179.12498 
-0 -1 -1.298983527617371e-05 -1.460625520992583e-05 -0 -0 -1.095135923741254e-05 -0 0 0.2348389547470905 1:-608.52075 2:-673.13678 3:-19.726566 4:-489.58582 5:-41.167603 6:188.25954 
-3.273518014268067e-05 -1 -4.894248620896404e-06 -0 -9.362792892852406e-06 -4.865209089545109e-05 -4.945285148347397e-06 -1.291158114292575e-05 0 0 1:-608.5213 2:-673.13794 3:-20.54818 4:-479.89951 5:-72.515221 6:170.62347 
-4.443541031140461e-09 -0.03239838676644749 -0 -0 -0 -0 -0 -0 3.564192288760754e-14 5.246162155473806e-05 1:5130483.5 2:-2291.7571 3:110.34029 4:-336.41867 5:63.81987 6:-14.244741 
-0 -0 -0 -0 -0 -0 -0 -0 5.983800605053288e-10 0 1:5134737.5 2:-2293.0964 3:118.45004 4:-338.62622 5:68.888344 6:-1.3527415 
-0 -1 -0 -0 -0 -0 -0 -0 0 0 1:-608.52063 2:-673.13361 3:-19.674789 4:-491.00003 5:-43.379555 6:190.42992 
-0 -1 -0 -0 -0 -0 -0 -0 -0 6.933537527677572e-10 1:53600.062 2:7623.666 3:-77.093422 4:-402.13715 5:-128.46077 6:-124.90423 
-0 -0 -0 -0 -0 -0 -6.57080123488169e-10 -0 -0 0 1:53600.062 2:7623.6812 3:-76.273201 4:-415.25092 5:-112.65215 6:-71.675751 
-0 -1 -0 -0 -6.572692932199254e-10 -0 -0 -0 -0 0 1:53600.07 2:7623.7275 3:-73.717155 4:-456.11707 5:-63.387989 6:94.199112 
-0 -0.7302470647502 -0 -0 -0 -0 -0 -0 -0 0 1:53600.062 2:7623.6738 3:-76.611244 4:-409.61371 5:-117.5486 6:-88.763458 
-0 -1 -0 -6.570380698580537e-10 -0 -0 -0 -0 -3.774962573024992e-09 0 1:53600.07 2:7623.7236 3:-73.819405 4:-453.97781 5:-60.957569 6:99.883453 
-0 -0.1423235701686604 -0 -0 -0 -0 -0 -0 -0 0 1:53600.07 2:7623.7393 3:-73.068611 4:-466.48608 5:-50.888088 6:136.28679 
-0 -1 -0 -0 -0 -0 -0 -0 -0 0 1:53600.059 2:7623.6616 3:-77.235405 4:-399.40189 5:-127.95974 6:-124.41932 
-0 -1 -0 -0 -0 -5.102390578295297e-12 -0 -0 -0 0 1:53600.059 2:7623.6621 3:-77.233269 4:-399.28262 5:-128.62517 6:-124.67143 
-0 -1 -0 -0 -0 -0 -0 -0 -0 0 1:53600.059 2:7623.6616 3:-77.235413 4:-399.40189 5:-127.9597 6:-124.41933 
-0 -1 -6.570765865760746e-10 -0 -0 -6.570800129590898e-10 -0 -0 -2.356232929772892e-08 0 1:53600.07 2:7623.7246 3:-73.826302 4:-454.1395 5:-63.872776 6:91.965797 
-0 -1 -0 -0 -0 -0 -0 -0 -6.491410954363722e-09 0 1:53600.062 2:7623.666 3:-77.093422 4:-402.13715 5:-128.46077 6:-124.90423 
-0 -0 -0 -0 -0 -0 -0 -0 -1.00997407072642e-08 0 1:53600.059 2:7623.6641 3:-77.164413 4:-400.76953 5:-128.21021 6:-124.66176 
-0 -1 -0 -0 -0 -0 -0 -0 -8.52763183075538e-09 0 1:53600.07 2:7623.7378 3:-73.099327 4:-465.60919 5:-50.567226 6:138.75264 
-0 -0 -0 -0 -0 -0 -0 -6.577453524871026e-10 -5.115891712152505e-09 0 1:53600.062 2:7623.6699 3:-76.734154 4:-407.18341 5:-116.67995 6:-87.040718 
-0 -0 -0 -0 -0 -0 -0 -0 -5.779291360209987e-11 0 1:53600.074 2:7623.7446 3:-72.763412 4:-471.36557 5:-45.005939 6:156.09271 
-6.819570530726257e-10 -0 -0 -0 -0 -0 -0 -0 -0 0 1:53600.059 2:7623.6553 3:-77.448395 4:-395.29898 5:-127.20825 6:-123.69204 
-0 -1 -0 -0 -0 -0 -0 -0 -0 0 1:53600.059 2:7623.6616 3:-77.235405 4:-399.40201 5:-127.9595 6:-124.41898 
-9.964910773136235e-06 -1 -9.09479711667647e-07 -6.104799668635675e-07 -0 -7.770943457725025e-07 -9.104369884788744e-07 -9.484143185325243e-07 -0.002999003448658454 -6.933537527677572e-10 1:537.46692 2:-673.60559 3:-21.58675 4:-453.72995 5:55.627785 6:-40.947407 
-0 -1 -3.819493834787866e-09 -3.09247783011645e-07 -9.356915963082801e-07 -4.639717247286975e-07 -2.608609705832045e-09 -0 -0.231892412919985 -0 1:537.47882 2:-673.49506 3:-20.694824 4:-491.89743 5:-40.422577 6:191.68785 
