svm_type c_svc
kernel_type linear
nr_class 11
total_sv 198
rho 67.4319 1.2111 1.10845 1.07758 2.58796 1.00129 1.23049 1.06518 -1.03731 -5.60714 -4.46799 -4.27662 0.410363 -2.44513 -2.56613 -5.46421 19.8671 -38.8688 7.86855 1.03602 1.40678 -0.515286 -0.208362 -1.59648 -0.993686 -0.999961 -0.999868 1.68668 1.57799 -5.69969 -1.5479 -0.584142 -0.9998 -1.00569 1.305 -2.30912 -1.44981 -1.11473 -1.00026 -1.02462 3.26863 -8.17136 -0.900068 -1.00773 -1.3174 -1.01184 -0.764848 -0.999971 -0.999943 -0.288145 -1.001 -1.03748 -1.83006 3.04078 1.05445 
label 4 0 3 13 9 14 8 6 20 11 5 
nr_sv 10 75 24 11 24 14 17 3 8 10 2 
SV 
0 0 0 0 0 0 0 0 6.819568149592126e-10 2.034007485534587e-08 1:0 2:2 3:9 4:0 5:1032 6:0 7:0 8:0 9:0 10:0 11:0 12:0 13:0 14:0 15:0 16:0 17:0 18:0 19:0 20:0 21:0 22:0 23:511 24:511 25:0 26:0 27:0 28:0 29:1 30:0 31:0 32:255 33:255 34:1 35:0 36:1 37:0 38:0 39:0 40:0 41:0 
1 0 0 0 0 0 0 0 0 0 1:0 2:2 3:9 4:0 5:1032 6:0 7:0 8:0 9:0 10:0 11:0 12:0 13:0 14:0 15:0 16:0 17:0 18:0 19:0 20:0 21:0 22:0 23:80 24:80 25:0 26:0 27:0 28:0 29:1 30:0 31:0 32:255 33:80 34:0.31 35:0.02 36:0.31 37:0 38:0 39:0 40:0 41:0 
1 0 0 0 0 0 0 2.764096708318912e-05 0 9.925763375898913e-06 1:0 2:2 3:9 4:0 5:1032 6:0 7:0 8:0 9:0 10:0 11:0 12:0 13:0 14:0 15:0 16:0 17:0 18:0 19:0 20:0 21:0 22:0 23:10 24:10 25:0 26:0 27:0 28:0 29:1 30:0 31:0 32:255 33:10 34:0.039999999 35:0.02 36:0.039999999 37:0 38:0 39:0 40:0 41:0 
1 0 0 0 0 0 0 0 0 0 1:0 2:2 3:9 4:0 5:1032 6:0 7:0 8:0 9:0 10:0 11:0 12:0 13:0 14:0 15:0 16:0 17:0 18:0 19:0 20:0 21:0 22:0 23:65 24:65 25:0 26:0 27:0 28:0 29:1 30:0 31:0 32:255 33:255 34:1 35:0 36:1 37:0 38:0 39:0 40:0 41:0 
0 0 8.646604925108993e-07 0 0 0 3.09700684549258e-07 0 0 0 1:0 2:2 3:9 4:0 5:520 6:0 7:0 8:0 9:0 10:0 11:0 12:0 13:0 14:0 15:0 16:0 17:0 18:0 19:0 20:0 21:0 22:0 23:444 24:444 25:0 26:0 27:0 28:0 29:1 30:0 31:0 32:226 33:226 34:1 35:0 36:1 37:0 38:0 39:0 40:0 41:0 
1 6.763077922580312e-06 6.166935940432358e-06 6.248478352084507e-06 1.630748579847312e-05 5.941178990729485e-06 7.654974789276489e-06 0 0 0 1:0 2:2 3:9 4:0 5:520 6:0 7:0 8:0 9:0 10:0 11:0 12:0 13:0 14:0 15:0 16:0 17:0 18:0 19:0 20:0 21:0 22:0 23:47 24:47 25:0 26:0 27:0 28:0 29:1 30:0 31:0 32:255 33:255 34:1 35:0 36:1 37:0 38:0 39:0 40:0 41:0 
1 0 0 0 0 0 0 4.995142236499681e-06 0 1.875901310154085e-08 1:0 2:2 3:9 4:0 5:1032 6:0 7:0 8:0 9:0 10:0 11:0 12:0 13:0 14:0 15:0 16:0 17:0 18:0 19:0 20:0 21:0 22:0 23:3 24:3 25:0 26:0 27:0 28:0 29:1 30:0 31:0 32:255 33:255 34:1 35:0 36:1 37:0 38:0 39:0 40:0 41:0 
0.8736690689748382 0 0 0 0 0 0 0 0 0 1:0 2:2 3:9 4:0 5:1032 6:0 7:0 8:0 9:0 10:0 11:0 12:0 13:0 14:0 15:0 16:0 17:0 18:0 19:0 20:0 21:0 22:0 23:81 24:81 25:0 26:0 27:0 28:0 29:1 30:0 31:0 32:255 33:255 34:1 35:0 36:1 37:0 38:0 39:0 40:0 41:0 
1 0 0 0 0 0 0 0 0 0 1:0 2:2 3:9 4:0 5:1032 6:0 7:0 8:0 9:0 10:0 11:0 12:0 13:0 14:0 15:0 16:0 17:0 18:0 19:0 20:0 21:0 22:0 23:74 24:74 25:0 26:0 27:0 28:0 29:1 30:0 31:0 32:255 33:255 34:1 35:0 36:1 37:0 38:0 39:0 40:0 41:0 
0.0175582308863595 0 0 0 0 0 0 3.285249828836079e-07 0 0 1:0 2:2 3:9 4:0 5:1032 6:0 7:0 8:0 9:0 10:0 11:0 12:0 13:0 14:0 15:0 16:0 17:0 18:0 19:0 20:0 21:0 22:0 23:511 24:511 25:0 26:0 27:0 28:0 29:1 30:0 31:0 32:206 33:61 34:0.30000001 35:0.0099999998 36:0.30000001 37:0 38:0 39:0 40:0 41:0 
-0.01680209077400035 0 0 0 0 0 0 0 0 0 1:0 2:0 3:13 4:0 5:14189 6:0 7:0 8:0 9:0 10:0 11:0 12:1 13:0 14:0 15:0 16:0 17:0 18:0 19:0 20:0 21:0 22:0 23:3 24:3 25:0 26:0 27:0 28:0 29:1 30:0 31:0 32:255 33:9 34:0.039999999 35:0.0099999998 36:0.039999999 37:0 38:0 39:0 40:0 41:0 
-1 0 0 0 0 0 0 0 0 0 1:0 2:2 3:6 4:0 5:30 6:0 7:0 8:0 9:0 10:0 11:0 12:0 13:0 14:0 15:0 16:0 17:0 18:0 19:0 20:0 21:0 22:0 23:2 24:2 25:0 26:0 27:0 28:0 29:1 30:0 31:0 32:255 33:255 34:1 35:0 36:1 37:0 38:0 39:0 40:0 41:0 
-0 0 0 0 0 5.163344215493387e-05 0 0 0 0 1:0 2:0 3:3 4:0 5:14 6:37 7:0 8:0 9:0 10:0 11:0 12:1 13:1 14:0 15:0 16:1 17:0 18:0 19:0 20:0 21:0 22:0 23:1 24:1 25:0 26:0 27:0 28:0 29:1 30:0 31:0 32:255 33:2 34:0.0099999998 35:0.69999999 36:0 37:0 38:0 39:0 40:0 41:0 
-0.7506510040787421 0 0 0 0 0 0 0 0 0.01291143818959181 1:0 2:1 3:10 4:0 5:516 6:4 7:0 8:0 9:0 10:0 11:0 12:0 13:0 14:0 15:0 16:0 17:0 18:0 19:0 20:0 21:0 22:0 23:449 24:449 25:0 26:0 27:0 28:0 29:1 30:0 31:0 32:255 33:255 34:1 35:0 36:1 37:0 38:0 39:0 40:0 41:0 
-0 0 0 0 0 0 0 0 0 0.01351544455768166 1:0 2:2 3:11 4:0 5:182 6:0 7:0 8:0 9:0 10:0 11:0 12:0 13:0 14:0 15:0 16:0 17:0 18:0 19:0 20:0 21:0 22:0 23:3 24:3 25:0 26:0 27:0 28:0 29:1 30:0 31:0 32:255 33:12 34:0.050000001 35:0.0099999998 36:0.059999999 37:0 38:0 39:0 40:0 41:0 
-0 0 0 0 0 0 0 0 0 0.01991387384675533 1:0 2:1 3:10 4:0 5:145 6:0 7:0 8:0 9:0 10:0 11:0 12:0 13:0 14:0 15:0 16:0 17:0 18:0 19:0 20:0 21:0 22:0 23:1 24:1 25:0 26:0 27:0 28:0 29:1 30:0 31:0 32:255 33:1 34:0 35:0.83999997 36:1 37:0 38:0 39:0 40:0 41:0 
-0 0 0 0 0 0.003769127948862113 0 0.1881897349910907 0 0 1:0 2:0 3:0 4:5 5:0 6:0 7:0 8:0 9:0 10:0 11:0 12:0 13:0 14:0 15:0 16:0 17:0 18:0 19:0 20:0 21:0 22:0 23:1 24:1 25:0 26:0 27:1 28:1 29:1 30:0 31:0 32:1 33:1 34:1 35:0 36:1 37:0 38:0 39:0 40:1 41:1 
-0 0 0 0.6087430763193638 0 0 0 0 0 0 1:0 2:0 3:0 4:5 5:0 6:0 7:0 8:0 9:0 10:0 11:0 12:0 13:0 14:0 15:0 16:0 17:0 18:0 19:0 20:0 21:0 22:0 23:1 24:1 25:0 26:0 27:1 28:1 29:1 30:0 31:0 32:17 33:16 34:0.94 35:0.12 36:0.059999999 37:0 38:0 39:0 40:0.94 41:1 
-0 0 0 0 0 0 0 0 0.1354111651986001 0 1:3 2:0 3:1 4:0 5:3498 6:409 7:0 8:0 9:0 10:0 11:0 12:1 13:0 14:0 15:0 16:0 17:0 18:0 19:0 20:0 21:0 22:0 23:1 24:1 25:0 26:0 27:0 28:0 29:1 30:0 31:0 32:48 33:164 34:0.38 35:0.039999999 36:0.02 37:0.0099999998 38:0 39:0 40:0 41:0 
-0 0 0 0 0 0 0 0 0 0.001470299404240839 1:0 2:0 3:13 4:0 5:16787 6:0 7:0 8:0 9:0 10:0 11:0 12:1 13:0 14:0 15:0 16:0 17:1 18:0 19:0 20:0 21:0 22:0 23:10 24:10 25:0 26:0 27:0 28:0 29:1 30:0 31:0 32:131 33:108 34:0.43000001 35:0.059999999 36:0.47 37:0.02 38:0.0099999998 39:0.0099999998 40:0 41:0 
-0 0 0 0 0 0 0 0.4075473065097765 0 0 1:0 2:0 3:13 4:0 5:5092 6:0 7:0 8:0 9:0 10:0 11:0 12:1 13:0 14:0 15:0 16:0 17:0 18:0 19:0 20:0 21:0 22:0 23:1 24:1 25:0 26:0 27:0 28:0 29:1 30:0 31:0 32:39 33:4 34:0.1 35:0.15000001 36:0.1 37:0 38:0.029999999 39:0 40:0 41:0 
-0 0 0 0 0 0 0 1 0 0 1:18 2:1 3:2 4:0 5:96 6:29 7:0 8:0 9:0 10:0 11:0 12:0 13:0 14:0 15:0 16:0 17:0 18:0 19:0 20:0 21:0 22:0 23:1 24:1 25:0 26:0 27:0 28:0 29:1 30:0 31:0 32:3 33:3 34:1 35:0 36:1 37:0 38:0 39:0 40:0 41:0 
-0.5517123797809448 0 0 0 0 0 0 0 0 0 1:0 2:2 3:6 4:0 5:30 6:0 7:0 8:0 9:0 10:0 11:0 12:0 13:0 14:0 15:0 16:0 17:0 18:0 19:0 20:0 21:0 22:0 23:1 24:1 25:0 26:0 27:0 28:0 29:1 30:0 31:0 32:255 33:77 34:0.30000001 35:0.0099999998 36:0.30000001 37:0 38:0 39:0 40:0 41:0 
-0 0 0 0 0 0.001724407671154908 0 0 0 0 1:0 2:0 3:10 4:5 5:0 6:0 7:0 8:0 9:0 10:0 11:0 12:0 13:0 14:0 15:0 16:0 17:0 18:0 19:0 20:0 21:0 22:0 23:1 24:1 25:0 26:0 27:1 28:1 29:1 30:0 31:0 32:5 33:5 34:1 35:0 36:0.2 37:0 38:0 39:0 40:1 41:1 
-1 0 0 0 0 0 0.002351963695226032 0 0 0 1:0 2:2 3:6 4:0 5:30 6:0 7:0 8:0 9:0 10:0 11:0 12:0 13:0 14:0 15:0 16:0 17:0 18:0 19:0 20:0 21:0 22:0 23:2 24:2 25:0 26:0 27:0 28:0 29:1 30:0 31:0 32:255 33:255 34:1 35:0 36:1 37:0 38:0 39:0 40:0 41:0 
-0 0 0.001752765013317614 0 0 0 0 0 0 0 1:0 2:2 3:6 4:0 5:30 6:0 7:0 8:0 9:0 10:0 11:0 12:0 13:0 14:0 15:0 16:0 17:0 18:0 19:0 20:0 21:0 22:0 23:2 24:1 25:0 26:0 27:0 28:0 29:0.5 30:1 31:0 32:255 33:5 34:0.02 35:0.0099999998 36:0.11 37:0 38:0 39:0 40:0 41:0 
-0 0 0 0 0 0 0.04487456750841969 0 0 0 1:0 2:2 3:6 4:0 5:30 6:0 7:0 8:0 9:0 10:0 11:0 12:0 13:0 14:0 15:0 16:0 17:0 18:0 19:0 20:0 21:0 22:0 23:4 24:1 25:0 26:0 27:0 28:0 29:0.25 30:0.5 31:0 32:255 33:29 34:0.11 35:0.0099999998 36:0.54000002 37:0 38:0 39:0 40:0 41:0 
-0 0 0 0 0 0 0 0 0.6959251115968795 0 1:0 2:0 3:13 4:0 5:35195 6:0 7:0 8:0 9:0 10:0 11:0 12:1 13:0 14:0 15:0 16:0 17:0 18:0 19:0 20:0 21:0 22:0 23:22 24:22 25:0 26:0 27:0 28:0 29:1 30:0 31:0 32:109 33:129 34:0.47999999 35:0.07 36:0.50999999 37:0.02 38:0.0099999998 39:0 40:0 41:0 
-0 0 0 0 0 0 0 0 0.2157779833084006 0 1:0 2:0 3:0 4:0 5:280 6:88287 7:0 8:0 9:0 10:0 11:0 12:1 13:0 14:0 15:0 16:0 17:0 18:0 19:0 20:0 21:0 22:0 23:7 24:7 25:0 26:0 27:0 28:0 29:1 30:0 31:0 32:7 33:15 34:1 35:0 36:0.14 37:0.2 38:0 39:0 40:0 41:0 
-0 0 0 0.6106940374706821 0 0 0 0 0 0.06967545451436057 1:0 2:2 3:9 4:0 5:30 6:0 7:0 8:0 9:0 10:0 11:0 12:0 13:0 14:0 15:0 16:0 17:0 18:0 19:0 20:0 21:0 22:0 23:1 24:1 25:0 26:0 27:0 28:0 29:1 30:0 31:0 32:11 33:11 34:1 35:0 36:1 37:0 38:0 39:0 40:0 41:0 
-0 0 0 0 0 0 0 0.01915946055076968 0 0 1:0 2:0 3:13 4:0 5:88382 6:0 7:0 8:0 9:0 10:0 11:0 12:1 13:0 14:0 15:0 16:1 17:0 18:0 19:0 20:0 21:0 22:0 23:15 24:15 25:0 26:0 27:0 28:0 29:1 30:0 31:0 32:48 33:105 34:0.73000002 35:0.079999998 36:0.73000002 37:0.02 38:0 39:0.0099999998 40:0 41:0 
-1 0 0 0 0 0 0.01562661920337027 0 0 0 1:0 2:2 3:6 4:0 5:30 6:0 7:0 8:0 9:0 10:0 11:0 12:0 13:0 14:0 15:0 16:0 17:0 18:0 19:0 20:0 21:0 22:0 23:2 24:2 25:0 26:0 27:0 28:0 29:1 30:0 31:0 32:255 33:255 34:1 35:0 36:1 37:0 38:0 39:0 40:0 41:0 
-0 0 0 0 0.2538133933146265 0 0 0 0 0 1:0 2:2 3:6 4:0 5:30 6:0 7:0 8:0 9:0 10:0 11:0 12:0 13:0 14:0 15:0 16:0 17:0 18:0 19:0 20:0 21:0 22:0 23:1 24:1 25:0 26:0 27:0 28:0 29:1 30:0 31:0 32:31 33:91 34:1 35:0 36:1 37:0.34 38:0 39:0 40:0 41:0 
-0 0 0 0 0.0005813684375347024 0 0 0 1 0.004908961591570143 1:0 2:0 3:13 4:0 5:175337 6:0 7:0 8:0 9:0 10:0 11:0 12:1 13:0 14:0 15:0 16:0 17:0 18:0 19:0 20:0 21:0 22:0 23:2 24:2 25:0 26:0 27:0 28:0 29:1 30:0 31:0 32:250 33:104 34:0.41999999 35:0.02 36:0.41999999 37:0 38:0 39:0 40:0 41:0 
-0 0 0 0 0 0 0 0 0.05984220814524269 0 1:23 2:0 3:1 4:0 5:12776 6:1459 7:0 8:0 9:0 10:0 11:0 12:1 13:0 14:0 15:0 16:0 17:0 18:0 19:0 20:0 21:0 22:0 23:1 24:1 25:0 26:0 27:0 28:0 29:1 30:0 31:0 32:112 33:234 34:0.98000002 35:0.02 36:0.0099999998 37:0.0099999998 38:0 39:0 40:0 41:0 
-0 0 0 0 0.3887601888317668 0 0 0 0 0 1:0 2:0 3:13 4:0 5:201 6:0 7:0 8:0 9:0 10:0 11:0 12:1 13:0 14:0 15:0 16:0 17:0 18:0 19:0 20:0 21:0 22:0 23:1 24:18 25:0 26:0 27:0 28:0 29:1 30:0 31:0.11 32:78 33:73 34:0.5 35:0.059999999 36:0.5 37:0.029999999 38:0 39:0 40:0 41:0 
-0.103656254931634 0 0 0 0 0 0 0 0 0.05197061907740426 1:0 2:2 3:11 4:0 5:87 6:0 7:0 8:0 9:0 10:0 11:0 12:0 13:0 14:0 15:0 16:0 17:0 18:0 19:0 20:0 21:0 22:0 23:20 24:18 25:0 26:0 27:0 28:0 29:0.050000001 30:0.1 31:0.11 32:255 33:1 34:0 35:0.0099999998 36:0 37:0 38:0 39:0 40:0 41:0 
-0 0.02414023762020128 0.001259738066912235 0.000953030756835469 0 0.005904307399678658 0 0 0 0 1:0 2:1 3:64 4:0 5:1 6:0 7:0 8:0 9:0 10:0 11:0 12:0 13:0 14:0 15:0 16:0 17:0 18:0 19:0 20:0 21:0 22:0 23:46 24:3 25:0 26:0 27:0 28:0 29:0.07 30:0.11 31:0 32:66 33:3 34:0.050000001 35:0.059999999 36:0.050000001 37:0 38:0 39:0 40:0 41:0 
-0 0 0 0 0.4895895825358713 0 0 0 0 0 1:0 2:0 3:0 4:5 5:0 6:0 7:0 8:0 9:0 10:0 11:0 12:0 13:0 14:0 15:0 16:0 17:0 18:0 19:0 20:0 21:0 22:0 23:1 24:5 25:0 26:0 27:1 28:0.60000002 29:1 30:0 31:0.60000002 32:1 33:255 34:1 35:0 36:1 37:0.16 38:0 39:0 40:1 41:0.75999999 
-0 0 0 0 0 0 0.04080598832210735 0 0 0 1:0 2:1 3:2 4:0 5:30 6:0 7:0 8:0 9:0 10:0 11:0 12:0 13:0 14:0 15:0 16:0 17:0 18:0 19:0 20:0 21:0 22:0 23:1 24:5 25:0 26:0 27:0 28:0 29:1 30:0 31:0.60000002 32:255 33:26 34:0.1 35:0.039999999 36:0.1 37:0 38:0 39:0 40:0 41:0 
-0 0 0 0 0 0 0 0.1028895886192207 0 0 1:0 2:0 3:0 4:5 5:0 6:0 7:0 8:0 9:0 10:0 11:0 12:0 13:0 14:0 15:0 16:0 17:0 18:0 19:0 20:0 21:0 22:0 23:1 24:1 25:0 26:0 27:1 28:1 29:1 30:0 31:0 32:1 33:1 34:1 35:0 36:1 37:0 38:0 39:0 40:1 41:1 
-0 0 0 0 0.0968030382088015 0 0 0 0 0 1:0 2:1 3:2 4:0 5:35 6:0 7:0 8:0 9:0 10:0 11:0 12:0 13:0 14:0 15:0 16:0 17:0 18:0 19:0 20:0 21:0 22:0 23:1 24:2 25:0 26:0 27:0 28:0 29:1 30:0 31:1 32:2 33:38 34:0.5 35:1 36:0.5 37:0.050000001 38:0 39:0 40:0 41:0 
-0 0 0.0028352737324888 0 0 0 0 0 0 0 1:0 2:0 3:3 4:0 5:9 6:36 7:0 8:0 9:0 10:0 11:0 12:1 13:0 14:0 15:0 16:0 17:0 18:0 19:0 20:0 21:0 22:0 23:1 24:1 25:0 26:0 27:0 28:0 29:1 30:0 31:0 32:255 33:10 34:0.039999999 35:0.029999999 36:0 37:0 38:0 39:0 40:0 41:0 
-0.01208651713417642 0 0 0 0 0 0 0 0 0 1:0 2:2 3:11 4:0 5:183 6:0 7:0 8:0 9:0 10:0 11:0 12:0 13:0 14:0 15:0 16:0 17:0 18:0 19:0 20:0 21:0 22:0 23:7 24:6 25:0 26:0 27:0 28:0 29:0.86000001 30:0.28999999 31:0 32:255 33:32 34:0.13 35:0.0099999998 36:0.15000001 37:0 38:0 39:0 40:0 41:0 
-0 0 0 0 0 0 0 0 0.4747983673622638 0 1:12 2:0 3:1 4:0 5:11438 6:1391 7:0 8:0 9:0 10:0 11:0 12:1 13:0 14:0 15:0 16:0 17:0 18:0 19:0 20:0 21:0 22:0 23:1 24:1 25:0 26:0 27:0 28:0 29:1 30:0 31:0 32:4 33:34 34:1 35:0 36:0.25 37:0.059999999 38:0 39:0 40:0 41:0 
-0 0.06608003649127554 0 0 0 0 0 0 0 0 1:0 2:0 3:0 4:5 5:0 6:0 7:0 8:0 9:0 10:0 11:0 12:0 13:0 14:0 15:0 16:0 17:0 18:0 19:0 20:0 21:0 22:0 23:19 24:19 25:0 26:0 27:0.79000002 28:0.79000002 29:1 30:0 31:0 32:172 33:183 34:1 35:0 36:0.0099999998 37:0.029999999 38:0.0099999998 39:0.0099999998 40:0.31 41:0.34 
-0 0 0 0.3167212593759307 0 0 0 0 0 0 1:0 2:0 3:0 4:5 5:0 6:0 7:0 8:0 9:0 10:0 11:0 12:0 13:0 14:0 15:0 16:0 17:0 18:0 19:0 20:0 21:0 22:0 23:1 24:1 25:0 26:0 27:1 28:1 29:1 30:0 31:0 32:1 33:255 34:1 35:0 36:1 37:0.30000001 38:0 39:0 40:1 41:0.94 
-0 0 0 0 0 0 0 0 1 0 1:0 2:0 3:1 4:0 5:6788 6:327 7:0 8:0 9:0 10:0 11:0 12:1 13:0 14:0 15:0 16:0 17:0 18:0 19:0 20:0 21:0 22:0 23:1 24:2 25:0 26:0 27:0 28:0 29:1 30:0 31:1 32:190 33:174 34:0.69 35:0.02 36:0.0099999998 37:0.0099999998 38:0.0099999998 39:0 40:0 41:0 
-0 0 0 0.8918273604664773 0 0 0 0 0 0 1:0 2:0 3:0 4:5 5:0 6:0 7:0 8:0 9:0 10:0 11:0 12:0 13:0 14:0 15:0 16:0 17:0 18:0 19:0 20:0 21:0 22:0 23:1 24:1 25:0 26:0 27:1 28:1 29:1 30:0 31:0 32:1 33:255 34:1 35:0 36:1 37:0.30000001 38:0 39:0 40:1 41:0.94 
-0 0 0 0 0.003340260313669563 0 0 0 0 0 1:0 2:1 3:2 4:0 5:43 6:43 7:0 8:0 9:0 10:0 11:0 12:0 13:0 14:0 15:0 16:0 17:0 18:0 19:0 20:0 21:0 22:0 23:2 24:82 25:0 26:0 27:0 28:0 29:1 30:0 31:0.02 32:255 33:254 34:1 35:0.0099999998 36:0.0099999998 37:0 38:0 39:0 40:0 41:0 
-0 0 0 0 0.7677438118574126 0 0 0 0 0 1:0 2:2 3:6 4:0 5:30 6:0 7:0 8:0 9:0 10:0 11:0 12:0 13:0 14:0 15:0 16:0 17:0 18:0 19:0 20:0 21:0 22:0 23:1 24:1 25:0 26:0 27:0 28:0 29:1 30:0 31:0 32:183 33:183 34:1 35:0 36:1 37:0 38:0 39:0 40:0 41:0 
-0 0 0 0 0 0 0 0 0 5.948564080232916e-05 1:0 2:2 3:9 4:0 5:30 6:0 7:0 8:0 9:0 10:0 11:0 12:0 13:0 14:0 15:0 16:0 17:0 18:0 19:0 20:0 21:0 22:0 23:2 24:2 25:0 26:0 27:0 28:0 29:1 30:0 31:0 32:12 33:12 34:1 35:0 36:1 37:0 38:0 39:0 40:0 41:0 
-0 0.185196809029087 0.0004091288982254541 0 0 0.03897722623118405 0 0 0 0 1:0 2:0 3:5 4:2 5:0 6:0 7:0 8:0 9:0 10:0 11:0 12:0 13:0 14:0 15:0 16:0 17:0 18:0 19:0 20:0 21:0 22:0 23:1 24:1 25:1 26:1 27:0 28:0 29:1 30:0 31:0 32:154 33:2 34:0.0099999998 35:0.12 36:0.0099999998 37:0 38:0.0099999998 39:0.5 40:0 41:0 
-0 0 0 0 0 0 0 0 0 0.02606618080799152 1:0 2:2 3:67 4:0 5:91 6:0 7:0 8:0 9:0 10:0 11:0 12:0 13:0 14:0 15:0 16:0 17:0 18:0 19:0 20:0 21:0 22:0 23:7 24:7 25:0 26:0 27:0 28:0 29:1 30:0 31:0 32:132 33:7 34:0.050000001 35:0.02 36:0.050000001 37:0 38:0 39:0 40:0.11 41:0 
-0 0 0 3.289083365613361e-06 0 0 0 0 0 0 1:33065 2:1 3:10 4:0 5:146 6:105 7:0 8:0 9:0 10:0 11:0 12:0 13:0 14:0 15:0 16:0 17:0 18:0 19:0 20:0 21:0 22:0 23:2 24:2 25:0 26:0 27:0 28:0 29:1 30:0 31:0 32:255 33:2 34:0.0099999998 35:0.63 36:0.94 37:0 38:0 39:0 40:0 41:0 
-0 0 0 0 0 0.0004845093965736846 0 0.03853594041626681 0 0 1:0 2:0 3:0 4:5 5:0 6:0 7:0 8:0 9:0 10:0 11:0 12:0 13:0 14:0 15:0 16:0 17:0 18:0 19:0 20:0 21:0 22:0 23:1 24:1 25:0 26:0 27:1 28:1 29:1 30:0 31:0 32:1 33:1 34:1 35:0 36:1 37:0 38:0 39:0 40:1 41:1 
-0 0 0 0 0 0 0.000861975812309231 0 0 0 1:0 2:0 3:13 4:0 5:12 6:0 7:0 8:0 9:0 10:0 11:0 12:1 13:0 14:0 15:0 16:0 17:0 18:0 19:0 20:0 21:0 22:0 23:1 24:1 25:0 26:0 27:0 28:0 29:1 30:0 31:0 32:232 33:79 34:0.34 35:0.029999999 36:0.34 37:0 38:0 39:0 40:0 41:0 
-0 0 0 0 0 0 0 0 0 0.509797797308476 1:0 2:2 3:6 4:0 5:30 6:0 7:0 8:0 9:0 10:0 11:0 12:0 13:0 14:0 15:0 16:0 17:0 18:0 19:0 20:0 21:0 22:0 23:1 24:1 25:0 26:0 27:0 28:0 29:1 30:0 31:0 32:255 33:3 34:0.0099999998 35:0.0099999998 36:0.02 37:0 38:0 39:0 40:0 41:0 
-1 0 0 0 0 0 0 0 0 0 1:0 2:2 3:6 4:0 5:30 6:0 7:0 8:0 9:0 10:0 11:0 12:0 13:0 14:0 15:0 16:0 17:0 18:0 19:0 20:0 21:0 22:0 23:2 24:2 25:0 26:0 27:0 28:0 29:1 30:0 31:0 32:255 33:255 34:1 35:0 36:1 37:0 38:0 39:0 40:0 41:0 
-0 0 0 0 0 0 0 0.9305638585101281 0 0 1:32 2:0 3:7 4:0 5:883 6:2586 7:0 8:0 9:0 10:18 11:0 12:1 13:0 14:0 15:0 16:0 17:0 18:0 19:0 20:0 21:0 22:1 23:1 24:1 25:0 26:0 27:0 28:0 29:1 30:0 31:0 32:42 33:11 34:0.25999999 35:0.07 36:0.02 37:0 38:0 39:0 40:0 41:0 
-0 0 0 0.1008712754911628 0 0 0 0 0 0 1:0 2:1 3:2 4:0 5:31 6:0 7:0 8:0 9:0 10:0 11:0 12:0 13:0 14:0 15:0 16:0 17:0 18:0 19:0 20:0 21:0 22:0 23:1 24:2 25:0 26:0 27:0 28:0 29:1 30:0 31:1 32:2 33:22 34:0.5 35:1 36:0.5 37:0.090000004 38:0 39:0 40:0 41:0 
-0 0 0 0 0 0 0 0 0 0.0399124173151377 1:0 2:2 3:9 4:0 5:64 6:0 7:0 8:0 9:0 10:0 11:0 12:0 13:0 14:0 15:0 16:0 17:0 18:0 19:0 20:0 21:0 22:0 23:1 24:1 25:0 26:0 27:0 28:0 29:1 30:0 31:0 32:43 33:1 34:0.02 35:0.090000004 36:0.02 37:0 38:0 39:0 40:0 41:0 
-0 0 0 0 0 0 0 0 0 0.05792752081211773 1:0 2:2 3:6 4:0 5:30 6:0 7:0 8:0 9:0 10:0 11:0 12:0 13:0 14:0 15:0 16:0 17:0 18:0 19:0 20:0 21:0 22:0 23:1 24:1 25:0 26:0 27:0 28:0 29:1 30:0 31:0 32:255 33:5 34:0.02 35:0.0099999998 36:0.12 37:0 38:0 39:0 40:0 41:0 
-0.01788954796063906 0 0 0 0 0 0 0 0 0.0006430570859885053 1:0 2:0 3:13 4:0 5:88382 6:0 7:0 8:0 9:0 10:0 11:0 12:1 13:0 14:0 15:0 16:1 17:0 18:0 19:0 20:0 21:0 22:0 23:14 24:14 25:0 26:0 27:0 28:0 29:1 30:0 31:0 32:193 33:70 34:0.36000001 35:0.029999999 36:0.36000001 37:0 38:0 39:0 40:0 41:0 
-0.1829164183840176 0 0 0 0.1652182196324486 0 0.03104487258007331 0 0 0 1:0 2:2 3:61 4:0 5:36 6:0 7:0 8:0 9:0 10:0 11:0 12:0 13:0 14:0 15:0 16:0 17:0 18:0 19:0 20:0 21:0 22:0 23:1 24:1 25:0 26:0 27:0 28:0 29:1 30:0 31:0 32:255 33:63 34:0.25 35:0.029999999 36:0.25 37:0 38:0 39:0 40:0 41:0 
-0 0 0 0 0.09678693189302308 0 0 0 0 0.005311644976544542 1:0 2:1 3:2 4:0 5:29 6:0 7:0 8:0 9:0 10:0 11:0 12:0 13:0 14:0 15:0 16:0 17:0 18:0 19:0 20:0 21:0 22:0 23:3 24:19 25:0 26:0 27:0 28:0 29:0.67000002 30:0.67000002 31:0.25999999 32:134 33:39 34:0.16 35:0.050000001 36:0.16 37:0.050000001 38:0.0099999998 39:0 40:0.0099999998 41:0 
-1 0 0 0 0 0 0 0 0 0 1:0 2:2 3:11 4:0 5:182 6:0 7:0 8:0 9:0 10:0 11:0 12:0 13:0 14:0 15:0 16:0 17:0 18:0 19:0 20:0 21:0 22:0 23:6 24:6 25:0 26:0 27:0 28:0 29:1 30:0 31:0 32:255 33:30 34:0.12 35:0.0099999998 36:0.13 37:0 38:0 39:0 40:0 41:0 
-0 0 0 0 0 0 0.0226847317887939 0 0 0 1:0 2:0 3:0 4:5 5:0 6:0 7:0 8:0 9:0 10:0 11:0 12:0 13:0 14:0 15:0 16:0 17:0 18:0 19:0 20:0 21:0 22:0 23:1 24:1 25:0 26:0 27:1 28:1 29:1 30:0 31:0 32:255 33:189 34:0.74000001 35:0.02 36:0 37:0 38:0 39:0 40:0.75 41:1 
-0 0 0 0 0 0 0 0.004907811672147142 0 0 1:9730 2:1 3:10 4:0 5:145 6:105 7:0 8:0 9:0 10:0 11:0 12:0 13:0 14:0 15:0 16:0 17:0 18:0 19:0 20:0 21:0 22:0 23:1 24:1 25:0 26:0 27:0 28:0 29:1 30:0 31:0 32:24 33:1 34:0.039999999 35:0.75 36:0.95999998 37:0 38:0 39:0 40:0 41:0 
-0 0 0 0.1753573085593043 0 0 0 0 0 0 1:0 2:0 3:0 4:5 5:0 6:0 7:0 8:0 9:0 10:0 11:0 12:0 13:0 14:0 15:0 16:0 17:0 18:0 19:0 20:0 21:0 22:0 23:1 24:1 25:0 26:0 27:1 28:1 29:1 30:0 31:0 32:1 33:21 34:1 35:0 36:1 37:0.33000001 38:0 39:0 40:1 41:1 
-0 0 0 0.07916107479802793 0 0 0 0 0 0 1:0 2:0 3:4 4:0 5:8 6:138 7:0 8:0 9:0 10:0 11:0 12:0 13:0 14:0 15:0 16:0 17:0 18:0 19:0 20:0 21:0 22:0 23:1 24:1 25:0 26:0 27:0 28:0 29:1 30:0 31:0 32:11 33:17 34:0.090000004 35:0.18000001 36:0.090000004 37:0.34999999 38:0 39:0 40:0 41:0 
-0 0 0 0 0.04830939929988452 0 0 0 0 0 1:0 2:0 3:0 4:7 5:0 6:0 7:0 8:0 9:0 10:0 11:0 12:1 13:0 14:0 15:0 16:0 17:0 18:0 19:0 20:0 21:0 22:0 23:2 24:2 25:0 26:0 27:0.5 28:0.5 29:1 30:0 31:0 32:2 33:255 34:1 35:0 36:1 37:0.029999999 38:0 39:0.0099999998 40:0.5 41:0.0099999998 
-0 0 0 0 0.0007011214782215631 0 0 0 0 0 1:0 2:1 3:2 4:0 5:102 6:0 7:0 8:0 9:0 10:0 11:0 12:0 13:0 14:0 15:0 16:0 17:0 18:0 19:0 20:0 21:0 22:0 23:1 24:3 25:0 26:0 27:0 28:0 29:1 30:0 31:1 32:255 33:243 34:0.94999999 35:0.0099999998 36:0.039999999 37:0 38:0 39:0 40:0 41:0 
-0 0 0 0 0 0 0 0 0.4182451643886303 0 1:0 2:0 3:0 4:0 5:183 6:51141 7:0 8:0 9:0 10:0 11:0 12:1 13:0 14:0 15:0 16:0 17:0 18:0 19:0 20:0 21:0 22:0 23:1 24:1 25:0 26:0 27:0 28:0 29:1 30:0 31:0 32:19 33:255 34:1 35:0 36:0.050000001 37:0.0099999998 38:0 39:0 40:0 41:0.0099999998 
-0 0 0 0 0 0 0 1 0 0 1:0 2:0 3:13 4:0 5:4892 6:0 7:0 8:0 9:0 10:0 11:0 12:1 13:0 14:0 15:0 16:0 17:0 18:0 19:0 20:0 21:0 22:0 23:1 24:1 25:0 26:0 27:0 28:0 29:1 30:0 31:0 32:17 33:7 34:0.41 35:0.18000001 36:0.41 37:0 38:0 39:0 40:0 41:0 
-0 0.3406198917914925 0 0 0 0 0 0 0 0 1:0 2:0 3:1 4:7 5:0 6:0 7:0 8:0 9:0 10:0 11:0 12:0 13:0 14:0 15:0 16:0 17:0 18:0 19:0 20:0 21:0 22:0 23:1 24:1 25:0 26:0 27:1 28:1 29:1 30:0 31:0 32:158 33:81 34:0.50999999 35:0.039999999 36:0.0099999998 37:0 38:0.0099999998 39:0 40:0.079999998 41:0.059999999 
-0.2555130868170939 0 0 0 0 0 0 0 0 0 1:0 2:0 3:13 4:0 5:15876 6:0 7:0 8:0 9:0 10:0 11:0 12:1 13:0 14:0 15:0 16:0 17:0 18:0 19:0 20:0 21:0 22:0 23:18 24:18 25:0 26:0 27:0 28:0 29:1 30:0 31:0 32:255 33:143 34:0.56 35:0.02 36:0.56 37:0 38:0 39:0 40:0 41:0 
-0 0 0 0 0 0 0 0.3797024427185055 1 0 1:0 2:0 3:13 4:0 5:59276 6:0 7:0 8:0 9:0 10:0 11:0 12:1 13:0 14:0 15:0 16:0 17:0 18:0 19:0 20:0 21:0 22:0 23:1 24:2 25:0 26:0 27:0 28:0 29:1 30:0 31:1 32:79 33:89 34:0.56999999 35:0.039999999 36:0.56999999 37:0.029999999 38:0 39:0 40:0 41:0 
-0 0 0 0 0 0 0 0.03422710146412233 0 0 1:0 2:0 3:1 4:0 5:1571 6:335 7:0 8:0 9:0 10:0 11:0 12:1 13:0 14:0 15:0 16:0 17:0 18:0 19:0 20:0 21:0 22:0 23:1 24:1 25:0 26:0 27:0 28:0 29:1 30:0 31:0 32:3 33:4 34:1 35:0 36:0.33000001 37:0.5 38:0 39:0 40:0 41:0 
-0 0 0 0 0 0 0.04448284039527761 0 0 0 1:0 2:1 3:2 4:0 5:32 6:0 7:0 8:0 9:0 10:0 11:0 12:0 13:0 14:0 15:0 16:0 17:0 18:0 19:0 20:0 21:0 22:0 23:1 24:1 25:0 26:0 27:0 28:0 29:1 30:0 31:0 32:255 33:21 34:0.079999998 35:0.029999999 36:0.079999998 37:0 38:0 39:0 40:0 41:0 
-0 0 0 0.906122779097546 0 0 0 0.9106007912556503 0 0 1:0 2:0 3:30 4:0 5:0 6:4 7:0 8:0 9:0 10:0 11:0 12:0 13:0 14:0 15:0 16:0 17:0 18:0 19:0 20:0 21:0 22:0 23:1 24:1 25:0 26:0 27:0 28:0 29:1 30:0 31:0 32:2 33:2 34:1 35:0 36:0.5 37:0 38:0 39:0 40:0 41:0 
-0 0 0 0.7932538690395615 0 0 0 0 0 0 1:0 2:2 3:6 4:0 5:30 6:0 7:0 8:0 9:0 10:0 11:0 12:0 13:0 14:0 15:0 16:0 17:0 18:0 19:0 20:0 21:0 22:0 23:1 24:1 25:0 26:0 27:0 28:0 29:1 30:0 31:0 32:90 33:12 34:0.13 35:0.02 36:0.13 37:0 38:0 39:0 40:0 41:0 
-0 0.009476813447185518 0.0002864476405991829 0 0 0 0.002222191440432359 0 0 0 1:0 2:1 3:2 4:0 5:43 6:43 7:0 8:0 9:0 10:0 11:0 12:0 13:0 14:0 15:0 16:0 17:0 18:0 19:0 20:0 21:0 22:0 23:292 24:291 25:0 26:0 27:0 28:0 29:1 30:0.0099999998 31:0 32:255 33:254 34:1 35:0.0099999998 36:0 37:0 38:0 39:0 40:0 41:0 
-0 0 0 0 0 0 0 0 0 0.008900455471643285 1:0 2:0 3:13 4:0 5:26408 6:0 7:0 8:0 9:0 10:0 11:0 12:1 13:0 14:0 15:0 16:0 17:0 18:0 19:0 20:0 21:0 22:0 23:9 24:9 25:0 26:0 27:0 28:0 29:1 30:0 31:0 32:224 33:70 34:0.31 35:0.02 36:0.31 37:0 38:0 39:0 40:0 41:0 
-0 0 0 0 0 0 0 1 0 0 1:0 2:0 3:13 4:0 5:61298 6:0 7:0 8:0 9:0 10:0 11:0 12:1 13:0 14:0 15:0 16:0 17:0 18:0 19:0 20:0 21:0 22:0 23:9 24:10 25:0 26:0 27:0 28:0 29:0.88999999 30:0.22 31:0.2 32:121 33:120 34:0.63999999 35:0.02 36:0.63999999 37:0.02 38:0.02 39:0 40:0 41:0 
-0 -0 0 0 0 0 0 0 6.57076365520333e-10 6.667895827174886e-08 1:0 2:0 3:12 4:6 5:0 6:0 7:0 8:0 9:0 10:0 11:0 12:0 13:0 14:0 15:0 16:0 17:0 18:0 19:0 20:0 21:0 22:0 23:125 24:1 25:1 26:1 27:0 28:0 29:0.0099999998 30:0.07 31:0 32:255 33:1 34:0 35:0.059999999 36:0 37:0 38:1 39:1 40:0 41:0 
-5.412164705584488e-06 -0.2672668135523403 0 0 0 0 2.084060463728499e-05 0 0 0 1:0 2:0 3:1 4:6 5:0 6:0 7:0 8:0 9:0 10:0 11:0 12:0 13:0 14:0 15:0 16:0 17:0 18:0 19:0 20:0 21:0 22:0 23:13 24:15 25:1 26:0.87 27:0 28:0 29:1 30:0 31:0.2 32:155 33:138 34:0.47 35:0.0099999998 36:0.0099999998 37:0.0099999998 38:0.99000001 39:0.52999997 40:0 41:0 
-0 -0 0 0 0 1 0 0 0 0 1:0 2:0 3:34 4:7 5:0 6:0 7:0 8:0 9:0 10:0 11:0 12:0 13:0 14:0 15:0 16:0 17:0 18:0 19:0 20:0 21:0 22:0 23:123 24:1 25:0 26:0 27:1 28:1 29:0.0099999998 30:0.07 31:0 32:255 33:1 34:0 35:0.07 36:0 37:0 38:0 39:0 40:1 41:1 
-0 -0.2137484419218622 0 0 0 0 0 0 0 0 1:0 2:0 3:4 4:6 5:0 6:0 7:0 8:0 9:0 10:0 11:0 12:0 13:0 14:0 15:0 16:0 17:0 18:0 19:0 20:0 21:0 22:0 23:9 24:2 25:1 26:1 27:0 28:0 29:0.22 30:0.33000001 31:0 32:91 33:25 34:0.23999999 35:0.039999999 36:0.02 37:0.079999998 38:0.98000002 39:0.88 40:0 41:0 
-0 -0.1444985329050452 0 0 0 0.6581433980763142 0 0 0 1.129147099451297e-07 1:0 2:0 3:12 4:5 5:0 6:0 7:0 8:0 9:0 10:0 11:0 12:0 13:0 14:0 15:0 16:0 17:0 18:0 19:0 20:0 21:0 22:0 23:2 24:2 25:0 26:0 27:1 28:1 29:1 30:0 31:0 32:255 33:2 34:0.0099999998 35:0.050000001 36:0 37:0 38:0 39:0 40:1 41:1 
-0 -0 0 0 0 0 0 0 0 5.377674747742901e-09 1:0 2:0 3:12 4:6 5:0 6:0 7:0 8:0 9:0 10:0 11:0 12:0 13:0 14:0 15:0 16:0 17:0 18:0 19:0 20:0 21:0 22:0 23:267 24:25 25:1 26:1 27:0 28:0 29:0.090000004 30:0.050000001 31:0 32:255 33:25 34:0.1 35:0.050000001 36:0 37:0 38:1 39:1 40:0 41:0 
-0 -0 0 0 0 0.8835662997011914 0 0 0 5.55925191429074e-07 1:0 2:0 3:12 4:6 5:0 6:0 7:0 8:0 9:0 10:0 11:0 12:0 13:0 14:0 15:0 16:0 17:0 18:0 19:0 20:0 21:0 22:0 23:2 24:1 25:1 26:1 27:0 28:0 29:0.5 30:1 31:0 32:255 33:1 34:0 35:0.07 36:0 37:0 38:1 39:1 40:0 41:0 
-0 -0 0 0 0 1 0 0 0 0 1:0 2:0 3:4 4:7 5:0 6:0 7:0 8:0 9:0 10:0 11:0 12:0 13:0 14:0 15:0 16:0 17:0 18:0 19:0 20:0 21:0 22:0 23:205 24:1 25:0 26:0 27:1 28:1 29:0 30:0.07 31:0 32:255 33:1 34:0 35:0.07 36:0 37:0 38:0 39:0 40:1 41:1 
-0 -0 0.7766160211669766 0 0 0 0 0 0 0 1:0 2:0 3:12 4:5 5:0 6:0 7:0 8:0 9:0 10:0 11:0 12:0 13:0 14:0 15:0 16:0 17:0 18:0 19:0 20:0 21:0 22:0 23:258 24:1 25:0 26:0 27:1 28:1 29:0 30:0.07 31:0 32:255 33:1 34:0 35:0.079999998 36:0 37:0 38:0 39:0 40:1 41:1 
-1.350913216995825e-06 -0 0 0 0 0 0 0 0 0 1:0 2:0 3:13 4:6 5:0 6:0 7:0 8:0 9:0 10:0 11:0 12:0 13:0 14:0 15:0 16:0 17:0 18:0 19:0 20:0 21:0 22:0 23:80 24:20 25:1 26:1 27:0 28:0 29:0.25 30:0.050000001 31:0 32:255 33:65 34:0.25 35:0.02 36:0 37:0 38:1 39:1 40:0 41:0 
-0 -0 0 0.001933080662395773 0 0 0 0 0 0 1:0 2:0 3:34 4:6 5:0 6:0 7:0 8:0 9:0 10:0 11:0 12:0 13:0 14:0 15:0 16:0 17:0 18:0 19:0 20:0 21:0 22:0 23:1 24:1 25:1 26:1 27:0 28:0 29:1 30:0 31:0 32:255 33:1 34:0 35:0.07 36:0 37:0 38:1 39:1 40:0 41:0 
-0 -0 0.05350254032257509 0 0 0 0 0 0 0 1:0 2:0 3:0 4:5 5:0 6:0 7:0 8:0 9:0 10:0 11:0 12:0 13:0 14:0 15:0 16:0 17:0 18:0 19:0 20:0 21:0 22:0 23:261 24:14 25:0 26:0 27:1 28:1 29:0.050000001 30:0.07 31:0 32:255 33:14 34:0.050000001 35:0.079999998 36:0 37:0 38:0 39:0 40:1 41:1 
-0 -0 0 0.01518677263412539 0.02231418706864961 0 0 1.786626309826927e-05 0 0 1:0 2:0 3:5 4:6 5:0 6:0 7:0 8:0 9:0 10:0 11:0 12:0 13:0 14:0 15:0 16:0 17:0 18:0 19:0 20:0 21:0 22:0 23:12 24:12 25:1 26:1 27:0 28:0 29:1 30:0 31:0 32:14 33:14 34:1 35:0 36:0.07 37:0 38:0.86000001 39:0.86000001 40:0 41:0 
-0 -0 0.1753224798944394 0 0 0 0 0 0 0 1:0 2:0 3:12 4:5 5:0 6:0 7:0 8:0 9:0 10:0 11:0 12:0 13:0 14:0 15:0 16:0 17:0 18:0 19:0 20:0 21:0 22:0 23:297 24:19 25:0 26:0 27:1 28:1 29:0.059999999 30:0.059999999 31:0 32:255 33:19 34:0.07 35:0.090000004 36:0 37:0 38:0 39:0 40:1 41:1 
-0 -0 0 0 0 0.6754430211656531 0 0 0 0 1:0 2:0 3:12 4:5 5:0 6:0 7:0 8:0 9:0 10:0 11:0 12:0 13:0 14:0 15:0 16:0 17:0 18:0 19:0 20:0 21:0 22:0 23:78 24:1 25:0 26:0 27:1 28:1 29:0.0099999998 30:0.090000004 31:0 32:255 33:1 34:0 35:0.079999998 36:0 37:0 38:0 39:0 40:1 41:1 
-0 -0 0.3869208560926338 0 0 0 0 0 0 0 1:0 2:0 3:12 4:5 5:0 6:0 7:0 8:0 9:0 10:0 11:0 12:0 13:0 14:0 15:0 16:0 17:0 18:0 19:0 20:0 21:0 22:0 23:256 24:3 25:0 26:0 27:1 28:1 29:0.0099999998 30:0.07 31:0 32:255 33:3 34:0.0099999998 35:0.090000004 36:0 37:0 38:0 39:0 40:1 41:1 
-0 -0 0 0 0 1 0 0 0 0 1:0 2:0 3:12 4:6 5:0 6:0 7:0 8:0 9:0 10:0 11:0 12:0 13:0 14:0 15:0 16:0 17:0 18:0 19:0 20:0 21:0 22:0 23:3 24:1 25:1 26:1 27:0 28:0 29:0.33000001 30:1 31:0 32:255 33:1 34:0 35:0.090000004 36:0 37:0 38:1 39:1 40:0 41:0 
-0 -0 0 0 0.04934665258769916 0 0.001142161849595127 0 0 1.720658713300504e-07 1:0 2:0 3:13 4:6 5:0 6:0 7:0 8:0 9:0 10:0 11:0 12:0 13:0 14:0 15:0 16:0 17:0 18:0 19:0 20:0 21:0 22:0 23:1 24:1 25:1 26:1 27:0 28:0 29:1 30:0 31:0 32:255 33:55 34:0.22 35:0.039999999 36:0 37:0 38:1 39:1 40:0 41:0 
-0 -0 0 0 0 0 9.479137096913382e-05 0 0 0 1:0 2:0 3:48 4:6 5:0 6:0 7:0 8:0 9:0 10:0 11:0 12:0 13:0 14:0 15:0 16:0 17:0 18:0 19:0 20:0 21:0 22:0 23:18 24:7 25:1 26:1 27:0 28:0 29:0.38999999 30:0.33000001 31:0 32:255 33:7 34:0.029999999 35:0.090000004 36:0 37:0 38:1 39:1 40:0 41:0 
-0 -0 0 0 0.09067636123618182 0 0 0 0 0 1:0 2:0 3:12 4:6 5:0 6:0 7:0 8:0 9:0 10:0 11:0 12:0 13:0 14:0 15:0 16:0 17:0 18:0 19:0 20:0 21:0 22:0 23:1 24:1 25:1 26:1 27:0 28:0 29:1 30:0 31:0 32:255 33:11 34:0.039999999 35:0.07 36:0 37:0 38:1 39:1 40:0 41:0 
-0 -0 0 0 0 0.287752370490143 0 0 0 0 1:0 2:0 3:16 4:7 5:0 6:0 7:0 8:0 9:0 10:0 11:0 12:0 13:0 14:0 15:0 16:0 17:0 18:0 19:0 20:0 21:0 22:0 23:240 24:1 25:0 26:0 27:1 28:1 29:0 30:0.059999999 31:0 32:255 33:1 34:0 35:0.07 36:0 37:0 38:0 39:0 40:1 41:1 
-0 -0 0.4730002414857817 0 0 0 0 0 0 0 1:0 2:0 3:12 4:6 5:0 6:0 7:0 8:0 9:0 10:0 11:0 12:0 13:0 14:0 15:0 16:0 17:0 18:0 19:0 20:0 21:0 22:0 23:3 24:1 25:1 26:1 27:0 28:0 29:0.33000001 30:1 31:0 32:255 33:9 34:0.039999999 35:0.090000004 36:0 37:0 38:1 39:1 40:0 41:0 
-0 -0 0.0005336578778638477 0 0 0.4890110712655601 0 0 0 0 1:0 2:0 3:12 4:5 5:0 6:0 7:0 8:0 9:0 10:0 11:0 12:0 13:0 14:0 15:0 16:0 17:0 18:0 19:0 20:0 21:0 22:0 23:101 24:2 25:0 26:0 27:1 28:1 29:0.02 30:0.07 31:0 32:2 33:2 34:1 35:0 36:0.5 37:0 38:0 39:0 40:1 41:1 
-0 -0 0 0 0 0 0.001078515245869182 0 0 0 1:0 2:0 3:5 4:6 5:0 6:0 7:0 8:0 9:0 10:0 11:0 12:0 13:0 14:0 15:0 16:0 17:0 18:0 19:0 20:0 21:0 22:0 23:25 24:13 25:1 26:1 27:0 28:0 29:0.51999998 30:0.079999998 31:0 32:255 33:63 34:0.25 35:0.02 36:0.0099999998 37:0 38:1 39:1 40:0 41:0 
-0 -0 -0 0 0 0 0 0 6.570240347591575e-10 0 1:0 2:0 3:10 4:5 5:0 6:0 7:0 8:0 9:0 10:0 11:0 12:0 13:0 14:0 15:0 16:0 17:0 18:0 19:0 20:0 21:0 22:0 23:511 24:1 25:0.07 26:0 27:0.93000001 28:1 29:0 30:1 31:0 32:255 33:1 34:0 35:1 36:0 37:0 38:0 39:0 40:1 41:1 
-0 -0 -0.3231372909728067 0 0 0 0 0 0 0 1:0 2:0 3:10 4:6 5:0 6:0 7:0 8:0 9:0 10:0 11:0 12:0 13:0 14:0 15:0 16:0 17:0 18:0 19:0 20:0 21:0 22:0 23:509 24:1 25:0.28 26:1 27:0.70999998 28:0 29:0 30:1 31:0 32:255 33:1 34:0 35:1 36:0 37:0 38:0.27000001 39:1 40:0.69999999 41:0 
-0 -0 -0.3823306901554381 0 0 1 0 0 0 0 1:0 2:0 3:12 4:5 5:0 6:0 7:0 8:0 9:0 10:0 11:0 12:0 13:0 14:0 15:0 16:0 17:0 18:0 19:0 20:0 21:0 22:0 23:147 24:1 25:0.050000001 26:0 27:0.93000001 28:1 29:0.0099999998 30:1 31:0 32:255 33:1 34:0 35:0.75999999 36:0 37:0 38:0.029999999 39:0 40:0.55000001 41:1 
-0 -0 -0.09252065289192059 0 0 0 0 0 0 0 1:0 2:0 3:12 4:6 5:0 6:0 7:0 8:0 9:0 10:0 11:0 12:0 13:0 14:0 15:0 16:0 17:0 18:0 19:0 20:0 21:0 22:0 23:465 24:1 25:0.050000001 26:1 27:0.93000001 28:0 29:0 30:1 31:0 32:255 33:1 34:0 35:1 36:0 37:0 38:0.090000004 39:1 40:0.91000003 41:0 
-0 -0.002964705674426558 -0.001564812073449781 0.0001155885380431107 0.0004759404355069941 0.0007239761734601737 2.020705987930029e-05 1.455593820822609e-05 0 9.194194054435379e-07 1:0 2:0 3:16 4:8 5:6 6:26 7:0 8:0 9:0 10:0 11:0 12:1 13:0 14:0 15:0 16:0 17:0 18:0 19:0 20:0 21:0 22:0 23:50 24:1 25:0 26:0 27:0.95999998 28:1 29:0.02 30:1 31:0 32:168 33:1 34:0.0099999998 35:0.36000001 36:0.0099999998 37:0 38:0 39:0 40:0.30000001 41:1 
-0 -0.00275779104685038 -0 0 0 0 0.002636461689278525 0 0 0 1:0 2:1 3:12 4:0 5:1 6:0 7:0 8:0 9:0 10:0 11:0 12:0 13:0 14:0 15:0 16:0 17:0 18:0 19:0 20:0 21:0 22:0 23:22 24:19 25:0 26:0 27:0 28:0 29:0.86000001 30:0.090000004 31:0 32:255 33:32 34:0.13 35:0.68000001 36:0.36000001 37:0 38:0.050000001 39:0 40:0.57999998 41:0 
-0 -0.0008208566302663484 -0 0 0.01867754532722375 0.08199563810295497 0 0 0 0 1:0 2:1 3:12 4:0 5:1 6:0 7:0 8:0 9:0 10:0 11:0 12:0 13:0 14:0 15:0 16:0 17:0 18:0 19:0 20:0 21:0 22:0 23:2 24:2 25:0 26:0 27:0 28:0 29:1 30:0 31:0 32:255 33:2 34:0.0099999998 35:0.51999998 36:0.62 37:0 38:0 39:0 40:0.38 41:0 
-0 -0 -0 0 0 0.5284064067916614 0 0 0 0 1:0 2:0 3:12 4:5 5:0 6:0 7:0 8:0 9:0 10:0 11:0 12:0 13:0 14:0 15:0 16:0 17:0 18:0 19:0 20:0 21:0 22:0 23:211 24:1 25:0.0099999998 26:0 27:0.95999998 28:1 29:0 30:1 31:0 32:255 33:1 34:0 35:0.85000002 36:0 37:0 38:0.0099999998 39:0 40:0.80000001 41:1 
-7.031596432943258e-06 -0 -0.06420349810668392 0 0 0 3.992065678187139e-05 0 0 0 1:0 2:1 3:12 4:0 5:1 6:0 7:0 8:0 9:0 10:0 11:0 12:0 13:0 14:0 15:0 16:0 17:0 18:0 19:0 20:0 21:0 22:0 23:110 24:73 25:0 26:0 27:0 28:0 29:0.66000003 30:0.050000001 31:0 32:255 33:132 34:0.51999998 35:0.050000001 36:1 37:0 38:0 39:0 40:0 41:0 
-0 -0 -1 0 0 1 0 0 0 0 1:0 2:0 3:12 4:5 5:0 6:0 7:0 8:0 9:0 10:0 11:0 12:0 13:0 14:0 15:0 16:0 17:0 18:0 19:0 20:0 21:0 22:0 23:96 24:1 25:0.07 26:0 27:0.93000001 28:1 29:0.0099999998 30:1 31:0 32:255 33:1 34:0 35:0.63999999 36:0 37:0 38:0.029999999 39:0 40:0.36000001 41:1 
-0 -0 -0.002138852639964641 0 0 0 0 0 0 0 1:0 2:1 3:10 4:0 5:1 6:0 7:0 8:0 9:0 10:0 11:0 12:0 13:0 14:0 15:0 16:0 17:0 18:0 19:0 20:0 21:0 22:0 23:40 24:1 25:0 26:0 27:0 28:0 29:0.029999999 30:0.2 31:0 32:255 33:1 34:0 35:0.1 36:0.33000001 37:0 38:0 39:0 40:0.60000002 41:0 
-0 -0 -0 -0 0 0 0 0 6.572680214057787e-10 0 1:0 2:2 3:6 4:0 5:8 6:0 7:0 8:0 9:0 10:0 11:0 12:0 13:0 14:0 15:0 16:0 17:0 18:0 19:0 20:0 21:0 22:0 23:1 24:22 25:0 26:0 27:0 28:0 29:1 30:0 31:1 32:2 33:255 34:1 35:0 36:1 37:0.5 38:0 39:0 40:0 41:0 
-0 -0 -0 -0 0 0 0 1.691388925740556e-05 0 9.356852092964069e-07 1:0 2:2 3:6 4:0 5:18 6:0 7:0 8:0 9:0 10:0 11:0 12:0 13:0 14:0 15:0 16:0 17:0 18:0 19:0 20:0 21:0 22:0 23:1 24:1 25:0 26:0 27:0 28:0 29:1 30:0 31:0 32:1 33:5 34:1 35:0 36:1 37:1 38:0 39:0 40:0 41:0 
-2.62292165803199e-07 -1 -0.01403225304071389 -0.0001155885380431107 0.05945658898269902 0.0003549142997191103 4.439662277238904e-05 0 0 0 1:0 2:0 3:12 4:5 5:0 6:0 7:0 8:0 9:0 10:0 11:0 12:0 13:0 14:0 15:0 16:0 17:0 18:0 19:0 20:0 21:0 22:0 23:1 24:1 25:0 26:0 27:1 28:1 29:1 30:0 31:0 32:49 33:1 34:0.02 35:1 36:0.02 37:0 38:0 39:0 40:0.92000002 41:1 
-0 -0 -0 -0 0.963247082015353 0 0 0 0 0 1:0 2:2 3:6 4:0 5:8 6:0 7:0 8:0 9:0 10:0 11:0 12:0 13:0 14:0 15:0 16:0 17:0 18:0 19:0 20:0 21:0 22:0 23:1 24:10 25:0 26:0 27:0 28:0 29:1 30:0 31:1 32:2 33:58 34:1 35:0 36:1 37:0.5 38:0 39:0 40:0 41:0 
-0 -0 -0 -0 1 0 0 0 0 0 1:0 2:2 3:6 4:0 5:8 6:0 7:0 8:0 9:0 10:0 11:0 12:0 13:0 14:0 15:0 16:0 17:0 18:0 19:0 20:0 21:0 22:0 23:1 24:29 25:0 26:0 27:0 28:0 29:1 30:0 31:1 32:2 33:114 34:1 35:0 36:1 37:0.5 38:0 39:0 40:0 41:0 
-0 -0.1093747210735435 -0 -0 0 0 0 0 0 0 1:1 2:0 3:7 4:7 5:0 6:133 7:0 8:0 9:0 10:0 11:0 12:0 13:0 14:0 15:0 16:0 17:0 18:0 19:0 20:0 21:0 22:0 23:1 24:1 25:0 26:0 27:1 28:1 29:1 30:0 31:0 32:2 33:2 34:0.5 35:1 36:0.5 37:1 38:0 39:0 40:1 41:1 
-0 -0 -0 -0 1 0 0 0 0 0 1:0 2:2 3:6 4:0 5:8 6:0 7:0 8:0 9:0 10:0 11:0 12:0 13:0 14:0 15:0 16:0 17:0 18:0 19:0 20:0 21:0 22:0 23:1 24:41 25:0 26:0 27:0 28:0 29:1 30:0 31:1 32:2 33:255 34:1 35:0 36:1 37:0.5 38:0 39:0 40:0 41:0 
-0 -0 -0 -0 1 0 0 0 0 0 1:0 2:2 3:6 4:0 5:8 6:0 7:0 8:0 9:0 10:0 11:0 12:0 13:0 14:0 15:0 16:0 17:0 18:0 19:0 20:0 21:0 22:0 23:1 24:19 25:0 26:0 27:0 28:0 29:1 30:0 31:1 32:2 33:86 34:1 35:0 36:1 37:0.5 38:0 39:0 40:0 41:0 
-0 -0.8328738527705889 -0 -0 0 0 0 0 0 0 1:0 2:0 3:12 4:5 5:0 6:0 7:0 8:0 9:0 10:0 11:0 12:0 13:0 14:0 15:0 16:0 17:0 18:0 19:0 20:0 21:0 22:0 23:1 24:1 25:0 26:0 27:1 28:1 29:1 30:0 31:0 32:45 33:1 34:0.02 35:1 36:0.02 37:0 38:0 39:0 40:0.91000003 41:1 
-0 -0 -0 -0 0.04552102960211333 0 0 0 0 0 1:0 2:2 3:6 4:0 5:8 6:0 7:0 8:0 9:0 10:0 11:0 12:0 13:0 14:0 15:0 16:0 17:0 18:0 19:0 20:0 21:0 22:0 23:1 24:38 25:0 26:0 27:0 28:0 29:1 30:0 31:1 32:2 33:255 34:1 35:0 36:1 37:0.5 38:0 39:0 40:0 41:0 
-0 -1 -0 -0 0.3475615209488116 0 0 5.90972489834753e-08 0 0 1:0 2:2 3:6 4:0 5:18 6:0 7:0 8:0 9:0 10:0 11:0 12:0 13:0 14:0 15:0 16:0 17:0 18:0 19:0 20:0 21:0 22:0 23:1 24:1 25:0 26:0 27:0 28:0 29:1 30:0 31:0 32:3 33:179 34:1 35:0 36:1 37:0.25 38:0 39:0 40:0 41:0 
-0 -0 -0.001136482462314854 -0 1 0 0 0 0 0 1:0 2:2 3:6 4:0 5:8 6:0 7:0 8:0 9:0 10:0 11:0 12:0 13:0 14:0 15:0 16:0 17:0 18:0 19:0 20:0 21:0 22:0 23:1 24:47 25:0 26:0 27:0 28:0 29:1 30:0 31:1 32:2 33:28 34:1 35:0 36:1 37:0.5 38:0 39:0 40:0 41:0 
-0 -0 -0 -0 0 0 0 3.044948844382881e-06 0 0 1:0 2:2 3:6 4:0 5:18 6:0 7:0 8:0 9:0 10:0 11:0 12:0 13:0 14:0 15:0 16:0 17:0 18:0 19:0 20:0 21:0 22:0 23:1 24:1 25:0 26:0 27:0 28:0 29:1 30:0 31:0 32:1 33:255 34:1 35:0 36:1 37:1 38:0 39:0 40:0 41:0 
-0 -1 -0 -0 0 0 0 0 0 0 1:0 2:2 3:6 4:0 5:18 6:0 7:0 8:0 9:0 10:0 11:0 12:0 13:0 14:0 15:0 16:0 17:0 18:0 19:0 20:0 21:0 22:0 23:1 24:1 25:0 26:0 27:0 28:0 29:1 30:0 31:0 32:2 33:94 34:1 35:0 36:1 37:0.25999999 38:0 39:0 40:0 41:0 
-0 -0 -0 -0 0.5778078148563066 0 0 0 0 0 1:0 2:2 3:6 4:0 5:8 6:0 7:0 8:0 9:0 10:0 11:0 12:0 13:0 14:0 15:0 16:0 17:0 18:0 19:0 20:0 21:0 22:0 23:1 24:46 25:0 26:0 27:0 28:0 29:1 30:0 31:1 32:2 33:62 34:1 35:0 36:1 37:0.51999998 38:0 39:0 40:0 41:0 
-0 -0 -0 -0 1 0 0 0 0 0 1:0 2:2 3:6 4:0 5:8 6:0 7:0 8:0 9:0 10:0 11:0 12:0 13:0 14:0 15:0 16:0 17:0 18:0 19:0 20:0 21:0 22:0 23:1 24:35 25:0 26:0 27:0 28:0 29:1 30:0 31:1 32:2 33:94 34:1 35:0 36:1 37:0.5 38:0 39:0 40:0 41:0 
-0 -0 -0 -0 0.02076796517446458 0 0 0 0 0 1:0 2:2 3:6 4:0 5:8 6:0 7:0 8:0 9:0 10:0 11:0 12:0 13:0 14:0 15:0 16:0 17:0 18:0 19:0 20:0 21:0 22:0 23:1 24:32 25:0 26:0 27:0 28:0 29:1 30:0 31:1 32:2 33:63 34:1 35:0 36:1 37:0.50999999 38:0 39:0 40:0 41:0 
-0 -0 -0 -0 1 0 0 0 0 0 1:0 2:2 3:6 4:0 5:8 6:0 7:0 8:0 9:0 10:0 11:0 12:0 13:0 14:0 15:0 16:0 17:0 18:0 19:0 20:0 21:0 22:0 23:1 24:39 25:0 26:0 27:0 28:0 29:1 30:0 31:1 32:2 33:255 34:1 35:0 36:1 37:0.5 38:0 39:0 40:0 41:0 
-0 -0 -0 -0 1 0 0 0 0 0 1:0 2:2 3:6 4:0 5:8 6:0 7:0 8:0 9:0 10:0 11:0 12:0 13:0 14:0 15:0 16:0 17:0 18:0 19:0 20:0 21:0 22:0 23:1 24:41 25:0 26:0 27:0 28:0 29:1 30:0 31:1 32:2 33:255 34:1 35:0 36:1 37:0.5 38:0 39:0 40:0 41:0 
-0 -0.001449332292115368 -0.001951117793492421 -0 0 0 0 0 0 0 1:0 2:2 3:6 4:0 5:8 6:0 7:0 8:0 9:0 10:0 11:0 12:0 13:0 14:0 15:0 16:0 17:0 18:0 19:0 20:0 21:0 22:0 23:1 24:52 25:0 26:0 27:0 28:0 29:1 30:0 31:1 32:1 33:87 34:1 35:0 36:1 37:0.50999999 38:0 39:0 40:0 41:0 
-0 -0.5400104543220096 -0 -0 0 0 0 0 0 0 1:0 2:2 3:6 4:0 5:18 6:0 7:0 8:0 9:0 10:0 11:0 12:0 13:0 14:0 15:0 16:0 17:0 18:0 19:0 20:0 21:0 22:0 23:1 24:1 25:0 26:0 27:0 28:0 29:1 30:0 31:0 32:2 33:126 34:1 35:0 36:1 37:0.25 38:0 39:0 40:0 41:0 
-0 -0 -0 -0 1 0 0 0 0 0 1:0 2:2 3:6 4:0 5:8 6:0 7:0 8:0 9:0 10:0 11:0 12:0 13:0 14:0 15:0 16:0 17:0 18:0 19:0 20:0 21:0 22:0 23:1 24:47 25:0 26:0 27:0 28:0 29:1 30:0 31:1 32:2 33:255 34:1 35:0 36:1 37:0.5 38:0 39:0 40:0 41:0 
-0 -0 -0 -0 1 0 0 0 0 0 1:0 2:2 3:6 4:0 5:8 6:0 7:0 8:0 9:0 10:0 11:0 12:0 13:0 14:0 15:0 16:0 17:0 18:0 19:0 20:0 21:0 22:0 23:1 24:41 25:0 26:0 27:0 28:0 29:1 30:0 31:1 32:2 33:58 34:1 35:0 36:1 37:0.5 38:0 39:0 40:0 41:0 
-5.986186186281308e-06 -0 -0 -0 0 0 0 0 0 0 1:0 2:2 3:6 4:0 5:18 6:0 7:0 8:0 9:0 10:0 11:0 12:0 13:0 14:0 15:0 16:0 17:0 18:0 19:0 20:0 21:0 22:0 23:1 24:1 25:0 26:0 27:0 28:0 29:1 30:0 31:0 32:2 33:255 34:1 35:0 36:1 37:0.25 38:0 39:0 40:0 41:0 
-0 -0 -0 -0.0001575958690170956 -1 0 0 3.556211799198148e-06 0 0 1:0 2:2 3:6 4:0 5:8 6:0 7:0 8:0 9:0 10:0 11:0 12:0 13:0 14:0 15:0 16:0 17:0 18:0 19:0 20:0 21:0 22:0 23:1 24:47 25:0 26:0 27:0 28:0 29:1 30:0 31:1 32:3 33:35 34:1 35:0 36:1 37:0.25999999 38:0 39:0 40:0 41:0 
-0 -0 -0 -0 -1 0 0 0 0 0 1:0 2:2 3:6 4:0 5:8 6:0 7:0 8:0 9:0 10:0 11:0 12:0 13:0 14:0 15:0 16:0 17:0 18:0 19:0 20:0 21:0 22:0 23:1 24:51 25:0 26:0 27:0 28:0 29:1 30:0 31:1 32:1 33:93 34:1 35:0 36:1 37:0.25999999 38:0 39:0 40:0 41:0 
-0 -0.1915276185907498 -0.00742871389274247 -0 -1 0.001978868606512878 0 0 0 0 1:0 2:2 3:6 4:0 5:8 6:0 7:0 8:0 9:0 10:0 11:0 12:0 13:0 14:0 15:0 16:0 17:0 18:0 19:0 20:0 21:0 22:0 23:1 24:19 25:0 26:0 27:0 28:0 29:1 30:0 31:1 32:3 33:42 34:1 35:0 36:1 37:0.25999999 38:0 39:0 40:0 41:0 
-0 -0.8185768095343433 -0.01400645989536758 -0 -1 0 0 0 0 0 1:0 2:2 3:6 4:0 5:8 6:0 7:0 8:0 9:0 10:0 11:0 12:0 13:0 14:0 15:0 16:0 17:0 18:0 19:0 20:0 21:0 22:0 23:1 24:10 25:0 26:0 27:0 28:0 29:1 30:0 31:1 32:4 33:255 34:1 35:0 36:1 37:0.25 38:0 39:0 40:0 41:0 
-0 -0 -0 -0 -1 0 0 0 0 0 1:0 2:2 3:6 4:0 5:8 6:0 7:0 8:0 9:0 10:0 11:0 12:0 13:0 14:0 15:0 16:0 17:0 18:0 19:0 20:0 21:0 22:0 23:1 24:34 25:0 26:0 27:0 28:0 29:1 30:0 31:1 32:1 33:41 34:1 35:0 36:1 37:0.27000001 38:0 39:0 40:0 41:0 
-0 -0 -0 -0 -1 0 0 0 0 0 1:0 2:2 3:6 4:0 5:8 6:0 7:0 8:0 9:0 10:0 11:0 12:0 13:0 14:0 15:0 16:0 17:0 18:0 19:0 20:0 21:0 22:0 23:1 24:35 25:0 26:0 27:0 28:0 29:1 30:0 31:1 32:1 33:173 34:1 35:0 36:1 37:0.25 38:0 39:0 40:0 41:0 
-1.630748579847312e-05 -1 -0 -0.0001122862377769697 -0.0143620015797093 0 0.0002049981908803617 4.360319359585407e-05 6.621825405457291e-10 1.237910754177627e-06 1:0 2:1 3:12 4:0 5:215 6:0 7:0 8:0 9:0 10:0 11:0 12:0 13:0 14:0 15:0 16:0 17:0 18:0 19:0 20:0 21:0 22:0 23:1 24:1 25:0 26:0 27:0 28:0 29:1 30:0 31:0 32:155 33:131 34:0.85000002 35:0.0099999998 36:0.85000002 37:0 38:0 39:0 40:0 41:0 
-0 -0 -0 -0 -1 0 0 0 0 0 1:0 2:2 3:6 4:0 5:8 6:0 7:0 8:0 9:0 10:0 11:0 12:0 13:0 14:0 15:0 16:0 17:0 18:0 19:0 20:0 21:0 22:0 23:1 24:30 25:0 26:0 27:0 28:0 29:1 30:0 31:1 32:3 33:255 34:1 35:0 36:1 37:0.25 38:0 39:0 40:0 41:0 
-0 -0 -0 -0 -0 0.08942357890711261 0 0 0 0 1:0 2:0 3:12 4:10 5:0 6:0 7:0 8:0 9:0 10:0 11:0 12:0 13:0 14:0 15:0 16:0 17:0 18:0 19:0 20:0 21:0 22:0 23:1 24:1 25:1 26:1 27:0 28:0 29:1 30:0 31:0 32:148 33:1 34:0.0099999998 35:0.93000001 36:0.94999999 37:0 38:0.94999999 39:1 40:0 41:0 
-0 -0 -0 -0 -1 0 3.111389090042404e-05 0 0 0 1:0 2:2 3:6 4:0 5:8 6:0 7:0 8:0 9:0 10:0 11:0 12:0 13:0 14:0 15:0 16:0 17:0 18:0 19:0 20:0 21:0 22:0 23:1 24:47 25:0 26:0 27:0 28:0 29:1 30:0 31:1 32:3 33:247 34:1 35:0 36:1 37:0.25 38:0 39:0 40:0 41:0 
-0 -0 -0 -0 -1 0 0 0 0 0 1:0 2:2 3:6 4:0 5:8 6:0 7:0 8:0 9:0 10:0 11:0 12:0 13:0 14:0 15:0 16:0 17:0 18:0 19:0 20:0 21:0 22:0 23:1 24:50 25:0 26:0 27:0 28:0 29:1 30:0 31:1 32:1 33:89 34:1 35:0 36:1 37:0.25999999 38:0 39:0 40:0 41:0 
-0 -0 -0 -0 -1 0 0 0 0 0 1:0 2:2 3:6 4:0 5:8 6:0 7:0 8:0 9:0 10:0 11:0 12:0 13:0 14:0 15:0 16:0 17:0 18:0 19:0 20:0 21:0 22:0 23:1 24:34 25:0 26:0 27:0 28:0 29:1 30:0 31:1 32:2 33:218 34:1 35:0 36:1 37:0.25 38:0 39:0 40:0 41:0 
-0 -0.3015428876781681 -0.1409020271044217 -0.01888360365593668 -0 0.08663326584902242 0.001283351903973146 0 0 0 1:0 2:0 3:12 4:10 5:0 6:0 7:0 8:0 9:0 10:0 11:0 12:0 13:0 14:0 15:0 16:0 17:0 18:0 19:0 20:0 21:0 22:0 23:1 24:1 25:1 26:1 27:0 28:0 29:1 30:0 31:0 32:255 33:1 34:0 35:0.95999998 36:0.97000003 37:0 38:0.97000003 39:1 40:0 41:0 
-0 -0 -0 -0 -1 0 0 0 0 0 1:0 2:2 3:6 4:0 5:8 6:0 7:0 8:0 9:0 10:0 11:0 12:0 13:0 14:0 15:0 16:0 17:0 18:0 19:0 20:0 21:0 22:0 23:1 24:21 25:0 26:0 27:0 28:0 29:1 30:0 31:1 32:1 33:117 34:1 35:0 36:1 37:0.25999999 38:0 39:0 40:0 41:0 
-0 -0 -0 -0 -0 -0 0 0 6.570795708431443e-10 8.832639734250633e-07 1:0 2:0 3:10 4:8 5:0 6:0 7:0 8:0 9:0 10:0 11:0 12:0 13:0 14:0 15:0 16:0 17:0 18:0 19:0 20:0 21:0 22:0 23:1 24:1 25:0 26:0 27:1 28:1 29:1 30:0 31:0 32:255 33:1 34:0 35:0.69999999 36:1 37:0 38:0 39:0 40:1 41:1 
-0 -0.05005447534075016 -0.9444187656617551 -0.0003677409583829579 -0.0003549142997191103 -0.002089176968380836 0 1.58805442283817e-05 0 0 1:0 2:0 3:12 4:8 5:0 6:0 7:0 8:0 9:0 10:0 11:0 12:0 13:0 14:0 15:0 16:0 17:0 18:0 19:0 20:0 21:0 22:0 23:1 24:1 25:0 26:0 27:1 28:1 29:1 30:0 31:0 32:124 33:1 34:0.0099999998 35:0.22 36:0.20999999 37:0 38:0 39:0 40:0.2 41:1 
-0 -0 -1 -0.6413910045024708 -0 -0 0 0 0 0 1:0 2:0 3:12 4:5 5:0 6:0 7:0 8:0 9:0 10:0 11:0 12:0 13:0 14:0 15:0 16:0 17:0 18:0 19:0 20:0 21:0 22:0 23:125 24:1 25:0 26:0 27:1 28:1 29:0.0099999998 30:0.52999997 31:0 32:255 33:1 34:0 35:0.27000001 36:0.49000001 37:0 38:0 39:0 40:0.89999998 41:1 
-0 -0 -0.5047949279528708 -0 -0 -0 0 0 0 0 1:0 2:0 3:12 4:8 5:0 6:0 7:0 8:0 9:0 10:0 11:0 12:0 13:0 14:0 15:0 16:0 17:0 18:0 19:0 20:0 21:0 22:0 23:1 24:1 25:0 26:0 27:1 28:1 29:1 30:0 31:0 32:255 33:1 34:0 35:0.12 36:0.11 37:0 38:0 39:0 40:0.11 41:1 
-0 -0 -0 -0 -0 -0 0.0004656546249708672 0 0 0 1:0 2:0 3:12 4:5 5:0 6:0 7:0 8:0 9:0 10:0 11:0 12:0 13:0 14:0 15:0 16:0 17:0 18:0 19:0 20:0 21:0 22:0 23:1 24:1 25:0 26:0 27:1 28:1 29:1 30:0 31:0 32:255 33:1 34:0 35:1 36:1 37:0 38:0 39:0 40:1 41:1 
-0 -0 -0.1226131931189901 -0 -0 -0 0 0 0 0 1:0 2:0 3:54 4:5 5:0 6:0 7:0 8:0 9:0 10:0 11:0 12:0 13:0 14:0 15:0 16:0 17:0 18:0 19:0 20:0 21:0 22:0 23:285 24:1 25:0 26:0 27:1 28:1 29:0 30:0.52999997 31:0 32:255 33:1 34:0 35:0.51999998 36:1 37:0 38:0 39:0 40:1 41:1 
-0 -0 -0 -0 -0 -0.100961361938921 0 0 0 0 1:0 2:0 3:12 4:8 5:0 6:0 7:0 8:0 9:0 10:0 11:0 12:0 13:0 14:0 15:0 16:0 17:0 18:0 19:0 20:0 21:0 22:0 23:1 24:1 25:0 26:0 27:1 28:1 29:1 30:0 31:0 32:158 33:1 34:0.0099999998 35:0.38999999 36:0.38 37:0 38:0 39:0 40:0.37 41:1 
-0 -0 -1 -0.09854292465238028 -0 -0.0008676685503902547 0 0 0 0 1:0 2:0 3:12 4:6 5:0 6:0 7:0 8:0 9:0 10:0 11:0 12:0 13:0 14:0 15:0 16:0 17:0 18:0 19:0 20:0 21:0 22:0 23:20 24:1 25:0.80000001 26:1 27:0.2 28:0 29:0.050000001 30:0.44999999 31:0 32:255 33:1 34:0 35:0.039999999 36:0.079999998 37:0 38:0.059999999 39:1 40:0.02 41:0 
-0 -0 -1 -0.001224567016642083 -0 -0 0 0 0 0 1:0 2:0 3:22 4:5 5:0 6:0 7:0 8:0 9:0 10:0 11:0 12:0 13:0 14:0 15:0 16:0 17:0 18:0 19:0 20:0 21:0 22:0 23:81 24:1 25:0 26:0 27:1 28:1 29:0.0099999998 30:0.54000002 31:0 32:255 33:1 34:0 35:0.18000001 36:0.31999999 37:0 38:0 39:0 40:0.85000002 41:1 
-0 -0 -0 -0 -0 -0.005896439197207936 0 0 0 0 1:0 2:0 3:10 4:8 5:0 6:0 7:0 8:0 9:0 10:0 11:0 12:0 13:0 14:0 15:0 16:0 17:0 18:0 19:0 20:0 21:0 22:0 23:1 24:1 25:0 26:0 27:1 28:1 29:1 30:0 31:0 32:255 33:1 34:0 35:1 36:1 37:0 38:0 39:0 40:0.99000001 41:1 
-0 -0 -1 -0 -0 -0 0 0 0 0 1:0 2:0 3:12 4:6 5:0 6:0 7:0 8:0 9:0 10:0 11:0 12:0 13:0 14:0 15:0 16:0 17:0 18:0 19:0 20:0 21:0 22:0 23:129 24:2 25:0.74000001 26:1 27:0.25999999 28:0 29:0.02 30:0.36000001 31:0 32:255 33:2 34:0.0099999998 35:0.18000001 36:0.50999999 37:0 38:0.37 39:1 40:0.13 41:0 
-0 -0.0008567367488582232 -0.3523044232125274 -0.8695997839382053 -0 -0 0 0 0 2.96547624289756e-08 1:0 2:0 3:12 4:5 5:0 6:0 7:0 8:0 9:0 10:0 11:0 12:0 13:0 14:0 15:0 16:0 17:0 18:0 19:0 20:0 21:0 22:0 23:311 24:1 25:0 26:0 27:1 28:1 29:0 30:0.5 31:0 32:255 33:1 34:0 35:0.50999999 36:1 37:0 38:0 39:0 40:1 41:1 
-9.50933830588235e-07 -0 -0 -0 -0 -0 0.0001258713531635911 0 0 0 1:0 2:0 3:12 4:5 5:0 6:0 7:0 8:0 9:0 10:0 11:0 12:0 13:0 14:0 15:0 16:0 17:0 18:0 19:0 20:0 21:0 22:0 23:1 24:1 25:0 26:0 27:1 28:1 29:1 30:0 31:0 32:255 33:1 34:0 35:1 36:1 37:0 38:0 39:0 40:1 41:1 
-0 -0 -0 -1 -0 -0 0 0 0 0 1:0 2:0 3:12 4:5 5:0 6:0 7:0 8:0 9:0 10:0 11:0 12:0 13:0 14:0 15:0 16:0 17:0 18:0 19:0 20:0 21:0 22:0 23:2 24:1 25:0 26:0 27:1 28:1 29:0.5 30:1 31:0 32:255 33:1 34:0 35:0.56999999 36:0.52999997 37:0 38:0.0099999998 39:0 40:0.52999997 41:1 
-0 -0 -0 -0 -0 -6.660773720335378e-09 0 0 0 9.894608908179567e-11 1:3791 2:0 3:10 4:8 5:1 6:0 7:0 8:0 9:0 10:0 11:0 12:0 13:0 14:0 15:0 16:0 17:0 18:0 19:0 20:0 21:0 22:0 23:2 24:2 25:0 26:0 27:1 28:1 29:1 30:0 31:0 32:255 33:2 34:0.0099999998 35:0.64999998 36:1 37:0 38:0 39:0 40:1 41:1 
-4.99024516014125e-06 -0 -0.06978485075269626 -0 -0 -0 0.0004331897264316586 0 0 0 1:4 2:0 3:12 4:8 5:0 6:0 7:0 8:0 9:0 10:0 11:0 12:0 13:0 14:0 15:0 16:0 17:0 18:0 19:0 20:0 21:0 22:0 23:61 24:2 25:0 26:0 27:1 28:1 29:0.029999999 30:0.54000002 31:0 32:255 33:2 34:0.0099999998 35:0.14 36:0.23999999 37:0 38:0 39:0 40:0.85000002 41:1 
-0 -0 -0 -0 -0 -0.06822106004697434 0 0 0 0 1:0 2:0 3:12 4:8 5:0 6:0 7:0 8:0 9:0 10:0 11:0 12:0 13:0 14:0 15:0 16:0 17:0 18:0 19:0 20:0 21:0 22:0 23:1 24:1 25:0 26:0 27:1 28:1 29:1 30:0 31:0 32:255 33:1 34:0 35:0.94 36:0.94 37:0 38:0 39:0 40:0.93000001 41:1 
-7.964675473825747e-06 -0 -0 -0 -0 -0 -0 0 6.577449648517929e-10 0 1:0 2:1 3:12 4:0 5:28 6:0 7:0 8:3 9:0 10:0 11:0 12:0 13:0 14:0 15:0 16:0 17:0 18:0 19:0 20:0 21:0 22:0 23:59 24:59 25:0 26:0 27:0 28:0 29:1 30:0 31:0 32:255 33:159 34:0.62 35:0.38 36:0.62 37:0 38:0.090000004 39:0 40:0.28999999 41:0 
-0 -0.2049557507460102 -0.001657892217359984 -0.000483233168298911 -0 -0.0004582136156275745 -0 8.453841161091696e-06 0 0 1:0 2:1 3:12 4:0 5:28 6:0 7:0 8:3 9:0 10:0 11:0 12:0 13:0 14:0 15:0 16:0 17:0 18:0 19:0 20:0 21:0 22:0 23:5 24:5 25:0 26:0 27:0 28:0 29:1 30:0 31:0 32:255 33:72 34:0.28 35:0.0099999998 36:0.28 37:0 38:0 39:0 40:0 41:0 
-0 -0 -0.0006784168537107448 -0.002213356237640787 -4.439662277238904e-05 -0.001061250370126358 -0.001024715704566116 4.44825847195742e-06 0 9.483457551339632e-07 1:0 2:1 3:12 4:0 5:28 6:0 7:0 8:3 9:0 10:0 11:0 12:0 13:0 14:0 15:0 16:0 17:0 18:0 19:0 20:0 21:0 22:0 23:26 24:25 25:0 26:0 27:0.039999999 28:0 29:0.95999998 30:0.079999998 31:0 32:255 33:25 34:0.1 35:0.02 36:0.1 37:0 38:0 39:0 40:0.69 41:0 
-2.740477727075141e-07 -1 -0 -0 -0 -0 -0 -0 5.702369767654994e-08 0 1:1 2:0 3:7 4:0 5:1222 6:2451 7:0 8:0 9:0 10:28 11:0 12:1 13:0 14:0 15:0 16:0 17:0 18:0 19:0 20:0 21:0 22:1 23:1 24:1 25:0 26:0 27:0 28:0 29:1 30:0 31:0 32:212 33:40 34:0.19 35:0.02 36:0 37:0 38:0 39:0 40:0.0099999998 41:0 
-0 -1 -0 -0 -8.799862260305223e-06 -0 -0 -0 0 0 1:0 2:0 3:13 4:0 5:334 6:0 7:0 8:0 9:0 10:0 11:0 12:1 13:0 14:0 15:0 16:0 17:0 18:0 19:0 20:0 21:0 22:0 23:1 24:1 25:0 26:0 27:0 28:0 29:1 30:0 31:0 32:1 33:39 34:1 35:0 36:1 37:0.15000001 38:0 39:0 40:0 41:0 
-0 -1 -0 -0 -0 -0 -0 -0 0 0 1:0 2:0 3:13 4:0 5:334 6:0 7:0 8:0 9:0 10:0 11:0 12:1 13:0 14:0 15:0 16:0 17:0 18:0 19:0 20:0 21:0 22:0 23:1 24:1 25:0 26:0 27:0 28:0 29:1 30:0 31:0 32:1 33:11 34:1 35:0 36:1 37:0.27000001 38:0 39:0 40:0 41:0 
-0 -1 -0 -0 -0 -0 -0 -0 0 0 1:12 2:0 3:13 4:0 5:7045 6:0 7:0 8:0 9:0 10:0 11:0 12:1 13:0 14:0 15:0 16:0 17:0 18:0 19:0 20:0 21:0 22:0 23:2 24:2 25:0 26:0 27:0 28:0 29:1 30:0 31:0 32:2 33:37 34:1 35:0 36:1 37:0.16 38:0 39:0.029999999 40:0 41:0 
-0 -1 -1.336103516221082e-05 -1.043794613195435e-05 -0 -0 -1.289179175818427e-05 -0 0 0.06034801564026073 1:0 2:0 3:13 4:0 5:334 6:0 7:0 8:0 9:0 10:0 11:0 12:1 13:0 14:0 15:0 16:0 17:0 18:0 19:0 20:0 21:0 22:0 23:2 24:2 25:0 26:0 27:0 28:0 29:1 30:0 31:0 32:4 33:4 34:1 35:0 36:1 37:0 38:0 39:0 40:0 41:0 
-3.268614966724253e-05 -1 -4.505227936058453e-06 -4.117992076271736e-06 -1.12180730904667e-05 -4.715940539505222e-05 -2.988752470197432e-06 -1.290209963304912e-05 0 0 1:0 2:0 3:13 4:0 5:334 6:0 7:0 8:0 9:0 10:0 11:0 12:1 13:0 14:0 15:0 16:0 17:0 18:0 19:0 20:0 21:0 22:0 23:2 24:2 25:0 26:0 27:0 28:0 29:1 30:0 31:0 32:8 33:47 34:1 35:0 36:1 37:0.13 38:0 39:0 40:0 41:0 
-4.436862622297827e-09 -0 -0 -0 -0 -0 -0 -0 0 1.348138643156165e-05 1:5044 2:0 3:13 4:0 5:5131424 6:0 7:0 8:0 9:0 10:3 11:0 12:1 13:0 14:0 15:0 16:0 17:0 18:0 19:0 20:0 21:0 22:0 23:1 24:1 25:0 26:0 27:0 28:0 29:1 30:0 31:0 32:11 33:39 34:1 35:0 36:1 37:0.13 38:0 39:0 40:0 41:0 
-0 -0.01632403670751702 -0 -0 -0 -0 -0 -0 5.98335436815721e-10 0 1:5056 2:0 3:13 4:0 5:5135678 6:0 7:0 8:0 9:0 10:1 11:0 12:1 13:0 14:0 15:0 16:0 17:0 18:0 19:0 20:0 21:0 22:0 23:1 24:2 25:0 26:0 27:0 28:0 29:1 30:0 31:1 32:1 33:27 34:1 35:0 36:1 37:0.22 38:0 39:0.039999999 40:0 41:0 
-0 -0 -0 -0 -0 -0 -0 -0 -0 6.933499991746362e-10 1:0 2:0 3:0 4:0 5:54540 6:8314 7:0 8:0 9:0 10:2 11:0 12:1 13:1 14:0 15:0 16:0 17:0 18:0 19:0 20:0 21:0 22:0 23:2 24:2 25:0 26:0 27:0 28:0 29:1 30:0 31:0 32:255 33:255 34:1 35:0 36:0 37:0 38:0 39:0 40:0.02 41:0.02 
-0 -1 -0 -0 -0 -0 -0 -0 -0 0 1:0 2:0 3:0 4:0 5:54540 6:8314 7:0 8:0 9:0 10:2 11:0 12:1 13:1 14:0 15:0 16:0 17:0 18:0 19:0 20:0 21:0 22:0 23:2 24:2 25:0 26:0 27:0 28:0 29:1 30:0 31:0 32:212 33:212 34:1 35:0 36:0 37:0 38:0 39:0 40:0.0099999998 41:0.0099999998 
-0 -1 -0 -6.570240347591575e-10 -0 -0 -0 -0 -3.782258054112674e-09 0 1:0 2:0 3:0 4:0 5:54540 6:8314 7:0 8:0 9:0 10:2 11:0 12:1 13:1 14:0 15:0 16:0 17:0 18:0 19:0 20:0 21:0 22:0 23:5 24:4 25:0 26:0 27:0.2 28:0.25 29:0.80000001 30:0.40000001 31:0 32:74 33:74 34:1 35:0 36:0.0099999998 37:0 38:0 39:0 40:0.039999999 41:0.039999999 
-0 -0 -0 -0 -0 -0 -0 -0 -1.384214945206492e-10 0 1:0 2:0 3:0 4:0 5:54540 6:8314 7:0 8:0 9:0 10:2 11:0 12:1 13:1 14:0 15:0 16:0 17:0 18:0 19:0 20:0 21:0 22:0 23:2 24:2 25:0 26:0 27:0 28:0 29:1 30:0 31:0 32:44 33:44 34:1 35:0 36:0.02 37:0 38:0.02 39:0.02 40:0.02 41:0.02 
-0 -1 -6.57076365520333e-10 -0 -6.572680214057787e-10 -6.545287680938842e-10 -6.570795708431443e-10 -0 -6.170215208370504e-09 0 1:0 2:0 3:0 4:0 5:54540 6:8314 7:0 8:0 9:0 10:2 11:0 12:1 13:1 14:0 15:0 16:0 17:0 18:0 19:0 20:0 21:0 22:0 23:3 24:3 25:0 26:0 27:0 28:0 29:1 30:0 31:0 32:80 33:80 34:1 35:0 36:0.0099999998 37:0 38:0.0099999998 39:0.0099999998 40:0.0099999998 41:0.0099999998 
-0 -0 -0 -0 -0 -0 -0 -0 -2.596914679940056e-08 0 1:0 2:0 3:0 4:0 5:54540 6:8314 7:0 8:0 9:0 10:2 11:0 12:1 13:1 14:0 15:0 16:0 17:0 18:0 19:0 20:0 21:0 22:0 23:2 24:4 25:0 26:0.25 27:0 28:0 29:1 30:0 31:0.5 32:42 33:42 34:1 35:0 36:0.02 37:0 38:0.02 39:0.02 40:0.02 41:0.02 
-0 -1 -0 -0 -0 -0 -0 -6.577449648517929e-10 -6.121732659800628e-09 0 1:0 2:0 3:0 4:0 5:54540 6:8314 7:0 8:0 9:0 10:2 11:0 12:1 13:1 14:0 15:0 16:0 17:0 18:0 19:0 20:0 21:0 22:0 23:5 24:5 25:0 26:0 27:0 28:0 29:1 30:0 31:0 32:225 33:225 34:1 35:0 36:0 37:0 38:0 39:0 40:0.059999999 41:0.059999999 
-0 -1 -0 -0 -0 -0 -0 -0 -1.429337129440644e-11 0 1:0 2:0 3:0 4:0 5:54540 6:8314 7:0 8:0 9:0 10:2 11:0 12:1 13:1 14:0 15:0 16:0 17:0 18:0 19:0 20:0 21:0 22:0 23:2 24:2 25:0 26:0 27:0 28:0 29:1 30:0 31:0 32:28 33:28 34:1 35:0 36:0.039999999 37:0 38:0 39:0 40:0 41:0 
-6.819568149592126e-10 -0 -0 -0 -0 -7.653772451844901e-12 -0 -0 -0 0 1:0 2:0 3:0 4:0 5:54540 6:8314 7:0 8:0 9:0 10:2 11:0 12:1 13:1 14:0 15:0 16:0 17:0 18:0 19:0 20:0 21:0 22:0 23:7 24:7 25:0 26:0 27:0 28:0 29:1 30:0 31:0 32:255 33:255 34:1 35:0 36:0 37:0 38:0 39:0 40:0.039999999 41:0.039999999 
-0 -0 -0 -0 -0 -0 -0 -0 -1.542596552586622e-08 0 1:0 2:0 3:0 4:0 5:54540 6:8314 7:0 8:0 9:0 10:2 11:0 12:1 13:1 14:0 15:0 16:0 17:0 18:0 19:0 20:0 21:0 22:0 23:4 24:4 25:0 26:0 27:0.25 28:0.25 29:1 30:0 31:0 32:255 33:255 34:1 35:0 36:0 37:0 38:0 39:0 40:0.050000001 41:0.050000001 
-9.964862463855799e-06 -0.7054733245431192 -9.129624057237459e-07 -6.102803495161767e-07 -0 -7.705819300955188e-07 -9.129187358540389e-07 -9.483457551339632e-07 -0.0007566416018120474 -6.933499991746362e-10 1:0 2:2 3:9 4:0 5:1480 6:0 7:0 8:1 9:0 10:0 11:0 12:0 13:0 14:0 15:0 16:0 17:0 18:0 19:0 20:0 21:0 22:0 23:11 24:11 25:0 26:0 27:0 28:0 29:1 30:0 31:0 32:255 33:11 34:0.039999999 35:0.02 36:0.039999999 37:0 38:0 39:0 40:0 41:0 
-0 -0.1175113260571695 -0 -3.091390559273614e-07 -9.356852092964069e-07 -4.673288240821083e-07 -9.894608908179567e-11 -0 -0.05960485542487983 -0 1:0 2:2 3:9 4:0 5:1480 6:0 7:0 8:1 9:0 10:0 11:0 12:0 13:0 14:0 15:0 16:0 17:0 18:0 19:0 20:0 21:0 22:0 23:1 24:1 25:0 26:0 27:0 28:0 29:1 30:0 31:0 32:1 33:1 34:1 35:0 36:1 37:0 38:0 39:0 40:0 41:0 
