svm_type c_svc
kernel_type linear
nr_class 11
total_sv 728
rho 5340.83 -2.6192 -2.62026 -2.67648 -3.7535 -2.75185 -2.71093 3514.16 -0.999447 -1.39316 -7609.63 18958.8 2028.92 642.799 -165.25 -548.808 19.4412 1.28802 -4.27588 2108.59 703.436 954.56 12492.4 66.2793 4.64512 -0.96255 0.273481 -329.976 269.448 -122.454 72.7919 4.66677 -0.962547 0.268322 -336.381 -61.8709 181.371 4.85002 -0.962832 0.264384 -369.712 -509.116 11.2278 -0.970129 0.149863 -1748.27 5.1373 -0.963979 0.252528 4.97867 -0.963533 0.25946 -1.60271 -0.321882 1.0159 
label 4 0 3 13 9 14 8 6 20 11 5 
nr_sv 33 176 259 77 30 22 104 6 9 10 2 
SV 
0 0 0 0 0 0 0 0 6.820711285162567e-10 9.964042262485256e-06 1:89.448006 2:-674.51996 
0 7.396956433996908e-06 0 0 0 0 0 0 0 0 1:-422.55173 2:-674.35846 
0 0 7.56978230253101e-06 0 0 0 0 0 0 0 1:-422.55173 2:-674.35846 
0 0 0 7.937317997792898e-06 0 0 0 0 0 0 1:-422.55173 2:-674.35846 
0 0 0 0 0 0 8.262865486263191e-06 0 0 0 1:-422.55173 2:-674.35846 
0 0 0 0 0 0 0 0.1056717637032951 0 0 1:-422.54907 2:-674.19568 
1 0 0 0 0 0 0 1 0 0 1:-422.53903 2:-673.57831 
1 0 0 0 0 0 0 0 0 0 1:89.464249 2:-673.60974 
1 0 0 0 0 0 0 0 0 0 1:89.467216 2:-673.46216 
1 0 0 0 0 0 0 0 0 0 1:89.463356 2:-673.57703 
1 0 0 0 0 0 0 0 0 0 1:89.461021 2:-673.72076 
1 0 0 0 0 0 0 0 0 0 1:89.456367 2:-674.00623 
1 0 0 0 0 0 0 1 0 0 1:-422.53714 2:-673.46204 
1 0 0 0 0 0 0 0 0 0 1:89.461365 2:-673.69965 
1 0 0 0 0 0 0 0 0 0 1:89.455162 2:-674.0802 
1 0 0 0 0 0 0 1 0 0 1:-422.53577 2:-673.37744 
0 0 0 0 2.150252619078682e-05 8.700730752624086e-06 0 0 0 0 1:-422.5517 2:-674.35632 
1 0 0 0 0 0 0 0 0 0 1:89.458435 2:-673.87933 
1 0 0 0 0 0 0 0 0 0 1:89.45623 2:-674.01465 
1 0 0 0 0 0 0 0 0 0 1:89.463058 2:-673.66876 
1 0 0 0 0 0 0 0 0 0 1:89.461876 2:-673.66797 
1 0 0 0 0 0 0 0 0 0 1:89.461395 2:-673.69751 
1 0 0 0 0 0 0 0 0 0 1:89.460396 2:-673.75885 
1 0 0 0 0 0 0 0.2268714860227425 0 0 1:89.465492 2:-673.44592 
1 0 0 0 0 0 0 0 0 0 1:89.462807 2:-673.61084 
1 0 0 0 0 0 0 0 0 0 1:89.463051 2:-673.59607 
1 0 0 0 0 0 0 0 0 0 1:89.457916 2:-673.91107 
0.9522628035027275 0 0 0 0 0 0 0 0 0 1:89.455093 2:-674.08441 
1 0 0 0 0 0 0 0 0 0 1:89.461983 2:-673.66162 
1 0 0 0 0 0 0 0 0 0 1:89.462433 2:-673.63409 
1 0 0 0 0 0 0 0 0 0 1:89.456337 2:-674.0083 
1 0 0 0 0 0 0 0 0 0 1:89.455856 2:-674.0379 
1 0 0 0 0 0 0 0 0 0 1:89.462669 2:-673.61932 
-0 9.934060882759724e-09 0 0 0 9.991071978080387e-09 0 3.918775385826949e-08 1.178325566565327e-09 1.238250243439998e-08 1:13246.461 2:-677.59802 
-0 0 0 0 0 0 0 0 2.606591291312481e-05 0 1:-942.5235 2:-673.04034 
-0 1 0 0 0 0 0 0.05693256005933511 0 0 1:-942.52264 2:-673.02789 
-0 1 1 0 0 0 0 0 0 0 1:-942.52142 2:-673.03455 
-0 0 0 0 1 0 0 0 0 0 1:-942.52179 2:-673.0285 
-0 0 4.884938167807211e-07 0 0 0 0 0 0 0 1:-606.1272 2:54481.801 
-0 1 0 1 0 1 0 0 0 0 1:-942.53363 2:-673.11615 
-0 0 0 0 0 1 0 0 0 0 1:-942.52588 2:-673.05292 
-0 0 0 0 0 0 0 7.225418987232255e-07 0 0 1:-723.81366 2:14265.836 
-0 0 0 0 4.226090402484374e-06 0 0 0 0 0 1:6479.4639 2:-675.47144 
-0 1 0 1 0 1 0 0 0 0 1:-942.52905 2:-673.08142 
-0 0 0 3.514728842891462e-06 0 0 0 2.846752380113912e-08 0 0 1:-737.49689 2:53311.836 
-0 1 0 0 0 0 0 0 0 0 1:-942.52185 2:-673.03235 
-0 0 0 0 1.815722508788168e-05 0 0 0.0006094229041120645 0 0 1:14779.465 2:-678.04071 
-0 0 0.002801358074427511 0 0 0 0 0 0 0 1:-906.52124 2:-673.06146 
-0 1 0 1 0 1 0 0.3738599037424486 0 0 1:-942.52838 2:-673.07513 
-0 1 0 0 0 0 0 0 0 0 1:-942.52228 2:-673.02838 
-0 0 0 0.0085488227950875 0 0 0 0 0 0 1:-837.48785 2:-527.14954 
-0 0 0 0.001026527643878836 0 0 0 0 0 0 1:-898.48254 2:-547.06854 
-0 1 0 0 0 0 0 0 0 0 1:-942.53296 2:-673.11206 
-0 0 0 0 0 0 0 0 0 0.02165536637707475 1:-837.53387 2:-673.14941 
-0 0 0 0 0 0 0 1.518108279966274e-07 0 0 1:-648.07275 2:38800.824 
-1 0 0 0 0 0 0 0 0 0 1:-942.52979 2:-673.09003 
-0 0 0 0 0 0 0 3.567832605027034e-09 0 0 1:-782.98669 2:51791.766 
-0 1 0 0 0 0 0 0 0 0 1:-942.52197 2:-673.02917 
-0 0 0 0 0.01371310752858393 0 0 0 0 0 1:-837.53387 2:-673.15155 
-0 1 1 0 0 0 0 0 0 0 1:-942.52228 2:-673.0274 
-0 1 0 0 0 0 0 0 0 0 1:-942.52618 2:-673.05536 
-0 0 0 0 0 0 0.006632592492837895 0.01422749543023227 0 0.004981412898822821 1:15844.465 2:-678.38654 
-0 1 0 0 0 0 0 0 0 0 1:-942.52466 2:-673.04376 
-0 0 4.245464765103892e-05 0 0 1.526340222946508e-06 0 0 0 0 1:15844.464 2:-678.38818 
-0 0 0 0 0 0 1.864169687243685e-07 0 0 0 1:5119.4702 2:-675.00623 
-0 1 0 0 0 0 0 0 0 0 1:-942.52533 2:-673.04968 
-0 1 1 0 0 0 0 0 0 0 1:-942.52069 2:-673.02966 
-0 0 0 0 0.8164544891039119 0 0 0 0 0 1:-942.52429 2:-673.04095 
-1 0 0 0 0 0 0 0 0 0 1:12040.462 2:-677.20856 
-0 1 0 0 0 0 0 0 0 0 1:-942.52264 2:-673.02789 
-0 1 0 0 0 0 0 0 0 0 1:-942.52063 2:-673.0296 
-0.7034466738330364 0 0 0 0 0 0 0 0 0 1:-795.53198 2:-673.16626 
-0 1 0 0 0 0 0 0 0 0 1:-942.52264 2:-673.02789 
-0 0 0 0 0 0 0 1.723400691849619e-05 0 0 1:-934.48071 2:-532.06726 
-0.8121047859857516 0 0 0 0 0 0 0 0 0 1:-795.53198 2:-673.16626 
-0 1 0 0 0 0 0 0 0 0 1:-942.52228 2:-673.02893 
-1 0 0 0 0 0 0 0 0 0 1:-912.53198 2:-673.12689 
-0 1 0 0 0 0 0 0 0 0 1:-942.52295 2:-673.03003 
-0 0 0 0 1 0 0 0 0 0 1:-942.52258 2:-673.02869 
-0 0 0 0 0 0 1.514355584987834e-09 0 0 0 1:87439.43 2:-700.96881 
-0 1 0 0 0 0 0 0 0 0 1:-942.52234 2:-673.02698 
-0 0 0 0 1 0 0 0 0 0 1:-942.52313 2:-673.04559 
-0 1 0 0 0 0 0 0 0 0 1:-942.52081 2:-673.0304 
-0 1 0 0 0 0 0 0 0 0 1:-942.52264 2:-673.02789 
-1 0 0 0 0 0 0 0 0 0 1:-837.53369 2:-673.15167 
-0 1 1 0 0 0 0 0 0 0 1:-942.52283 2:-673.0293 
-0 0 0 0 0.0008280587814934596 0 0 0 0 0 1:34252.453 2:-684.21283 
-0 1 0 0 0 0 0 0 0 0 1:-942.52295 2:-673.03577 
-0 1 0 0 0 0 0 0 0 0 1:-942.52264 2:-673.02789 
-0 1 1 0 0 0 0 0 0 0 1:-942.5213 2:-673.02771 
-0 1 0 0 0 0 0 0 0 0 1:-942.52155 2:-673.03253 
-0 1 1 0 0 0 0 0 0 0 1:-942.52283 2:-673.0293 
-0 0 0 0 1 0 0 0 0 0 1:-942.52258 2:-673.02832 
-0 0 0 0 0 0 1 0 0 0 1:-912.52203 2:-673.04791 
-1 0 0 0 0 0 0 0 0 0 1:-942.52686 2:-673.06067 
-0 0 0 0 0 0 0.008681323845816819 0 0 0 1:-759.53217 2:-673.17639 
-0 1 1 0 0 0 0 0 0 0 1:-942.52051 2:-673.02826 
-0 1 1 0 0 1 0 0 0 0 1:-942.52209 2:-673.02789 
-0 1 0 0 0 0 0 0 0 0 1:-942.5224 2:-673.03003 
-0 1 0 0.8528265163427706 0 1 0 0 0 0 1:-942.53363 2:-673.11615 
-0 1 0 0 0 0 0 0 0 0 1:-942.52228 2:-673.0282 
-0 1 0 0 0 1 0 0 0 0 1:-942.52356 2:-673.03497 
-0 0 0 6.610806003394416e-07 0 0 0 0 1.184907372365634e-05 0.0003194991199435958 1:174394.38 2:-728.43066 
-0 1 0 0 0 0 0 0 0 0 1:-942.53241 2:-673.10883 
-0 1 0 0 0 0 0 0 0 0 1:-942.52264 2:-673.02789 
-0 1 0 0 0 1 0 0 0 0 1:-942.52356 2:-673.03534 
-0 1 0 0 0 0 0 0 0 0 1:-942.52228 2:-673.02667 
-1 0 0 0 0 0 0 0 0 0 1:-855.53259 2:-673.18329 
-0 0 1 0.2645562122842193 0 0 0 0 0 0 1:-941.52472 2:-673.10547 
-1 0 0 0 0 0 0 0 0 0 1:-795.53198 2:-673.16394 
-0 0 0 0 0 0 0 0 0 0.003049988084677659 1:-912.53217 2:-673.12677 
-0 1 0 0 0 0 0 0 0 0 1:-942.52313 2:-673.03217 
-0 1 0 0 0 0 0 0 0 0 1:-942.52264 2:-673.02789 
-0 1 1 0 0 1 0 0 0 0 1:-942.52441 2:-673.05084 
-0 0 0 0 1 0 0 0 0 0 1:-942.52283 2:-673.0376 
-0 1 0 0 0 0 0 0 0 0 1:-942.52301 2:-673.0307 
-1 0 0 0 0 0 0 0 0 0 1:-942.5246 2:-673.04303 
-0 1 0 0 0 1 0 0 0 0 1:-942.52979 2:-673.08453 
-0 1 0 0 0 0 0 0 0 0 1:-942.52051 2:-673.02863 
-0.6992089337262672 0 0 0 0 0 0 0 0 0 1:-795.53198 2:-673.16626 
-1 0 0 0 0 0 0 0 0 0 1:-912.53192 2:-673.12695 
-0 1 0 0 1 0 0 0 0 0 1:-942.52289 2:-673.03082 
-1 1 1 0 0 0 0 0 0 0 1:-942.52759 2:-673.07086 
-0 0 0 0 1 0 0 0 0 0 1:-942.521 2:-673.02905 
-1 0 0 0 0 0 0 0 0 0 1:-829.53326 2:-673.21973 
-0 1 0 0 0 0 0 0 0 0 1:-942.52454 2:-673.04468 
-0 1 0 0 0 0 0 0 0 0 1:-942.52753 2:-673.06592 
-0 1 0 0 0 0 0 0 0 0 1:-942.52295 2:-673.03003 
-0 0 0 0 0.009927933335618299 0 0 0 0 0 1:-906.52319 2:-673.05737 
-0.9075269451660236 0 0 0 0 0 0 0 0 0 1:-795.53198 2:-673.16626 
-0 1 0 0 0 0 0 0 0 0 1:-942.52448 2:-673.04272 
-0 1 0 0 0 0 0 0 0 0 1:-942.52277 2:-673.03015 
-0 0 0 0 0 1 0 0 0 0 1:-942.52588 2:-673.05292 
-0 1 0 0 0 0 0 0 0 0 1:-942.52209 2:-673.03406 
-0 1 0 0 0 0 0 0 0 0 1:-942.52277 2:-673.03015 
-0 1 0 0 0 0 0 0 0 0 1:-942.52264 2:-673.02789 
-0 0 0 0 0 0 0.2548207721484722 0 0 0 1:-930.52728 2:-673.08289 
-0 1 1 0 0 0 0 0 0 0 1:-942.52283 2:-673.0293 
-0 1 0 0 0 0 0 0 0 0 1:-942.52295 2:-673.0304 
-0 1 0 0 0 0 0 0 0 0 1:-942.52466 2:-673.04376 
-0 0 0 0 1 0 0 0 0 0 1:-942.52411 2:-673.03955 
-0.08061549975227979 0 0 0 0 0 0 0 0 0 1:-908.52985 2:-673.11212 
-1 0 0 0 0 0 0 0 0 0 1:-829.53259 2:-673.18604 
-0 1 0 0 0 0 0 0 0 0 1:-942.52686 2:-673.06165 
-0 1 0 0 0 0 0 0 0 0 1:-942.52545 2:-673.06049 
-0 1 0 0 0 0 0 0 0 0 1:-942.5213 2:-673.03217 
-0 1 0 0 0 0 0 0 0 0 1:-942.52356 2:-673.03497 
-1 0 0 0 0 0 0 0 0 0 1:-795.53198 2:-673.164 
-0 0 0 0 0.02353581954739298 0 0 0 0 0 1:-912.52582 2:-673.07251 
-0 1 0 0 0 0 0 0 0 0 1:-942.52277 2:-673.02899 
-0 0 0 0 1 0 0 0 0 0 1:-942.52411 2:-673.03918 
-1 0 0 0 0 0 0 0 0 0 1:-912.53192 2:-673.12695 
-0 1 0 0 0 0 0 0 0 0 1:-942.52277 2:-673.02863 
-0 1 0 0 0 0 0 0 0 0 1:-942.526 2:-673.05396 
-0 0 0 0 0.128053709036348 0 0 0 0 0 1:-923.52625 2:-673.08124 
-0 1 0 0 0 0 0 0 0 0 1:-942.52374 2:-673.03638 
-0 1 0 0 0 0 0 0 0 0 1:-942.52277 2:-673.02863 
-0 1 0 0 0 0 0 0 0 0 1:-942.52759 2:-673.07623 
-1 0 0 0 0 0 0 0 0 0 1:-912.53192 2:-673.12695 
-0.3881517450430215 0 0 0 0 0 0 0 0 0 1:-795.53198 2:-673.16626 
-0 0 0 0 0 0 0 0 0 0.065945787245514 1:-942.52325 2:-673.03284 
-0 0 0 0 1 0 0 0 0 0 1:-942.52423 2:-673.04791 
-1 0 0 0 0 0 0 0 0 0 1:-942.53265 2:-673.1109 
-0 0 0 0 1 0 0 0 0 0 1:-942.52313 2:-673.03278 
-0 0 0 0 1 0 0 0 0 0 1:-942.521 2:-673.02832 
-0 1 0 0 0 0 0 0 0 0 1:-942.52277 2:-673.02899 
-0 1 1 0 0 1 0 0 0 0 1:-942.52673 2:-673.05963 
-0 0 0 0 0 0 0 0 1.996330098075593e-07 0 1:5843.1294 2:1586720 
-0 0 0 0.03575878111651316 0 0 0 0 0 0 1:-942.51971 2:-669.03247 
-0 1 0 0 0 0 0 0 0 0 1:-942.52448 2:-673.04236 
-0 1 0 0 0 0 1 0 0 0 1:-942.52075 2:-673.03027 
-0 0 0 0 0 0 0.9451939975971089 0 0 0 1:-942.53339 2:-673.11633 
-0 1 0 0 0 0 0 0 0 0 1:-942.52277 2:-673.02997 
-0.5640288701071272 0 0 0 0 0 0 0 0 0 1:-795.53198 2:-673.16626 
-0 1 0 0 0 0 0 0 0 0 1:-942.52692 2:-673.06104 
-0 1 0 0 0 0 0 0 0 0 1:-942.52057 2:-673.02783 
-0.7971793498889619 0 0 0 0 0 0 0 0 0 1:12296.463 2:-677.2843 
-0 1 0 0 0 0 0 0 0 0 1:-942.52527 2:-673.04834 
-0 1 0 0 0 1 0 0 0 0 1:-942.52429 2:-673.04193 
-0 1 0 0 0 0 0 0 0 0 1:-942.52264 2:-673.02789 
-0 1 0 0 0 0 0 0 0 0 1:-942.52277 2:-673.02863 
-0 0 0 0 0 0 1 0 0 0 1:-942.52802 2:-673.06982 
-0 1 0 0 0 0 0 0 0 0 1:-942.52448 2:-673.04199 
-0 1 0 0 0 1 0 0 0 0 1:-942.52429 2:-673.08929 
-1 0 0 0 0 0 0 0 0 0 1:-909.5321 2:-673.12866 
-1 1 0 0 0 0 0 0 0 0 1:-942.52759 2:-673.06665 
-1 0 0 0 0 0 0 0 0 0 1:-912.53192 2:-673.12695 
-0 1 0 0 0 0 0 0 0 0 1:-942.52228 2:-673.02704 
-0 1 0 0 0 0 0 0 0 0 1:-942.52277 2:-673.02863 
-0 1 0 0 0 0 0 0 0 0 1:-942.52264 2:-673.02826 
-0 1 0 0 0 0 0 0 0 0 1:-942.52228 2:-673.02875 
-0 1 0 0 0 0 0 0 0 0 1:-942.52051 2:-673.02863 
-1 0 0 0 0 0 0 0 0 0 1:-759.53223 2:-673.18176 
-0 0 0 0 0 0 1 0 0 0 1:-942.52814 2:-673.08282 
-0 1 0 0 0 0 0 0 0 0 1:-942.52277 2:-673.02863 
-0 1 0 0 0 0 0 0 0 0 1:-942.52374 2:-673.04138 
-0 0 0 0 0 0 0 0 0 6.065697863109358e-10 1:58333.445 2:-691.75586 
-0 1 0 0 0 0 0 0 0 0 1:-942.52148 2:-673.02856 
-0 1 1 0 0 0 0 0 0 0 1:-942.52283 2:-673.0293 
-0 1 0 0 0 0 0 0 0 0 1:-942.52612 2:-673.05603 
-0 1 0 0 0 0 0 0 0 0 1:-942.52301 2:-673.0307 
-0 0 0 0 1 0 0 0 0 0 1:-942.5249 2:-673.04828 
-0 1 0 0 0 0 0 0 0 0 1:-942.52295 2:-673.0304 
-0 1 0 0 0 0 0 0 0 0 1:-942.52228 2:-673.0282 
-0 0 0 0 0.2813365113538915 0 0 0 0 0 1:-942.52924 2:-673.08032 
-0 1 0 0 0 0 0 0 0 0 1:-942.52264 2:-673.02826 
-1 0 0 0 0 0 0 0 0 0 1:-912.53192 2:-673.12695 
-0 1 1 0 0 0 0 0 0 0 1:-942.52283 2:-673.0293 
-0 1 0 0 0 0 0 0 0 0 1:-942.52057 2:-673.02783 
-0 -0 0 0 0 0 0.002551020408163265 1.792664863544591e-05 6.570877500844436e-10 9.130719025861848e-07 1:-942.53577 2:-673.25769 
-0 -0 1 0 0 0 0 0 0 0 1:-942.53912 2:-673.38586 
-0 -0 1 0 0 0 0 0 0 0 1:-942.54065 2:-673.44299 
-0 -0 0 0 0 1 0 0 0 0 1:-942.53784 2:-673.33441 
-0 -0 0 0 0 1 0 0 0 0 1:-942.53632 2:-673.28326 
-0 -0 1 0 0 0 0 0 0 0 1:-942.54047 2:-673.43176 
-0 -0 0 0.033203125 0 0 0 0 0 0 1:-942.53522 2:-673.2403 
-0 -0 0 1 0 0 0 0 0 0 1:-942.53613 2:-673.27466 
-0 -0 0 0 0 1 0 0 0 0 1:-942.53625 2:-673.28558 
-0 -0 1 0 0 0 0 0 0 0 1:-942.54065 2:-673.44727 
-0 -0 0 0 0.00194552532081938 0 0 0 0 0 1:-942.53558 2:-673.26453 
-0 -0 0 0 1 0 0 0 0 0 1:-942.5332 2:-673.1687 
-0 -0 0 0 0 1 0 0 0 0 1:-942.53638 2:-673.28912 
-0 -0 1 0 0 0 0 0 0 0 1:-942.54065 2:-673.44183 
-0 -0 1 0 1 0 0 0 0 0 1:-942.53204 2:-673.1261 
-0 -0 0 0 0 1 0 0 0 0 1:-942.53558 2:-673.2583 
-0 -1 0 0 0 1 0 0 0 0 1:-942.53558 2:-673.25385 
-0 -0 0 0 1 0 0 0 0 0 1:-942.53571 2:-673.25598 
-0 -1 0 0 0 0 0 0 0 0 1:-942.53546 2:-673.25531 
-0 -0 0 0 0 1 0 0 0 0 1:-942.53857 2:-673.36292 
-0 -0 0 0 0 1 0 0 0 0 1:-942.53558 2:-673.25421 
-0 -9.934060907212938e-09 0 0 0 0 0 0 0 0 1:-942.53528 2:-673.24255 
-0 -0 1 0 0 0 0 0 0 0 1:-942.53906 2:-673.38837 
-0 -1 0 0 0 0 0 0 0 0 1:-942.53558 2:-673.25714 
-0 -0 1 0 0 0 0 0 0 0 1:-942.54065 2:-673.44202 
-0 -0 1 0 0 0 0 0 0 0 1:-942.54065 2:-673.44629 
-0 -0 0 0 0 1 0 0 0 0 1:-942.53625 2:-673.28003 
-0 -1 0 0 0 1 0 0 0 0 1:-942.53857 2:-673.36292 
-0 -0 0 1 0 0 0 0 0 0 1:-942.53516 2:-673.24133 
-0 -1 0 0 0 0 0 0 0 0 1:-942.53473 2:-673.22235 
-0 -1 0 0 0 0 0 0 0 0 1:-942.53314 2:-673.16498 
-0 -1 0 0 0 0 0 0 0 0 1:-942.53632 2:-673.28229 
-0 -0 0 0 1 0 0 0 0 0 1:-942.53558 2:-673.25171 
-0 -0 0 0 1 0 0 0 0 0 1:-942.53522 2:-673.24493 
-0 -1 0 0 0 0 0 0 0 0 1:-942.52869 2:-673.2666 
-0 -0 0 0 0 1 0 0 0 0 1:-942.53638 2:-673.29358 
-0 -0 0 0 0 1 0 0 0 0 1:-942.53558 2:-673.25848 
-0 -0 0 0 0.05058365758754864 0 0 0 0 0 1:-942.53595 2:-673.26917 
-0 -0 1 0 0 0 0 0 0 0 1:-942.53912 2:-673.39014 
-0 -1 0 0 0 0 0 0 0 0 1:-942.53253 2:-673.1427 
-0 -0 1 0 0 0 0 0 0 0 1:-942.53912 2:-673.38123 
-0 -0 1 0 0 0 0 0 0 0 1:-942.54065 2:-673.44299 
-0 -0 0 0 0 1 0 0 0 0 1:-942.53558 2:-673.25366 
-0 -0 1 0 0 0 0 0 0 0 1:-942.53894 2:-673.37445 
-0 -0 1 0 0 0 0 0 0 0 1:-942.53973 2:-673.40564 
-0 -0 0 0 0 1 0 0 0 0 1:-942.53625 2:-673.28558 
-0 -1 0 0 0 0 0 0 0 0 1:-942.53864 2:-673.36615 
-0 -0 0 0 1 0 0 0 0 0 1:-942.5332 2:-673.17316 
-0 -1 0 0 0 0 0 0 0 0 1:-942.53711 2:-673.30981 
-0 -0 0 0 1 0 0 0 0 0 1:-942.53326 2:-673.17474 
-0 -0 1 0 0 0 0 0 0 0 1:-942.54132 2:-673.47046 
-0 -0 0 1 1 0 0 0 0 0 1:-942.53204 2:-673.12628 
-0 -0 0 0 0 1 0 0 0 0 1:-942.53625 2:-673.28021 
-0 -1 0 0 0 1 0 0 0 0 1:-942.53857 2:-673.36292 
-0 -0 1 0 0 0 0 0 0 0 1:-942.54065 2:-673.44629 
-0 -1 0 0 0 0 0 0 0 0 1:-942.53632 2:-673.28674 
-0 -0 0 1 0 0 0 0 0 0 1:-942.53204 2:-673.12469 
-0 -0 1 0 0 0 0 0 0 0 1:-942.54138 2:-673.47241 
-0 -1 0 0 0 0 0 0 0 0 1:-942.53552 2:-673.25128 
-0 -0 1 0 0 0 0 0 0 0 1:-942.54065 2:-673.44281 
-0 -0 1 0 0 0 0 0 0 0 1:-942.54047 2:-673.43176 
-0 -0 0 0 0 0.4058823529411765 0 0 0 0 1:-942.53394 2:-673.19843 
-0 -1 0 0 0 0 0 0 0 0 1:-942.53632 2:-673.28619 
-0 -0 1 0 0 0 0 0 0 0 1:-942.53912 2:-673.38568 
-0 -0 0 0 0 1 0 0 0 0 1:-942.53857 2:-673.36292 
-0 -0 0 0 0 1 0 0 0 0 1:-942.53857 2:-673.36292 
-0 -0 0 0 0 1 0 0 0 0 1:-942.53625 2:-673.27557 
-0 -0 1 0 0 0 0 0 0 0 1:-942.5412 2:-673.46545 
-0 -1 0 0 0 0 0 0 0 0 1:-942.53864 2:-673.36432 
-0 -0 0 0 0 1 0 0 0 0 1:-942.53552 2:-673.2608 
-0 -0 1 0 0 0 0 0 0 0 1:-942.54138 2:-673.47241 
-0 -0 0 0 0 1 0 0 0 0 1:-942.53632 2:-673.29218 
-0 -1 0 0 0 0 0 0 0 0 1:-942.53937 2:-673.39764 
-0 -1 0 0 0 1 0 0 0 0 1:-942.53473 2:-673.2168 
-0 -0 1 0 0 0 0 0 0 0 1:-942.53217 2:-673.13257 
-0 -0 0 0 0 1 0 0 0 0 1:-942.53632 2:-673.28772 
-0 -1 0 0 0 1 0 0 0 0 1:-942.53857 2:-673.36719 
-0 -1 0 0 0 0 0 0 0 0 1:-942.53632 2:-673.28656 
-0 -1 0 0 0 1 0 0 0 0 1:-942.53857 2:-673.36292 
-0 -0 0 0 1 0 0 0 0 0 1:-942.52429 2:-673.15924 
-0 -0 1 0 0 0 0 0 0 0 1:-942.53986 2:-673.41528 
-0 -1 0 0 0 0 0 0 0 0 1:-942.5387 2:-673.36755 
-0 -0 0 0 0 1 0 0 0 0 1:-942.53857 2:-673.36273 
-0 -0 1 0 0 0 0 0 0 0 1:-942.53845 2:-673.35822 
-0 -1 0 0 0 0 0 0 0 0 1:-942.53619 2:-673.27972 
-0 -0 0 0 0 1 0 0 0 0 1:-942.53857 2:-673.36255 
-0 -0 1 0 0 0 0 0 0 0 1:-942.5412 2:-673.46564 
-0 -0 0 0 0 1 0 0 0 0 1:-942.53625 2:-673.28448 
-0 -1 0 0 0 0 0 0 0 0 1:-942.53546 2:-673.25378 
-0 -1 0 0 0 0 0 0 0 0 1:-942.53235 2:-673.13397 
-0 -0 1 0 0 0 0 0 0 0 1:-942.53906 2:-673.38373 
-0 -1 0 0 0 0 0 0 0 0 1:-942.53558 2:-673.25714 
-0 -1 0 0 0 0 0 0 0 0 1:-942.53552 2:-673.25519 
-0 -0 0 0 0 1 0 0 0 0 1:-942.53857 2:-673.36719 
-0 -1 0 0 0 0 0 0 0 0 1:-942.53632 2:-673.28326 
-0 -0 1 0 0 0 0 0 0 0 1:-942.54059 2:-673.43988 
-0 -0 0 0 0 1 0 0 0 0 1:-942.53857 2:-673.36292 
-0 -0 1 0 0 0 0 0 0 0 1:-942.54047 2:-673.43604 
-0 -1 0 0 0 0 0 0 0 0 1:-942.53546 2:-673.2475 
-0 -1 0 0 0 0 0 0 0 0 1:-942.53522 2:-673.24933 
-0 -1 0 0 0 0 0 0 0 0 1:-942.53394 2:-673.19666 
-0 -1 0 0 0 0 0 0 0 0 1:-942.53271 2:-673.15277 
-0 -1 0 0 0 0 0 0 0 0 1:-942.53632 2:-673.28619 
-0 -1 0 0 0 1 0 0 0 0 1:-942.53479 2:-673.22266 
-0 -1 0 0 0 0 0 0 0 0 1:-942.53931 2:-673.39233 
-0 -0 0 0 0 1 0 0 0 0 1:-942.53625 2:-673.28558 
-0 -0 0 0 0 1 0 0 0 0 1:-942.53625 2:-673.28558 
-0 -0 0 0 0 1 0 0 0 0 1:-942.53857 2:-673.36292 
-0 -0 1 0 0 0 0 0 0 0 1:-942.54065 2:-673.44183 
-0 -0 0 0 0 1 0 0 0 0 1:-942.53711 2:-673.31427 
-0 -1 0 0 0 0 0 0 0 0 1:-942.53625 2:-673.28461 
-0 -1 0 0 0 0 0 0 0 0 1:-942.53546 2:-673.25378 
-0 -0 0 0 0 1 0 0 0 0 1:-942.52478 2:-673.17188 
-0 -0 0 0 0 1 0 0 0 0 1:-942.53857 2:-673.36682 
-0 -0 0 0 0 1 0 0 0 0 1:-942.53857 2:-673.36292 
-0 -1 0 0 0 0 0 0 0 0 1:-942.53546 2:-673.25195 
-0 -1 0 0 0 0 0 0 0 0 1:-942.53558 2:-673.2644 
-0 -1 0 0 0 1 0 0 0 0 1:-942.53558 2:-673.25385 
-0 -1 0 0 0 1 0 0 0 0 1:-942.53558 2:-673.2583 
-0 -0 1 0 0 0 0 0 0 0 1:-942.54138 2:-673.47241 
-0 -0 0 0 0 1 0 0 0 0 1:-942.53638 2:-673.28467 
-0 -0 0 0 0 1 0 0 0 0 1:-942.53778 2:-673.33563 
-0 -0 0 0 1 0 0 0 0 0 1:-942.53546 2:-673.25543 
-0 -0 0 0 0 1 0 0 0 0 1:-942.53558 2:-673.2583 
-0 -0 1 0 0 0 0 0 0 0 1:-942.53912 2:-673.38123 
-0 -0 0 0 0 1 0 0 0 0 1:-942.53253 2:-673.14484 
-0 -1 0 0 0 0 0 0 0 0 1:-942.53406 2:-673.2066 
-0 -0 0 0 0 1 0 0 0 0 1:-942.53857 2:-673.36273 
-0 -1 0 0 0 0 0 0 0 0 1:-942.53625 2:-673.28705 
-0 -0 1 0 0 0 0 0 0 0 1:-942.539 2:-673.38068 
-0 -1 0 0 0 0 0 0 0 0 1:-942.5379 2:-673.33636 
-0 -0 1 0 0 0 0 0 0 0 1:-942.54132 2:-673.47046 
-0 -1 0 0 0 0 0 0 0 0 1:-942.53552 2:-673.25128 
-0 -1 0 0 0 0 0 0 0 0 1:-942.53479 2:-673.22797 
-0 -1 0 0 0 0 0 0 0 0 1:-942.53546 2:-673.25531 
-0 -0 0 0 0 1 0 0 0 0 1:-942.53473 2:-673.2337 
-0 -1 0 0 0 0 0 0 0 0 1:-942.53625 2:-673.2774 
-0 -0 1 0 0 0 0 0 0 0 1:-942.54132 2:-673.47046 
-0 -1 0 0 0 0 0 0 0 0 1:-942.53558 2:-673.25287 
-0 -0 1 0 0 0 0 0 0 0 1:-942.54065 2:-673.44202 
-0 -0 0 0 0 1 0 0 0 0 1:-942.53857 2:-673.36255 
-0 -0 0 0 0 1 0 0 0 0 1:-942.53558 2:-673.24939 
-0 -1 0 0 0 0 0 0 0 0 1:-942.53552 2:-673.24945 
-0 -0 1 0 0 0 0 0 0 0 1:-942.54065 2:-673.44281 
-0 -0 1 0 0 0 0 0 0 0 1:-942.53894 2:-673.38336 
-0 -0 1 0 0 0 0 0 0 0 1:-942.52148 2:-673.05585 
-0 -0 0 0 0 1 0 0 0 0 1:-942.53558 2:-673.25812 
-0 -1 0 0 0 0 0 0 0 0 1:-942.53455 2:-673.21533 
-0 -1 0 0 0 0 0 0 0 0 1:-942.53546 2:-673.25378 
-0 -0 0 0 0 1 0 0 0 0 1:-942.52942 2:-673.17651 
-0 -0 1 0 0 0 0 0 0 0 1:-942.54065 2:-673.44281 
-0 -0 0 0 0 1 0 0 0 0 1:-942.53558 2:-673.25366 
-0 -0 1 0 0 0 0 0 0 0 1:-942.53912 2:-673.38586 
-0 -0 0 0 0 1 0 0 0 0 1:-942.53558 2:-673.25385 
-0 -0 0 0 0 1 0 0 0 0 1:-942.53625 2:-673.28003 
-0 -0 0.3848797250859106 0 0 0 0 0 0 0 1:-942.54065 2:-673.43463 
-0 -0 0 0 0 1 0 0 0 0 1:-942.53857 2:-673.36292 
-0 -0 0 0 0 1 0 0 0 0 1:-942.53625 2:-673.28448 
-0 -0 0 0 0 1 0 0 0 0 1:-942.53625 2:-673.28448 
-0 -1 0 0 0 0 0 0 0 0 1:-942.53937 2:-673.39374 
-0 -0 0 0 0 1 0 0 0 0 1:-942.53784 2:-673.33331 
-0 -0 0 0 0 1 0 0 0 0 1:-942.53558 2:-673.26276 
-0 -0 0 0 0 1 0 0 0 0 1:-942.53638 2:-673.28467 
-0 -1 0 0 0 0 0 0 0 0 1:-942.53546 2:-673.25378 
-0 -1 0 0 0 0 0 0 0 0 1:-942.53198 2:-673.12219 
-0 -1 0 0 0 0 0 0 0 0 1:-942.53552 2:-673.24945 
-0 -0 0 0 0 1 0 0 0 0 1:-942.53485 2:-673.22479 
-0 -1 0 0 0 0 0 0 0 0 1:-942.53864 2:-673.36188 
-0 -1 0 0 0 1 0 0 0 0 1:-942.53558 2:-673.2583 
-0 -0 1 0 0 0 0 0 0 0 1:-942.53973 2:-673.40564 
-0 -1 0 0 0 0 0 0 0 0 1:-942.53546 2:-673.24915 
-0 -1 0 0 0 0 0 0 0 0 1:-942.53473 2:-673.23572 
-0 -1 0 0 0 0 0 0 0 0 1:-942.53546 2:-673.25378 
-0 -1 0 0 0 0 0 0 0 0 1:-942.53552 2:-673.25128 
-0 -0 0 0 0 1 0 0 0 0 1:-942.53638 2:-673.28912 
-0 -0 0 0 0 1 0 0 0 0 1:-942.53857 2:-673.36292 
-0 -1 0 0 0 0 0 0 0 0 1:-942.54016 2:-673.42474 
-0 -1 0 0 0 0 0 0 0 0 1:-942.53632 2:-673.28229 
-0 -0 1 0 0 0 0 0 0 0 1:-942.53918 2:-673.38336 
-0 -0 0 0 0 1 0 0 0 0 1:-942.53857 2:-673.36737 
-0 -1 0 0 0 0 0 0 0 0 1:-942.53864 2:-673.37042 
-0 -1 0 0 0 0 0 0 0 0 1:-942.53552 2:-673.24963 
-0 -1 0 0 0 0 0 0 0 0 1:-942.53632 2:-673.28674 
-0 -1 0 0 0 0 0 0 0 0 1:-942.53619 2:-673.27991 
-0 -0 1 0 0 0 0 0 0 0 1:-942.53979 2:-673.40332 
-0 -0 0 0 0 1 0 0 0 0 1:-942.53625 2:-673.2843 
-0 -0 0 0 0 1 0 0 0 0 1:-942.53558 2:-673.25812 
-0 -0 0 0 0 1 0 0 0 0 1:-942.53632 2:-673.27881 
-0 -0 1 0 0 0 0 0 0 0 1:-942.54065 2:-673.44281 
-0 -1 0 0 0 0 0 0 0 0 1:-942.53937 2:-673.38947 
-0 -0 0 0 0 1 0 0 0 0 1:-942.53632 2:-673.27881 
-0 -0 0 0 0 1 0 0 0 0 1:-942.53632 2:-673.28772 
-0 -0 0 0 0 1 0 0 0 0 1:-942.53552 2:-673.26062 
-0 -0 1 0 0 0 0 0 0 0 1:-942.53973 2:-673.40582 
-0 -0 1 0 0 0 0 0 0 0 1:-942.53912 2:-673.38123 
-0 -0 0 0 0 1 0 0 0 0 1:-942.53497 2:-673.22943 
-0 -1 0 0 0 0 0 0 0 0 1:-942.53558 2:-673.25287 
-0 -1 0 0 0 0 0 0 0 0 1:-942.53351 2:-673.18378 
-0 -0 0 0 0 1 0 0 0 0 1:-942.53625 2:-673.28448 
-0 -0 0 0 0 1 0 0 0 0 1:-942.53558 2:-673.25812 
-0 -0 0 0 0 1 0 0 0 0 1:-942.53632 2:-673.28772 
-0 -0 0 0 0 1 0 0 0 0 1:-942.53705 2:-673.31232 
-0 -0 0 0 0 1 0 0 0 0 1:-942.53558 2:-673.25366 
-0 -0 0 0 0 1 0 0 0 0 1:-942.53857 2:-673.36292 
-0 -1 0 0 0 0 0 0 0 0 1:-942.53705 2:-673.30414 
-0 -0 0 0 0 1 0 0 0 0 1:-942.53558 2:-673.25385 
-0 -1 0 0 0 0 0 0 0 0 1:-942.53101 2:-673.14935 
-0 -0 0 0 0 1 0 0 0 0 1:-942.53857 2:-673.36737 
-0 -1 0 0 0 0 0 0 0 0 1:-942.53546 2:-673.25378 
-0 -1 0 0 0 0 0 0 0 0 1:-942.53558 2:-673.25714 
-0 -1 0 0 0 0 0 0 0 0 1:-942.53546 2:-673.24933 
-0 -0 0 0 0 1 0 0 0 0 1:-942.53625 2:-673.28003 
-0 -0 0 0 0 1 0 0 0 0 1:-942.53857 2:-673.36255 
-0 -0 1 0 0 0 0 0 0 0 1:-942.53894 2:-673.37445 
-0 -1 0 0 0 0 0 0 0 0 1:-942.5354 2:-673.25165 
-0 -1 0 0 0 0 0 0 0 0 1:-942.53534 2:-673.24561 
-0 -0 0 0 0 1 0 0 0 0 1:-942.53625 2:-673.29004 
-0 -0 0 0 0 1 0 0 0 0 1:-942.53558 2:-673.2583 
-0 -0 1 0 0 0 0 0 0 0 1:-942.54132 2:-673.47046 
-0 -1 0 0 0 0 0 0 0 0 1:-942.5354 2:-673.24774 
-0 -0 0 0 0 1 0 0 0 0 1:-942.53625 2:-673.27557 
-0 -0 1 0 0 0 0 0 0 0 1:-942.53918 2:-673.38318 
-0 -0 1 0 0 0 0 0 0 0 1:-942.53992 2:-673.41687 
-0 -1 0 0 0 0 0 0 0 0 1:-942.53546 2:-673.2464 
-0 -0 1 0 0 0 0 0 0 0 1:-942.5412 2:-673.46118 
-0 -1 0 0 0 0 0 0 0 0 1:-942.53259 2:-673.14001 
-0 -0 1 0 0 0 0 0 0 0 1:-942.53992 2:-673.41241 
-0 -1 0 0 0 0 0 0 0 0 1:-942.53625 2:-673.28015 
-0 -1 0 0 0 0 0 0 0 0 1:-942.53632 2:-673.29047 
-0 -0 0 0 0 1 0 0 0 0 1:-942.53857 2:-673.36292 
-0 -1 0 0 0 0 0 0 0 0 1:-942.52362 2:-673.14246 
-0 -0 0 0 0 1 0 0 0 0 1:-942.53638 2:-673.28931 
-0 -0 0 0 0 1 0 0 0 0 1:-942.53479 2:-673.23138 
-0 -0 0 0 0 1 0 0 0 0 1:-942.53558 2:-673.2583 
-0 -1 0 0 0 0 0 0 0 0 1:-942.53546 2:-673.25378 
-0 -0 1 0 0 0 0 0 0 0 1:-942.53912 2:-673.38586 
-0 -0 0 0 0 1 0 0 0 0 1:-942.53625 2:-673.27667 
-0 -1 0 0 0 1 0 0 0 0 1:-942.53632 2:-673.27881 
-0 -0 0 0 0 1 0 0 0 0 1:-942.53638 2:-673.28931 
-0 -1 0 0 0 1 0 0 0 0 1:-942.53638 2:-673.28912 
-0 -0 0 0 0 1 0 0 0 0 1:-942.53778 2:-673.33173 
-7.396956433996908e-06 -0 0 0 0 0 0 0 0 0 1:-942.53247 2:-673.14539 
-0 -1 0 0 0 0 0 0 0 0 1:-942.53253 2:-673.12354 
-0 -0 1 0 0 0 0 0 0 0 1:-942.53979 2:-673.40332 
-0 -1 0 0 0 0 0 0 0 0 1:-942.53265 2:-673.15118 
-0 -1 0 0 0 0 0 0 0 0 1:-942.53851 2:-673.35968 
-0 -1 0 0 0 0 0 0 0 0 1:-942.53479 2:-673.23059 
-0 -1 0 0 0 0 0 0 0 0 1:-942.53638 2:-673.28815 
-0 -0 1 0 0 0 0 0 0 0 1:-942.53973 2:-673.40564 
-0 -0 0 0 0 1 0 0 0 0 1:-942.53558 2:-673.25385 
-0 -1 0 0 0 1 0 0 0 0 1:-942.53632 2:-673.28772 
-0 -1 0 0 0 0 0 0 0 0 1:-942.53314 2:-673.16992 
-0 -0 1 0 0 0 0 0 0 0 1:-942.54132 2:-673.47046 
-0 -1 0 0 0 0 0 0 0 0 1:-942.53485 2:-673.22754 
-0 -0 0 0 0 1 0 0 0 0 1:-942.53625 2:-673.27557 
-0 -0 1 0 0 0 0 0 0 0 1:-942.53912 2:-673.38586 
-0 -0 0 0 0 1 0 0 0 0 1:-942.53625 2:-673.28003 
-0 -1 0 0 0 0 0 0 0 0 1:-942.53552 2:-673.25226 
-0 -1 0 0 0 0 0 0 0 0 1:-942.53943 2:-673.38843 
-0 -0 -0 0 0.9639626107523299 0 0 0 6.570859263170546e-10 0 1:-942.54779 2:-673.69336 
-0 -0 -1 0 0 0 0 0 0 0 1:-942.54779 2:-673.69336 
-0 -0 -0 0 0.05031935602131647 0 0 0 0 0 1:-942.54779 2:-673.69336 
-0 -0 -1 0 0 0 0 0 0 0 1:-942.54773 2:-673.6911 
-0 -1 -1 0 0 0 0 0 0 0 1:-942.53986 2:-673.40668 
-0 -0 -1 0 0 0 0 0 0 0 1:-942.54773 2:-673.6911 
-0 -0 -1 0 1 0 0 0 0 0 1:-942.54779 2:-673.69336 
-0 -1 -0 1 0 0 0 0 0 0 1:-942.54779 2:-673.69226 
-0 -1 -1 0 1 0 0 0 0 0 1:-942.53644 2:-673.28247 
-0 -0 -1 0 0 0 0 0 0 0 1:-942.54779 2:-673.69336 
-0 -0 -0 0 1 0 0 0 0 0 1:-941.53253 2:-673.14514 
-7.56978230253101e-06 -9.942451499926188e-09 -0 0.4915409277736125 1 0 0.004030226700252761 1.85856541275475e-05 0 9.205053686560585e-07 1:-936.54266 2:-669.69458 
-0 -1 -0 1 1 0 0 0 0 0 1:-942.54639 2:-673.64148 
-0 -0 -1 0 0 0 0 0 0 0 1:-942.54596 2:-673.62683 
-0 -0 -0 0.9089750870556457 0 0 0 0 0 0 1:-942.54779 2:-673.69226 
-0 -0 -1 0 0 0 0 0 0 0 1:-942.54779 2:-673.69226 
-0 -1 -1 0 0 0 0 0 0 0 1:-942.54028 2:-673.42133 
-0 -0 -1 0 0 0 0 0 0 0 1:-942.54779 2:-673.69336 
-0 -0 -1 0 0 0 0 0 0 0 1:-942.54779 2:-673.69336 
-0 -0 -0 0 1 0 0 0 0 0 1:-942.54779 2:-673.69336 
-0 -0 -1 0 0 0 0 0 0 0 1:-942.54773 2:-673.6911 
-0 -0 -0 0 0 1 0 0 0 0 1:-942.54779 2:-673.69226 
-0 -0 -0 0.04140471144805068 0.06854455313490843 0.02581032412965186 0 0 0 0 1:-936.53162 2:-658.69531 
-0 -0 -1 0 0 0 0 0 0 0 1:-942.54773 2:-673.69 
-0 -0 -1 0 0 0 0 0 0 0 1:-942.54779 2:-673.69226 
-0 -1 -1 0 0 0 0 0 0 0 1:-942.53937 2:-673.38861 
-0 -0 -1 0 0 0 0 0 0 0 1:-942.54773 2:-673.6911 
-0 -0 -1 0 0 0 0 0 0 0 1:-942.54773 2:-673.6911 
-0 -0 -1 0 0 0 0 0 0 0 1:-942.54779 2:-673.69336 
-0 -1 -1 0 0 0 0 0 0 0 1:-942.54175 2:-673.47437 
-0 -0 -1 0 0 0 0 0 0 0 1:-941.53278 2:-673.15503 
-0 -0 -1 0 0 0 0 0 0 0 1:-942.54779 2:-673.69336 
-0 -0 -0 0 0.8437226060927825 0 0 0 0 0 1:-942.54779 2:-673.69336 
-0 -0 -1 0 0 0 0 0 0 0 1:-942.54779 2:-673.69336 
-0 -0 -1 0 0 0 0 0 0 0 1:-942.54779 2:-673.69336 
-0 -1 -1 0 0 0 0 0 0 0 1:-942.54486 2:-673.58728 
-0 -0 -1 0 0 0 0 0 0 0 1:-942.54773 2:-673.69 
-0 -0 -1 0 0 0 0 0 0 0 1:-942.54779 2:-673.69336 
-0 -0 -1 0 0 0 0 0 0 0 1:-942.54773 2:-673.69116 
-0 -0.1467125765057719 -0.3848797250859107 0 0 0 0 0 0 0 1:-936.5213 2:-647.14441 
-0 -0 -1 0 0 0 0 0 0 0 1:-942.54779 2:-673.69336 
-0 -0 -1 0 0 0 0 0 0 0 1:-942.54773 2:-673.69116 
-0 -0 -1 0 0 0 0 0 0 0 1:-942.54773 2:-673.6911 
-0 -0 -1 0 0 0 0 0 0 0 1:-942.54779 2:-673.69226 
-0 -1 -1 0 0 0 0 0 0 0 1:-942.53857 2:-673.35925 
-0 -0.8561317147676719 -1 0 0 0 0 0 0 0 1:-942.54779 2:-673.69342 
-0 -0 -1 0 0 0 0 0 0 0 1:-942.54779 2:-673.69226 
-0 -0 -1 0 0 0 0 0 0 0 1:-942.54773 2:-673.6911 
-0 -0 -1 0 0 0 0 0 0 0 1:-942.54779 2:-673.69336 
-0 -0 -0 0 1 0 0 0 0 0 1:-942.54779 2:-673.69336 
-0 -0 -1 0 0 0 0 0 0 0 1:-942.54779 2:-673.69336 
-0 -0 -1 0 0 0 0 0 0 0 1:-942.54773 2:-673.69 
-0 -1 -0 0 0 0 0 0 0 0 1:-942.54572 2:-673.61774 
-0 -0 -0 0 1 0 0 0 0 0 1:-941.5332 2:-673.16833 
-0 -0 -1 0 0 0 0 0 0 0 1:-942.54779 2:-673.69336 
-0 -0 -0 0 1 0 0 0 0 0 1:-942.54779 2:-673.69336 
-0 -0 -1 0 0 0 0 0 0 0 1:-942.54779 2:-673.69336 
-0 -0 -1 0 0 0 0 0 0 0 1:-942.54779 2:-673.69336 
-0 -0 -1 0 0 0 0 0 0 0 1:-942.54773 2:-673.6911 
-0 -0 -1 0 0 0 0 0 0 0 1:-942.54773 2:-673.69116 
-0 -0 -0 0 0.1790445977792998 0 0 0 0 0 1:-941.53284 2:-673.15924 
-0 -0 -1 0 0 0 0 0 0 0 1:-942.54779 2:-673.69226 
-0 -1 -1 0 0 0 0 0 0 0 1:-942.53943 2:-673.39087 
-0 -0 -1 0 0 0 0 0 0 0 1:-942.54773 2:-673.69 
-0 -0 -1 0 0 0 0 0 0 0 1:-942.54773 2:-673.6911 
-0 -0 -1 0 0 0 0 0 0 0 1:-942.54779 2:-673.69336 
-0 -1 -0 0 0 0 0 0 0 0 1:-941.53192 2:-673.12006 
-0 -0 -1 0 0 0 0 0 0 0 1:-942.54779 2:-673.69336 
-0 -0 -1 0 0 0 0 0 0 0 1:-942.54773 2:-673.6911 
-0 -0 -1 0 0 0 0 0 0 0 1:-942.5462 2:-673.6358 
-0 -0 -1 0 0 0 0 0 0 0 1:-942.54773 2:-673.69 
-0 -0 -1 0 0 0 0 0 0 0 1:-942.54779 2:-673.69336 
-0 -1 -1 0 0 0 0 0 0 0 1:-942.53845 2:-673.35474 
-0 -0 -1 0 0 0 0 0 0 0 1:-942.54773 2:-673.69 
-0 -0 -0 1 0 0 0 0 0 0 1:-941.53339 2:-673.16229 
-0 -0 -1 0 0 0 0 0 0 0 1:-941.53656 2:-673.31122 
-0 -1 -1 0 0 0 0 0 0 0 1:-942.53485 2:-673.22491 
-0 -0 -0 -0 1 0 0 0 6.572772559942844e-10 0 1:-934.52258 2:-673.05023 
-7.937317997792898e-06 -0 -0 -0 0 0 0 2.002890496983317e-05 0 9.357130479494405e-07 1:-924.52045 2:-673.03375 
-0 -1 -1 -1 1 1 0 0 0 0 1:-942.52258 2:-673.04517 
-0 -0.1531434543805128 -0 -0 0 0 0 0 0 0 1:-934.52094 2:-673.03949 
-0 -0 -0 -0 0 1 0 0 0 0 1:-934.52252 2:-673.04132 
-0 -0.009577555578070947 -0 -0 0 0.001645829923373894 0 0 0 0 1:-942.4776 2:-540.02863 
-0 -0 -0 -0 0 0.2152342468830152 0 0 0 0 1:-924.521 2:-673.03333 
-0 -1 -1 -1 1 1 0 0 0 0 1:-942.5224 2:-673.0437 
-0 -0 -0.033203125 -0 0 0 0 0 0 0 1:-934.52258 2:-673.05316 
-0 -0 -0 -0 0 0 0.02007526649664761 0 0 0 1:-924.52197 2:-673.03345 
-0 -0 -0 -0 0 1 0 0 0 0 1:-934.52258 2:-673.06464 
-0 -0 -0 -0 1 0 0 0 0 0 1:-934.52264 2:-673.06403 
-0 -0 -0 -0 0 1 0 0 0 0 1:-924.52075 2:-673.03351 
-0 -0 -0 -0 0 1 0 0 0 0 1:-924.52075 2:-673.03351 
-0 -0 -0 -0.04140471144805068 0 0 0 0 0 0 1:-924.52124 2:-673.03357 
-0 -0 -0 -0 0 1 0 0 0 0 1:-934.52252 2:-673.04132 
-0 -0 -0 -0 0 1 0 0 0 0 1:-934.52258 2:-673.07446 
-0 -0 -0 -0 1 0 0 0 0 0 1:-934.52112 2:-673.07495 
-0 -0 -0 -0 1 0 0 0 0 0 1:-934.52258 2:-673.05023 
-0 -2.603332899375877e-08 -0 -0.400516014829258 1 0 0 0 0 0 1:-934.52106 2:-673.05389 
-0 -0 -0 -0 1 0 0 0 0 0 1:-934.5213 2:-673.0639 
-0 -0 -0 -0 1 0 0 0 0 0 1:-934.52252 2:-673.03644 
-0 -0 -0 -0 0 0.2773693506832726 0 0 0 0 1:-934.52264 2:-673.06696 
-0 -0 -0 -0 1 0 0 0 0 0 1:-934.52264 2:-673.06201 
-0 -0 -0 -0 1 0 0 0 0 0 1:-934.52264 2:-673.06891 
-0 -0 -0 -0 1 0 0 0 0 0 1:-934.5213 2:-673.08038 
-0 -1 -1 -1 1 1 0 0 0 0 1:-942.52081 2:-673.03107 
-0 -0 -0 -0 1 0 0 0 0 0 1:-934.52264 2:-673.07483 
-0 -1 -1 -1 1 0 0 0 0 0 1:-942.52252 2:-673.0448 
-0 -0 -0 -0 1 0 0 0 0 0 1:-934.52258 2:-673.0755 
-0 -1 -1 -1 -1 1 0.9997911298415834 0 0 0 1:-942.53186 2:-673.11768 
-0 -0.2738393377051361 -0 -0 -1 1 0 0 0 0 1:-934.52094 2:-673.07642 
-0 -0 -0 -0 -1 0 0 0 0 0 1:-934.5213 2:-673.07935 
-0 -1 -0 -0.1055937237806372 -1 1 0 0 0 0 1:-934.52087 2:-673.04883 
-0 -1 -1 -1 -0 1 0.293418266647523 0 0 0 1:-942.53186 2:-673.11768 
-0 -1 -1 -1 -1 1 1 0 0 0 1:-942.53186 2:-673.11768 
-0 -0 -0 -0 -0.02255639097744355 0.04510728641442041 0 0 0 0 1:-934.52264 2:-673.03906 
-0 -0 -0 -0 -1 0 0 0 0 0 1:-934.52087 2:-673.06287 
-0 -0 -0 -0 -1 0 0 0 0 0 1:-934.52191 2:-673.06311 
-2.150252619078682e-05 -3.26742975941057e-05 -0 -0 -0.07345047235879397 0.06084907385031519 0.7067906035108915 0.0001412147464188007 6.62180637926252e-10 1.249833069797577e-06 1:-727.5285 2:-673.14954 
-0 -1 -0 -0 -1 1 0 0 0 0 1:-934.52264 2:-673.05847 
-0 -1 -1 -1 -0 1 0 0 0 0 1:-942.53186 2:-673.11768 
-0 -1 -1 -1 -1 1 1 0 0 0 1:-942.52704 2:-673.08002 
-0 -0 -0 -0 -1 0 0 0 0 0 1:-934.52264 2:-673.07526 
-0 -0 -0 -0 -1 0 0 0 0 0 1:-934.5213 2:-673.07837 
-0 -1 -1 -1 -1 1 0 0 0 0 1:-942.53186 2:-673.11768 
-0 -1 -0 -0 -1 1 1 0 0 0 1:-934.52234 2:-673.06226 
-0 -1 -1 -1 -0 1 0 0 0 0 1:-942.53186 2:-673.11768 
-0 -1 -1 -1 -1 1 0 0 0 0 1:-942.53186 2:-673.11768 
-0 -1 -1 -1 -0 1 0 0 0 0 1:-942.53186 2:-673.11768 
-0 -1 -1 -1 -0.9039931366637622 1 0 0 0 0 1:-942.53186 2:-673.11768 
-0 -1 -0.05252918290836802 -1 -1 1 1 0 0 0 1:-934.52142 2:-673.04962 
-0 -0 -1 -0 -0 -0 0 0 0 0 1:-942.53186 2:-673.11761 
-0 -0 -1 -0 -0 -0 0 0 0 0 1:-942.53186 2:-673.11768 
-0 -0 -1 -0 -0 -0 0 0 0 0 1:-942.53186 2:-673.11761 
-0 -0 -1 -0 -0 -0 0 0 0 0 1:-942.53186 2:-673.11761 
-0 -0 -1 -0 -0 -0 0 0 0 0 1:-942.53192 2:-673.11884 
-0 -0 -1 -0 -0 -1 0 0 0 0 1:-942.526 2:-673.07153 
-0 -0 -1 -0 -0 -0 0 0 0 0 1:-942.53192 2:-673.11884 
-0 -0 -1 -0 -0 -0 0 0 0 0 1:-942.53186 2:-673.11761 
-0 -0 -1 -0 -0 -0 0 0 0 0 1:-942.53192 2:-673.11884 
-0 -1 -1 -0 -0 -1 0 0 0 0 1:-942.53668 2:-673.32526 
-0 -0 -1 -0 -0 -0 0 0 0 0 1:-942.53186 2:-673.11761 
-0 -0 -1 -0 -0 -0 0 0 0 0 1:-942.53192 2:-673.11884 
-0 -0 -1 -0 -0 -0 0 0 0 0 1:-942.53186 2:-673.11768 
-0 -0 -1 -0 -0 -0 0 0 0 0 1:-942.53577 2:-673.25769 
-0 -0 -1 -0 -0 -0 0 0 0 0 1:-942.53186 2:-673.11768 
-0 -0 -1 -0 -0 -0 0 0 0 0 1:-942.53192 2:-673.11884 
-0 -0 -1 -0 -0 -0 0 0 0 0 1:-942.53186 2:-673.11761 
-0 -0 -1 -0 -0 -0 0 0 0 0 1:-942.53186 2:-673.11761 
-0 -0 -1 -0 -0 -0 0 0 0 0 1:-942.53186 2:-673.11761 
-0 -0 -0 -0 -0 -0.04383082055400789 1 0 0 0 1:-903.6427 2:-672.53894 
-0 -0 -1 -0 -0 -0 0 0 0 0 1:-942.53192 2:-673.11884 
-0 -0 -1 -0 -0 -0 0 0 0 0 1:-942.53186 2:-673.11768 
-0 -0 -1 -0 -0 -0 0 0 0 0 1:-942.53186 2:-673.11768 
-0 -0 -1 -0 -0 -0 0 0 0 0 1:-942.53186 2:-673.11768 
-0 -0 -1 -0 -0 -0 0 0 0 0 1:-942.53192 2:-673.11884 
-0 -0 -1 -0 -0 -0 0 0 0 0 1:-942.54071 2:-673.43933 
-0 -1 -1 -0 -0 -1 0 0 0 0 1:-942.52753 2:-673.08356 
-0 -0 -1 -0 -1 -0.2227388413489505 0 0 0 0 1:-942.53076 2:-673.10889 
-0 -0 -1 -0 -0 -0 0 0 0 0 1:-942.53192 2:-673.11884 
-0 -0 -1 -0 -0 -1 1.472746873528226 0 0 0 1:-942.54089 2:-673.44281 
-0 -0 -1 -0 -0 -0 0 0 0 0 1:-942.53186 2:-673.11761 
-0 -0 -1 -0 -0 -0 0 0 0 0 1:-942.53186 2:-673.11761 
-0 -0 -1 -0 -0 -0 0 0 0 0 1:-942.53186 2:-673.11768 
-0 -0 -1 -0 -0 -0 0 0 0 0 1:-942.53186 2:-673.11761 
-0 -0 -1 -0 -0 -0 0 0 0 0 1:-942.53186 2:-673.11768 
-0 -0 -1 -0 -0 -1 0 0 0 0 1:-942.53247 2:-673.13916 
-0 -0 -1 -0 -0 -0 0 0 0 0 1:-942.53186 2:-673.11761 
-0 -0 -1 -0 -0 -0 0 0 0 0 1:-942.53186 2:-673.11761 
-0 -1 -1 -0 -0 -0 0 0 0 0 1:-942.53186 2:-673.11761 
-0 -1 -1 -0 -0 -0 0 0 0 0 1:-942.53192 2:-673.11884 
-0 -0 -1 -0 -0 -0 0 0 0 0 1:-942.53186 2:-673.11768 
-0 -1 -1 -0 -0 -1 0 0 0 0 1:-942.52423 2:-673.11755 
-0 -0 -1 -0 -0 -0 0 0 0 0 1:-942.53186 2:-673.11761 
-0 -0 -1 -0 -0 -0 0 0 0 0 1:-942.53186 2:-673.11768 
-0 -0 -1 -0 -0 -0 0 0 0 0 1:-942.53192 2:-673.11884 
-0 -0 -1 -0 -0 -0 0 0 0 0 1:-942.53186 2:-673.11768 
-8.700730752624086e-06 -9.991071978080387e-09 -0 -0 -0.2476550715150247 -0 1 2.322206095791001e-05 6.580462461366507e-10 9.652316791440027e-07 1:-901.99139 2:-672.51361 
-0 -0 -1 -0 -0 -0 0 0 0 0 1:-942.53436 2:-673.20825 
-0 -0 -1 -0 -0 -0 0 0 0 0 1:-942.53186 2:-673.11761 
-0 -0 -1 -0 -0 -0 0 0 0 0 1:-942.53192 2:-673.11884 
-0 -0 -0 -0 -1 -0.8016673668709017 1 0 0 0 1:-912.40961 2:-672.6734 
-0 -0 -0 -0.02581032412965186 -1 -1 0 0 0 0 1:-937.81158 2:-673.06299 
-0 -0 -1 -0 -0 -0 0 0 0 0 1:-942.53192 2:-673.11884 
-0 -0 -1 -0 -0 -0 0 0 0 0 1:-942.53186 2:-673.11768 
-0 -0 -1 -0 -0 -0 0 0 0 0 1:-942.53186 2:-673.11768 
-0 -1 -1 -0 -0 -0 0 0 0 0 1:-942.53186 2:-673.11768 
-0 -0 -1 -0 -0 -0 0 0 0 0 1:-942.53192 2:-673.11884 
-0 -0 -1 -0 -0 -0 0 0 0 0 1:-942.53186 2:-673.11768 
-0 -0 -1 -0 -0 -0 0 0 0 0 1:-942.53186 2:-673.11761 
-0 -0 -1 -0 -0 -0 0 0 0 0 1:-942.53186 2:-673.11768 
-0 -0 -1 -0 -0 -0 0 0 0 0 1:-942.53082 2:-673.10925 
-0 -1 -1 -0 -0 -0 0 0 0 0 1:-942.53186 2:-673.11768 
-0 -1.526340222946508e-06 -1 -0 -1 -1 0 0 0 0 1:-942.51947 2:-673.11749 
-0 -0 -1 -0 -0 -0 0 0 0 0 1:-942.53186 2:-673.11768 
-0 -1 -1 -0 -0 -0 0 0 0 0 1:-942.53192 2:-673.11884 
-0 -0 -1 -0 -0.4730896078026161 -1 0 0 0 0 1:-942.508 2:-673.11731 
-0 -0 -1 -0 -0 -0 0 0 0 0 1:-942.53192 2:-673.11884 
-0 -0 -1 -0 -0 -0 0 0 0 0 1:-942.53186 2:-673.11768 
-0 -0 -0 -0 -0.1841366333392817 -0.01701825329630729 1 0 0 0 1:-903.08331 2:-672.53033 
-0 -0 -1 -0 -0 -1 0 0 0 0 1:-942.53589 2:-673.26318 
-0 -0 -1 -0 -0 -0 0 0 0 0 1:-942.53186 2:-673.11768 
-0 -1 -1 -0 -0.02743552560204341 -0 0 0 0 0 1:-942.53186 2:-673.11761 
-0 -0 -1 -0 -0 -0 0 0 0 0 1:-942.53186 2:-673.11761 
-0 -0 -1 -0 -0 -0 0 0 0 0 1:-942.53186 2:-673.11768 
-0 -0 -1 -0 -0 -0 0 0 0 0 1:-942.53186 2:-673.11768 
-0 -0 -1 -0 -0 -0 0 0 0 0 1:-942.53186 2:-673.11768 
-0 -0 -1 -0 -0 -0 0 0 0 0 1:-942.53186 2:-673.11768 
-0 -0 -1 -0 -0 -0 0 0 0 0 1:-942.53186 2:-673.11761 
-0 -0 -1 -1 -0.5619325892306963 -0 -0.4817353566921624 0 0 0 1:-942.54156 2:-673.46765 
-0 -1 -1 -0 -0 -0 0 0 0 0 1:-942.53192 2:-673.11884 
-0 -0 -1 -0 -0 -0 0 0 0 0 1:-942.53186 2:-673.11768 
-0 -0 -1 -0 -0 -0 0 0 0 0 1:-942.53186 2:-673.11761 
-0 -0 -1 -0 -0 -0 0 0 0 0 1:-942.53186 2:-673.11768 
-0 -0 -1 -0 -0 -0 0 0 0 0 1:-942.53186 2:-673.11768 
-0 -1 -1 -0 -0 -0 0 0 0 0 1:-942.53192 2:-673.11884 
-0 -0 -1 -0 -0 -1 0 0 0 0 1:-942.53046 2:-673.20557 
-0 -0 -1 -0 -0 -0 0 0 0 0 1:-942.53192 2:-673.11884 
-0 -0 -1 -0 -0 -0 0 0 0 0 1:-942.53192 2:-673.11884 
-0 -0 -1 -0 -0 -0 0 0 0 0 1:-942.53192 2:-673.11884 
-0 -0 -1 -0 -0 -0 0 0 0 0 1:-942.53186 2:-673.11761 
-0 -0 -1 -0 -0 -0 0 0 0 0 1:-942.53192 2:-673.11884 
-0 -0 -1 -0 -0 -0 0 0 0 0 1:-942.53186 2:-673.11768 
-0 -0 -1 -0 -0 -0 0 0 0 0 1:-942.53186 2:-673.11768 
-0 -0 -1 -0 -0 -0 0 0 0 0 1:-942.53186 2:-673.11761 
-0 -1 -1 -0 -0 -0 0 0 0 0 1:-942.53192 2:-673.11884 
-0 -0 -0.4058823529411765 -0 -1 -1 0 0 0 0 1:-937.90717 2:-673.06445 
-0 -0 -1 -0 -0 -0 0 0 0 0 1:-942.53186 2:-673.11768 
-0 -0 -0 -0 -1 -1 0.8793350000089577 0 0 0 1:-925.1579 2:-672.8689 
-0 -0 -1 -0 -1 -0.02070107819456812 0 0 0 0 1:-942.52997 2:-673.18634 
-0 -0 -1 -0 -0 -0 0 0 0 0 1:-942.53186 2:-673.11768 
-0 -0 -1 -0 -0 -0 0 0 0 0 1:-942.53186 2:-673.11761 
-0 -0 -1 -0 -0 -0 0 0 0 0 1:-942.53186 2:-673.11768 
-0 -1 -1 -0 -0 -0 0 0 0 0 1:-942.53192 2:-673.11884 
-0 -1 -1 -0 -1 -1 0 0 0 0 1:-942.508 2:-673.11731 
-0 -1 -0 -0 -0 -1 -1 2.135739599949276e-05 6.577476229316626e-10 9.48626986943691e-07 1:-914.53516 2:-673.24823 
-0 -1 -0 -0 -0.02007526649664761 -1 -1 0 0 0 1:-914.53448 2:-673.25513 
-0 -1 -0 -0 -0 -1 -1 0 0 0 1:-914.53381 2:-673.22137 
-8.262865486263191e-06 -0.2290101737545979 -0 -0.004030226700252761 -0 -1 -1 0 0 0 1:-914.53259 2:-673.13452 
-0 -1 -0 -0 -0 -1 -1 0 0 0 1:-914.53296 2:-673.17822 
-0 -0.986318700260963 -0.002551020408163265 -0 -0 -1 -0.8703465168450238 0 0 0 1:-914.5351 2:-673.28461 
-0 -1.151734086145957e-06 -0 -0 -0 -0 -0 -0 5.705371857509967e-08 1.133257023716596e-06 1:280.24313 2:1777.5093 
-1 -0 -0 -0 -0 -0 -0 -0 0 0 1:-608.52087 2:-673.13336 
-0.2274943755005374 -0 -0 -0 -0 -0 -0 -0 0 0 1:-608.52069 2:-673.13354 
-0.1050428306382449 -0.0148366040778512 -0 -0 -0 -0 -0 -0 0 0.04418554611204932 1:6102.4873 2:-675.25281 
-0 -0 -0 -0 -1.88187472359965e-05 -0 -0 -0 0 0 1:-608.52075 2:-673.13678 
-1 -0.4308098059069468 -1.792664863544591e-05 -1.85856541275475e-05 -1.210157733836671e-06 -0.0001088269787117005 -2.322206095791001e-05 -2.135739599949276e-05 0 0.4267027033651307 1:-608.5213 2:-673.13794 
-6.043587245365493e-06 -0 -0 -0 -0 -0 -0 -0 0 4.739010985050731e-05 1:5130483.5 2:-2291.7571 
-0 -0 -0 -0 -0 -0 -0 -0 5.98650385225648e-10 0 1:5134737.5 2:-2293.0964 
-1 -0 -0 -0 -0 -3.238776770710021e-05 -0 -0 0 0 1:-608.52063 2:-673.13361 
-0 -0 -0 -0 -0 -0 -0 -0 -0 6.933657522315062e-10 1:53600.062 2:7623.666 
-0 -6.08024905765233e-12 -0 -0 -0 -0 -0 -0 -0 0 1:53600.062 2:7623.6812 
-0 -2.96351002503386e-05 -0 -0 -0 -0 -0 -0 -0 0 1:53600.07 2:7623.7275 
-0 -7.485062837393187e-06 -0 -0 -0 -0 -0 -0 -0 0 1:53600.07 2:7623.7393 
-0 -0 -0 -0 -0 -0 -0 -6.577476229316626e-10 -0 0 1:53600.059 2:7623.6616 
-0 -0 -0 -0 -0 -0 -0 -0 -5.516755528610574e-08 0 1:53600.062 2:7623.666 
-0 -9.944504786078108e-07 -0 -0 -0 -0 -0 -0 -0 0 1:53600.059 2:7623.6641 
-0 -0 -0 -0 -0 -0 -0 -0 -1.782318393933738e-09 0 1:53600.062 2:7623.6699 
-0 -0 -0 -0 -6.572772559942844e-10 -5.092279917095547e-12 -9.578881274942969e-13 -0 -0 0 1:53600.059 2:7623.6553 
-6.820711285162567e-10 -1.178325566565327e-09 -6.570877500844436e-10 -6.570859263170546e-10 -0 -6.570883580091565e-10 -6.570883580091565e-10 -0 -7.024952802858884e-10 0 1:53600.059 2:7623.6616 
-9.964042262485256e-06 -0.09595031158030949 -9.130719025861848e-07 -9.205053686560585e-07 -9.357130479494405e-07 -1.249833069797577e-06 -9.652316791440027e-07 -9.48626986943691e-07 -0 -0 1:537.46692 2:-673.60559 
-0 -1.755134794773755e-06 -0 -0 -0 -0 -0 -0 -0.4709367728440459 -6.933657522315062e-10 1:537.47882 2:-673.49506 
